tree
version=v4
num_class=1
num_tree_per_iteration=1
label_index=0
max_feature_idx=3
objective=binary sigmoid:1
feature_names=Column_0 Column_1 Column_2 Column_3
feature_infos=[15.15:141.56999999999999] [5850800:591052200] [15.15:141.56999999999999] [6258800:591052200]
tree_sizes=3362 3364

Tree=0
num_leaves=31
num_cat=0
split_feature=3 2 0 2 0 1 1 3 1 2 3 3 1 2 3 0 2 1 1 2 1 1 3 1 0 1 3 2 1 3
split_gain=12.4944 8.36561 8.21833 9.22066 7.68771 5.69253 6.87883 5.11069 5.21863 7.0271 4.67987 8.48387 4.71826 4.21121 6.9482 4.15504 4.25372 3.80109 6.98102 5.00068 3.77162 4.84799 3.74639 3.63465 3.61932 5.49367 7.59279 5.84666 5.00365 4.70293
threshold=60170350.000000007 26.655000000000005 137.67000000000004 76.770000000000024 24.625000000000004 45449450.000000007 52321700.000000007 58508450.000000007 17159050.500000004 70.515000000000015 25899099.500000004 26722537.000000004 23726671.000000004 25.985000000000003 72877750.000000015 68.990000000000023 40.335000000000008 27339610.000000004 25495146.500000004 119.60000000000001 42649400.000000007 51234400.000000007 66382500.000000007 23072285.000000004 55.355000000000011 43766264.500000007 50888350.000000007 25.795000000000005 59527450.000000007 49391500.000000007
decision_type=2 2 2 2 2 2 2 2 2 2 2 2 2 2 2 2 2 2 2 2 2 2 2 2 2 2 2 2 2 2
left_child=2 5 3 4 -1 -2 22 8 -6 10 12 -12 -10 -8 -15 16 -3 18 -5 20 -19 -22 -7 -11 25 26 -13 28 -27 -26
right_child=1 15 -4 17 7 6 13 -9 9 23 11 24 -14 14 -16 -17 -18 19 -20 -21 21 -23 -24 -25 29 27 -28 -29 -30 -31
leaf_value=0.037368231227441102 0.057538548562931648 -0.0070725496629184606 -0.038618745040945944 0.028691360481768367 0.036383943970078575 -0.058619462110552474 0.0090437824787304583 0.038920266786876503 0.0084843929853013408 0.0051328235488183639 -0.038618745040945944 0.015147503382669016 0.032889195019744098 0.0063828683656687712 0.066940595048644122 -0.044174499782503318 0.022097717491788189 0.042211220559907545 -0.013617848703937771 0.084112927886185074 -0.024981892493486944 0.039384051530519555 -0.0037690107529951555 -0.039838300959824387 -0.0047465629069348703 -0.034381304983825897 0.048093224532981135 0.010342891470460851 0.0064648385175933862 0.034913303009078092
leaf_weight=31.748860746622086 6.499766767024993 116.49581974744797 6.9997488260269156 51.998134136199951 19.999282360076904 4.9998205900192252 85.496932089328766 17.24938103556633 34.49876207113266 7.9997129440307644 8.9996770620346052 152.74451902508736 46.498331487178802 9.9996411800384539 8.9996770620346052 6.7497577965259543 13.999497652053831 33.248806923627853 11.999569416046141 5.4998026490211478 5.4998026490211469 6.2497757375240326 8.2497039735317212 10.249632209539412 61.997775316238403 14.749470740556719 19.749291330575943 168.24396285414696 15.249452799558638 8.4996950030326825
leaf_count=127 26 466 28 208 80 20 342 69 138 32 36 611 186 40 36 27 56 133 48 22 22 25 33 41 248 59 79 673 61 34
internal_value=0.0119822 0.00258732 0.0153021 0.015817 0.0134041 0.0119867 0.00947215 0.0121074 0.0112952 0.0103821 0.0114301 0.00943961 0.0224946 0.0137755 0.0350681 -0.00592176 -0.00394317 0.0288509 0.0207584 0.0391068 0.0336061 0.00925531 -0.0244673 -0.0201249 0.0104198 0.0123945 0.0189195 0.00671705 -0.0136178 3.51231e-05
internal_weight=0 261.491 739.973 732.974 618.478 124.246 117.746 586.729 569.48 549.48 531.231 450.234 80.9971 104.496 18.9993 137.245 130.495 114.496 63.9977 50.4982 44.9984 11.7496 13.2495 18.2493 441.234 370.737 172.494 198.243 29.9989 70.4975
internal_count=4006 1046 2960 2932 2474 497 471 2347 2278 2198 2125 1801 324 418 76 549 522 458 256 202 180 47 53 73 1765 1483 690 793 120 282
is_linear=0
shrinkage=1


Tree=1
num_leaves=31
num_cat=0
split_feature=3 2 0 2 0 1 1 1 1 2 0 0 0 1 1 0 3 3 1 1 2 2 0 2 2 3 0 0 0 0
split_gain=11.2772 7.54962 7.4194 8.32501 6.97495 5.14154 6.21009 4.34766 7.73011 8.85768 7.27485 7.20038 8.25583 9.29613 6.28512 7.74786 7.25951 6.22738 5.01713 8.23398 7.0247 8.3015 5.18511 4.96884 5.16488 5.2696 4.88562 4.73345 4.33769 4.09199
threshold=60170350.000000007 26.655000000000005 137.67000000000004 76.770000000000024 22.975000000000005 45449450.000000007 52321700.000000007 63019350.000000007 50918050.000000007 45.962500000000006 45.555000000000007 48.760000000000012 51.990000000000002 17159050.500000004 52036550.000000007 30.717500000000005 39179450.000000007 39578400.000000007 48644100.000000007 42649400.000000007 25.985000000000003 26.865000000000006 25.625000000000004 70.515000000000015 64.52500000000002 35567678.000000007 47.585000000000008 26.395000000000003 44.515000000000008 31.063500000000001
decision_type=2 2 2 2 2 2 2 2 2 2 2 2 2 2 2 2 2 2 2 2 2 2 2 2 2 2 2 2 2 2
left_child=2 5 3 4 -1 -2 -7 8 9 10 18 26 -13 -14 -10 16 -16 -17 19 22 -21 -22 -6 24 -15 -26 -11 -24 -19 -9
right_child=1 -3 -4 -5 7 6 -8 29 14 11 -12 12 13 23 15 17 -18 28 -20 20 21 -23 27 -25 25 -27 -28 -29 -30 -31
leaf_value=0.040368117477830881 0.043313540491205824 -0.017008916506455325 -0.0480872280910302 0.016030436167682831 0.04995319096298613 -0.034637308230518561 0.0017038762066610828 0.018681297399917408 -0.05448238241695727 -0.016063905387772918 0.064468998901927227 0.028418808087265088 0.031524769107102169 -0.011816320505709873 0.028005294579572633 -0.02287924002348864 -0.026281861528141871 0.062239082463608458 0.02926523133892512 -0.053126726561708762 0.053997225886929991 -0.011285892363369394 -0.034313985999922934 -0.033301921326563746 0.019181165007765028 -0.022053672703536524 -0.061969600333552324 0.011206093329859054 0.0098150533748528525 -0.010034786408906919
leaf_weight=11.246073916554449 6.4946232438087454 137.24354091286659 6.9973906278610221 114.4609402269125 8.2475533336400968 13.245677769184111 104.48807516694069 55.244728863239288 8.7491995543241483 22.997328400611881 5.7491736263036719 20.497587293386459 15.744788870215414 98.741345211863518 6.9993230104446402 7.7497342675924328 51.24416895210743 6.7494675070047405 23.497312515974045 8.4974416345357877 5.499829873442649 42.497008293867111 5.9989360570907584 18.245885729789734 31.746885508298874 10.249419152736662 7.7489251047372809 118.98331166803837 9.4991556107997877 15.998388439416884
leaf_count=45 26 549 28 458 33 53 418 221 35 92 23 82 63 395 28 31 205 27 94 34 22 170 24 73 127 41 31 476 38 64
internal_value=0 -0.0089257 0.0031544 0.00364364 0.00135103 4.38908e-06 -0.0023847 0.000628354 -0.000914256 0.00180127 0.00896786 -0.00514326 -0.00160127 -0.00512296 -0.0141931 -0.00990696 -0.019758 0.0140013 0.00747136 0.00477219 -0.0112238 -0.00380527 0.0115551 -0.00875234 -0.00556961 0.00911759 -0.0276334 0.00902121 0.0315913 0.0122328
internal_weight=0 261.472 739.881 732.884 618.423 124.228 117.734 607.177 535.934 444.943 218.971 225.972 195.226 174.728 90.991 82.2418 58.2435 23.9984 213.221 189.724 56.4943 47.9968 133.23 158.984 140.738 41.9963 30.7463 124.982 16.2486 71.2431
internal_count=4006 1046 2960 2932 2474 497 471 2429 2144 1780 876 904 781 699 364 329 233 96 853 759 226 192 533 636 563 168 123 500 65 285
is_linear=0
shrinkage=0.05


end of trees

feature_importances:
Column_1=19
Column_0=15
Column_2=14
Column_3=12

parameters:
[boosting: gbdt]
[objective: binary]
[metric: binary_logloss]
[tree_learner: serial]
[device_type: cpu]
[data_sample_strategy: bagging]
[data: ]
[valid: ]
[num_iterations: 10000]
[learning_rate: 0.05]
[num_leaves: 31]
[num_threads: 0]
[seed: 1237]
[deterministic: 0]
[force_col_wise: 0]
[force_row_wise: 0]
[histogram_pool_size: -1]
[max_depth: -1]
[min_data_in_leaf: 20]
[min_sum_hessian_in_leaf: 0.001]
[bagging_fraction: 1]
[pos_bagging_fraction: 1]
[neg_bagging_fraction: 1]
[bagging_freq: 0]
[bagging_seed: 32458]
[feature_fraction: 0.9]
[feature_fraction_bynode: 1]
[feature_fraction_seed: 15412]
[extra_trees: 0]
[extra_seed: 19498]
[early_stopping_round: 0]
[early_stopping_min_delta: 0]
[first_metric_only: 0]
[max_delta_step: 0]
[lambda_l1: 0]
[lambda_l2: 0]
[linear_lambda: 0]
[min_gain_to_split: 0]
[drop_rate: 0.1]
[max_drop: 50]
[skip_drop: 0.5]
[xgboost_dart_mode: 0]
[uniform_drop: 0]
[drop_seed: 818]
[top_rate: 0.2]
[other_rate: 0.1]
[min_data_per_group: 100]
[max_cat_threshold: 32]
[cat_l2: 10]
[cat_smooth: 10]
[max_cat_to_onehot: 4]
[top_k: 20]
[monotone_constraints: ]
[monotone_constraints_method: basic]
[monotone_penalty: 0]
[feature_contri: ]
[forcedsplits_filename: ]
[refit_decay_rate: 0.9]
[cegb_tradeoff: 1]
[cegb_penalty_split: 0]
[cegb_penalty_feature_lazy: ]
[cegb_penalty_feature_coupled: ]
[path_smooth: 0]
[interaction_constraints: ]
[verbosity: -1]
[saved_feature_importance_type: 0]
[use_quantized_grad: 0]
[num_grad_quant_bins: 4]
[quant_train_renew_leaf: 0]
[stochastic_rounding: 1]
[linear_tree: 0]
[max_bin: 255]
[max_bin_by_feature: ]
[min_data_in_bin: 3]
[bin_construct_sample_cnt: 200000]
[data_random_seed: 4078]
[is_enable_sparse: 1]
[enable_bundle: 1]
[use_missing: 1]
[zero_as_missing: 0]
[feature_pre_filter: 1]
[pre_partition: 0]
[two_round: 0]
[header: 0]
[label_column: ]
[weight_column: ]
[group_column: ]
[ignore_column: ]
[categorical_feature: ]
[forcedbins_filename: ]
[precise_float_parser: 0]
[parser_config_file: ]
[objective_seed: 21231]
[num_class: 1]
[is_unbalance: 0]
[scale_pos_weight: 1]
[sigmoid: 1]
[boost_from_average: 1]
[reg_sqrt: 0]
[alpha: 0.9]
[fair_c: 1]
[poisson_max_delta_step: 0.7]
[tweedie_variance_power: 1.5]
[lambdarank_truncation_level: 30]
[lambdarank_norm: 1]
[label_gain: ]
[lambdarank_position_bias_regularization: 0]
[eval_at: ]
[multi_error_top_k: 1]
[auc_mu_weights: ]
[num_machines: 1]
[local_listen_port: 12400]
[time_out: 120]
[machine_list_filename: ]
[machines: ]
[gpu_platform_id: -1]
[gpu_device_id: -1]
[gpu_use_dp: 0]
[num_gpu: 1]

end of parameters

pandas_categorical:null
