tree
version=v4
num_class=1
num_tree_per_iteration=1
label_index=0
max_feature_idx=10
objective=binary sigmoid:1
feature_names=Column_0 Column_1 Column_2 Column_3 Column_4 Column_5 Column_6 Column_7 Column_8 Column_9 Column_10
feature_infos=[12.99:700.25999999999999] [13.19:703.99000000000001] [12.720000000000001:699.57000000000005] [13.119999999999999:702.10000000000002] [702500:189560600] [0:3.29] [13.294:698.75420000000008] [13.354999999999999:690.46960000000001] [13.821000000000002:680.78600000000006] [13.119999999999999:702.10000000000002] [904100:189560600]
tree_sizes=9809

Tree=0
num_leaves=95
num_cat=0
split_feature=4 10 1 2 4 8 10 4 10 4 10 8 2 7 1 6 4 4 4 10 4 8 10 4 4 4 10 7 10 4 2 0 8 4 0 4 2 10 1 2 4 0 4 9 1 7 9 2 0 7 7 8 4 2 0 6 10 6 10 7 0 8 9 9 8 7 7 10 9 9 2 2 8 9 1 10 10 1 0 8 4 10 10 7 2 1 10 8 6 1 4 0 7 4
split_gain=9.32668 16.3281 8.64458 7.52818 6.74745 7.03116 6.72021 13.2099 10.0571 6.70003 5.98783 6.33041 5.30241 5.14627 10.18 6.887 4.85024 6.81371 4.82814 4.73079 4.8262 4.6261 8.17737 4.51912 11.4587 5.45138 6.93549 4.59904 4.37885 5.38168 6.32162 6.19354 5.14123 4.93981 6.59491 4.37128 5.54398 5.04046 5.865 4.42238 4.30388 4.10234 4.07756 3.96668 4.65679 3.8135 12.494 5.61895 5.28986 5.21627 4.28232 6.90855 8.56616 5.27482 4.10654 6.92294 3.8201 4.15863 6.45914 6.44278 4.8667 3.75113 6.06376 4.85042 9.94899 7.19735 5.40413 4.19395 3.67984 9.32007 6.36415 5.45209 9.19676 4.83688 10.6144 7.71524 5.29776 4.0405 9.00236 4.02887 3.74802 6.67648 6.25814 5.95445 8.24383 4.29133 3.99484 3.84595 3.72162 10.1732 4.96464 5.0907 3.67465 3.83012
threshold=8358550.0000000009 25606145.500000004 543.20000000000016 14.125000000000002 15976750.000000002 549.63807500000007 9453700.0000000019 15595800.000000002 15339400.000000002 21260141.500000004 10427300.000000002 17.764750000000003 18.545000000000005 36.876500000000007 20.430000000000003 39.324930000000009 46899937.500000007 38312997.500000007 33715681.000000007 24666350.000000004 30110395.000000004 14.576000000000002 5425950.0000000009 19313519.500000004 22492766.500000004 23286600.000000004 31033877.500000004 197.42100000000002 7331700.0000000009 5574650.0000000009 123.81500000000001 30.355000000000004 21.919000000000004 2484950.0000000005 20.965000000000003 21517800.000000004 163.51500000000001 13949190.000000002 345.29000000000002 46.340000000000011 12896650.000000002 93.882500000000007 3764700.0000000005 21.085000000000004 20.695000000000004 170.727 163.97500000000002 166.93000000000004 173.40000000000003 163.72050000000004 90.119500000000016 100.13145000000002 28580420.500000004 65.235000000000014 63.905000000000008 57.988000000000007 67285450.000000015 94.547000000000011 41620664.000000007 96.196400000000025 93.882500000000007 20.587250000000001 22.200000000000006 23.030000000000005 23.670000000000002 22.514500000000002 26.724500000000003 3872500.0000000005 99.950000000000003 93.555000000000021 99.355000000000018 104.62500000000001 111.62752500000001 147.10000000000002 144.77000000000001 42439423.500000007 28107550.000000004 111.52500000000002 112.59000000000002 109.79025000000001 45815401.500000007 71024392.000000015 53535688.000000007 129.01475000000002 128.18500000000003 135.03500000000003 34514684.500000007 114.38300000000002 132.73200000000006 129.14500000000001 66626592.000000007 120.045 154.28750000000005 33715681.000000007
decision_type=2 2 2 2 2 2 2 2 2 2 2 2 2 2 2 2 2 2 2 2 2 2 2 2 2 2 2 2 2 2 2 2 2 2 2 2 2 2 2 2 2 2 2 2 2 2 2 2 2 2 2 2 2 2 2 2 2 2 2 2 2 2 2 2 2 2 2 2 2 2 2 2 2 2 2 2 2 2 2 2 2 2 2 2 2 2 2 2 2 2 2 2 2 2
left_child=3 2 6 21 5 -4 7 43 13 -6 11 -5 -13 14 -8 -15 17 19 35 -10 -21 22 -1 27 -25 26 -26 -3 29 30 33 -31 -30 34 -14 36 39 -38 -39 -17 -41 -18 -35 44 -2 46 49 -48 -49 50 53 52 -52 54 55 -27 57 60 -59 -60 -54 67 -63 65 -65 -64 -66 -44 69 -53 -70 -72 79 74 77 76 -75 -74 -79 -73 82 88 83 84 87 -85 -87 -80 89 90 91 -82 93 -78
right_child=1 23 4 10 9 -7 8 -9 16 -11 -12 12 28 15 -16 18 41 -19 -20 20 -22 -23 -24 24 25 45 -28 -29 32 31 -32 -33 -34 42 -36 -37 37 38 -40 40 -42 -43 61 -45 -46 -47 47 48 -50 -51 51 68 56 -55 -56 -57 -58 58 59 -61 -62 62 63 64 66 -67 -68 -69 70 -71 71 72 73 75 -76 -77 92 78 80 -81 81 -83 -84 85 -86 86 -88 -89 -90 -91 -92 -93 -94 -95
leaf_value=0.018715989083542203 0.11169488356699227 0.07122377002072508 0.02586821173611533 0.044750079538908236 0.011563766430969159 0.090761548974095441 0.11429569180429158 0.028729100797144531 0.085470067174224312 0.071815823928402966 0.023722544940343378 0.094187950506962631 0.16891266478757694 0.15070700712648177 -0.00053999498107759614 0.051111350509902662 0.08880777107875841 0.14279150379557087 0.0050617458377208852 0.12402630193349756 0.048755324224349153 0.14535240193204202 0.13553562574223585 0.027060248844877476 0.073549696086602501 0.085470067174224298 0.16891266478757688 0.12440994606045552 0.031232378725545143 0.023007322675086067 -0.011323346057264719 0.064666570235004883 0.092951127649904194 0.049837822787981836 0.076483941277401712 0.1059731054449338 0.070867612591887591 0.017603421115364205 0.07593377030412686 0.16891266478757691 0.095131841634717759 0.0020274695608717141 0.08880777107875841 0.12599932887213844 0.028729100797144545 0.057291091586764244 0.16891266478757694 0.063511488854920986 0.15070700712648177 0.0020274695608717003 0.14984007104738201 0.10215858669689483 0.074051606448186577 0.038845440466557184 0.11169488356699227 0.010810900888593024 0.12886021793316765 0.090549181811558799 -0.0090982101209086674 0.068781547651553782 0.15350787753588102 0.12057350479087608 0.096090034143196459 0.15556184916944041 0.033251151248448817 -0.0077893066289344698 0.082379600595951979 0.006199599441539333 0.13810309028418516 0.0044115437783960598 0.022567185896466183 0.077884376482101336 0.10567195922798336 0.1288602179331676 -0.031349569484469333 0.13887332964676996 0.11429569180429158 0.00069238799905804727 0.10633071657756239 0.11778188156918212 0.04017265704126155 0.024278828924432394 0.00027078329532743972 -0.017045124179323204 0.14221103355130407 0.0087028773699399375 0.096090034143196446 0.052093028128883265 0.14888644136037227 0.021351018481858622 0.15556184916944049 0.11884710621956535 0.0087028773699399237 0.028729100797144545
leaf_weight=2.9960716366767866 5.2431253641843787 10.236578091979029 5.2431253641843822 37.450895458459854 10.486250728368761 20.473156183958054 2.7463990002870542 4.9934527277946463 200.73679965734482 8.2391970008611661 9.9869054555892927 16.728066638112068 2.7463990002870542 2.7463990002870551 6.4914885461330414 4.2444348186254528 2.4967263638973227 5.7424706369638434 2.7463990002870551 14.481012910604479 2.4967263638973227 4.2444348186254501 2.9960716366767883 17.97642982006073 5.2431253641843778 8.9882149100303668 2.9960716366767883 6.7411611825227729 3.9947621822357204 17.477084547281265 2.4967263638973227 18.226102456450462 21.721519365906715 27.713662639260292 6.4914885461330414 8.7385422736406309 47.937146186828613 11.235268637537958 6.9908338189125052 2.4967263638973227 9.4875601828098279 2.9960716366767883 2.4967263638973227 24.467918366193771 2.4967263638973236 76.15015409886837 3.994762182235716 4.7437800914049149 2.746399000287056 2.9960716366767874 5.2431253641843787 3.7450895458459836 4.7437800914049175 24.218245729804039 5.2431253641843787 4.743780091404914 3.7450895458459845 11.48494127392769 4.4941074550151807 6.4914885461330414 3.2457442730665207 7.2405064553022376 2.7463990002870551 3.7450895458459881 7.7398517280817059 4.2444348186254501 20.223483547568321 3.9947621822357178 3.2457442730665198 6.9908338189125061 6.4914885461330405 13.731995001435282 4.743780091404914 2.4967263638973263 3.2457442730665198 4.9934527277946463 2.7463990002870542 6.2418159097433081 3.994762182235724 11.734613910317419 3.4954169094562619 4.4941074550151816 4.743780091404914 3.4954169094562513 3.7450895458459845 2.4967263638973236 2.746399000287056 17.97642982006073 2.4967263638973227 4.743780091404914 3.7450895458459845 4.9934527277946472 3.7450895458459854 2.4967263638973236
leaf_count=12 21 41 21 150 42 82 11 20 804 33 40 67 11 11 26 17 10 23 11 58 10 17 12 72 21 36 12 27 16 70 10 73 87 111 26 35 192 45 28 10 38 12 10 98 10 305 16 19 11 12 21 15 19 97 21 19 15 46 18 26 13 29 11 15 31 17 81 16 13 28 26 55 19 10 13 20 11 25 16 47 14 18 19 14 15 10 11 72 10 19 15 20 15 10
internal_value=0.072405 0.0750256 0.0817482 0.0635115 0.0609061 0.0775309 0.084238 0.104399 0.081998 0.0380747 0.061539 0.0633593 0.0674582 0.0692539 0.0336003 0.0726626 0.0878905 0.0890315 0.0703794 0.0876135 0.112957 0.105415 0.0771258 0.0671677 0.065908 0.0680813 0.108227 0.0923418 0.0645415 0.0607475 0.067149 0.0442739 0.0833637 0.0693409 0.103963 0.0723479 0.0687815 0.062358 0.0399767 0.0949697 0.110503 0.0414731 0.0653503 0.11613 0.0849317 0.0670249 0.0701532 0.121024 0.0954832 0.0675618 0.0684444 0.0718496 0.0903288 0.0543117 0.0740516 0.0596787 0.0812066 0.0753475 0.0643313 0.0369216 0.106331 0.0735497 0.078577 0.0707196 0.0790312 0.0330204 0.0687815 0.037972 0.0666359 0.0385093 0.0689752 0.0671922 0.0696195 0.0623902 0.0571534 0.0869872 0.064428 0.0610273 0.057976 0.0962685 0.0636365 0.0792119 0.0541127 0.0615257 0.0736423 0.0258682 0.0544771 0.0619544 0.0918887 0.0835067 0.107608 0.0864517 0.0465302 0.0735497
internal_weight=0 772.737 416.454 227.701 44.4417 25.7163 372.012 37.2012 334.811 18.7254 217.465 207.478 170.027 105.861 9.23789 96.6233 228.95 223.457 93.8769 217.715 16.9777 10.2366 5.99214 356.283 339.305 321.329 8.2392 16.9777 153.299 127.583 91.8795 35.7032 25.7163 89.3828 9.23789 91.1305 82.392 66.1632 18.2261 16.2287 11.9843 5.4928 80.1449 32.2078 7.73985 313.089 236.939 11.4849 7.49018 225.454 222.458 179.265 39.4483 43.1934 18.9751 13.732 34.2052 30.4601 22.4705 10.9856 7.98952 52.4313 45.9398 38.6993 31.7084 6.99083 27.9633 6.49149 139.817 10.7359 129.081 125.835 119.344 93.8769 77.3985 16.4784 11.4849 74.1528 69.409 25.4666 63.1672 23.9686 39.1986 34.4548 25.7163 8.73854 5.24313 21.9712 19.4745 16.9777 12.234 8.48887 8.98821 5.24313
internal_count=4007 3095 1668 912 178 103 1490 149 1341 75 871 831 681 424 37 387 917 895 376 872 68 41 24 1427 1359 1287 33 68 614 511 368 143 103 358 37 365 330 265 73 65 48 22 321 129 31 1254 949 46 30 903 891 718 158 173 76 55 137 122 90 44 32 210 184 155 127 28 112 26 560 43 517 504 478 376 310 66 46 297 278 102 253 96 157 138 103 35 21 88 78 68 49 34 36 21
is_linear=0
shrinkage=1


end of trees

feature_importances:
Column_4=20
Column_10=17
Column_2=10
Column_7=10
Column_8=10
Column_0=8
Column_1=8
Column_9=7
Column_6=4

parameters:
[boosting: gbdt]
[objective: binary]
[metric: binary_logloss]
[tree_learner: serial]
[device_type: cpu]
[data_sample_strategy: bagging]
[data: ]
[valid: ]
[num_iterations: 10000]
[learning_rate: 0.05]
[num_leaves: 95]
[num_threads: 0]
[seed: 1238]
[deterministic: 0]
[force_col_wise: 0]
[force_row_wise: 0]
[histogram_pool_size: -1]
[max_depth: -1]
[min_data_in_leaf: 10]
[min_sum_hessian_in_leaf: 0.001]
[bagging_fraction: 1]
[pos_bagging_fraction: 1]
[neg_bagging_fraction: 1]
[bagging_freq: 0]
[bagging_seed: 10438]
[feature_fraction: 0.9]
[feature_fraction_bynode: 1]
[feature_fraction_seed: 6707]
[extra_trees: 0]
[extra_seed: 23424]
[early_stopping_round: 0]
[early_stopping_min_delta: 0]
[first_metric_only: 0]
[max_delta_step: 0]
[lambda_l1: 0]
[lambda_l2: 0]
[linear_lambda: 0]
[min_gain_to_split: 0]
[drop_rate: 0.1]
[max_drop: 50]
[skip_drop: 0.5]
[xgboost_dart_mode: 0]
[uniform_drop: 0]
[drop_seed: 18682]
[top_rate: 0.2]
[other_rate: 0.1]
[min_data_per_group: 100]
[max_cat_threshold: 32]
[cat_l2: 10]
[cat_smooth: 10]
[max_cat_to_onehot: 4]
[top_k: 20]
[monotone_constraints: ]
[monotone_constraints_method: basic]
[monotone_penalty: 0]
[feature_contri: ]
[forcedsplits_filename: ]
[refit_decay_rate: 0.9]
[cegb_tradeoff: 1]
[cegb_penalty_split: 0]
[cegb_penalty_feature_lazy: ]
[cegb_penalty_feature_coupled: ]
[path_smooth: 0]
[interaction_constraints: ]
[verbosity: -1]
[saved_feature_importance_type: 0]
[use_quantized_grad: 0]
[num_grad_quant_bins: 4]
[quant_train_renew_leaf: 0]
[stochastic_rounding: 1]
[linear_tree: 0]
[max_bin: 255]
[max_bin_by_feature: ]
[min_data_in_bin: 3]
[bin_construct_sample_cnt: 200000]
[data_random_seed: 4081]
[is_enable_sparse: 1]
[enable_bundle: 1]
[use_missing: 1]
[zero_as_missing: 0]
[feature_pre_filter: 1]
[pre_partition: 0]
[two_round: 0]
[header: 0]
[label_column: ]
[weight_column: ]
[group_column: ]
[ignore_column: ]
[categorical_feature: ]
[forcedbins_filename: ]
[precise_float_parser: 0]
[parser_config_file: ]
[objective_seed: 31546]
[num_class: 1]
[is_unbalance: 0]
[scale_pos_weight: 1]
[sigmoid: 1]
[boost_from_average: 1]
[reg_sqrt: 0]
[alpha: 0.9]
[fair_c: 1]
[poisson_max_delta_step: 0.7]
[tweedie_variance_power: 1.5]
[lambdarank_truncation_level: 30]
[lambdarank_norm: 1]
[label_gain: ]
[lambdarank_position_bias_regularization: 0]
[eval_at: ]
[multi_error_top_k: 1]
[auc_mu_weights: ]
[num_machines: 1]
[local_listen_port: 12400]
[time_out: 120]
[machine_list_filename: ]
[machines: ]
[gpu_platform_id: -1]
[gpu_device_id: -1]
[gpu_use_dp: 0]
[num_gpu: 1]

end of parameters

pandas_categorical:null
