tree
version=v4
num_class=1
num_tree_per_iteration=1
label_index=0
max_feature_idx=10
objective=binary sigmoid:1
feature_names=Column_0 Column_1 Column_2 Column_3 Column_4 Column_5 Column_6 Column_7 Column_8 Column_9 Column_10
feature_infos=[15.199999999999999:141.5] [15.74:142.37] [15.1:140.30000000000001] [15.15:141.56999999999999] [5850800:591052200] [0:3.0800000000000001] [15.540000000000001:140.72599999999997] [15.949999999999999:139.06599999999997] [16.448:138.50749999999999] [15.15:141.56999999999999] [6258800:591052200]
tree_sizes=6593

Tree=0
num_leaves=63
num_cat=0
split_feature=3 0 3 6 6 1 1 0 6 3 0 1 1 9 6 0 3 9 9 0 3 9 6 6 6 6 3 0 3 9 9 6 1 6 3 9 6 0 0 0 3 6 9 0 1 0 6 9 9 3 3 6 3 0 0 9 1 3 1 0 0 0
split_gain=7.21947 11.2232 11.0724 10.0173 7.68651 6.76732 5.75727 7.58546 5.73812 7.97007 5.12397 4.82008 4.50016 4.33366 5.41912 4.16682 3.67215 8.46515 5.59874 3.3525 3.29298 7.45097 4.50626 3.71794 3.19922 3.48936 5.85164 3.15481 3.07929 2.72279 3.5949 2.5263 8.64076 6.06666 5.49667 5.39343 6.35665 5.85118 4.04425 11.5114 5.78595 5.75553 7.85706 5.3974 6.75118 3.72516 3.52226 2.84634 2.76774 2.75928 3.80943 2.8092 2.63491 6.33564 5.65414 3.0509 2.77104 8.01411 9.45911 7.19217 6.72991 4.5278
threshold=137.67000000000004 82.330000000000027 78.90000000000002 75.992000000000004 70.361000000000004 68.15000000000002 19.340000000000003 19.867500000000003 130.27000000000004 137.01000000000002 83.950000000000003 70.94250000000001 19.825000000000006 57.675000000000004 57.384000000000007 18.227500000000003 68.990000000000023 70.110000000000014 69.125000000000014 70.825000000000003 24.625000000000004 24.795000000000005 24.695000000000004 24.917000000000005 23.748500000000003 24.5365 24.445000000000004 24.355000000000004 24.215000000000003 23.795000000000005 24.080000000000002 25.829000000000004 25.795000000000005 25.526000000000003 25.725000000000005 25.985000000000003 25.928000000000004 25.605000000000004 27.835000000000004 27.880050000000001 27.205000000000002 27.396000000000004 27.255000000000006 27.202500000000004 27.495000000000001 25.495000000000001 26.057000000000006 25.460000000000004 27.895000000000003 25.305000000000003 24.885000000000002 25.111000000000008 28.502500000000001 28.225000000000005 28.225000000000005 27.935000000000006 50.20000000000001 51.990000000000002 53.245000000000012 46.745000000000012 41.580000000000005 45.880000000000003
decision_type=2 2 2 2 2 2 2 2 2 2 2 2 2 2 2 2 2 2 2 2 2 2 2 2 2 2 2 2 2 2 2 2 2 2 2 2 2 2 2 2 2 2 2 2 2 2 2 2 2 2 2 2 2 2 2 2 2 2 2 2 2 2
left_child=1 2 3 4 5 6 15 12 10 -10 -3 -6 -8 20 -15 -1 18 -18 -7 -19 24 27 -23 -24 -9 26 29 -22 -27 -26 -31 32 33 45 -34 37 -37 -33 40 -40 41 42 -38 -42 -45 49 -39 -36 -46 50 -25 -52 54 -54 55 -41 59 -58 -59 60 -55 -62
right_child=-2 8 -4 -5 11 16 7 13 9 -11 -12 -13 -14 14 -16 -17 17 19 -20 -21 21 22 23 31 25 28 -28 -29 -30 30 -32 35 34 -35 47 36 38 46 39 52 43 -43 -44 44 48 -47 -48 -49 -50 -51 51 -53 53 56 -56 -57 57 58 -60 -61 61 -63
leaf_value=0.059587472256537342 -0.19042149111354439 0.29531020914832867 -0.33709341629065903 0.28959571855701249 -0.32888799390312773 0.26222631625123516 -0.04041611309149535 0.012422660727146031 0.31262684730383217 -0.047559226330640546 0.048965329771383605 -0.068677995907243716 -0.34042686913559334 -0.31769878155649506 -0.031170498597054598 0.30959643562661904 -0.041325236594659275 0.40960002097465176 -0.013944575793486701 0.08958854786094711 0.045950619709078336 0.26414026046842237 -0.20580665809016477 -0.17223902105026501 0.27626190717727422 0.19141038021530776 0.40960002097465176 -0.19529971478905817 -0.054932762577500092 -0.07930639628239694 0.14292379337989791 0.16959141613937331 0.23568074210850787 -0.15042005697433131 0.22497801725520658 0.28651868516168844 0.0044899554883537189 -0.23486752904600333 0.3253864754184137 0.12958998200016014 -0.19911745505685155 -0.17503632413692397 0.257213605206221 0.18736983131235688 -0.055373914318765198 0.20959285027858637 -0.013944575793486701 0.016858667607832459 -0.2570905480122328 -0.10470413224380207 0.22135797796659021 0.028633981553574835 -0.3104257935311836 -0.005973222027461509 0.1394604657487972 -0.047559226330640546 0.14292379337989791 -0.17989479791901464 0.035337675809482195 -0.092897333501413326 0.10958926493055368 -0.034860358349937982
leaf_weight=7.9997129440307599 6.9997488260269156 3.4998744130134574 3.7498654425144187 4.9998205900192252 3.2498833835124996 9.4996591210365278 3.99985647201538 35.248735159635544 8.2497039735317212 3.4998744130134574 96.496537387371063 22.99917471408844 3.9998564720153809 2.7499013245105735 66.247622817754745 3.9998564720153809 13.749506622552873 2.7499013245105735 4.2498475015163413 2.499910295009613 2.7499013245105735 2.7499013245105735 3.2498833835124961 2.7499013245105841 2.9998923540115419 2.7499013245105726 2.9998923540115348 10.249632209539412 7.7497219145298004 4.4998385310173026 8.2497039735317212 2.4999102950096121 11.499587357044222 9.9996411800384504 3.2498833835124996 3.2498833835124961 78.497183263301849 8.9996770620346052 4.7498295605182639 4.9998205900192287 11.499587357044218 6.499766767024993 5.2498116195201865 4.4998385310173026 29.248950451612473 3.99985647201538 4.2498475015163413 13.74950662255287 2.9998923540115348 6.9997488260269156 4.2498475015163413 10.499623239040373 2.4999102950096121 199.24285051226616 19.24930927157402 17.499372065067291 22.499192655086517 9.4996591210365278 58.247909873723984 30.248914569616318 37.998636484146118 11.249596327543257
leaf_count=32 28 14 15 20 13 38 16 141 33 14 386 92 16 11 265 16 55 11 17 10 11 11 13 11 12 11 12 41 31 18 33 10 46 40 13 13 314 36 19 20 46 26 21 18 117 16 17 55 12 28 17 42 10 797 77 70 90 38 233 121 152 45
internal_value=0.0119822 0.0134068 0.00584723 0.00731029 0.00569538 0.00899586 0.00541375 0.00335881 0.0731226 0.205337 0.0575874 -0.100894 -0.190421 0.0053088 -0.0425901 0.142924 0.0981385 0.0411658 0.176864 0.257214 0.00986117 0.00565508 0.00866043 0.00757244 0.0529981 0.101897 0.153591 -0.144266 0.00958568 0.104827 0.0644896 0.00865179 0.0454079 -0.0163893 0.128888 0.00437263 0.00762045 -0.111054 0.00599166 0.015806 -0.0236285 0.00626146 0.0203323 -0.0795367 -0.0421169 0.0306391 -0.164005 0.0566462 -0.0741383 0.00142212 0.0438726 0.0841646 0.0122476 0.00689379 0.0598869 -0.00819274 0.00904365 0.0395036 0.00515748 -0.000818281 0.0103905 0.0765932
internal_weight=0 994.464 882.718 878.968 873.969 847.72 814.971 802.971 111.746 11.7496 99.9964 26.2491 7.99971 794.971 68.9975 11.9996 32.7488 18.9993 13.7495 5.24981 725.974 661.476 648.477 645.727 64.4977 29.249 18.7493 12.9995 10.4996 15.7494 12.7495 642.477 66.9976 38.4986 28.499 575.479 559.73 15.7494 556.48 417.985 138.495 90.2468 83.747 48.2483 36.7487 28.499 13.2495 16.9994 32.2488 24.4991 17.4994 14.7495 413.235 371.487 41.7485 22.4992 368.987 90.2468 67.7476 278.74 248.491 49.2482
internal_count=4006 3978 3531 3516 3496 3391 3260 3212 447 47 400 105 32 3180 276 48 131 76 55 21 2904 2646 2594 2583 258 117 75 52 42 63 51 2570 268 154 114 2302 2239 63 2226 1672 554 361 335 193 147 114 53 68 129 98 70 59 1653 1486 167 90 1476 361 271 1115 994 197
is_linear=0
shrinkage=1


end of trees

feature_importances:
Column_0=16
Column_6=14
Column_3=13
Column_9=11
Column_1=8

parameters:
[boosting: gbdt]
[objective: binary]
[metric: binary_logloss]
[tree_learner: serial]
[device_type: cpu]
[data_sample_strategy: bagging]
[data: ]
[valid: ]
[num_iterations: 10000]
[learning_rate: 0.2]
[num_leaves: 63]
[num_threads: 0]
[seed: 1236]
[deterministic: 0]
[force_col_wise: 0]
[force_row_wise: 0]
[histogram_pool_size: -1]
[max_depth: -1]
[min_data_in_leaf: 10]
[min_sum_hessian_in_leaf: 0.001]
[bagging_fraction: 1]
[pos_bagging_fraction: 1]
[neg_bagging_fraction: 1]
[bagging_freq: 0]
[bagging_seed: 21709]
[feature_fraction: 0.5]
[feature_fraction_bynode: 1]
[feature_fraction_seed: 24116]
[extra_trees: 0]
[extra_seed: 15571]
[early_stopping_round: 0]
[early_stopping_min_delta: 0]
[first_metric_only: 0]
[max_delta_step: 0]
[lambda_l1: 0]
[lambda_l2: 0]
[linear_lambda: 0]
[min_gain_to_split: 0]
[drop_rate: 0.1]
[max_drop: 50]
[skip_drop: 0.5]
[xgboost_dart_mode: 0]
[uniform_drop: 0]
[drop_seed: 15722]
[top_rate: 0.2]
[other_rate: 0.1]
[min_data_per_group: 100]
[max_cat_threshold: 32]
[cat_l2: 10]
[cat_smooth: 10]
[max_cat_to_onehot: 4]
[top_k: 20]
[monotone_constraints: ]
[monotone_constraints_method: basic]
[monotone_penalty: 0]
[feature_contri: ]
[forcedsplits_filename: ]
[refit_decay_rate: 0.9]
[cegb_tradeoff: 1]
[cegb_penalty_split: 0]
[cegb_penalty_feature_lazy: ]
[cegb_penalty_feature_coupled: ]
[path_smooth: 0]
[interaction_constraints: ]
[verbosity: -1]
[saved_feature_importance_type: 0]
[use_quantized_grad: 0]
[num_grad_quant_bins: 4]
[quant_train_renew_leaf: 0]
[stochastic_rounding: 1]
[linear_tree: 0]
[max_bin: 255]
[max_bin_by_feature: ]
[min_data_in_bin: 3]
[bin_construct_sample_cnt: 200000]
[data_random_seed: 4074]
[is_enable_sparse: 1]
[enable_bundle: 1]
[use_missing: 1]
[zero_as_missing: 0]
[feature_pre_filter: 1]
[pre_partition: 0]
[two_round: 0]
[header: 0]
[label_column: ]
[weight_column: ]
[group_column: ]
[ignore_column: ]
[categorical_feature: ]
[forcedbins_filename: ]
[precise_float_parser: 0]
[parser_config_file: ]
[objective_seed: 10917]
[num_class: 1]
[is_unbalance: 0]
[scale_pos_weight: 1]
[sigmoid: 1]
[boost_from_average: 1]
[reg_sqrt: 0]
[alpha: 0.9]
[fair_c: 1]
[poisson_max_delta_step: 0.7]
[tweedie_variance_power: 1.5]
[lambdarank_truncation_level: 30]
[lambdarank_norm: 1]
[label_gain: ]
[lambdarank_position_bias_regularization: 0]
[eval_at: ]
[multi_error_top_k: 1]
[auc_mu_weights: ]
[num_machines: 1]
[local_listen_port: 12400]
[time_out: 120]
[machine_list_filename: ]
[machines: ]
[gpu_platform_id: -1]
[gpu_device_id: -1]
[gpu_use_dp: 0]
[num_gpu: 1]

end of parameters

pandas_categorical:null
