tree
version=v4
num_class=1
num_tree_per_iteration=1
label_index=0
max_feature_idx=10
objective=binary sigmoid:1
feature_names=Column_0 Column_1 Column_2 Column_3 Column_4 Column_5 Column_6 Column_7 Column_8 Column_9 Column_10
feature_infos=[15.199999999999999:141.5] [15.74:142.37] [15.1:140.30000000000001] [15.15:141.56999999999999] [5850800:591052200] [0:3.0800000000000001] [15.540000000000001:140.72599999999997] [15.949999999999999:139.06599999999997] [16.448:138.50749999999999] [15.15:141.56999999999999] [6258800:591052200]
tree_sizes=6677 6680 6690 6699

Tree=0
num_leaves=63
num_cat=0
split_feature=10 7 3 8 4 1 7 7 10 4 4 8 4 10 4 4 1 3 0 0 4 4 9 10 10 7 2 3 4 8 8 7 10 4 2 2 9 1 7 10 2 4 4 1 8 10 1 8 3 8 7 0 3 4 4 3 10 10 7 4 3 8
split_gain=12.4944 11.5614 8.21833 10.2711 8.1711 8.06257 7.91763 7.47339 6.21854 9.16578 6.14674 6.09338 4.78557 4.73138 4.91985 5.62562 5.4038 4.32284 5.22601 4.57322 3.99793 8.2694 8.17956 8.12641 8.02018 9.7189 7.92478 7.2769 7.08562 12.3113 8.26846 6.82339 6.24729 5.58115 5.50496 6.41235 5.48399 5.36889 8.49615 6.70013 5.15239 4.9166 8.40977 7.76217 9.94911 5.14809 4.85231 4.77824 4.76208 4.6891 5.43513 7.04919 4.58025 4.52546 4.43614 5.36717 4.23803 4.11291 4.07838 3.85151 3.81121 6.30482
threshold=60170350.000000007 26.891500000000004 137.67000000000004 74.35150000000003 45449450.000000007 23.545000000000005 27.084500000000002 69.937500000000014 98362550.000000015 75687350.000000015 22869570.500000004 69.805000000000021 49630489.500000007 24335576.000000004 32390376.500000004 42649400.000000007 113.76500000000001 68.990000000000023 41.185000000000009 51.57500000000001 63019350.000000007 50918050.000000007 45.962500000000006 25045212.000000004 23827535.000000004 64.565000000000012 30.490000000000006 45.555000000000007 30474994.000000004 66.211250000000021 62.210250000000002 30.356250000000006 39179450.000000007 54175100.000000007 48.365000000000009 57.320000000000007 38.430000000000007 49.327500000000008 52.423500000000011 29691700.000000004 29.355000000000004 48644100.000000007 42649400.000000007 26.105000000000004 26.508500000000002 46803650.000000007 57.227500000000006 46.764500000000005 58.415000000000013 25.464875000000003 27.577995000000005 29.290000000000003 53.430000000000007 19135943.500000004 79223500.000000015 25.212500000000002 43674400.000000007 39456550.000000007 48.353000000000009 55509752.000000007 26.395000000000003 28.368497500000004
decision_type=2 2 2 2 2 2 2 2 2 2 2 2 2 2 2 2 2 2 2 2 2 2 2 2 2 2 2 2 2 2 2 2 2 2 2 2 2 2 2 2 2 2 2 2 2 2 2 2 2 2 2 2 2 2 2 2 2 2 2 2 2 2
left_child=2 4 3 5 -2 59 -3 11 12 -10 -9 20 -6 -5 16 -16 -15 18 -8 -20 21 22 27 24 25 34 32 41 29 47 37 40 -23 -28 -24 52 -33 -30 -39 -40 54 42 45 -44 -45 -7 -41 -25 -48 -43 -51 -52 -36 -27 55 -22 -34 -35 -49 -1 -57 -62
right_child=1 6 -4 13 8 7 17 10 9 -11 -12 -13 -14 14 15 -17 -18 -19 19 -21 31 26 23 28 -26 53 33 -29 30 -31 -32 36 56 57 35 -37 -38 38 39 46 -42 49 43 44 -46 -47 48 58 -50 50 51 -53 -54 -55 -56 60 -58 -59 -60 -61 61 -63
leaf_value=0.084112927886185102 0.069718472419422806 -0.060048084758381519 -0.038618745040945944 0.041032351831733357 -0.038618745040945944 0.018594844653361222 -0.0069849578390172341 0.0094961875321641267 0.086385736644094879 0.015383191046991712 -0.039639189789395256 0.065930457822906408 0.0073628029959635624 -0.0010140910464377807 0.056000031865269598 0.011383047633070404 0.041384123237480211 -0.044174499782503318 0.054241727067941559 -0.0040021193435500098 0.075671066785377133 0.032812387350505984 -0.048619103575749209 0.021383406167873674 0.062604396225965198 0.015731029604724001 -0.010839971333159074 0.07660277720787434 -0.011694702831860217 0.044717576082414633 -0.022993184830315837 -0.035285292196011495 -0.060048084758381519 0.0022918126014310758 -0.0029031788452199697 -0.012860245784634492 0.021909740827600159 0.055646929672363558 0.063765878053468478 -0.012074583497949608 0.081385557376693285 0.08281418002452226 -0.044868969125197986 0.073290029038995397 0.00039999490698588991 0.042418643085908134 0.063765878053468492 -0.070438067651683617 0.00027153814995566072 -0.0086176694365361246 0.092338331010049263 0.015086884127441984 0.056839222791267081 0.073885288475590824 -0.00024527624460781577 0.00085635443854065185 -0.012889667257228794 0.054862867349606353 -0.023956565234279498 0.028625045106869144 0.055646929672363551 -0.0067994224302082677
leaf_weight=5.4998026490211469 5.9997847080230704 6.9997488260269156 6.9997488260269156 49.748214870691299 5.9997847080230704 103.9962682723999 97.996483564376831 13.249524563550951 5.999784708023074 18.749327212572098 12.249560445547102 5.4998026490211478 99.496429741382599 30.248914569616318 16.249416917562488 12.499551475048063 9.9996411800384504 6.7497577965259543 6.9997488260269147 6.4997667670249939 6.9997488260269156 6.9997488260269156 4.9998205900192252 4.9998205900192252 10.249632209539412 5.7497936785221082 8.9996770620346087 5.7497936785221091 12.999533534049986 7.4997308850288382 15.999425888061522 7.4997308850288418 5.2498116195201865 5.4998026490211513 5.24981161952019 16.499407947063446 9.4996591210365278 15.249452799558638 5.2498116195201865 20.249273389577866 4.9998205900192252 5.24981161952019 7.9997129440307608 5.2498116195201865 43.248448103666306 28.998959422111511 5.2498116195201856 5.4998026490211478 6.7497577965259552 6.2497757375240353 5.2498116195201856 6.7497577965259552 8.2497039735317212 7.9997129440307617 10.749614268541334 9.4996591210365313 51.498152077198029 11.499587357044218 33.248806923627853 7.2497398555278778 15.249452799558641 5.4998026490211478
leaf_count=22 24 28 28 199 24 416 392 53 24 75 49 22 398 121 65 50 40 27 28 26 28 28 20 20 41 23 36 23 52 30 64 30 21 22 21 66 38 61 21 81 20 21 32 21 173 116 21 22 27 25 21 27 33 32 43 38 206 46 133 29 61 22
internal_value=0.0119822 0.00258732 0.0153021 0.015817 0.0126675 0.0132146 -0.00837814 0.0123806 0.0100394 0.0325959 -0.0141081 0.0135533 0.00474774 0.0292784 0.0208037 0.0366013 0.00951963 -0.00531945 -0.00296724 0.0261984 0.0130483 0.011483 0.0144872 0.00695581 0.0224004 0.0139472 -0.00226647 0.0210977 0.000104448 -0.0144715 0.0092423 0.0242407 -0.011755 0.0209988 -4.59335e-05 0.00804959 -0.00332336 0.0170867 0.0241797 0.011383 0.0330819 0.0195993 0.0169241 0.000763198 0.00829015 0.0237895 0.00285561 -0.0246182 0.0280503 0.0411713 0.0291919 0.0488844 0.0336061 0.0495662 0.0280503 0.0362162 -0.0172523 0.0378546 -0.0305539 0.052561 0.0270861 0.0390949
internal_weight=0 261.491 739.973 732.974 136.245 614.228 125.246 601.478 130.245 24.7491 25.4991 575.979 105.496 118.746 68.9975 28.749 40.2486 118.246 111.496 13.4995 570.48 500.482 410.735 191.993 58.9979 48.7483 89.7468 218.742 132.995 51.2482 81.7471 69.9975 63.7477 25.9991 34.9987 29.9989 16.9994 65.7476 52.7481 37.4987 52.9981 212.992 189.493 56.498 48.4983 132.995 32.2488 43.7484 11.9996 23.4992 18.2493 11.9996 13.4995 13.7495 47.9983 37.2487 56.748 16.9994 38.7486 12.7495 30.2489 20.7493
internal_count=4006 1046 2960 2932 545 2457 501 2406 521 99 102 2304 422 475 276 115 161 473 446 54 2282 2002 1643 768 236 195 359 875 532 205 327 280 255 104 140 120 68 263 211 150 212 852 758 226 194 532 129 175 48 94 73 48 54 55 192 149 227 68 155 51 121 83
is_linear=0
shrinkage=1


Tree=1
num_leaves=63
num_cat=0
split_feature=10 6 2 3 0 3 8 6 4 4 3 1 9 10 9 6 3 4 1 0 0 0 0 4 4 1 4 3 0 10 3 10 9 4 4 9 6 3 8 4 3 1 8 1 6 4 3 9 1 9 1 1 3 1 9 4 4 9 8 0 10 8
split_gain=11.2783 10.1115 9.59578 12.1305 7.84857 7.41962 9.27222 9.10198 7.33893 7.23707 6.91561 6.82376 6.74478 5.82091 5.57144 4.84873 4.68245 4.55994 4.47786 3.93158 4.3591 4.47148 3.89333 3.5146 3.48793 3.41506 3.53083 3.40035 9.68941 6.15046 4.65448 3.35656 4.11597 3.33929 8.25219 6.72389 7.25505 9.82023 8.77151 7.69801 6.57952 6.44427 6.35552 6.32087 7.61567 6.03214 5.0966 5.63427 4.84169 5.69202 5.67926 6.50432 5.11497 4.68114 4.49949 4.44304 7.6748 5.91026 8.78022 6.49383 5.23895 4.91749
threshold=60170350.000000007 26.717000000000002 25.305000000000003 25.675000000000004 27.245000000000001 137.67000000000004 74.35150000000003 70.361000000000004 23072285.000000004 61346500.000000007 25.305000000000003 23.545000000000005 70.110000000000014 80500500.000000015 21.275000000000002 130.27000000000004 68.990000000000023 53555600.000000007 95.330000000000027 27.415000000000003 41.975000000000001 51.57500000000001 136.18500000000003 71586250.000000015 55509752.000000007 99.375000000000014 27182702.500000004 28.565000000000001 28.122500000000006 96186650.000000015 27.983750000000004 72877750.000000015 27.115000000000006 63019350.000000007 50918050.000000007 45.962500000000006 49.57800000000001 51.990000000000002 46.310000000000002 17598820.000000004 45.555000000000007 28.175000000000004 29.953062500000005 53.245000000000012 53.410000000000011 53903150.000000007 27.315000000000001 26.865000000000006 65.197500000000005 65.620000000000019 64.610000000000014 63.717500000000008 62.305000000000007 29.935000000000006 24.795000000000005 48644100.000000007 43766264.500000007 25.795000000000005 26.508500000000002 32.550050000000006 50888350.000000007 29.953062500000005
decision_type=2 2 2 2 2 2 2 2 2 2 2 2 2 2 2 2 2 2 2 2 2 2 2 2 2 2 2 2 2 2 2 2 2 2 2 2 2 2 2 2 2 2 2 2 2 2 2 2 2 2 2 2 2 2 2 2 2 2 2 2 2 2
left_child=5 2 10 -4 31 6 7 11 -9 17 13 24 33 -2 -15 18 19 -5 -8 -6 27 -22 -17 -11 -1 26 -20 28 30 -29 -21 -3 -33 34 35 40 38 -38 -37 -39 55 46 53 -41 -45 -43 47 -36 50 -50 51 52 -46 54 -35 56 60 -58 -59 61 -13 -60
right_child=1 4 3 9 16 -7 15 8 -10 23 -12 12 -14 14 -16 22 -18 -19 25 20 21 -23 -24 -25 -26 -27 -28 29 -30 -31 -32 32 -34 42 41 36 37 39 -40 43 -42 45 -44 44 48 -47 -48 -49 49 -51 -52 -53 -54 -55 -56 -57 57 58 59 -61 -62 -63
leaf_value=0.068645377532409915 -0.016425475107610929 -0.065933267525152703 0.083652829929372674 0.0096383892470768492 0.028060291454617799 -0.0480872280910302 0.027683220710762707 -0.0025732996182709551 -0.058513888482159437 0.058864742754813161 -0.051898923962026548 0.0067412799656299763 0.059420342018144716 -0.021747365517929634 0.022941447648638799 0.078963475777207845 -0.053373220875785422 -0.048490372478310097 -0.050904856426689141 -0.0076816743299471099 0.043474384086375877 -0.015184571310931039 0.021059993112351658 0.014338845196838881 0.015813462727398725 0.01030798521929302 0.0085239333750721322 -0.01452926782579733 0.02974731006174405 -0.053196329591365416 -0.05804177523456544 -0.0031623532654628732 -0.061300604989072228 0.056017527412495965 -0.030577572149129314 0.015531944338110615 0.035676470054118642 0.037214524015590895 -0.041155707480131289 -0.050354914202308698 0.06147922452888404 -0.026159485694789725 -0.012892473753055562 0.04716353002076349 -0.010540861222064178 0.012899886704904856 -0.068235611444583608 0.014940901028028843 0.048713812560170607 -0.0019453749822419164 -0.056983029308838674 0.037931863324504857 -0.0618322473850932 0.066687894941830278 0.0095076173662515494 0.027754337523719832 -0.055140103749335867 0.056706138036463731 -0.013704212089526116 0.033313335973819254 0.034956674631598662 -0.065237397474983833
leaf_weight=5.490283250808714 41.745807826519012 10.497868835926058 6.497712403535842 6.7452208846807462 6.2489904016256324 6.9973906278610221 35.239015087485313 12.24945814907551 11.24538332223892 6.2476032227277782 8.2498544603586179 122.98477613925934 4.9978945255279532 9.498821020126341 26.243798047304153 5.2477845549583417 6.7467081248760215 6.7499089986085892 4.9990525245666486 12.498939156532289 6.4952214360237104 6.4999740421772003 6.4972639530897141 15.249691262841223 7.2485151886940002 61.73026742041111 4.9982563406229019 38.749165043234825 12.74984388053417 13.999595016241072 7.2492331415414801 7.2478723675012571 5.2490448504686356 5.9946367889642707 30.496874898672104 9.4980835914611799 17.490844905376434 10.497060641646383 24.237881869077682 7.9974929988384238 5.7415730357170096 14.998829007148741 19.494583189487457 6.7470600455999366 65.729223683476448 28.989563629031181 6.4985988438129416 8.7485495358705503 6.995807245373725 26.734674587845802 6.9983170926570883 6.4975416958332053 5.2487977147102347 4.9929614514112464 39.234228581190109 23.479334130883217 6.9962685108184806 4.9935014247894278 23.74999858438969 5.9999996423721305 18.992354691028595 5.7499996572732917
leaf_count=22 167 42 26 27 25 28 141 49 45 25 33 492 20 38 105 21 27 27 20 50 26 26 26 61 29 247 20 155 51 56 29 29 21 24 122 38 70 42 97 32 23 60 78 27 263 116 26 35 28 107 28 26 21 20 157 94 28 20 95 24 76 23
internal_value=0 -0.00892604 0.00117371 0.0209131 -0.0184988 0.00315513 0.00364446 0.00117142 -0.0293483 0.00926298 -0.00837849 0.00238565 0.0015876 -0.00374505 0.0110651 0.0164364 -0.0130018 -0.0194361 0.0130879 -0.0103951 -0.0128412 0.0141342 0.0469317 0.0272791 0.0385834 0.00591744 -0.0211928 -0.0169534 -0.00423095 -0.0247916 -0.026168 -0.0450906 -0.027582 0.001083 -0.000338137 0.00264546 -0.00411343 0.000305904 -0.0251958 -0.00400695 0.00866213 -0.0140824 0.0113383 -0.00726161 -0.00450343 -0.000418282 -0.027222 -0.0204306 -0.00745256 0.0085615 -0.013847 -0.00995054 -0.0143338 0.0207439 0.015672 0.00723805 0.0046956 -0.0127043 -0.00537241 -0.0141045 0.0105157 -0.0237488
internal_weight=0 261.461 127.228 41.4901 134.232 739.75 732.753 614.041 23.4948 34.9924 85.7383 590.546 577.807 77.4884 35.7426 118.712 111.238 13.4951 106.967 104.491 98.242 12.9952 11.745 21.4973 12.7388 71.7276 9.99731 85.2468 32.498 52.7488 19.7482 22.9948 12.4969 572.809 503.093 413.361 194.673 160.937 33.736 143.446 218.688 89.7324 69.7164 132.949 124.951 43.9884 45.744 39.2454 118.204 33.7305 84.4739 77.4756 70.978 50.2218 45.2289 212.946 189.467 47.4898 40.4935 35.5 141.977 29.5
internal_count=4006 1046 509 166 537 2960 2932 2457 94 140 343 2363 2312 310 143 475 445 54 428 418 393 52 47 86 51 287 40 341 130 211 79 92 50 2292 2013 1654 779 644 135 574 875 359 279 532 500 176 183 157 473 135 338 310 284 201 181 852 758 190 162 142 568 118
is_linear=0
shrinkage=0.05


Tree=2
num_leaves=63
num_cat=0
split_feature=10 6 2 3 0 3 8 6 4 4 3 1 9 10 4 6 10 0 6 4 1 2 0 0 0 8 4 4 4 4 10 4 10 4 4 9 1 3 8 4 0 2 8 1 6 10 10 10 1 9 1 1 3 1 4 6 3 4 4 1 8 10
split_gain=10.1839 9.13222 8.66612 10.9867 7.09493 6.70588 8.37208 8.22165 6.64207 6.53477 6.24496 6.17213 6.09522 5.25385 5.46722 4.83803 4.4413 4.52306 4.38943 4.11731 4.04517 3.66933 3.97273 4.83909 3.53629 3.30338 3.49467 3.18137 3.17372 3.11094 10.5859 3.64766 3.04149 3.01557 7.45081 6.07126 6.58394 7.35472 7.32709 6.95158 6.00755 5.91561 5.74001 5.70765 6.87923 5.52539 4.83687 4.7248 4.37058 5.1445 5.13247 5.87224 4.62339 4.24883 4.2594 5.70193 4.26013 4.24702 7.24179 6.17399 8.5801 4.73168
threshold=60170350.000000007 26.717000000000002 25.305000000000003 25.675000000000004 27.245000000000001 137.67000000000004 74.35150000000003 70.361000000000004 23072285.000000004 61346500.000000007 25.305000000000003 23.545000000000005 70.110000000000014 80500500.000000015 75687350.000000015 23.963500000000003 143628000.00000003 27.415000000000003 130.27000000000004 53555600.000000007 95.330000000000027 68.280000000000015 41.975000000000001 51.57500000000001 136.18500000000003 25.320250000000001 84676582.000000015 71586250.000000015 55509752.000000007 27007390.500000004 28194564.500000004 29066045.000000004 87151850.000000015 63019350.000000007 50918050.000000007 45.962500000000006 49.327500000000008 51.990000000000002 46.310000000000002 17598820.000000004 44.600000000000001 30.490000000000006 29.953062500000005 53.245000000000012 53.410000000000011 39179450.000000007 32384076.500000004 39456550.000000007 65.197500000000005 65.620000000000019 64.610000000000014 63.717500000000008 62.305000000000007 29.935000000000006 75687350.000000015 25.249500000000005 26.395000000000003 48644100.000000007 42649400.000000007 26.105000000000004 26.508500000000002 46803650.000000007
decision_type=2 2 2 2 2 2 2 2 2 2 2 2 2 2 2 2 2 2 2 2 2 2 2 2 2 2 2 2 2 2 2 2 2 2 2 2 2 2 2 2 2 2 2 2 2 2 2 2 2 2 2 2 2 2 2 2 2 2 2 2 2 2
left_child=5 2 10 -4 32 6 7 11 -9 19 13 28 33 25 -15 -16 17 -6 20 -5 -8 22 -19 -24 -20 26 -2 -11 -1 30 -22 -31 -3 34 35 40 38 -38 -37 -39 57 45 53 -41 -45 -36 -42 -43 50 -50 51 52 -46 54 55 -35 -57 58 61 -60 -61 -13
right_child=1 4 3 9 16 -7 18 8 -10 27 -12 12 -14 14 15 -17 -18 21 24 -21 29 -23 23 -25 -26 -27 -28 -29 -30 31 -32 -33 -34 42 41 36 37 39 -40 43 46 47 -44 44 48 -47 -48 -49 49 -51 -52 -53 -54 -55 -56 56 -58 -59 59 60 -62 -63
leaf_value=0.0654847194386525 -0.015021879964955288 -0.052472384985072389 0.079679357283170812 0.0091580280677233186 0.03198543301763343 -0.045753299215566867 0.026314671953069635 -0.00244460460606611 -0.055687057125069828 0.05600988233198724 -0.049327710813689307 0.0052200928895023944 0.056520793409862914 0.038474357663317825 -0.0213373631718006 0.02457403482654634 -0.058429812717643761 -0.014280658555207612 0.075257461620043875 -0.046085582532396377 0.0090513799578456865 -0.049089225424763967 0.047230641436447895 -0.014426638628384465 0.020018011484823354 -0.041519229925478796 0.030453752940357418 0.01362344953701386 0.015027235170292627 0.050542377980739843 -0.058878030131673399 0.0086346780246942412 -0.0083691330718555692 0.065748305922522163 0.020334166683809277 0.012548025096548105 0.02875556479117929 0.035378279058977523 -0.040417453556877363 -0.047859629800223007 0.010364053125073189 -0.026750936416550488 -0.012248260053275648 0.044852483243450834 -0.010013807074560699 -0.026755336444121591 0.077545311407379358 0.02030384734404779 0.046336455003464949 -0.0018480708940142921 -0.054184086262059242 0.036056070840358265 -0.058800994268382749 0.063572986076706806 -0.0086325899598882483 -0.016890796550339985 0.027745335143469829 0.026387221274156936 -0.051926393987963226 0.05601658870322751 -0.011833205706893779 0.028325095651582255
leaf_weight=5.4680386483669263 27.245829373598099 17.975680842995647 6.4809947162866584 6.74410332739353 5.9978867769241324 6.9868600964546195 35.218586057424545 12.249605521559717 11.225848123431204 6.2379515171051052 8.2459394186735135 99.982806652784348 4.9916992336511603 11.739807814359663 14.497377276420595 9.4970354586839658 4.9958490133285514 80.972624868154526 5.2312608957290632 6.7470597177743912 27.485505551099777 6.4845616817474356 6.2351044267415983 6.4994018077850342 6.4937729239463806 9.4990222305059415 4.9998974800109854 15.247998818755148 7.2464219331741333 6.2479514628648749 7.2475717365741721 30.734091192483902 4.9955675303935996 6.7317007184028652 6.998162552714347 9.2474434673786181 19.725248590111732 10.489952161908148 22.216811299324036 7.9937927126884452 5.2376798391342145 7.499039143323901 19.493944823741913 6.7401200681924811 65.729274690151215 56.717350900173187 5.4849056303501129 18.484614342451096 6.9871904850006095 26.735174000263214 6.9919499009847632 6.493869647383689 5.2435051500797263 4.9761167466640464 13.494940087199209 7.7488992661237743 17.234881684184074 23.461434438824654 7.9827778488397589 5.2295684516429892 42.740582287311554 28.467858701944351
leaf_count=22 109 72 26 27 24 28 141 49 45 25 33 400 20 47 58 38 20 324 21 27 110 26 25 26 26 38 20 61 29 25 29 123 20 27 28 37 79 42 89 32 21 30 78 27 263 227 22 74 28 107 28 26 21 20 54 31 69 94 32 21 171 114
internal_value=0 -0.00848373 0.00111573 0.0198837 -0.0175842 0.002999 0.00346408 0.00111353 -0.0279049 0.00880398 -0.00796078 0.00226762 0.00150901 -0.00355818 0.0105145 -0.00316554 -0.0123578 -0.0101902 0.0156219 -0.0184698 0.0124375 -0.012715 -0.0101979 0.0157622 0.0446637 -0.0156046 -0.0079706 0.0259294 0.0367272 0.00562258 -0.0051231 0.0157148 -0.0428812 0.00102941 -0.000321313 0.0025144 -0.00390932 0.000129828 -0.0248507 -0.00380763 0.00823302 -0.0133835 0.0107775 -0.00690027 -0.00427925 -0.0215833 0.0447292 0.00672355 -0.00708134 0.00813564 -0.0131571 -0.00945414 -0.0136182 0.0197214 0.0148949 0.0249058 0.0139011 0.00635039 0.00380113 -0.0112118 -0.00443642 0.0103407
internal_weight=0 261.34 127.183 41.4581 134.157 739.389 732.402 613.743 23.4755 34.9771 85.7249 590.268 577.553 77.479 35.7342 23.9944 111.185 106.19 118.659 13.4912 106.934 100.192 93.7071 12.7345 11.725 41.7447 32.2457 21.486 12.7145 71.7151 34.7331 36.982 22.9712 572.562 502.881 413.182 194.594 163.13 31.4643 143.405 218.588 89.6992 69.6805 132.915 124.921 63.7155 10.7226 25.9837 118.181 33.7224 84.4586 77.4666 70.9728 50.1865 45.2104 31.7155 24.9838 207.865 184.404 55.9529 47.9702 128.451
internal_count=4006 1046 509 166 537 2960 2932 2457 94 140 343 2363 2312 310 143 96 445 425 475 54 428 401 375 51 47 167 129 86 51 287 139 148 92 2292 2013 1654 779 653 126 574 875 359 279 532 500 255 43 104 473 135 338 310 284 201 181 127 100 832 738 224 192 514
is_linear=0
shrinkage=0.05


Tree=3
num_leaves=63
num_cat=0
split_feature=10 7 4 7 3 8 10 10 4 4 4 10 4 10 4 0 4 9 10 8 9 3 2 10 10 4 3 0 4 4 8 9 9 7 7 4 4 10 10 3 4 10 4 2 9 1 10 0 0 8 3 3 0 0 8 0 3 4 4 9 0 10
split_gain=9.19924 8.7688 6.94239 6.75517 6.18464 11.7082 5.39164 7.57325 5.44338 7.82034 7.44832 4.81765 7.81417 4.54982 4.87443 4.53274 4.40566 4.32058 4.16655 5.91086 4.89097 4.76784 5.32209 5.36156 4.07392 4.70439 7.90662 5.34156 4.3244 6.10996 4.3704 9.05461 4.83905 6.11422 6.45912 6.56072 4.50749 4.28692 4.36309 4.05905 3.86526 9.1034 3.80406 3.75472 5.814 3.75337 3.4956 3.3948 7.43651 3.32999 5.93562 3.22979 3.82722 3.37781 3.2125 6.37788 5.68199 5.23554 4.16095 3.99927 3.33613 4.51798
threshold=60170350.000000007 26.891500000000004 45449450.000000007 27.084500000000002 137.01000000000002 127.23075000000001 25899099.500000004 32044761.500000004 32976273.000000004 20482039.500000004 37460663.500000007 98362550.000000015 75687350.000000015 30331890.000000004 46902800.000000007 41.975000000000001 49630489.500000007 43.852500000000006 33173229.000000004 66.211250000000021 101.78000000000002 24.625000000000004 24.625000000000004 58508450.000000007 34319650.500000007 41682350.000000007 51.990000000000002 54.45000000000001 61346500.000000007 58533300.000000007 59.526250000000012 73.175000000000011 25.795000000000005 26.321000000000002 27.241499999999998 48167600.000000007 54758000.000000007 46803650.000000007 48363550.000000007 27.555000000000003 39110750.000000007 47365393.000000007 65345039.000000007 25.505000000000006 26.955000000000002 108.73 51980873.000000007 27.005000000000006 30.125000000000004 64.244250000000022 54.655000000000008 68.990000000000023 41.185000000000009 51.57500000000001 74.35150000000003 70.825000000000003 66.260000000000005 23726671.000000004 20243416.000000004 69.125000000000014 83.950000000000003 17210224.000000004
decision_type=2 2 2 2 2 2 2 2 2 2 2 2 2 2 2 2 2 2 2 2 2 2 2 2 2 2 2 2 2 2 2 2 2 2 2 2 2 2 2 2 2 2 2 2 2 2 2 2 2 2 2 2 2 2 2 2 2 2 2 2 2 2
left_child=4 2 -2 -3 5 6 54 8 9 -8 -10 16 -13 14 15 -12 -4 -11 19 -9 21 -20 -23 24 -24 26 43 -28 29 30 32 -32 -27 -34 35 -35 39 -30 -39 -36 41 -29 -40 -26 -45 -22 -46 -25 -49 50 -19 52 -5 -54 55 56 57 -1 -57 -58 -56 -62
right_child=1 3 11 51 -6 -7 7 18 10 17 13 12 -14 -15 -16 -17 -18 49 20 -21 45 22 23 47 25 28 27 40 37 -31 31 -33 33 34 36 -37 -38 38 42 -41 -42 -43 -44 44 46 -47 -48 48 -50 -51 -52 -53 53 -55 60 58 59 -59 -60 -61 61 -63
leaf_value=-0.0071688886460001648 0.053409294177453617 -0.065466391977251015 -0.047998024690036598 -0.01620793226747216 -0.035319194192557551 0.062810125393949576 0.026323604550265126 0.041762242018403041 0.03075868682962395 0.0030184682040667447 -0.052120826208410825 0.068018211897944936 0.0023034049099745035 -0.044438788278705864 0.038933777018587107 0.0089157567763139406 -0.0038505794815609385 -0.025421389115309192 0.020571034905234178 -0.021186083080162448 0.059426534075384556 -0.045010120262890585 -0.021721507623556083 0.061608280038807986 0.058477521224857436 -0.034340751165148863 -0.048548405441207573 0.0035098278284175447 -0.011035999631290042 -0.041031396907105215 -0.070835583887170067 0.017307232652888239 0.038928017590088383 0.0086465033409361784 0.03294761322744328 -0.049311183457892628 0.028705435574212446 0.056439960810079508 0.033570196489620757 -0.0058469685719158638 0.039992134518492928 -0.069488742387365063 -0.0018088209986716879 -0.033657499526395643 0.01479692378178913 0.0056743050567517571 0.050390987959963753 -0.025744147168167537 0.053897586268584145 -0.018280836326634773 -0.073626767915864796 -0.048480560764763862 0.036407707753170093 -0.013707981336127873 0.049765510159645455 -0.00051935053702545982 0.064306263481769099 0.018637381078761353 -0.055814816754729712 0.010497943313408392 -0.023407220740756247 0.023040694082592086
leaf_weight=39.434797748923302 5.9767535030841819 6.9670106321573249 5.9918765872716895 97.913993626832962 10.461531177163122 8.1996241062879545 8.2411640733480436 14.734685331583025 15.474480122327803 10.997432470321653 5.245579540729528 5.9642943739891079 18.729343697428703 7.9924542903900138 5.7422079443931571 7.239898756146431 99.392002314329147 16.963413164019588 30.11418879032135 4.9929338693618766 6.4955877512693387 6.4806808978319159 21.472208127379417 5.2417749017477062 5.2420829385519019 10.971646845340727 6.9859006851911536 29.460819602012634 20.471306532621384 12.983768001198767 6.991366431117056 4.9955131709575653 9.4607784897088987 7.7375278025865581 7.4886375665664664 13.23449958860874 14.232224255800245 5.9919443577527991 11.482842266559599 67.673159807920456 4.9948135316371909 4.9949641972780219 22.457771301269531 5.7426048666238776 64.171828761696815 6.4949774146080017 7.7284565567970267 5.9929848909378034 5.7369298040866852 24.967721655964851 10.240961655974386 6.7136691659688941 6.9671098440885526 6.4981643557548523 8.7310512214899045 7.4987523555755597 7.7379572689533216 39.182027339935303 6.227581650018692 6.2362204492092133 6.2421915531158438 32.460814952850342
leaf_count=158 24 28 24 392 42 33 33 59 62 44 21 24 75 32 23 29 398 68 121 20 26 26 86 21 21 44 28 118 82 52 28 20 38 31 30 53 57 24 46 271 20 20 90 23 257 26 31 24 23 100 41 27 28 26 35 30 31 157 25 25 25 130
internal_value=0 -0.00806647 0.00071825 -0.0176235 0.00285173 0.00340002 0.00272354 0.000469323 -0.011105 -0.0194864 0.00325008 -0.00170278 0.0181756 -0.0129848 0.000807073 -0.0167278 -0.0063607 -0.0254629 0.00335759 0.0258304 0.00233496 0.00140155 -7.70542e-05 0.000681393 -0.000589281 0.000724071 0.00826746 -0.00824981 -0.00378862 -0.00819238 -0.00520627 -0.0341022 -0.00255813 0.000351968 -0.00295484 -0.027928 0.00290391 0.00756778 0.0171049 -0.00198173 -0.00111375 -0.00707258 0.0101607 0.0175213 0.0147561 0.0325517 0.0186229 0.0281562 0.0132075 -0.0314665 -0.0435681 -0.0148009 -0.0127708 0.0122225 0.0110272 0.00619962 0.0109148 0.00569276 -0.0256067 0.0402934 0.0218474 0.0155494
internal_weight=0 261.114 136.054 125.06 738.769 728.308 720.108 566.357 113.105 71.4107 41.6946 130.078 24.6936 26.2201 18.2277 12.4855 105.384 63.1695 453.251 19.7276 433.524 420.533 390.419 383.938 366.967 345.494 129.321 46.4365 216.173 155.769 142.785 11.9869 130.798 119.827 110.366 20.972 89.394 60.4039 39.9326 75.1618 39.4506 34.4558 33.9406 82.885 77.6429 12.9906 71.9003 16.9717 11.7299 52.1721 27.2044 118.093 111.379 13.4653 153.751 106.317 92.591 78.6168 13.7263 13.9742 47.4341 38.703
internal_count=4006 1046 545 501 2960 2918 2885 2269 453 286 167 521 99 105 73 50 422 253 1816 79 1737 1685 1564 1538 1470 1384 518 186 866 624 572 48 524 480 442 84 358 242 160 301 158 138 136 332 311 52 288 68 47 209 109 473 446 54 616 426 371 315 55 56 190 155
is_linear=0
shrinkage=0.05


end of trees

feature_importances:
Column_4=58
Column_10=37
Column_3=30
Column_0=24
Column_1=24
Column_8=23
Column_9=19
Column_7=12
Column_6=11
Column_2=10

parameters:
[boosting: gbdt]
[objective: binary]
[metric: binary_logloss]
[tree_learner: serial]
[device_type: cpu]
[data_sample_strategy: bagging]
[data: ]
[valid: ]
[num_iterations: 10000]
[learning_rate: 0.05]
[num_leaves: 63]
[num_threads: 0]
[seed: 1237]
[deterministic: 0]
[force_col_wise: 0]
[force_row_wise: 0]
[histogram_pool_size: -1]
[max_depth: -1]
[min_data_in_leaf: 20]
[min_sum_hessian_in_leaf: 0.001]
[bagging_fraction: 1]
[pos_bagging_fraction: 1]
[neg_bagging_fraction: 1]
[bagging_freq: 0]
[bagging_seed: 32458]
[feature_fraction: 0.9]
[feature_fraction_bynode: 1]
[feature_fraction_seed: 15412]
[extra_trees: 0]
[extra_seed: 19498]
[early_stopping_round: 0]
[early_stopping_min_delta: 0]
[first_metric_only: 0]
[max_delta_step: 0]
[lambda_l1: 0]
[lambda_l2: 0]
[linear_lambda: 0]
[min_gain_to_split: 0]
[drop_rate: 0.1]
[max_drop: 50]
[skip_drop: 0.5]
[xgboost_dart_mode: 0]
[uniform_drop: 0]
[drop_seed: 818]
[top_rate: 0.2]
[other_rate: 0.1]
[min_data_per_group: 100]
[max_cat_threshold: 32]
[cat_l2: 10]
[cat_smooth: 10]
[max_cat_to_onehot: 4]
[top_k: 20]
[monotone_constraints: ]
[monotone_constraints_method: basic]
[monotone_penalty: 0]
[feature_contri: ]
[forcedsplits_filename: ]
[refit_decay_rate: 0.9]
[cegb_tradeoff: 1]
[cegb_penalty_split: 0]
[cegb_penalty_feature_lazy: ]
[cegb_penalty_feature_coupled: ]
[path_smooth: 0]
[interaction_constraints: ]
[verbosity: -1]
[saved_feature_importance_type: 0]
[use_quantized_grad: 0]
[num_grad_quant_bins: 4]
[quant_train_renew_leaf: 0]
[stochastic_rounding: 1]
[linear_tree: 0]
[max_bin: 255]
[max_bin_by_feature: ]
[min_data_in_bin: 3]
[bin_construct_sample_cnt: 200000]
[data_random_seed: 4078]
[is_enable_sparse: 1]
[enable_bundle: 1]
[use_missing: 1]
[zero_as_missing: 0]
[feature_pre_filter: 1]
[pre_partition: 0]
[two_round: 0]
[header: 0]
[label_column: ]
[weight_column: ]
[group_column: ]
[ignore_column: ]
[categorical_feature: ]
[forcedbins_filename: ]
[precise_float_parser: 0]
[parser_config_file: ]
[objective_seed: 21231]
[num_class: 1]
[is_unbalance: 0]
[scale_pos_weight: 1]
[sigmoid: 1]
[boost_from_average: 1]
[reg_sqrt: 0]
[alpha: 0.9]
[fair_c: 1]
[poisson_max_delta_step: 0.7]
[tweedie_variance_power: 1.5]
[lambdarank_truncation_level: 30]
[lambdarank_norm: 1]
[label_gain: ]
[lambdarank_position_bias_regularization: 0]
[eval_at: ]
[multi_error_top_k: 1]
[auc_mu_weights: ]
[num_machines: 1]
[local_listen_port: 12400]
[time_out: 120]
[machine_list_filename: ]
[machines: ]
[gpu_platform_id: -1]
[gpu_device_id: -1]
[gpu_use_dp: 0]
[num_gpu: 1]

end of parameters

pandas_categorical:null
