tree
version=v4
num_class=1
num_tree_per_iteration=1
label_index=0
max_feature_idx=10
objective=binary sigmoid:1
feature_names=Column_0 Column_1 Column_2 Column_3 Column_4 Column_5 Column_6 Column_7 Column_8 Column_9 Column_10
feature_infos=[13.130000000000001:702.40999999999997] [13.19:705.07000000000005] [12.93:699.36170000000004] [13.140000000000001:700.09500000000003] [904100:189560600] [0:3.0499999999999998] [13.280000000000001:700.5172] [13.456999999999999:691.09659999999997] [13.820499999999999:680.67899999999997] [13.119999999999999:698.70000000000005] [702500:189560600]
tree_sizes=6533 6656 6677 6658 6670 6673 6689 6660 6688 6678

Tree=0
num_leaves=63
num_cat=0
split_feature=2 3 7 10 3 7 10 10 8 4 10 4 4 0 0 2 0 8 2 4 4 3 2 0 4 7 3 2 10 4 0 3 10 0 10 7 2 7 4 4 0 3 7 7 0 8 3 2 10 10 4 4 4 4 4 4 7 8 2 3 1 4
split_gain=9.08123 9.63412 7.39351 4.91046 7.71717 8.98512 9.14231 5.57095 4.51548 9.73252 9.34887 5.02117 4.41521 3.87057 3.78647 4.84296 7.8962 4.92469 5.64796 3.73473 8.94512 8.16811 8.28623 5.56951 5.4461 4.76486 5.58307 4.41523 4.46855 3.84631 3.37461 3.43904 3.3623 3.3325 3.31578 3.29382 3.2267 3.19071 3.06736 3.90483 2.94172 4.90208 2.91586 2.90666 4.5441 6.21405 7.89554 5.81016 4.03499 4.35063 4.90699 9.96697 3.51445 3.06683 5.80644 2.7458 2.71701 2.68134 7.19538 9.39096 7.02344 6.37549
threshold=25.160000000000004 24.095000000000002 14.3725 25641743.500000004 520.23400000000004 481.05225000000002 19656550.000000004 20537706.500000004 560.32155 12377050.000000002 16321350.000000002 10785450.000000002 15962950.000000002 593.1450000000001 52.415000000000006 207.26500000000001 394.54000000000008 153.18425000000002 132.16500000000005 5120000.0000000009 4817900.0000000009 20.020000000000003 17.055000000000003 22.945000000000004 7896000.0000000009 16.171500000000005 15.025 17.840000000000003 3755500.0000000005 3681500.0000000005 21.325000000000003 20.265000000000004 10476950.000000002 21.045000000000005 21447950.000000004 531.10800000000006 14.300000000000002 22.814500000000006 21801933.500000004 25807750.000000004 96.50500000000001 87.875000000000014 22.238000000000003 338.97300000000001 320.35000000000008 253.57964999999999 215.25500000000002 202.43500000000003 9472150.0000000019 13657100.000000002 11289850.000000002 12922450.000000002 3154650.0000000005 24926344.000000004 29861434.000000004 23016138.500000004 23.688500000000001 112.90425000000003 145.41000000000003 140.68500000000003 154.20500000000001 47922950.000000007
decision_type=2 2 2 2 2 2 2 2 2 2 2 2 2 2 2 2 2 2 2 2 2 2 2 2 2 2 2 2 2 2 2 2 2 2 2 2 2 2 2 2 2 2 2 2 2 2 2 2 2 2 2 2 2 2 2 2 2 2 2 2 2 2
left_child=1 2 -1 4 5 6 43 8 11 -10 13 35 -13 -11 -8 17 34 18 40 20 27 22 25 32 -24 26 -21 36 29 33 31 -30 42 -29 -17 -6 -4 -32 -19 -40 41 -16 -23 44 45 46 47 52 -45 50 -50 -52 -2 -54 -55 -20 -3 -5 59 61 -60 -59
right_child=3 56 19 57 7 -7 14 -9 9 10 -12 12 -14 -15 15 16 -18 38 55 21 -22 23 24 -25 -26 -27 -28 28 30 -31 37 -33 -34 -35 -36 -37 -38 -39 39 -41 -42 -43 -44 48 -46 -47 -48 -49 49 -51 51 -53 53 54 -56 -57 -58 58 60 -61 -62 -63
leaf_value=0.1125889113985639 0.051778150402040424 0.054477102346407624 0.080797281707876548 0.075600512617806259 0.059678718821006234 0.12179213907650721 0.12599932887213844 0.023267403498815994 0.12006821740415098 0.058768435937951474 0.098231876220972347 0.099856721935147164 0.038742212510746853 -0.002740678874177005 0.078653629622710997 0.1522241452649063 0.056765813595231002 0.050725116692598791 0.09548317888782662 0.035404508606212755 0.11621207682124896 0.023895184797474475 0.07148779406063549 0.075456955460621991 0.12886021793316765 0.016989590512231478 0.105192862973744 0.10519286297374401 0.056765813595231016 0.13076747730718713 0.020570269030505607 0.11169488356699225 -0.0063167902004635651 0.048755324224349167 0.10851611794362645 0.0087028773699399098 0.040008238129708058 0.068781547651553782 0.10883399450596301 0.061795655758342866 0.065836514794611931 0.12747909907611907 0.064776302966112864 0.097851871981366953 0.10836826837974897 0.037032656852326942 0.12148213561788174 0.030800779082717424 0.075039742472555224 0.072294920182642317 -0.031349569484469333 0.054477102346407624 0.080923985406185756 0.026791079175156982 0.087556132114558122 0.13762169068256969 0.010565781874796155 0.049564464564842273 0.13076747730718713 0.0020274695608717003 0.071720817234802989 0.078794659365156089
leaf_weight=7.9895243644714347 13.232649728655813 5.2431253641843787 6.2418159097433117 139.31733110547066 5.4927980005741137 12.733304455876349 6.9908338189125052 8.2391970008611661 10.236578091979029 4.993452727794649 8.4888696372508985 7.2405064553022367 4.9934527277946472 5.2431253641843796 17.726757183671001 5.9921432733535829 6.2418159097433081 15.230030819773672 7.490179091691969 5.9921432733535784 9.4875601828098279 14.481012910604482 9.2378875464200991 7.4901790916919699 7.4901790916919699 7.2405064553022376 5.4927980005741119 5.4927980005741102 6.2418159097433108 5.2431253641843787 6.741161182522772 5.2431253641843796 5.9921432733535758 4.9934527277946472 15.729376092553137 7.4901790916919708 21.721519365906715 6.9908338189125061 7.4901790916919735 10.73592336475849 16.977739274501801 7.2405064553022376 6.2418159097433081 7.7398517280817023 10.73592336475849 10.236578091979025 9.4875601828098279 7.2405064553022376 7.9895243644714382 28.462680548429489 4.9934527277946463 10.486250728368757 142.06373010575771 7.7398517280817014 7.9895243644714355 7.9895243644714355 10.73592336475849 49.435182005167007 5.2431253641843787 7.4901790916919699 127.58271719515324 29.960716366767883
leaf_count=32 53 21 25 558 22 51 28 33 41 20 34 29 20 21 71 24 25 61 30 24 38 58 37 30 30 29 22 22 25 21 27 21 24 20 63 30 87 28 30 43 68 29 25 31 43 41 38 29 32 114 20 42 569 31 32 32 43 198 21 30 511 120
internal_value=0.072405 0.0619511 0.0657376 0.0745758 0.0779425 0.0804533 0.0791181 0.0615721 0.0673972 0.0808663 0.059436 0.0519278 0.074912 0.0272638 0.0902382 0.0881346 0.106331 0.0825358 0.0914199 0.0632093 0.0706949 0.0547847 0.0716021 0.0373535 0.0971769 0.0487553 0.0687815 0.064428 0.0748871 0.0958011 0.0618418 0.0818421 0.0266703 0.0783178 0.120574 0.0302696 0.0491129 0.0451142 0.0672871 0.0811265 0.081894 0.092813 0.0362088 0.0739045 0.0766866 0.0749687 0.077037 0.0746716 0.064173 0.0591536 0.0432162 0.0267911 0.0765289 0.0786045 0.0576559 0.117232 0.0249742 0.0701742 0.0667334 0.0555458 0.0740516 0.0605947
internal_weight=0 172.024 156.045 828.414 469.385 406.966 394.233 62.4182 54.179 28.962 18.7254 25.2169 12.234 10.2366 125.835 118.844 27.9633 90.8808 57.4247 148.056 78.3972 69.6587 35.4535 34.2052 16.7281 18.7254 11.4849 68.9096 40.9463 15.7294 25.2169 11.4849 26.715 10.4863 21.7215 12.983 27.9633 13.732 33.4561 18.2261 41.945 24.9673 20.7228 268.398 208.726 197.99 187.754 178.266 59.6718 51.9319 23.4692 15.4797 171.026 157.793 15.7294 15.4797 15.979 359.029 219.712 86.8861 132.826 79.3959
internal_count=4007 689 625 3318 1880 1630 1579 250 217 116 75 101 49 41 504 476 112 364 230 593 314 279 142 137 67 75 46 276 164 63 101 46 107 42 87 52 112 55 134 73 168 100 83 1075 836 793 752 714 239 208 94 62 685 632 63 62 64 1438 880 348 532 318
is_linear=0
shrinkage=1


Tree=1
num_leaves=63
num_cat=0
split_feature=2 3 3 8 6 9 10 10 4 8 4 4 4 4 8 0 3 4 6 6 2 10 3 3 1 2 0 3 10 3 10 6 4 4 4 4 6 1 10 6 10 10 4 0 10 3 1 10 10 10 10 10 0 10 10 4 3 0 10 4 4 4
split_gain=8.19535 8.68114 5.9199 5.97013 5.80424 4.58142 6.68909 6.55816 6.25969 7.00663 5.29192 5.27412 5.24633 4.50808 4.48054 5.83968 5.73559 10.2419 8.90944 6.1908 5.05053 4.62182 3.99587 8.74453 8.02341 3.91438 5.91243 3.95356 4.56794 3.99535 4.34415 3.74267 3.33493 5.49204 4.50767 4.60221 3.05139 7.18728 4.62146 5.62831 4.55033 5.30294 4.39299 4.83358 4.38567 7.82113 5.81206 4.04203 6.84737 5.37629 3.75406 3.64309 4.85486 5.35266 5.04772 5.40562 3.56318 3.55194 3.31584 3.18024 3.42172 3.03537
threshold=25.160000000000004 24.095000000000002 14.225000000000003 14.456500000000004 14.790000000000003 536.30450000000008 25641743.500000004 18987500.000000004 16936108.500000004 560.32155 12377050.000000002 13948450.000000002 10785450.000000002 24172381.500000004 15.04725 16.595000000000002 20.020000000000003 5792700.0000000009 21.128000000000004 19.73 20.365000000000006 6162750.0000000009 486.40400000000005 520.23400000000004 531.97500000000014 207.26500000000001 394.54000000000008 170.13500000000002 24794335.000000004 178.82000000000002 20917599.500000004 21.128000000000004 25090274.000000004 29861434.000000004 23552050.000000004 21970300.000000004 52.81900000000001 59.875000000000007 15523650.000000002 106.798 13987900.000000002 4314450.0000000009 7973800.0000000009 98.590000000000018 16637050.000000002 204.35500000000005 225.30500000000004 14132900.000000002 6531200.0000000009 3940250.0000000005 2732800.0000000005 8288600.0000000009 297.97000000000008 11650150.000000002 10063150.000000002 11495850.000000002 200.98000000000005 354.87630000000007 17749850.000000004 4382900.0000000009 5892650.0000000009 17957250.000000004
decision_type=2 2 2 2 2 2 2 2 2 2 2 2 2 2 2 2 2 2 2 2 2 2 2 2 2 2 2 2 2 2 2 2 2 2 2 2 2 2 2 2 2 2 2 2 2 2 2 2 2 2 2 2 2 2 2 2 2 2 2 2 2 2
left_child=1 2 -1 -4 -5 6 7 22 9 12 -11 -12 -7 -10 -6 -16 19 20 -19 -17 -18 31 32 -24 -25 27 61 28 -9 -29 -31 -22 34 -34 35 36 47 -38 39 42 41 50 43 -39 46 -46 -40 48 49 -2 -41 -43 56 54 -54 -56 -53 -55 -47 -51 -61 -27
right_child=5 -3 3 4 14 8 -8 25 13 10 11 -13 -14 -15 15 16 17 18 -20 -21 21 -23 23 24 -26 26 -28 29 -30 30 -32 -33 33 -35 -36 -37 37 38 44 40 -42 51 -44 -45 45 58 -48 -49 -50 59 -52 52 53 57 55 -57 -58 -59 -60 60 -62 -63
leaf_value=0.034934316536940395 0.04638458407259842 -0.045010282717289726 0.045145575937322761 -0.043076523782006708 0.030153227576556099 -0.064191074199406159 -0.0020199022081008773 0.011960600621448426 -0.048267236414883036 0.045386490092145036 -0.042459533490314547 0.027791509652374244 0.0049043279529373783 -0.0033373942700482811 -0.040397549482146675 0.00025058007805977666 0.037555247511530637 -0.07581617711019728 -0.016643218819866894 0.052192005912865151 -0.037502719912082441 -0.049222020197577328 0.054442273995991657 -0.043047630145283226 0.039413704425680068 0.0721917302812842 -0.00086487427374201317 -0.033285277376957349 0.045564467426062905 0.044447191183614045 -0.006470979154059097 0.0091489678138922757 -0.048931286965471998 0.0064213693462477316 0.048456915867002459 -0.042638027976745242 -0.045294538618372571 -0.018706154964910775 0.0066372641846618591 -0.0030279354474283282 -0.029363927410948117 0.032596658240932552 0.047548919899181953 0.038098820323367047 0.023298934528601482 -0.051309715641184653 0.062755091283613548 -0.025825358521213145 0.039923737166337771 -0.042984348655323884 -0.061720640039288982 0.0041100713791489135 -0.023827563848042611 -0.06014530031211654 0.06590332578956927 -0.0022202507469084279 0.056543041889650127 -0.013178996079938464 0.00039711708055344412 0.029337318420738574 -0.022599470980748129 0.033020121058220407
leaf_weight=8.2316872924566251 4.9930299073457745 15.995806723833082 4.9866861402988425 12.48562631011009 7.4903311133384696 5.4996780306100863 352.29610861837864 65.102871865034103 14.736343860626222 10.213146418333055 4.9952267706394178 5.7436453998088837 5.4893148839473724 8.9881222546100599 13.740907326340674 32.196851298213005 7.7315224111080161 9.9986510276794451 17.486248999834061 6.9803842455148688 5.2390642613172558 5.490309700369834 11.211985543370249 6.7453615516424161 5.2424236238002777 6.7255963236093548 10.737204715609549 8.4861491322517413 11.972906231880186 5.7426426112651852 15.482041567564009 23.964847236871719 8.4957982450723666 9.4833439141511899 5.2410026043653479 5.7424390166997901 8.4860993325710279 9.9860598146915454 9.4850014001131076 4.9952020943164808 21.467090681195259 8.7311074286699277 8.2365081757307035 5.991877242922782 19.218868643045429 6.7424042224884015 8.9841825962066633 5.7405966073274604 20.466474860906601 5.7415620237588909 5.9930840134620667 9.2351141571998578 8.7336807847023028 6.990961670875552 4.9905636459588987 6.9915862381458282 4.9914461970329276 9.4906438589096052 5.7402199953794479 5.9901877641677839 6.7389612346887589 18.684873431921005
leaf_count=33 20 64 20 50 30 22 1411 261 59 41 20 23 22 36 55 129 31 40 70 28 21 22 45 27 21 27 43 34 48 23 62 96 34 38 21 23 34 40 38 20 86 35 33 24 77 27 36 23 82 23 24 37 35 28 20 28 20 38 23 24 27 75
internal_value=0 -0.00993012 -0.00633363 -0.00863217 -0.0105101 0.00206336 0.00306159 0.00732141 -0.0117904 0.00265989 0.0196195 -0.00488603 -0.029676 -0.0312454 -0.00738994 -0.00967939 -0.00581008 -0.0143926 -0.0381696 0.00950522 0.00101093 -0.00713288 0.00283717 0.022701 -0.00698615 0.0160215 0.0302432 0.0112074 0.0171806 -0.00428811 0.00730566 0.000779843 0.00102368 -0.0197348 0.0026042 0.00156341 0.00269075 -0.000406064 0.001875 -0.00357585 -0.0091876 -0.00309951 0.0178868 0.00259625 0.0145676 0.003284 0.0339353 0.0136315 0.0187875 0.00035124 -0.0350393 0.0027348 -0.00233535 -0.0118363 0.00508159 0.0261532 0.0225064 -0.0331006 -0.027532 -0.0120926 0.00184137 0.043388
internal_weight=0 172.019 156.023 147.791 142.805 828.211 772.545 420.249 55.6655 31.941 20.952 10.7389 10.989 23.7245 130.319 122.829 109.088 69.9106 27.4849 39.1772 42.4257 34.6942 277.315 23.1998 11.9878 142.934 36.1477 106.787 77.0758 29.7108 21.2247 29.2039 254.115 17.9791 236.136 230.895 225.153 175.482 166.996 116.825 92.6105 71.1434 24.2144 15.9779 50.1707 31.7015 18.4692 49.6708 43.9302 23.4637 10.9883 60.1551 51.424 37.1974 20.7158 11.9821 14.2266 16.4816 12.4826 18.4707 12.7291 25.4105
internal_count=4007 689 625 592 572 3318 3095 1684 223 128 84 43 44 95 522 492 437 280 110 157 170 139 1111 93 48 573 145 428 309 119 85 117 1018 72 946 925 902 703 669 468 371 285 97 64 201 127 74 199 176 94 44 241 206 149 83 48 57 66 50 74 51 102
is_linear=0
shrinkage=0.05


Tree=2
num_leaves=63
num_cat=0
split_feature=2 3 3 8 6 9 10 10 4 8 4 4 4 10 4 0 4 10 4 3 3 1 4 3 6 10 4 4 1 6 2 0 10 4 4 4 2 8 10 4 4 4 10 4 4 4 9 4 4 4 4 1 4 10 0 10 4 9 4 10 10 10
split_gain=7.3989 7.83308 5.3501 5.39864 5.23077 4.13659 6.04376 6.00196 5.64469 6.33049 4.79621 4.75947 4.73889 4.23945 4.68502 5.02535 5.36638 6.85982 5.25866 4.2023 6.98495 7.15831 4.12927 7.2607 7.18733 5.08218 4.41596 4.06435 4.01136 3.98496 3.90981 3.57693 3.4729 3.53665 3.36784 6.47076 3.35251 3.21974 5.94542 3.43285 2.98179 6.46479 4.43899 3.61818 5.23472 2.96901 2.75313 2.90099 2.76061 6.91812 5.55137 5.13194 3.71477 3.56932 7.89914 6.05213 5.60471 3.42785 2.55381 2.53089 2.49805 4.79478
threshold=25.160000000000004 24.095000000000002 14.225000000000003 14.456500000000004 14.790000000000003 536.30450000000008 25641743.500000004 19656550.000000004 16936108.500000004 560.32155 12377050.000000002 13948450.000000002 10785450.000000002 20537706.500000004 21970300.000000004 107.95000000000002 16593171.000000002 23441355.000000004 18681956.000000004 486.40400000000005 520.23400000000004 531.97500000000014 5120000.0000000009 20.020000000000003 21.128000000000004 6959100.0000000009 4817900.0000000009 24172381.500000004 175.77000000000001 17.921000000000003 19.990000000000006 18.370000000000001 3614650.0000000005 3681500.0000000005 31842700.000000004 28765306.500000004 20.365000000000006 114.73575000000001 23998629.000000004 25807750.000000004 25090274.000000004 29861434.000000004 15985550.000000002 23718743.000000004 22335634.500000004 3681500.0000000005 460.43500000000006 3154650.0000000005 11049600.000000002 11654350.000000002 7896000.0000000009 130.91000000000003 7352850.0000000009 14524800.000000002 59.550000000000004 14132900.000000002 12922450.000000002 73.965000000000018 5449700.0000000009 12057800.000000002 6678250.0000000009 7570650.0000000009
decision_type=2 2 2 2 2 2 2 2 2 2 2 2 2 2 2 2 2 2 2 2 2 2 2 2 2 2 2 2 2 2 2 2 2 2 2 2 2 2 2 2 2 2 2 2 2 2 2 2 2 2 2 2 2 2 2 2 2 2 2 2 2 2
left_child=1 2 -1 -4 45 6 7 19 9 12 -11 -12 -7 28 15 18 -17 -18 -15 40 -21 -22 26 25 30 31 32 -10 -9 -27 -25 -24 33 36 35 37 -6 38 -16 -39 43 -42 -43 44 46 -5 47 -2 50 -50 52 -52 60 55 -55 56 -51 -56 -3 -53 -49 -62
right_child=5 58 3 4 22 8 -8 13 27 10 11 -13 -14 14 34 16 17 -19 -20 20 21 -23 23 24 -26 29 -28 -29 -30 -31 -32 -33 -34 -35 -36 -37 -38 39 -40 -41 41 42 -44 -45 -46 -47 -48 48 49 53 51 59 -54 54 57 -57 -58 -59 -60 -61 61 -63
leaf_value=0.033251905953486448 -0.018979707111563687 -0.020103528969919782 0.043009440962395951 -0.070734088989084135 0.021136720574274979 -0.061023314902501041 -0.0019187701206876255 0.020328566588894932 -0.045825186502133991 0.043260315817550743 -0.04031254552259151 0.026427246075099439 0.0046601250290989465 0.00085990872407767547 -0.023863020376264119 0.022933112493423516 -0.037912604445873216 0.017210676287323114 0.066212584426070489 0.051925277503306756 -0.036021171642564402 0.040274291493184039 -0.037840747638815037 -0.034040764448212683 -0.014421097319087814 -0.0059646140378893748 0.03543581301076295 -0.0031701722036233688 0.07020793470912455 0.045904705929492459 -0.089993587915782297 0.013136282940205794 -0.011594345189273401 0.043576731646376272 0.0011921035365946608 0.064432150801886398 -0.032930756703535208 0.047595596303347198 0.043930331315536128 0.0089226700625242347 -0.047250332760690225 -0.024416541401220501 0.04074882021131887 0.041987167798113706 -0.044368130442457868 -0.020986092114931458 -0.033802357204971906 -0.00053911475609611339 -0.046953153313835837 -0.042096932065512509 0.054369069744245879 0.028239172254626039 -0.037298284529792926 -0.044572725397739571 0.055213331418569295 -0.050935962772931886 0.0074122588580140293 0.012129487359852472 -0.060375332275298503 -0.0098311899855936108 0.056455123700637905 0.00064754099306649703
leaf_weight=8.2161543071269971 13.240413546562193 6.9982669204473487 4.9729781299829474 4.9989444464445096 6.7294696420431155 5.4959598183631915 352.32068948447704 10.71618175506592 14.745259359478952 10.180169910192491 4.9981065243482572 5.7382759898900986 5.4881528317928314 7.473432704806326 9.2264401316642743 9.7119480073451978 17.953628703951839 8.2316617220640165 5.233844056725502 11.168757081031801 6.9982389062643033 5.4830813705921173 9.2375387251377123 6.2442562878131849 21.737487152218819 6.7401916086673728 8.46881255507469 8.9890964329242689 6.4610532075166693 8.2173111438751203 6.2442760765552521 5.4840126335620871 39.451866194605827 6.7292718589305869 15.450425833463667 9.7220789492130262 4.9953015744686127 12.707815483212473 4.9794696420431128 10.462797418236731 9.4964030981063861 4.9900640696287137 5.4866998493671417 5.7279966026544562 5.992678076028823 7.4971727877855301 4.9875153452157965 35.178909659385681 7.2394681870937339 6.7388812601566306 12.216116636991503 10.466390728950502 5.2402660995721808 5.9946048855781546 4.9874846041202536 6.7436303049325934 37.674616158008575 62.102767452597618 8.9984276890754682 7.4893833547830573 6.4807176887989035 9.4769366681575757
leaf_count=33 53 28 20 20 27 22 1411 43 59 41 20 23 22 30 37 39 72 33 21 45 28 22 37 25 87 27 34 36 26 33 25 22 158 27 62 39 20 51 20 42 38 20 22 23 24 30 20 141 29 27 49 42 21 24 20 27 151 249 36 30 26 38
internal_value=0 -0.00943608 -0.00601848 -0.00820226 -0.009986 0.00196168 0.00291031 0.00696188 -0.0112061 0.00253135 0.0186722 -0.00464212 -0.0282049 0.0159725 0.0124 0.000755108 -0.00881046 -0.0205839 0.0277772 0.00299639 0.0232001 -0.00250435 -0.00702202 -0.016094 -0.0317882 0.0020046 0.0017124 -0.0296701 0.0390902 0.0225312 -0.0620172 -0.018851 -0.00321969 0.014684 0.0214488 0.0280939 -0.00189856 0.0186419 -0.000100027 0.0301327 0.00121317 -0.0173719 0.00971067 0.00271008 0.00178138 -0.0408873 0.00295196 0.00374459 0.00512458 0.000559875 0.0120591 0.0293688 0.00279526 0.00332842 0.0104188 -0.00680112 -9.97944e-05 0.0153323 -0.0427571 0.01236 0.00690388 0.0233121
internal_weight=0 171.962 155.965 147.749 142.776 827.889 772.253 419.933 55.635 31.9007 20.9166 10.7364 10.9841 128.331 111.154 48.6045 35.8972 26.1853 12.7073 291.602 23.6501 12.4813 130.28 63.9051 34.226 29.6791 66.3747 23.7344 17.1772 14.9575 12.4885 14.7216 57.9059 18.454 62.549 47.0986 11.7248 37.3765 14.2059 23.1706 267.952 19.9732 10.4768 247.979 242.251 12.4961 236.258 231.271 218.03 131.481 86.5487 30.1719 56.3768 124.242 73.0849 51.1571 44.4135 67.0903 15.9967 17.9558 51.1366 15.9577
internal_count=4007 689 625 592 572 3318 3095 1684 223 128 84 43 44 515 446 195 144 105 51 1169 95 50 522 256 137 119 266 95 69 60 50 59 232 74 251 189 47 150 57 93 1074 80 42 994 971 50 947 927 874 527 347 121 226 498 293 205 178 269 64 72 205 64
is_linear=0
shrinkage=0.05


Tree=3
num_leaves=63
num_cat=0
split_feature=2 3 8 7 9 10 10 4 8 4 4 4 10 7 4 2 3 3 1 7 4 4 4 2 3 4 7 8 7 4 10 4 3 10 3 2 0 10 4 0 9 0 10 10 4 4 10 4 4 7 4 4 8 2 4 10 3 9 7 8 10 10
split_gain=6.68294 7.08299 6.21121 5.48356 3.73719 5.46178 5.42722 5.09369 5.72474 4.35093 4.29813 4.29184 3.84695 4.35739 4.94681 4.18868 3.80693 6.34636 6.46966 3.76554 3.75834 5.49794 3.67169 3.46286 4.59065 7.27289 4.50983 4.37491 3.88539 3.84733 3.78571 3.61744 5.93509 3.57443 3.64875 3.80145 3.49918 3.32816 5.0116 3.5782 5.08715 3.23783 2.72997 4.38363 2.69296 5.8384 4.01294 3.27637 4.72162 3.2574 2.744 2.38581 2.35568 6.70236 8.46589 9.16364 7.16502 6.45328 5.40471 5.60277 5.22462 8.26255
threshold=25.160000000000004 24.73 24.157500000000002 14.3725 536.30450000000008 25641743.500000004 19656550.000000004 16936108.500000004 560.32155 12377050.000000002 13948450.000000002 10785450.000000002 20537706.500000004 52.751000000000012 22525899.000000004 207.26500000000001 486.40400000000005 520.23400000000004 531.97500000000014 187.47200000000004 32830532.000000004 28765306.500000004 24172381.500000004 15.930000000000001 19.795000000000005 5792700.0000000009 15.522500000000003 20.892872500000003 14.643000000000002 7896000.0000000009 5429000.0000000009 3870000.0000000005 22.185000000000006 3614650.0000000005 20.830000000000002 22.405000000000005 14.495000000000003 24600556.000000004 21159920.500000004 190.57500000000002 389.50000000000006 107.95000000000002 7363350.0000000009 5509900.0000000009 25090274.000000004 29861434.000000004 15985550.000000002 23718743.000000004 22335634.500000004 446.58710000000008 3154650.0000000005 3681500.0000000005 112.90425000000003 145.41000000000003 47922950.000000007 49667750.000000007 140.68500000000003 152.59500000000003 109.53550000000003 107.85475000000001 67198291.000000015 40791562.000000007
decision_type=2 2 2 2 2 2 2 2 2 2 2 2 2 2 2 2 2 2 2 2 2 2 2 2 2 2 2 2 2 2 2 2 2 2 2 2 2 2 2 2 2 2 2 2 2 2 2 2 2 2 2 2 2 2 2 2 2 2 2 2 2 2
left_child=1 2 3 -1 5 6 16 8 11 -10 -11 -6 19 -14 37 20 44 -18 -19 -8 21 -16 -9 26 29 31 28 -27 36 42 -29 32 -26 -33 -35 -36 -5 38 39 41 -41 -15 43 -25 47 -46 -47 48 49 50 -2 -30 58 54 55 56 -54 -55 59 60 61 -7
right_child=4 -3 -4 23 7 52 12 22 9 10 -12 -13 13 14 15 -17 17 18 -20 -21 -22 -23 -24 24 25 27 -28 30 51 -31 -32 33 -34 34 35 -37 -38 -39 -40 40 -42 -43 -44 -45 45 46 -48 -49 -50 -51 -52 -53 53 57 -56 -57 -58 -59 -60 -61 -62 -63
leaf_value=0.036278198676220189 -0.018025404938617033 -0.056523656317400556 -0.042703890223935087 -0.0034281887366703605 -0.058123678493007307 0.0092508196658218477 0.021283277490935955 -0.04355618735043059 0.041267664808178527 -0.038308023650937204 0.02513798347908508 0.0044280846636039145 0.05249042248110284 0.011046395330538177 0.0086392082143358345 0.048501871987955456 0.049585295744894259 -0.03422763878798589 0.038360264981591015 0.071674814857628943 -0.011390119805150475 0.052754722907953501 -0.0030113595237097448 0.0098591832144570742 0.010599587281575507 -0.057863462268313973 -0.047309267609189 -0.051638905291379149 -0.019963603002945467 0.043399622039931328 -0.0016940288482194669 0.047705173879570628 -0.047670429835255317 0.037287129871752749 -0.038250290518642371 0.015008091759117865 -0.058079079963342245 0.029680026996009634 -0.041339452778298182 0.038008025626523209 -0.02312166086538613 -0.032904393746910121 0.034806337649901584 -0.039461363196570731 -0.044916281451390025 -0.023173848577706588 0.038805548137394674 0.040008865729788838 -0.04212005746402684 -0.02478790764676576 0.0054313636888950884 0.022368411106224968 -0.010360817844127687 0.056593963960851063 0.0053028563188029267 -0.071425047076289536 -0.067904502544852391 -0.00011867415707735404 0.028033347530653403 -0.041134324777336903 0.039326028723794676 -0.020509276415075006
leaf_weight=7.9437750577926627 13.244207531213759 7.4894932955503455 11.225332811474798 5.9821065068244952 5.4819548428058642 68.162452206015587 11.697082802653314 14.737850680947306 10.139177769422533 4.9966773688793165 5.7311274111270905 5.48698790371418 6.2095633894205085 7.2193705439567593 24.405160933732986 10.181279912590979 11.11244221031666 6.9967203885316831 5.4691780656576157 5.4274092316627494 11.715885058045385 9.938549652695654 8.9899759441614133 16.212089553475387 10.47586825489998 8.9754849672317523 10.496857553720472 5.2428528517484692 4.9938484132289878 7.9511613398790351 13.729976713657377 6.4612054675817516 7.4974957257509223 5.9802213460207012 6.2371591329574567 7.2394876182079315 5.7387371808290482 6.967885583639144 8.72756080329418 10.693705305457113 4.9921870082616797 9.9878428876399976 5.7348995953798285 6.2390262931585303 9.4904937446117419 4.9946449846029264 5.4737066328525543 5.7110869437456122 5.9967654943466178 10.231373712420462 212.66569383442402 9.9804066866636258 40.229060769081116 5.2332385629415503 30.708012029528618 9.745187431573866 6.2499944120645514 120.856828302145 18.975627720355988 7.9897379875183097 8.7387759238481504 35.454462319612503
leaf_count=32 53 30 45 24 22 273 47 59 41 20 23 22 25 29 98 41 45 28 22 22 47 40 36 65 42 36 42 21 20 32 55 26 30 24 25 29 23 28 35 43 20 40 23 25 38 20 22 23 24 41 853 40 161 21 123 39 25 484 76 32 35 142
internal_value=0 -0.00897099 -0.00680384 -0.00417186 0.00186526 0.00276681 0.00662115 -0.010659 0.00241054 0.0177829 -0.00441319 -0.0268334 0.0151959 0.011794 0.00938334 0.0194789 0.00284964 0.0221106 -0.00238106 0.0372543 0.0130635 0.0214056 -0.0281946 -0.00638532 -0.00185312 -0.00916512 -0.0195434 -0.0291018 -0.00862547 0.0126829 -0.0154955 0.00352978 -0.0137074 0.0154832 0.00478304 -0.00964055 -0.0301863 -0.00230224 -0.00765652 0.00128061 0.0185529 -0.0144646 0.00401789 -0.00384669 0.00115387 -0.0165146 0.00923403 0.00257668 0.0016938 0.00280645 0.00405619 0.00825087 -0.00182271 -0.005129 -0.0158102 -0.0273416 -0.0180987 0.00223513 0.00323262 -0.000677865 0.00219904 -0.000932153
internal_weight=0 171.827 164.338 153.113 827.457 771.893 419.55 55.5638 31.8359 20.867 10.7278 10.9689 128.163 111.039 104.829 56.2409 291.386 23.5783 12.4659 17.1245 46.0596 34.3437 23.7278 145.169 107.977 71.8398 37.192 27.9483 26.6951 36.1372 18.9728 43.8914 17.9734 25.9181 19.4569 13.4766 11.7208 48.5886 41.6207 32.8931 15.6859 17.2072 28.186 22.4511 267.808 19.9588 10.4684 247.849 242.138 236.141 225.91 14.9743 352.343 213.022 86.9323 56.2242 46.4791 126.09 139.321 120.345 112.356 103.617
internal_count=4007 689 659 614 3318 3095 1684 223 128 84 43 44 515 446 421 226 1169 95 50 69 185 138 95 582 433 288 149 112 107 145 76 176 72 104 78 54 47 195 167 132 63 69 113 90 1074 80 42 994 971 947 906 60 1411 853 348 225 186 505 558 482 450 415
is_linear=0
shrinkage=0.05


Tree=4
num_leaves=63
num_cat=0
split_feature=0 7 4 3 10 6 4 6 0 9 4 4 9 9 10 10 10 10 9 10 10 4 8 4 4 4 3 3 1 8 9 4 8 4 4 7 1 8 10 10 10 10 10 10 8 10 3 10 10 6 10 0 3 7 3 6 6 1 3 6 3 3
split_gain=5.87428 5.99089 4.75203 7.89303 7.0017 4.82144 4.3613 4.28667 11.6488 3.8911 3.82652 4.69239 3.70695 3.49287 3.37033 7.49088 6.27615 3.46279 3.32975 5.07128 6.69139 4.59924 5.18091 3.95006 3.89575 3.88388 3.61893 10.715 7.0263 5.69104 7.14242 3.34444 3.77719 3.32268 3.28889 3.27462 4.57514 4.09287 3.52266 3.91206 3.29235 3.76695 3.28983 3.94044 3.72133 3.26767 4.38404 4.936 3.14782 2.94665 2.74538 2.69225 4.96169 5.69777 2.55036 2.48263 15.0206 2.83552 3.85614 3.3568 2.26462 9.25013
threshold=30.480000000000004 14.3725 5734550.0000000009 20.020000000000003 7067150.0000000009 21.128000000000004 7896000.0000000009 52.81900000000001 56.995000000000012 22.185000000000006 4817900.0000000009 4952550.0000000009 22.990000000000006 20.265000000000004 13317500.000000002 19830638.500000004 15985550.000000002 6531200.0000000009 536.30450000000008 25641743.500000004 15523650.000000002 16936108.500000004 560.32155 12377050.000000002 10785450.000000002 13948450.000000002 215.25500000000002 204.35500000000005 358.50000000000006 191.11264500000004 190.32000000000002 15807750.000000002 253.57964999999999 24172381.500000004 2464450.0000000005 100.25500000000001 459.59500000000008 64.590025000000011 13987900.000000002 14524800.000000002 13657100.000000002 13197300.000000002 4176300.0000000005 3224850.0000000005 430.59942500000005 12982200.000000002 520.23400000000004 10243600.000000002 26547109.000000004 17.921000000000003 20917599.500000004 498.15000000000003 442.72000000000008 407.26890000000009 53.795000000000009 253.77740000000003 344.26995000000005 242.93500000000003 220.80500000000004 211.07500000000002 174.34000000000003 178.82000000000002
decision_type=2 2 2 2 2 2 2 2 2 2 2 2 2 2 2 2 2 2 2 2 2 2 2 2 2 2 2 2 2 2 2 2 2 2 2 2 2 2 2 2 2 2 2 2 2 2 2 2 2 2 2 2 2 2 2 2 2 2 2 2 2 2
left_child=1 -1 10 4 6 13 -4 14 54 -7 34 -12 -13 -5 17 16 -16 -2 19 20 35 22 24 -24 -20 -25 27 29 31 30 60 -28 -33 -23 -3 37 38 -10 40 -40 41 42 43 -37 -44 46 47 -38 -17 -6 -29 52 53 -30 -9 57 -57 58 59 -21 -22 -62
right_child=7 2 3 5 49 9 -8 8 18 -11 11 12 -14 -15 15 48 -18 -19 21 55 26 33 23 25 -26 -27 28 50 51 -31 -32 32 -34 -35 -36 36 45 -39 39 -41 -42 -43 44 -45 -46 -47 -48 -49 -50 -51 -52 -53 -54 -55 -56 56 -58 -59 -60 -61 61 -63
leaf_value=0.034574886984353084 0.010164362461639098 0.027923757493369162 -0.042398485280367097 -0.033289588397037433 0.0037505286794309051 0.007771146890529883 0.014689426794044802 -0.023019534078135846 -0.013744087670034306 -0.03308482188044392 0.052457160142087192 -0.012051352269500061 0.034211976475527518 -0.091886990556548892 0.0098530815687192137 0.051872022508871851 -0.066684784896088062 0.04556451209958183 -0.055453081207906089 -0.0012134459425716801 0.015024554767651188 -0.041439808229472186 0.039394160723216456 -0.036430757977685517 0.0042075942219569141 0.023918054951026922 0.067499466397825433 -0.065626008007517833 -0.0079096270218396124 0.047725134553992854 -0.039840962401759328 0.050634101056236648 0.008771504694564598 -0.0028605345853917781 -0.011415862612570131 -0.0014507478407697035 0.057362749622085867 0.030815813100592733 -0.05541051074679796 -0.012112734563709752 0.027922595289911312 -0.047252792601472381 0.0073221332209189157 -0.057337107784879854 -0.033362526300303917 0.048508418338504944 -0.020652810007109168 -0.00861254780479314 0.0051895768705898029 0.048318790452927814 -0.01495185627864542 0.033537555137760959 -0.042729471428888319 0.055935652371980872 -0.070971068953277108 -0.07571862858731522 0.016623433455974276 0.036660043771259962 -0.036757256482286185 0.035119820689017735 -0.057754787599150016 0.022730009658541966
leaf_weight=7.9189926236867896 13.969088152050974 5.7294011414051047 10.23374915122986 4.9715006053447706 7.9704372733831388 7.4953623414039603 4.9704565852880469 4.9909025281667692 7.7333579957485226 26.194066718220711 5.9644739031791714 14.205701053142549 6.2283778488636008 5.2063602954149246 5.2314435988664645 6.4301673620939246 5.488445371389389 13.666430070996283 5.4592214375734347 304.59764933586121 100.02308091521263 14.716503873467447 10.091518968343737 4.9915651232004148 5.4858259707689285 5.7224883586168289 8.1700533330440539 5.2252073138952237 11.684131711721429 10.452236980199812 6.9763541817665091 10.896380186080934 10.659635215997694 8.9907695800065976 73.078722283244133 6.994910776615141 5.919353544712072 15.445633709430693 7.747876629233363 15.970338985323904 7.2352355271577826 5.492878019809722 42.127655804157257 5.744211807847023 6.4858466833829871 5.4547217339277259 9.211676746606825 5.4407864511013031 8.2369045168161374 6.9360115230083466 5.4717684537172318 6.6858501434326163 5.7355414927005759 4.9856329709291449 6.2396084517240524 7.2419525533914593 11.237018212676047 4.9942815303802481 7.4914222955703726 6.4925659894943228 5.4880353659391394 10.214236080646513
leaf_count=32 56 23 41 20 32 30 20 20 31 105 24 57 25 21 21 26 22 55 22 1220 402 59 41 20 22 23 33 21 47 42 28 44 43 36 293 28 24 62 31 64 29 22 169 23 26 22 37 22 33 28 22 27 23 20 25 29 45 20 30 26 22 41
internal_value=0 -0.00798397 -0.00986484 -0.0195751 0.000137849 -0.0331061 -0.0237357 0.00184395 0.000883052 -0.023995 -0.00303691 0.0134389 0.00204987 -0.0632644 0.0155884 0.00243597 -0.0293333 0.0276706 0.00164275 0.00258785 0.00682211 -0.0101454 0.00229673 0.016946 -0.0255502 -0.00419782 0.0127129 0.00844054 0.0231618 0.0123083 0.00929137 0.0402577 0.0299327 -0.026809 -0.00855585 -0.00129917 -0.00452787 0.015949 -0.00948589 -0.0262565 -0.00411648 -0.00758433 -0.00403282 -0.0266505 0.00189413 0.0141027 0.00497984 0.0257648 0.0256556 0.0244883 -0.0397049 0.00569272 -0.00261631 0.0111854 -0.0496611 -0.00174072 -0.0195656 -0.000722763 -0.0013088 -0.000455157 0.0122532 -0.0053999
internal_weight=0 187.104 179.185 73.9779 30.1107 43.8673 15.2042 811.438 758.416 33.6894 105.207 26.3986 20.4341 10.1779 53.0225 25.387 10.7199 27.6355 747.185 691.728 349.673 55.4579 31.7506 20.8056 10.945 10.7141 202.668 143.851 58.8172 133.154 122.702 29.7261 21.556 23.7073 78.8081 147.004 123.825 23.179 97.799 23.7182 74.0807 66.8455 61.3526 12.7391 48.6135 26.0265 20.5718 11.3601 14.6671 14.9064 10.697 29.0912 22.4053 16.6698 11.2305 342.055 18.479 323.576 318.582 311.09 115.725 15.7023
internal_count=4007 751 719 297 121 176 61 3256 3043 135 422 106 82 41 213 102 43 111 2998 2775 1405 223 128 84 44 43 815 578 237 535 493 120 87 95 316 590 497 93 392 95 297 268 246 51 195 105 83 46 59 60 43 117 90 67 45 1370 74 1296 1276 1246 465 63
is_linear=0
shrinkage=0.05


Tree=5
num_leaves=63
num_cat=0
split_feature=2 3 7 9 10 10 4 8 10 4 4 4 4 10 3 10 3 7 6 6 6 3 6 9 10 8 10 0 0 3 3 8 0 9 8 3 4 6 3 9 7 8 10 4 8 0 4 4 2 3 10 10 3 9 7 4 10 9 6 10 0 9
split_gain=5.52543 6.44551 4.80844 3.06066 4.47025 4.90172 4.15492 4.69177 3.60748 3.54304 3.01125 2.83449 2.69659 2.66364 4.51609 3.92205 3.35323 2.47909 2.24076 13.541 2.56367 3.47497 3.03583 2.05801 2.04284 6.74843 3.72281 6.2121 4.07561 3.88826 8.33803 7.65699 7.09349 4.52731 3.81598 9.33144 3.53238 4.82951 3.20564 7.70501 2.90691 2.74156 3.78469 3.8222 3.34051 5.18381 3.71922 7.23668 3.62904 3.2785 2.6913 2.68863 3.65832 4.72217 3.13689 3.35828 2.69658 6.04195 5.76908 2.65988 3.73393 5.11118
threshold=25.160000000000004 24.095000000000002 14.3725 536.30450000000008 25641743.500000004 24794335.000000004 16936108.500000004 560.32155 14920950.000000002 10785450.000000002 24172381.500000004 12091450.000000002 2464450.0000000005 4733300.0000000009 114.65500000000002 3940250.0000000005 53.795000000000009 23.688500000000001 253.77740000000003 344.26995000000005 241.12300000000002 220.80500000000004 211.07500000000002 406.18000000000006 10923850.000000002 37.69850000000001 15376850.000000002 111.12000000000002 469.92010000000005 215.25500000000002 204.35500000000005 191.11264500000004 354.87630000000007 190.32000000000002 253.57964999999999 206.21500000000003 17069555.500000004 250.53200000000001 66.270000000000024 42.730000000000011 172.18500000000003 82.583500000000029 24228850.000000004 28765306.500000004 114.73575000000001 158.97000000000003 19096306.000000004 16426850.000000002 105.26000000000001 92.330000000000027 19523100.000000004 10476950.000000002 520.23400000000004 435.13400000000007 400.97450000000009 14909100.000000002 6373700.0000000009 38.975000000000009 30.984000000000005 11650150.000000002 354.87630000000007 430.08500000000009
decision_type=2 2 2 2 2 2 2 2 2 2 2 2 2 2 2 2 2 2 2 2 2 2 2 2 2 2 2 2 2 2 2 2 2 2 2 2 2 2 2 2 2 2 2 2 2 2 2 2 2 2 2 2 2 2 2 2 2 2 2 2 2 2
left_child=1 2 -1 4 5 13 7 9 11 -5 -8 -9 -4 14 15 16 -2 -3 20 -20 21 22 -6 -21 51 -26 27 -27 34 30 31 33 36 38 35 40 -31 -38 39 -28 -29 -40 43 44 48 46 47 -46 49 -43 -41 52 53 54 55 56 58 -58 -15 -36 -61 -62
right_child=3 17 12 6 18 -7 10 8 -10 -11 -12 -13 -14 24 -16 -17 -18 -19 19 23 -22 -23 -24 -25 25 26 29 28 -30 32 -32 -33 -34 -35 59 -37 37 -39 41 50 -42 42 -44 -45 45 -47 -48 -49 -50 -51 -52 -53 -54 -55 -56 -57 57 -59 -60 60 61 -63
leaf_value=0.032967055273606473 0.049307641438886662 -0.010255920574439824 0.026552538321514243 -0.052979752366457272 -0.0011511882820647822 0.030937141001042303 -0.039458965468229017 0.050306272839334747 -0.011721642486674873 0.0039980764210457457 -0.0027172859589411425 0.0030197379655716385 -0.008450681143266716 -0.043572968843651291 -0.041981684851060033 -0.019804632352844791 0.00084592373061726238 -0.052239609539848346 -0.071857543163775003 0.038685263009527203 0.034883292442765661 -0.03488685230793629 0.033414992715079299 -0.0042193398471194483 -0.05082639004394595 0.028834213861814485 0.042289168098062713 0.00088507687586562682 0.022037216702621112 0.060718948576463309 -0.039110650717345888 0.051202336672477415 0.0021641067897118361 -0.035397572323476227 0.0053912482632730652 0.05813572592842086 0.05085775533838547 -0.00023205702972653249 0.028766347588119537 -0.05394390717536101 -0.040958627624008016 -0.026382535677947683 -0.033513703471716762 0.035221730445705014 0.040408945730243978 -0.0073470409686652791 0.042861215866606794 -0.038651598793313896 -0.045831241507694062 0.029707374719397779 -0.010827686309844153 0.04034665871353145 -0.023596632695808563 0.050862816008177103 -0.027944466497994487 -0.02422227012645722 0.055839109319944673 0.0079887771461121422 0.020418652387301086 -0.050882405055184356 0.0085592189282803852 -0.048379361332467639
leaf_weight=7.8906707018613806 5.4811404049396542 5.23658363521099 5.7241421788930884 5.4291296899318713 314.84400963783264 18.827661454677582 14.683325856924059 8.0796706974506396 7.4402350932359687 5.4846726804971695 8.9914859831333143 5.2144106775522223 141.93594896793365 4.9909583777189281 7.7417017072439185 12.470201835036276 10.234508246183394 10.702542111277578 7.2492434978485134 5.2405457198619825 4.9864202737808219 7.4982091784477225 6.4828631877899161 5.9893562793731689 5.4745982289314261 12.179845646023749 4.9440520852804211 9.7338406145572716 8.6354915052652341 10.339792281389238 10.210375368595122 9.4304959028959257 28.571165889501572 6.7348424792289725 5.9843317568302146 5.470670983195304 8.8793551623821276 9.6558461636304838 16.900927156209946 6.4853765815496436 7.2362016886472693 4.9736906290054339 5.4750813394784918 12.155490115284918 6.4761053472757357 20.681737884879112 14.669856235384939 5.2334093302488327 5.9861310720443717 5.470902681350708 8.1895815879106504 8.2060602903366071 7.2253526747226706 7.6221280843019477 5.2350249886512747 5.4742669165134421 10.915891230106356 16.673818483948708 11.967424660921095 13.234870761632921 9.4860911071300524 6.7430545240640631
leaf_count=32 22 21 23 22 1261 76 59 33 30 22 36 21 570 20 31 50 41 43 29 21 20 30 26 24 22 49 20 39 35 42 41 38 115 27 24 22 36 39 68 26 29 20 22 49 26 83 59 21 24 22 33 33 29 31 21 22 44 67 48 53 38 27
internal_value=0 -0.00816454 -0.00506158 0.00169788 0.00251302 0.00600525 -0.00966208 0.00218928 0.0161564 -0.0243459 -0.0255048 0.0317588 -0.00709376 0.00483138 -0.00815691 0.00113362 0.0177479 -0.0384464 -0.00163762 -0.0185859 -0.000699395 -0.00123898 -0.000453806 0.0158025 0.00611351 0.00415212 0.00522642 -0.00399495 -0.0100056 0.00882886 0.00444183 0.00776516 0.0198272 0.00447167 -0.0147855 0.00134896 0.0373044 0.0242427 0.00675413 -0.0116948 -0.0169575 0.0104466 0.00662991 0.00953536 0.00461771 0.0113944 0.0260878 0.0050739 -0.0147921 0.00299749 -0.0298823 0.0132678 0.0100981 0.0139699 0.00888091 0.0127348 0.0172763 0.0269208 0.00158552 -0.0249995 -0.031172 -0.0150982
internal_weight=0 171.49 155.551 826.323 771 418.709 55.3229 31.6481 20.7343 10.9138 23.6748 13.2941 147.66 399.882 35.9276 28.1859 15.7156 15.9391 352.291 18.4791 333.812 328.825 321.327 11.2299 363.954 285.643 280.169 78.7044 66.5246 201.464 144.018 133.808 57.4462 124.377 57.8891 22.4407 28.875 18.5352 117.642 19.619 16.97 98.0233 81.1224 75.6473 63.4918 47.0611 26.3794 11.7095 16.4307 10.4446 14.675 78.3109 70.1049 62.8795 55.2574 50.0224 44.5481 27.5897 16.9584 35.4483 29.464 16.2291
internal_count=4007 689 625 3318 3095 1684 223 128 84 44 95 54 593 1608 144 113 63 64 1411 74 1337 1317 1287 45 1464 1149 1127 316 267 811 579 538 232 500 232 90 117 75 473 79 68 394 326 304 255 189 106 47 66 42 59 315 282 253 222 201 179 111 68 142 118 65
is_linear=0
shrinkage=0.05


Tree=6
num_leaves=63
num_cat=0
split_feature=2 9 9 9 7 2 7 7 0 9 10 10 4 8 10 4 4 4 8 8 9 1 8 8 8 4 4 10 8 4 8 2 3 9 4 10 0 7 8 10 10 7 7 10 10 3 4 4 0 10 2 4 4 4 4 8 10 4 8 4 10 8
split_gain=4.99018 5.92591 5.6353 6.41125 3.62186 4.50818 3.99703 3.45493 3.14637 2.76809 4.04238 4.44016 3.75606 4.24957 3.27404 3.22757 2.73242 2.68653 3.67407 3.35475 6.3053 4.63064 2.91792 2.62137 2.87942 2.59418 2.47367 2.31406 4.66812 2.20804 2.09274 6.13278 7.74465 5.81796 5.17567 9.65169 5.04267 4.87576 5.05681 4.71018 7.4611 7.63947 6.75868 6.2914 5.93974 5.08771 4.19572 6.86954 4.06917 12.2635 8.11226 3.79655 8.69481 4.52096 6.70275 6.94617 5.10709 3.12619 3.08497 3.69211 6.58107 4.64878
threshold=25.160000000000004 23.490000000000006 22.990000000000006 21.565000000000001 14.3725 15.930000000000001 15.522500000000003 14.643000000000002 14.495000000000003 536.30450000000008 25641743.500000004 24794335.000000004 16936108.500000004 560.32155 14920950.000000002 10785450.000000002 24172381.500000004 2990550.0000000005 18.121000000000002 20.892872500000003 20.865000000000006 21.075000000000003 22.210750000000004 22.014750000000003 22.748850000000004 12091450.000000002 3154650.0000000005 7133750.0000000009 23.834750000000003 3681500.0000000005 112.90425000000003 145.41000000000003 140.68500000000003 152.59500000000003 47922950.000000007 45232085.500000007 129.66500000000005 109.53550000000003 107.85475000000001 67198291.000000015 40791562.000000007 90.033000000000015 96.059000000000012 45847073.000000007 33085388.500000004 86.300000000000026 26931001.000000004 32555100.000000004 117.19500000000001 56682750.000000007 125.76500000000001 27439227.500000004 26160377.500000004 19269100.000000004 21018593.500000004 213.53825000000003 28274250.000000004 38977498.500000007 163.73290000000003 29295281.000000004 35675895.500000007 174.29745250000005
decision_type=2 2 2 2 2 2 2 2 2 2 2 2 2 2 2 2 2 2 2 2 2 2 2 2 2 2 2 2 2 2 2 2 2 2 2 2 2 2 2 2 2 2 2 2 2 2 2 2 2 2 2 2 2 2 2 2 2 2 2 2 2 2
left_child=1 2 3 4 -1 6 7 8 -6 10 11 26 13 15 25 -11 -14 -7 -19 21 22 -20 -21 -5 -25 -15 -2 28 -3 -9 37 32 34 -33 35 36 -32 38 39 40 41 45 -43 -42 -44 46 -12 -48 49 -36 -50 52 53 -35 -55 56 -56 -49 -53 -60 61 -61
right_child=9 27 -4 23 5 17 -8 29 -10 12 30 -13 16 14 -16 -17 -18 18 19 20 -22 -23 -24 24 -26 -27 -28 -29 -30 -31 31 33 -34 51 48 -37 -38 -39 -40 -41 43 42 44 -45 -46 -47 47 57 50 -51 -52 58 -54 54 55 -57 -58 -59 59 60 -62 -63
leaf_value=0.031446304075838281 -0.016661383604076804 0.0094391310615373689 0.036924269578612473 -0.047687505268501233 -0.0024612087299625174 0.035892315563432156 -0.043934226159244999 -0.018714413465131367 -0.054284086827853718 -0.050677637670343605 0.021935124758321455 0.029479564284910099 -0.037599283329517105 0.048177084081212379 -0.01112934886906471 0.0037989819986276388 -0.0025812297112832849 0.022475577115173166 -0.0044083162802033274 0.013448178200598574 0.054561402753341419 -0.04878271110183003 -0.036240781251271767 0.012095459921217043 -0.034663774768495831 0.0028689114922391839 0.0053258334198485581 -0.054182380090225135 -0.042580817265796787 0.022013507171382247 -0.017840173890292781 0.054087418677683775 -0.063488286026327709 0.032189196008171307 -0.069209747412469991 -0.055842856773920757 0.024677596031237058 0.026779579744378973 -0.038915767302635233 0.037515549697336829 -0.051280789619306544 0.057865906653234239 -0.016771738471492489 -0.0054566560576581047 0.044291010403121271 -0.044735053376689454 -0.055922187065772011 0.035341253554913792 0.051189622070578658 0.032049607098539427 -0.016412555550554455 0.033463857672061385 -0.061740903281541276 -0.063533101980334905 0.058570892009819166 -0.042433913681211119 -0.0011887039028109958 -0.016836504002674443 0.032429904380875944 0.016754063882213996 0.013005771556017854 -0.032907541930909188
leaf_weight=7.8594525754451743 13.230370759963987 7.4741698056459489 7.9815598130226126 10.959676310420038 5.9844084978103655 5.9671272933483115 10.480970308184622 4.9942096322774878 5.7364775687456131 5.3928847610950488 15.475962892174719 18.772061869502068 14.640175685286524 8.0165221542119998 7.4442792534828177 5.4835321009159088 8.9921324551105482 14.920636683702467 22.64148631691933 6.4576478749513644 5.7272841781377783 7.9412223100662223 5.4465014487504959 5.7337961047887784 7.7323261052370071 5.2141264975070944 386.13941517472267 7.2139547914266577 10.195455476641653 9.9737489670515043 26.242898181080818 5.2138652801513663 7.4911507517099372 7.735184282064437 5.7413091361522692 13.745128482580183 9.497429817914961 18.955073058605194 7.9984140396118155 8.7239731699228269 10.74370853602886 11.73189513385296 9.7349768131971377 24.735149145126343 6.7395993322134009 6.7395993322134009 6.2404889464378384 5.7411940693855268 9.9848854541778582 6.2397878021001816 7.9879083633422843 9.4884849488735181 7.2377832680940619 4.9901507496833828 5.2437098473310533 6.7371425479650489 11.235804691910742 5.7415087521076202 9.234035909175871 6.2433421611785915 33.450010597705841 19.216834038496017
leaf_count=32 53 30 32 44 24 24 42 20 23 22 62 76 59 33 30 22 36 60 91 26 23 32 22 23 31 21 1555 29 41 40 105 21 30 31 23 55 38 76 32 35 43 47 39 99 27 27 25 23 40 25 32 38 29 20 21 27 45 23 37 25 134 77
internal_value=0 -0.00775949 -0.00392864 -0.00628197 -0.00130632 -0.00372858 -0.01777 -0.00749507 -0.0278245 0.00161534 0.0023902 0.0057145 -0.00920229 0.00208722 0.0153965 -0.0232123 -0.0242749 0.00382429 0.000793406 -0.00591649 0.0114538 -0.0159307 -0.00928599 -0.029531 -0.014754 0.0303214 0.00459744 -0.0303192 -0.0205766 0.00842423 -0.00155584 -0.00467278 -0.0148892 0.00237428 -0.0103063 -0.0202357 -0.00654175 0.00320918 -0.000503262 0.00223145 -0.000739075 0.00894165 0.0288625 -0.0193331 0.00820848 -0.00512727 0.00291331 -0.0136966 0.00609766 -0.0164736 0.0211442 0.000142516 -0.0117423 -0.00167384 -0.0109601 0.000339816 0.0178265 0.00925166 0.0067529 0.00303363 -0.00157416 -0.0207295
internal_weight=0 171.422 146.539 138.557 114.131 106.272 37.1698 26.6888 11.7209 825.584 770.4 418.142 55.1837 31.5513 20.6749 10.8764 23.6323 69.1019 63.1348 48.2141 17.6314 30.5827 11.9041 24.4258 13.4661 13.2306 399.37 24.8836 17.6696 14.968 352.258 212.957 86.9305 126.026 79.4393 49.4855 35.7403 139.302 120.346 112.348 103.624 68.1452 28.2065 35.4789 16.4746 39.9388 33.1992 17.7232 29.9539 11.9811 17.9728 120.812 43.1798 35.942 28.2068 23.2167 16.4795 11.4827 77.6327 68.1442 58.9102 25.4602
internal_count=4007 689 589 557 459 427 149 107 47 3318 3095 1684 223 128 84 44 95 278 254 194 71 123 48 98 54 54 1608 100 71 60 1411 853 348 505 318 198 143 558 482 450 415 273 113 142 66 160 133 71 120 48 72 484 173 144 113 93 66 46 311 273 236 102
is_linear=0
shrinkage=0.05


Tree=7
num_leaves=63
num_cat=0
split_feature=2 3 8 3 8 6 8 0 10 3 4 6 6 4 3 10 3 2 9 2 9 10 10 10 4 2 4 4 10 7 4 8 2 6 3 10 3 10 4 0 0 3 10 10 8 4 4 10 4 4 7 8 4 4 10 4 3 9 7 10 4 4
split_gain=4.50935 5.65211 5.04428 3.61324 3.91043 5.53042 3.50339 5.06298 2.58167 2.53694 5.73243 7.55713 4.71591 3.38069 5.20539 3.31761 3.21838 3.32315 2.83306 2.50701 2.50372 3.64898 4.03898 3.53264 3.88215 3.52383 4.87748 4.2917 5.26626 3.5214 3.39679 3.85085 3.33721 3.18641 3.13436 5.53698 4.39624 2.97309 2.9443 2.87615 2.73334 2.93662 2.65792 6.38397 3.36843 2.57402 5.28754 3.63921 2.8554 4.31757 2.99957 2.42553 2.37766 2.34375 3.30734 2.27203 2.18256 2.16898 4.3007 2.77656 6.12168 5.14866
threshold=25.160000000000004 24.73 24.157500000000002 14.225000000000003 14.456500000000004 14.790000000000003 15.04725 16.595000000000002 3516650.0000000005 19.795000000000005 5792700.0000000009 21.128000000000004 19.441000000000003 3870000.0000000005 22.185000000000006 3614650.0000000005 20.830000000000002 22.405000000000005 22.185000000000006 15.045000000000002 536.30450000000008 25641743.500000004 19656550.000000004 20537706.500000004 22525899.000000004 98.785000000000011 18681956.000000004 16593171.000000002 23441355.000000004 187.47200000000004 16936108.500000004 560.32155 207.26500000000001 175.74600000000004 486.40400000000005 12982200.000000002 520.23400000000004 14920950.000000002 10785450.000000002 133.22500000000005 96.50500000000001 111.41500000000001 16321350.000000002 20033467.000000004 600.31389750000005 25090274.000000004 29861434.000000004 15985550.000000002 23718743.000000004 22335634.500000004 446.58710000000008 17.183250000000005 12091450.000000002 20109700.000000004 17538573.000000004 5449700.0000000009 68.155000000000015 27.120000000000001 28.836500000000001 4733300.0000000009 11049600.000000002 11654350.000000002
decision_type=2 2 2 2 2 2 2 2 2 2 2 2 2 2 2 2 2 2 2 2 2 2 2 2 2 2 2 2 2 2 2 2 2 2 2 2 2 2 2 2 2 2 2 2 2 2 2 2 2 2 2 2 2 2 2 2 2 2 2 2 2 2
left_child=1 2 3 -1 -5 8 -7 19 -6 12 13 -12 51 14 -11 -15 -17 -18 -13 -8 21 22 34 29 25 26 -25 -27 -29 -24 31 38 33 39 45 36 -36 52 -22 40 56 -42 -32 -44 -45 48 -47 -48 49 50 53 -9 -33 57 -55 -4 -26 -2 -59 -60 -61 -62
right_child=20 -3 55 4 5 6 7 9 -10 10 11 18 -14 15 -16 16 17 -19 -20 -21 30 -23 23 24 32 27 -28 28 -30 -31 42 37 -34 -35 35 -37 -38 -39 -40 -41 41 -43 43 44 -46 46 47 -49 -50 -51 -52 -53 -54 54 -56 -57 -58 58 59 60 61 -63
leaf_value=0.029343565324169114 0.029384291201223274 -0.050094753670893159 -0.014872095376743527 0.038951360937151597 -0.066141222155371493 0.029888985966517907 -0.013757019329202739 0.026041843012273733 -0.019664445300898892 0.010313546020274546 -0.062200371760152022 0.016547226655363539 0.050006833520249955 0.046841815435097398 -0.044294882710512143 0.036019206257763128 -0.034837778670078805 0.014975222878464306 -0.022978213623728545 -0.056583931851604458 -0.048525181831378363 -0.0014780969249471171 0.018656090296162806 -0.0054460361027143505 -0.00018837443233922504 0.020831332692379134 0.055881160116486576 -0.03220346013861098 0.012473322023591756 0.067686821335550637 -0.051285191028266244 0.046176898232386326 0.044654301319092225 -0.014360354783182695 0.033756599448849976 0.055625267529438707 -0.019280384678443924 -0.010567957227308918 0.0036097928273606523 0.039032341554182566 -0.032620876290753976 0.016058250405390741 0.031604319183889333 -0.004730152915524497 -0.058052115096242529 -0.043697604901011482 -0.022927488556059222 0.036187625477862299 0.03710492301866284 -0.040727120901720898 -0.024216326217915952 -0.0075283430145025674 0.0027256221260268877 0.037624424289008578 -0.0053518178985489974 -0.059967129242143979 0.040023586382451404 -0.041668372800777294 -0.011356117511701415 0.018333758835206045 -0.045300188505535778 0.00067021042982875394
leaf_weight=8.1372490823268873 6.959261715412139 7.4095846563577643 5.4764727652072889 4.911172702908515 4.9776977598667127 7.4715017676353446 7.2319597750902158 7.2132866680622127 7.4746970236301422 10.458977162837984 9.0967752039432543 7.7296959310770061 5.935260906815528 6.4493467509746578 7.4882968813180915 5.9682795256376293 6.2352976202964765 7.230888769030571 10.964326620101927 6.4780395328998566 5.3515459746122378 352.04136826097965 11.638473734259607 7.1840848326683027 5.4403660744428661 9.8798115998506528 5.9086522459983826 19.677094310522083 9.9218792021274549 5.3432350903749457 6.1785675287246731 7.9473434239625949 10.087123304605482 8.7008106857538206 6.7872131615877178 7.3615124076604834 9.207854747772215 7.4476564526557913 5.4824080765247345 12.36796887218952 5.956497907638548 6.4562114924192429 5.4722324311733272 5.466523125767706 6.4640846252441406 9.474126949906351 4.9924747347831708 5.4405885189771652 5.6702801734209052 5.9854434281587592 10.221833601593969 21.179265394806862 5.2138349413871765 11.201126456260683 7.4571297317743293 5.7006620615720749 8.8858278542757017 5.7390289306640616 31.421140149235725 55.624861881136894 6.4838621318340293 100.48677572607994
leaf_count=33 28 30 22 20 20 30 29 29 30 42 37 31 24 26 30 24 25 29 44 26 22 1411 47 29 22 40 24 79 40 22 25 33 41 35 28 30 37 30 22 50 24 26 22 22 26 38 20 22 23 24 41 85 21 45 30 23 36 23 126 224 26 404
internal_value=0 -0.0073806 -0.0054485 -0.00307416 -0.00489977 -0.00644265 -0.00332784 -0.00540188 -0.038243 -0.00170217 -0.0070586 -0.0248233 0.00947355 0.00420496 -0.0124712 0.0157678 0.00545592 -0.00808987 -0.00663504 -0.0339929 0.00153603 0.00227233 0.00543124 0.0128521 0.00958826 -0.000248129 0.0222305 -0.00770292 -0.0172273 0.0340834 -0.00876779 0.00199072 0.0185202 0.0130061 0.00217573 0.0197404 0.00322488 0.0146776 -0.0221428 0.0190948 0.00987277 -0.00730145 -0.0231129 -0.0131108 -0.0336204 0.000640116 -0.0166563 0.0078996 0.00203272 0.00120952 0.00227495 0.00100035 0.0289636 0.00347646 0.0204481 -0.0378719 0.0247531 0.00194458 0.000988617 0.00225041 0.00487984 -0.00211622
internal_weight=0 171.219 163.809 152.632 144.495 139.584 127.131 119.66 12.4524 105.95 71.6219 27.7908 34.3278 43.8311 17.9473 25.8838 19.4345 13.4662 18.694 13.71 825.028 770.004 417.963 127.448 110.466 52.5715 13.0927 39.4788 29.599 16.9817 55.0242 31.4428 57.8948 47.8077 290.515 23.3566 15.9951 20.6088 10.834 39.1069 26.7389 12.4127 23.5814 17.4028 11.9306 267.158 19.9072 10.4331 247.251 241.58 235.595 28.3926 13.1612 225.373 18.6583 11.1771 14.3262 206.715 199.756 194.017 162.595 106.971
internal_count=4007 689 659 614 581 561 511 481 50 426 288 112 138 176 72 104 78 54 75 55 3318 3095 1684 515 446 212 53 159 119 69 223 128 234 193 1169 95 65 84 44 158 108 50 95 70 48 1074 80 42 994 971 947 114 54 906 75 45 58 831 803 780 654 430
is_linear=0
shrinkage=0.05


Tree=8
num_leaves=63
num_cat=0
split_feature=2 3 8 7 3 3 4 7 4 10 3 8 9 3 10 4 3 8 8 10 1 7 1 0 0 10 10 10 10 4 4 10 4 4 8 2 9 3 7 10 8 1 10 10 0 10 10 8 10 8 0 4 10 10 3 4 10 10 0 8 3 10
split_gain=4.07891 5.13839 4.56513 3.3914 2.744 4.30072 4.95688 3.01985 2.93825 4.33351 3.80421 5.68746 2.86904 2.82142 2.5094 2.64048 2.44432 7.55952 3.36093 3.50574 2.36805 2.57776 3.07707 10.2276 3.34913 3.63001 7.71503 5.3069 2.591 2.48093 2.31957 2.99118 3.62474 5.79781 4.92697 3.65292 4.65871 4.46421 3.34997 3.95393 4.71875 8.81429 4.23216 3.63928 3.52927 3.71825 7.09485 3.31822 4.68371 3.71924 5.09927 3.53571 4.25906 9.18085 5.22293 3.99316 4.76431 3.66052 3.35084 6.6756 4.47467 4.09629
threshold=25.160000000000004 24.73 24.157500000000002 14.3725 15.860000000000001 14.805000000000001 3681500.0000000005 16.171500000000005 5792700.0000000009 5901300.0000000009 19.795000000000005 21.067000000000004 22.570000000000004 14.385000000000003 3614650.0000000005 3870000.0000000005 21.065000000000001 20.892872500000003 22.014750000000003 5089700.0000000009 27.215000000000003 28.836500000000001 54.035000000000004 56.995000000000012 48.115000000000009 13317500.000000002 19830638.500000004 5644600.0000000009 12749350.000000002 26560852.000000004 33428517.000000004 15669900.000000002 11654350.000000002 16426850.000000002 62.197050000000011 444.14000000000004 557.7509500000001 381.17500000000001 100.25500000000001 11650150.000000002 253.57964999999999 207.92500000000004 4176300.0000000005 3224850.0000000005 342.35500000000008 13657100.000000002 15092450.000000002 70.554800000000014 29025150.000000004 77.197180000000017 84.980000000000004 27056150.000000004 20537706.500000004 20033467.000000004 564.6450000000001 17270398.500000004 16637050.000000002 36873200.000000007 113.27000000000002 90.89500000000001 146.43500000000003 33750088.500000007
decision_type=2 2 2 2 2 2 2 2 2 2 2 2 2 2 2 2 2 2 2 2 2 2 2 2 2 2 2 2 2 2 2 2 2 2 2 2 2 2 2 2 2 2 2 2 2 2 2 2 2 2 2 2 2 2 2 2 2 2 2 2 2 2
left_child=1 2 3 -1 5 6 -5 -6 14 -10 -11 -12 -13 -8 15 -9 17 -16 -18 -20 -2 -22 24 28 25 27 -27 -23 -24 -28 31 38 -33 35 -35 37 -37 -34 -25 42 41 -41 43 -40 -42 -46 -47 48 -36 -49 -51 52 53 55 57 -52 -57 -54 59 -53 -60 -61
right_child=20 -3 -4 4 7 -7 13 8 9 10 11 12 -14 -15 16 -17 18 -19 19 -21 21 22 23 30 -26 26 29 -29 -30 -31 -32 32 33 34 47 36 -38 -39 39 40 44 -43 -44 -45 45 46 -48 49 -50 50 51 58 54 -55 -56 56 -58 -59 60 61 -62 -63
leaf_value=0.029196923060961184 0.03506968526224704 -0.047877384224439858 -0.036070660123786506 -0.032319909752482522 0.032972809494658972 -0.036298470849770947 -0.0039474149336042388 0.0024774266557761153 -0.036611205779146602 0.021636970394007218 -0.047428851732747419 0.034654335988755391 -0.016612454919891474 0.049287354239613008 -0.0057160950531933057 0.041405971267725883 -0.042318437726963663 0.063573848853294354 0.019080167754307972 -0.032679553800597373 -0.027034440424424613 -0.021063382822395258 -0.022291418880016761 0.015666244049254697 0.039184464167193858 -0.040829484212322624 0.041397455455567882 0.032932304421746182 -0.072071185138262911 -0.0061015056241511953 -0.0030273095643777821 -0.032118790433913989 0.022894525805251434 0.041462264287631695 0.0029325372456407272 -0.039247230953113228 0.027041945755872255 0.073618801589271435 0.00096490328940551781 -0.012428376900256801 -0.047884160223915812 0.058487531549826235 0.0083003787538191032 -0.052775625593145283 -0.029839845452610477 0.017199202782248568 -0.045921997429020887 0.038949189953699823 -0.051081050592540284 -0.047136351516394115 -0.031091336762201795 -0.020110153931284618 -0.00042927112990813861 0.070993008095484436 -0.052980784885719168 0.047441131268602804 0.0023915162535549398 -0.034974728513146175 -0.016357351121919435 0.026767232495168176 0.014296023346162291 0.078927499997519399
leaf_weight=7.7958259880542746 5.2080725580453864 7.3662071526050559 11.149491533637045 6.9584475457668331 6.2000699639320365 15.672591030597685 4.974987179040907 9.6844716668128985 13.380236014723776 10.623830914497377 8.112289711833002 5.2137114256620389 5.7263309061527252 4.9808271825313568 18.939201444387439 7.9169541448354712 7.2263731658458736 4.9691476076841345 8.7314529418945295 5.2314954549074164 7.9783957153558722 5.9829722791910198 4.9910629540681821 22.873162761330605 9.9311376810073835 9.7077909857034701 6.1515943855047208 19.006607845425606 5.4884295761585236 4.970195859670639 213.19144707918167 6.1975026428699485 34.097762212157249 8.4538537859916669 9.9176793992519396 4.9392772912979108 5.7196919322013855 4.9698558449745169 6.9927348345518094 16.716844394803051 9.9821229726076108 5.9381218254566184 64.613824620842934 5.7331238090991974 21.225597590208054 15.857390865683557 6.189358562231063 7.4301377385854712 6.7417927384376517 4.9604717791080466 6.7093143612146369 5.214530378580096 111.7013783454895 5.8635165095329276 5.4198694527149192 7.1870802193880072 31.999192804098129 8.2335687726736051 15.916448950767515 10.945818454027178 47.242431506514549 5.7367450296878806
leaf_count=32 21 30 45 28 25 63 20 39 54 43 33 21 23 20 76 32 29 20 35 21 32 24 20 92 40 39 25 77 22 20 855 25 138 34 40 20 23 20 28 67 40 24 262 23 86 64 25 30 27 20 27 21 449 24 22 29 129 33 64 44 190 23
internal_value=0 -0.0070274 -0.00518684 -0.00292648 -0.00465904 -0.0174283 5.65829e-05 -0.000942298 -0.00293062 -0.0129878 -0.00233655 -0.0157045 0.00781983 0.0226856 0.00397577 0.0199871 -0.00227339 0.00868523 -0.0146382 -0.000312638 0.00146109 0.0012474 0.00152558 0.000688965 0.0128614 0.00715597 -0.0082589 0.0200047 -0.0483626 0.0201707 0.00137903 0.00314573 0.00578496 0.00645728 0.00383361 0.0222687 -0.0036759 0.0293472 -0.00218298 -0.00484706 -0.0129537 0.00615948 0.00310962 -0.0232457 -0.0210846 -0.0149024 -0.000521312 0.00274128 -0.0189258 0.00405597 0.00308543 0.00403567 1.18059e-05 0.0120782 -0.00497042 0.00455138 0.010654 -0.00280083 0.0124146 0.0292692 0.00657117 0.0447039
internal_weight=0 170.854 163.488 152.338 144.542 32.5869 16.9143 111.956 105.755 43.0564 29.6762 19.0523 10.94 9.95581 62.6991 17.6014 45.0977 23.9083 21.1893 13.9629 824.328 819.12 811.141 755.391 55.7503 45.8192 20.8296 24.9896 10.4795 11.1218 744.912 531.72 355.598 349.4 299.674 49.7266 10.659 39.0676 176.122 153.249 75.9094 22.655 77.3397 12.7259 53.2545 43.2723 22.0467 291.22 16.6595 274.561 267.13 262.17 177.114 51.7591 125.355 45.8956 39.1863 119.935 85.056 21.8971 63.1589 16.6826
internal_count=4007 689 659 614 582 131 68 451 426 174 120 77 44 40 252 71 181 96 85 56 3318 3297 3265 3040 225 185 84 101 42 45 2998 2143 1432 1407 1206 201 43 158 711 619 306 91 313 51 215 175 89 1172 67 1105 1075 1055 713 209 504 185 158 482 342 88 254 67
is_linear=0
shrinkage=0.05


Tree=9
num_leaves=63
num_cat=0
split_feature=2 3 3 8 6 8 0 4 8 8 1 8 8 4 0 4 9 9 9 4 2 1 4 9 4 4 4 8 3 1 6 4 4 1 7 4 3 4 4 0 4 7 0 4 4 4 3 7 4 2 7 4 4 1 8 9 9 0 1 4 3 8
split_gain=3.68863 4.70587 3.44161 3.57884 4.4888 3.47899 3.91983 4.44797 2.71374 2.65144 4.0692 3.55739 3.03357 2.86424 2.75254 2.75647 2.73707 5.93994 4.61738 2.29677 2.27346 2.16922 7.19632 3.14802 2.33379 2.55732 5.67283 2.37877 4.07962 4.3104 8.17462 5.61364 4.50272 3.05769 4.6764 2.53869 4.05905 3.57798 4.24516 4.00808 3.92382 3.8013 5.11745 2.93694 2.3285 4.26385 5.07213 3.95403 2.76342 2.4748 2.5822 2.46362 8.65008 4.36245 3.49215 2.29759 4.42032 4.38892 3.07913 2.22977 3.03404 4.2502
threshold=25.160000000000004 24.095000000000002 14.225000000000003 14.456500000000004 14.790000000000003 15.04725 16.595000000000002 2598350.0000000005 18.121000000000002 21.067000000000004 21.075000000000003 24.056250000000002 20.371000000000002 5449700.0000000009 18.630000000000006 6445700.0000000009 22.410000000000004 22.770000000000007 20.865000000000006 3681500.0000000005 15.045000000000002 589.62500000000011 12091450.000000002 628.98500000000013 35941667.500000007 34561376.500000007 34067390.000000007 67.563500000000019 93.875000000000014 99.745000000000019 99.745000000000019 53219283.000000007 38102600.000000007 162.15250000000003 170.52900000000002 59444884.500000007 127.09000000000002 54581750.000000007 49164666.000000007 113.855 44706163.500000007 114.20000000000003 129.66500000000005 70886063.000000015 7896000.0000000009 10081250.000000002 520.23400000000004 122.76300000000001 5993500.0000000009 52.770000000000003 441.04320000000007 12922450.000000002 13850350.000000002 186.44000000000003 528.57438500000001 36.975000000000001 42.730000000000011 56.995000000000012 52.845000000000006 5734550.0000000009 52.415000000000013 91.669000000000025
decision_type=2 2 2 2 2 2 2 2 2 2 2 2 2 2 2 2 2 2 2 2 2 2 2 2 2 2 2 2 2 2 2 2 2 2 2 2 2 2 2 2 2 2 2 2 2 2 2 2 2 2 2 2 2 2 2 2 2 2 2 2 2 2
left_child=1 2 -1 -4 19 -6 20 -8 -9 10 14 16 -12 -13 -10 -16 18 -18 -11 -5 -7 24 -23 -24 25 26 44 -26 -29 31 -31 -30 -32 35 -35 37 43 38 40 -40 41 -34 -43 -37 47 46 49 59 -49 -46 -51 53 -53 -47 -55 -54 -57 58 -58 60 -2 -62
right_child=21 -3 3 4 5 6 7 8 9 11 12 13 -14 -15 15 -17 17 -19 -20 -21 -22 22 23 -25 27 -27 -28 28 29 30 32 -33 33 34 -36 36 -38 -39 39 -41 -42 42 -44 -45 45 51 -48 48 -50 50 -52 52 55 54 -56 56 57 -59 -60 -61 61 -63
leaf_value=0.027694905257376824 0.022318695506695879 -0.032749867272549603 0.036358427018469648 -0.062377059338541513 0.028674323331493713 -0.012480785207390712 0.042970680753609561 0.015227965300195956 -0.030287253855877296 -0.0091006073560904767 -0.063013770751050413 -0.0001802989101712679 -0.018789312016244144 -0.053288210668372395 -0.0070943607552717523 0.037282319012374603 -0.049199338670092692 0.01232471411610603 0.037744017682400877 -0.018446594873268361 -0.053339280599949336 0.031247241025438084 -0.042231967337644054 -0.0032243350224124816 -0.027784350412249803 0.023784856937382672 -0.04113970346655868 0.020173877108200136 -0.006315865326075568 0.052104067824162652 -0.029059891314723241 -0.068668409473363168 0.031209484619555358 0.0470474337394838 0.0022002329287909516 0.00073288205456524362 -0.028476154061797005 -0.040151632747349834 -0.013004628255476686 0.047128119442663673 -0.035918977604396371 -0.039415410813918528 0.016247517656657263 0.041087893472763301 0.063211298403490532 0.021746209261253209 -0.015223910878690456 -0.059193865729466735 -0.01187017826505312 0.012130826155537316 0.052344444034030171 0.040048254087136644 -0.02975177316915481 -0.021294600305582695 0.01852485945935264 0.040756538346480534 -0.0048167092182456574 0.0038899417751633541 -0.054287588988871718 -0.013864042674114131 -0.042331979615168353 0.0067913171683773145
leaf_weight=8.0954380035400373 18.102177515625954 15.725444823503492 4.8684372305870047 4.9490097165107709 7.454021915793418 7.2190565466880781 4.9502421617507926 13.644403025507925 7.7326319068670299 9.1280700564384478 6.8592883199453345 4.9822164177894575 8.9205702841281873 5.1767799258232117 12.167223751544954 4.9120411425828925 5.9686760157346752 11.447204560041426 12.414892092347143 7.46026811003685 6.4432836025953293 7.1758745312690762 12.882758840918543 8.6417597681283933 9.2295504808425886 14.962375834584234 7.2379124611616126 18.944784834980965 9.7298314869403821 6.7361541241407386 16.201418146491051 5.7388402372598639 6.2319020628929165 7.2294244170188895 29.662939101457596 9.9743483662605339 5.9902607649564734 9.4805890917777997 4.9915522783994657 6.2294536978006363 13.720805704593657 9.2428071200847643 7.4633716642856589 8.227594777941702 5.424487352371222 10.403016686439512 6.8717112988233557 4.9625936746597281 8.1525915861129743 12.666416168212892 5.8289849609136573 16.606133595108986 5.2085178792476645 32.951883018016815 6.6106845885515204 7.8789446502923957 7.4250728935003263 389.78651262819767 5.4569936394691467 18.861228600144386 5.7379323095083263 18.930159747600555
leaf_count=33 73 64 20 20 30 29 20 55 31 37 28 20 36 21 49 20 24 46 50 30 26 30 52 35 37 60 29 76 39 27 65 23 25 29 119 40 24 38 20 25 55 37 30 33 22 42 28 20 33 51 24 67 21 133 27 32 30 1570 22 76 23 76
internal_value=0 -0.00668961 -0.00404216 -0.00579354 -0.00724045 -0.00448607 -0.00651268 -0.00332905 -0.00554662 -0.00870633 -0.018162 -0.00089202 -0.0380131 -0.0272428 -0.00553713 0.00566849 0.00597927 -0.00876048 0.0178953 -0.0359667 -0.03175 0.00138958 -0.0121149 -0.026571 0.00187705 0.00336889 0.00285558 -0.00304181 -0.00174279 -0.00438993 -0.00164827 -0.0294485 -0.00433742 -0.000955771 0.0109885 -0.00635905 0.00722485 -0.0120882 -0.00653137 0.0203787 -0.0147683 -0.00211671 -0.0145484 0.018974 0.00339726 0.00459829 0.0226375 -0.00484759 -0.0297768 0.0335143 0.0248045 0.00344668 0.00466146 -0.00706504 -0.014641 0.00324804 0.0036667 0.00294097 -0.0257732 0.000457344 0.00677292 -0.00463503
internal_weight=0 170.519 154.794 146.698 141.83 129.421 121.967 108.304 103.354 89.7096 40.5918 49.1178 15.7799 10.159 24.8119 17.0793 38.9588 17.4159 21.543 12.4093 13.6623 823.792 28.7004 21.5245 795.092 610.066 595.104 185.026 175.796 156.851 141.383 15.4687 134.646 118.445 36.8924 81.5527 24.1922 57.3605 47.8799 11.221 36.6589 22.9381 16.7062 18.2019 587.866 513.119 30.7916 74.7467 13.1152 23.9199 18.4954 482.328 432.362 49.9656 39.5626 415.756 410.548 402.669 12.8821 61.6315 42.7703 24.6681
internal_count=4007 689 625 592 572 522 492 437 417 362 164 198 64 41 100 69 157 70 87 50 55 3318 117 87 3201 2459 2399 742 705 629 567 62 540 475 148 327 97 230 192 45 147 92 67 73 2370 2069 125 301 53 97 75 1944 1742 202 160 1675 1654 1622 52 248 172 99
is_linear=0
shrinkage=0.05


end of trees

feature_importances:
Column_4=159
Column_10=124
Column_3=74
Column_8=62
Column_0=43
Column_7=39
Column_9=36
Column_2=35
Column_6=27
Column_1=21

parameters:
[boosting: gbdt]
[objective: binary]
[metric: binary_logloss]
[tree_learner: serial]
[device_type: cpu]
[data_sample_strategy: bagging]
[data: ]
[valid: ]
[num_iterations: 10000]
[learning_rate: 0.05]
[num_leaves: 63]
[num_threads: 0]
[seed: 1237]
[deterministic: 0]
[force_col_wise: 0]
[force_row_wise: 0]
[histogram_pool_size: -1]
[max_depth: -1]
[min_data_in_leaf: 20]
[min_sum_hessian_in_leaf: 0.001]
[bagging_fraction: 1]
[pos_bagging_fraction: 1]
[neg_bagging_fraction: 1]
[bagging_freq: 0]
[bagging_seed: 32458]
[feature_fraction: 0.9]
[feature_fraction_bynode: 1]
[feature_fraction_seed: 15412]
[extra_trees: 0]
[extra_seed: 19498]
[early_stopping_round: 0]
[early_stopping_min_delta: 0]
[first_metric_only: 0]
[max_delta_step: 0]
[lambda_l1: 0]
[lambda_l2: 0]
[linear_lambda: 0]
[min_gain_to_split: 0]
[drop_rate: 0.1]
[max_drop: 50]
[skip_drop: 0.5]
[xgboost_dart_mode: 0]
[uniform_drop: 0]
[drop_seed: 818]
[top_rate: 0.2]
[other_rate: 0.1]
[min_data_per_group: 100]
[max_cat_threshold: 32]
[cat_l2: 10]
[cat_smooth: 10]
[max_cat_to_onehot: 4]
[top_k: 20]
[monotone_constraints: ]
[monotone_constraints_method: basic]
[monotone_penalty: 0]
[feature_contri: ]
[forcedsplits_filename: ]
[refit_decay_rate: 0.9]
[cegb_tradeoff: 1]
[cegb_penalty_split: 0]
[cegb_penalty_feature_lazy: ]
[cegb_penalty_feature_coupled: ]
[path_smooth: 0]
[interaction_constraints: ]
[verbosity: -1]
[saved_feature_importance_type: 0]
[use_quantized_grad: 0]
[num_grad_quant_bins: 4]
[quant_train_renew_leaf: 0]
[stochastic_rounding: 1]
[linear_tree: 0]
[max_bin: 255]
[max_bin_by_feature: ]
[min_data_in_bin: 3]
[bin_construct_sample_cnt: 200000]
[data_random_seed: 4078]
[is_enable_sparse: 1]
[enable_bundle: 1]
[use_missing: 1]
[zero_as_missing: 0]
[feature_pre_filter: 1]
[pre_partition: 0]
[two_round: 0]
[header: 0]
[label_column: ]
[weight_column: ]
[group_column: ]
[ignore_column: ]
[categorical_feature: ]
[forcedbins_filename: ]
[precise_float_parser: 0]
[parser_config_file: ]
[objective_seed: 21231]
[num_class: 1]
[is_unbalance: 0]
[scale_pos_weight: 1]
[sigmoid: 1]
[boost_from_average: 1]
[reg_sqrt: 0]
[alpha: 0.9]
[fair_c: 1]
[poisson_max_delta_step: 0.7]
[tweedie_variance_power: 1.5]
[lambdarank_truncation_level: 30]
[lambdarank_norm: 1]
[label_gain: ]
[lambdarank_position_bias_regularization: 0]
[eval_at: ]
[multi_error_top_k: 1]
[auc_mu_weights: ]
[num_machines: 1]
[local_listen_port: 12400]
[time_out: 120]
[machine_list_filename: ]
[machines: ]
[gpu_platform_id: -1]
[gpu_device_id: -1]
[gpu_use_dp: 0]
[num_gpu: 1]

end of parameters

pandas_categorical:null
