tree
version=v4
num_class=1
num_tree_per_iteration=1
label_index=0
max_feature_idx=10
objective=binary sigmoid:1
feature_names=Column_0 Column_1 Column_2 Column_3 Column_4 Column_5 Column_6 Column_7 Column_8 Column_9 Column_10
feature_infos=[12.99:700.25999999999999] [13.19:703.99000000000001] [12.720000000000001:699.57000000000005] [13.119999999999999:702.10000000000002] [702500:189560600] [0:3.29] [13.294:698.75420000000008] [13.354999999999999:690.46960000000001] [13.821000000000002:680.78600000000006] [13.119999999999999:702.10000000000002] [904100:189560600]
tree_sizes=3313 3355

Tree=0
num_leaves=31
num_cat=0
split_feature=4 10 1 2 4 8 10 4 10 4 10 8 2 7 3 9 4 4 4 10 4 8 10 4 4 4 10 7 10 4
split_gain=9.32668 16.3281 8.64458 7.52818 6.74745 7.03116 6.72021 13.2099 10.0571 6.70003 5.98783 6.33041 5.30241 5.14627 10.8697 6.887 4.85024 6.81371 4.82814 4.73079 4.8262 4.6261 8.17737 4.51912 11.4587 5.45138 6.93549 4.59904 4.37885 5.38168
threshold=8358550.0000000009 25606145.500000004 543.20000000000016 14.125000000000002 15976750.000000002 549.63807500000007 9453700.0000000019 15595800.000000002 15339400.000000002 21260141.500000004 10427300.000000002 17.764750000000003 18.545000000000005 36.876500000000007 19.740000000000006 39.360000000000007 46899937.500000007 38312997.500000007 33715681.000000007 24666350.000000004 30110395.000000004 14.576000000000002 5425950.0000000009 19313519.500000004 22492766.500000004 23286600.000000004 31033877.500000004 197.42100000000002 7331700.0000000009 5574650.0000000009
decision_type=2 2 2 2 2 2 2 2 2 2 2 2 2 2 2 2 2 2 2 2 2 2 2 2 2 2 2 2 2 2
left_child=3 2 6 21 5 -4 7 -2 13 -6 11 -5 -13 14 -8 -15 17 19 -17 -10 -21 22 -1 27 -25 26 -26 -3 29 -14
right_child=1 23 4 10 9 -7 8 -9 16 -11 -12 12 28 15 -16 18 -18 -19 -20 20 -22 -23 -24 24 25 -27 -28 -29 -30 -31
leaf_value=0.018715989083542203 0.11613037048331666 0.07122377002072508 0.02586821173611533 0.044750079538908236 0.011563766430969159 0.090761548974095441 0.10729351578079346 0.028729100797144531 0.085470067174224312 0.071815823928402966 0.023722544940343378 0.094187950506962631 0.067148975089553406 0.15070700712648177 -0.0063167902004635512 0.072347861412562831 0.041473061159911118 0.14279150379557087 0.0050617458377208852 0.12402630193349756 0.048755324224349153 0.14535240193204202 0.13553562574223585 0.027060248844877476 0.073549696086602501 0.067024861386009521 0.16891266478757688 0.12440994606045552 0.083363749176217347 0.044273931569310365
leaf_weight=2.9960716366767866 32.207770094275475 10.236578091979029 5.2431253641843822 37.450895458459854 10.486250728368761 20.473156183958054 3.2457442730665189 4.9934527277946463 200.73679965734482 8.2391970008611661 9.9869054555892927 16.728066638112068 91.879530191421509 2.7463990002870551 5.9921432733535767 91.130512282252312 5.4927980005741111 5.7424706369638434 2.7463990002870551 14.481012910604479 2.4967263638973227 4.2444348186254501 2.9960716366767883 17.97642982006073 5.2431253641843778 313.08948603272438 2.9960716366767883 6.7411611825227729 25.716281548142433 35.703187003731728
leaf_count=12 129 41 21 150 42 82 13 20 804 33 40 67 368 11 24 365 22 23 11 58 10 17 12 72 21 1254 12 27 103 143
internal_value=0.072405 0.0750256 0.0817482 0.0635115 0.0609061 0.0775309 0.084238 0.104399 0.081998 0.0380747 0.061539 0.0633593 0.0674582 0.0692539 0.0336003 0.0726626 0.0878905 0.0890315 0.0703794 0.0876135 0.112957 0.105415 0.0771258 0.0671677 0.065908 0.0680813 0.108227 0.0923418 0.0645415 0.0607475
internal_weight=0 772.737 416.454 227.701 44.4417 25.7163 372.012 37.2012 334.811 18.7254 217.465 207.478 170.027 105.861 9.23789 96.6233 228.95 223.457 93.8769 217.715 16.9777 10.2366 5.99214 356.283 339.305 321.329 8.2392 16.9777 153.299 127.583
internal_count=4007 3095 1668 912 178 103 1490 149 1341 75 871 831 681 424 37 387 917 895 376 872 68 41 24 1427 1359 1287 33 68 614 511
is_linear=0
shrinkage=1


Tree=1
num_leaves=31
num_cat=0
split_feature=4 10 1 3 4 10 4 10 4 10 10 7 3 6 4 4 6 4 4 2 10 1 2 4 10 4 3 4 4 0
split_gain=8.41656 14.743 7.8057 6.87541 6.08385 6.08246 11.9417 9.08468 6.03416 5.39174 5.30597 4.64239 9.79582 6.24331 4.37816 6.18519 4.36989 4.35115 4.37127 5.54397 5.04045 5.86498 4.42237 4.30387 4.28589 4.37019 4.24509 5.1298 11.2585 6.50329
threshold=8358550.0000000009 25606145.500000004 543.20000000000016 14.365 15976750.000000002 9453700.0000000019 15595800.000000002 15339400.000000002 21260141.500000004 10427300.000000002 7331700.0000000009 36.876500000000007 19.740000000000006 39.324930000000009 46899937.500000007 38312997.500000007 545.16231000000005 33715681.000000007 21517800.000000004 163.51500000000001 13949190.000000002 345.29000000000002 46.340000000000011 12896650.000000002 24666350.000000004 30110395.000000004 599.37500000000011 19313519.500000004 22492766.500000004 334.70970000000005
decision_type=2 2 2 2 2 2 2 2 2 2 2 2 2 2 2 2 2 2 2 2 2 2 2 2 2 2 2 2 2 2
left_child=3 2 5 -1 16 6 -2 11 -6 10 -5 12 -7 -13 15 24 -4 18 19 22 -21 -22 -15 -24 -9 -26 27 29 -29 -3
right_child=1 26 4 9 8 7 -8 14 -10 -11 -12 13 -14 17 -16 -17 -18 -19 -20 20 21 -23 23 -25 25 -27 -28 28 -30 -31
leaf_value=0.031641212222746413 0.041626854305994006 0.0057342608059463354 -0.051858611462997785 -0.011948732673087945 -0.057722965547746453 0.03319736221496062 -0.041444904256679557 0.012418416090067486 -0.00055966664254447651 -0.046192570594942813 0.010495351254241279 0.074719728187664772 -0.074684905104586627 -0.021290712848718439 -0.029358704983016105 0.067126584499630673 0.012363000186615514 -0.063889853511927261 0.033570932395242177 -0.0015344902675759364 -0.054798575247211101 0.0035316573153434862 0.096510365895982289 0.022729690261143402 0.049167635288813828 -0.022450617722047445 -0.066897136837799229 -0.045478901852681441 -0.0037189871485282695 0.080765899430907784
leaf_weight=10.215911164879797 32.141510143876076 12.727363064885141 2.9985535740852383 176.57762894034386 10.499648898839952 3.2406644821166974 4.998968541622161 200.63335973024368 8.2393715679645521 9.998593330383299 30.948400974273682 2.734444022178649 5.9999402761459351 4.2444434314966228 5.4976357221603385 5.7207894027233115 22.708408087491989 2.749982461333274 8.7385600060224515 47.937243461608887 11.235291436314585 6.9908480048179618 2.4967314302921286 9.4875794351100904 14.444380939006807 2.4985149502754203 2.7464271634817115 16.996888220310211 320.12124800682068 3.7355268001556388
leaf_count=41 129 51 12 707 42 13 20 804 33 40 124 11 24 17 22 23 91 11 35 192 45 28 10 38 58 10 11 68 1282 15
internal_value=0 0.00249064 0.00888136 -0.00844681 -0.010922 0.0112488 0.0304457 0.00911823 -0.0325888 -0.0103295 -0.00860164 -0.00299319 -0.0368508 0.000245071 0.0147218 0.0158071 0.00487196 -0.00192414 -5.42444e-05 -0.00362055 -0.010044 -0.0324253 0.0225675 0.0381007 0.0144577 0.0386063 -0.00497455 -0.00449357 -0.00582445 0.0227594
internal_weight=0 772.564 416.237 227.741 44.446 371.791 37.1405 334.65 18.739 217.525 207.526 105.856 9.2406 96.6151 228.795 223.297 25.707 93.8807 91.1307 82.3921 66.1634 18.2261 16.2288 11.9843 217.576 16.9429 356.327 353.581 337.118 16.4629
internal_count=4007 3095 1668 912 178 1490 149 1341 75 871 831 424 37 387 917 895 103 376 365 330 265 73 65 48 872 68 1427 1416 1350 66
is_linear=0
shrinkage=0.05


end of trees

feature_importances:
Column_4=24
Column_10=15
Column_2=4
Column_3=4
Column_1=3
Column_7=3
Column_8=3
Column_6=2
Column_0=1
Column_9=1

parameters:
[boosting: gbdt]
[objective: binary]
[metric: binary_logloss]
[tree_learner: serial]
[device_type: cpu]
[data_sample_strategy: bagging]
[data: ]
[valid: ]
[num_iterations: 10000]
[learning_rate: 0.05]
[num_leaves: 31]
[num_threads: 0]
[seed: 2]
[deterministic: 0]
[force_col_wise: 0]
[force_row_wise: 0]
[histogram_pool_size: -1]
[max_depth: -1]
[min_data_in_leaf: 10]
[min_sum_hessian_in_leaf: 0.001]
[bagging_fraction: 0.9]
[pos_bagging_fraction: 1]
[neg_bagging_fraction: 1]
[bagging_freq: 0]
[bagging_seed: 29216]
[feature_fraction: 0.9]
[feature_fraction_bynode: 1]
[feature_fraction_seed: 17795]
[extra_trees: 0]
[extra_seed: 19650]
[early_stopping_round: 0]
[early_stopping_min_delta: 0]
[first_metric_only: 0]
[max_delta_step: 0]
[lambda_l1: 0]
[lambda_l2: 0]
[linear_lambda: 0]
[min_gain_to_split: 0]
[drop_rate: 0.1]
[max_drop: 50]
[skip_drop: 0.5]
[xgboost_dart_mode: 0]
[uniform_drop: 0]
[drop_seed: 24198]
[top_rate: 0.2]
[other_rate: 0.1]
[min_data_per_group: 100]
[max_cat_threshold: 32]
[cat_l2: 10]
[cat_smooth: 10]
[max_cat_to_onehot: 4]
[top_k: 20]
[monotone_constraints: ]
[monotone_constraints_method: basic]
[monotone_penalty: 0]
[feature_contri: ]
[forcedsplits_filename: ]
[refit_decay_rate: 0.9]
[cegb_tradeoff: 1]
[cegb_penalty_split: 0]
[cegb_penalty_feature_lazy: ]
[cegb_penalty_feature_coupled: ]
[path_smooth: 0]
[interaction_constraints: ]
[verbosity: -1]
[saved_feature_importance_type: 0]
[use_quantized_grad: 0]
[num_grad_quant_bins: 4]
[quant_train_renew_leaf: 0]
[stochastic_rounding: 1]
[linear_tree: 0]
[max_bin: 255]
[max_bin_by_feature: ]
[min_data_in_bin: 3]
[bin_construct_sample_cnt: 200000]
[data_random_seed: 45]
[is_enable_sparse: 1]
[enable_bundle: 1]
[use_missing: 1]
[zero_as_missing: 0]
[feature_pre_filter: 1]
[pre_partition: 0]
[two_round: 0]
[header: 0]
[label_column: ]
[weight_column: ]
[group_column: ]
[ignore_column: ]
[categorical_feature: ]
[forcedbins_filename: ]
[precise_float_parser: 0]
[parser_config_file: ]
[objective_seed: 29484]
[num_class: 1]
[is_unbalance: 0]
[scale_pos_weight: 1]
[sigmoid: 1]
[boost_from_average: 1]
[reg_sqrt: 0]
[alpha: 0.9]
[fair_c: 1]
[poisson_max_delta_step: 0.7]
[tweedie_variance_power: 1.5]
[lambdarank_truncation_level: 30]
[lambdarank_norm: 1]
[label_gain: ]
[lambdarank_position_bias_regularization: 0]
[eval_at: ]
[multi_error_top_k: 1]
[auc_mu_weights: ]
[num_machines: 1]
[local_listen_port: 12400]
[time_out: 120]
[machine_list_filename: ]
[machines: ]
[gpu_platform_id: -1]
[gpu_device_id: -1]
[gpu_use_dp: 0]
[num_gpu: 1]

end of parameters

pandas_categorical:null
