tree
version=v4
num_class=1
num_tree_per_iteration=1
label_index=0
max_feature_idx=3
objective=binary sigmoid:1
feature_names=Column_0 Column_1 Column_2 Column_3
feature_infos=[12.720000000000001:699.57000000000005] [13.280000000000001:700.5172] [13.820499999999999:680.78600000000006] [702500:162206292]
tree_sizes=9794

Tree=0
num_leaves=95
num_cat=0
split_feature=0 0 3 3 0 2 2 3 1 2 0 0 0 0 3 0 2 0 1 0 1 0 1 3 3 2 3 2 0 1 0 3 3 1 3 3 3 3 0 1 3 3 1 0 0 0 3 1 0 0 0 2 2 3 1 2 3 3 0 0 0 2 2 1 0 3 2 3 3 1 1 0 2 3 2 3 1 2 2 3 3 1 3 2 0 3 1 2 2 3 2 1 1 0
split_gain=6.55353 8.9307 7.40483 9.02085 7.30723 7.24607 5.48851 5.26757 5.25792 8.1503 8.14421 6.09881 5.58685 5.19516 7.04321 5.24506 4.49664 4.38759 4.61556 10.21 6.10971 4.23158 4.93644 4.63473 4.11267 4.6843 3.99636 7.82901 4.3622 3.9289 3.75593 8.3347 3.65544 5.25725 3.873 6.47064 3.61789 4.67204 3.61339 4.25721 3.54663 3.40106 3.28792 4.52026 3.17925 3.07992 3.00204 3.80292 6.54202 3.35435 2.99036 5.87862 3.21309 3.52724 2.96141 4.19731 3.75717 3.82859 3.75544 3.99081 2.92924 2.91013 2.80189 2.66437 11.4587 6.24981 4.51454 3.65661 2.6226 2.51737 4.56322 4.9496 3.79136 8.59852 5.02445 5.00665 3.597 4.2461 3.42335 4.3181 5.669 5.67164 2.44325 2.38496 7.30138 5.76545 7.0797 5.48521 6.66318 4.57259 4.29364 4.14804 5.4252 4.19827
threshold=24.855000000000004 14.030000000000003 25621200.000000004 15282250.000000002 522.90500000000009 23.803000000000004 603.54941250000013 10943950.000000002 37.77000000000001 255.76423750000006 204.76000000000002 356.15000000000003 390.30900000000003 469.47500000000008 14132900.000000002 572.09000000000003 73.876250000000013 536.56500000000017 255.19990000000004 321.26000000000005 248.46390000000002 211.55500000000004 250.77700000000002 18393627.500000004 20477050.000000004 650.94992750000017 16258250.000000002 395.76725000000005 485.8250000000001 224.75000000000003 202.92500000000004 19344147.000000004 7316700.0000000009 531.99580000000003 10326450.000000002 8884400.0000000019 14132900.000000002 12216500.000000002 23.365000000000006 23.705000000000002 17168750.000000004 29259885.500000004 54.718000000000011 56.920000000000009 34.790000000000006 37.725000000000009 13338400.000000002 547.7047500000001 518.7550500000001 625.65000000000009 31.140000000000004 40.620000000000005 52.275002500000006 10670900.000000002 66.426000000000002 66.897002500000013 19528150.000000004 18041015.500000004 42.410000000000004 39.390000000000008 186.57500000000002 516.13191250000011 430.75650000000007 174.61100000000002 179.48000000000005 21030000.500000004 183.74600000000001 21692644.000000004 8629400.0000000019 119.60900000000001 88.146000000000029 84.790000000000006 94.072437500000007 22873900.000000004 113.76762500000001 19672300.000000004 141.00798000000003 143.10600250000002 153.07125000000002 24671301.000000004 20286726.000000004 159.62500000000003 18041015.500000004 114.33937500000002 99.485000000000014 67198291.000000015 99.318000000000012 141.70774750000001 135.20587500000002 76535558.500000015 99.053500000000014 108.02500000000002 107.43200000000002 110.15500000000002
decision_type=2 2 2 2 2 2 2 2 2 2 2 2 2 2 2 2 2 2 2 2 2 2 2 2 2 2 2 2 2 2 2 2 2 2 2 2 2 2 2 2 2 2 2 2 2 2 2 2 2 2 2 2 2 2 2 2 2 2 2 2 2 2 2 2 2 2 2 2 2 2 2 2 2 2 2 2 2 2 2 2 2 2 2 2 2 2 2 2 2 2 2 2 2 2
left_child=1 -1 3 7 21 -3 17 32 -9 10 16 -11 -13 62 46 -16 -10 18 20 -20 29 30 23 -23 25 -6 27 -24 40 83 54 -32 42 50 35 -35 37 -18 39 -7 -28 -21 44 -44 -2 -46 47 48 -15 -49 -34 -52 -53 61 55 56 57 -5 59 -58 -38 -54 -14 69 -65 66 -66 -67 -63 70 71 82 73 75 -74 -72 -71 -78 -79 80 -80 -82 -56 84 85 86 -4 88 -85 -87 -86 92 -92 -93
right_child=2 5 6 4 24 38 -8 8 9 11 -12 12 13 14 15 -17 36 -19 19 41 -22 22 26 -25 -26 -27 28 -29 -30 -31 31 -33 33 34 -36 -37 60 -39 -40 -41 -42 -43 43 -45 45 -47 -48 49 -50 -51 51 52 53 -55 63 -57 58 -59 -60 -61 -62 68 -64 64 65 67 -68 -69 -70 76 72 -73 74 -75 -76 -77 77 78 79 -81 81 -83 -84 87 90 89 -88 -89 -90 -91 91 93 -94 -95
leaf_value=0.11478858391641462 0.070724783028290342 0.065408797216763723 0.067181248481938197 0.079632167102102788 0.059260279144523885 0.031723701778135452 0.0091937748419994442 -4.9272106158904094e-05 0.10102307053833694 0.025882609609507591 0.14715480892006677 0.1193400843075532 0.059260279144523878 0.079286880865533649 0.16940658861007762 0.06927358000502877 0.023758576093642965 0.13299458548096896 -0.0068275065348083336 0.099748843493521908 0.12724532182900444 0.06927358000502877 0.14868941441592962 0.14651904378606648 0.029827243281827696 0.13299458548096896 0.041964577658197257 0.05258474523752063 0.12587049791223032 0.015355806140771686 -0.0041572929720070928 0.095624371743199515 0.13406552674947214 0.092381197375424662 0.1093267834470483 0.00076152148578481627 0.054968864490021786 0.10034934129625084 0.0091937748419994442 0.097883011035042725 0.085817294470210762 0.047816506732518305 0.0091937748419994442 0.06670606696387367 0.15120058704552333 0.089300181726038541 0.021842154876321414 0.12228517279593698 -0.01417059383251193 0.049246978284019 0.035895910470012476 0.13602891907506134 0.078023066193819449 0.13406552674947214 0.058147690160023364 0.0091937748419994442 0.08596241477253691 0.021842154876321414 0.072503677056804536 0.16940658861007762 -0.010832826879010299 0.14270445298206461 0.010574919788275988 0.012676662097827238 0.16940658861007751 0.0091937748419994442 0.098724464888866673 0.077392472594627323 0.078376580787305944 0.12188583876361377 0.029220376563009284 0.15510187309507067 0.099546350048415638 -0.03085942860002007 0.023758576093642916 0.12935338516805805 0.04702180031501791 0.12490302923005589 0.11126484167811375 0.14937998688906787 -4.927210615893185e-05 0.080399469850034197 0.10034934129625084 0.06115468741543021 0.12935338516805808 0.15400151036314705 0.0072864794399985083 0.07382508039616735 0.010574919788275974 0.075163756981796351 0.078810057015033422 0.1165061312338254 0.0025182409349961965 0.079813896700297066
leaf_weight=8.2390416115522367 17.227087005972866 142.31071874499321 83.63875575363636 7.2403699010610634 9.986717104911806 7.9893736839294451 3.7450189143419257 3.2456830590963355 10.236385032534601 14.980075657367705 4.494022697210311 3.9946868419647208 4.9933585524559003 4.9933585524559074 2.7463472038507453 2.496679276227951 2.7463472038507479 2.7463472038507453 6.2416981905698803 5.7423623353242856 4.7436906248331061 2.4966792762279502 7.2403699010610563 8.7383774667978269 8.2390416115522367 2.7463472038507453 5.4926944077014914 2.9960151314735413 5.7423623353242865 3.2456830590963355 3.7450189143419248 4.743690624833107 4.2443547695875159 3.2456830590963346 2.496679276227951 4.743690624833107 5.2430264800786963 7.240369901061058 8.7383774667978269 3.4953509867191315 28.711811676621437 6.9907019734382629 3.7450189143419257 38.948196709156036 2.7463472038507444 7.4900378286838531 4.7436906248331061 4.2443547695875168 2.9960151314735413 2.496679276227951 4.494022697210311 4.494022697210311 25.715796545147896 4.2443547695875159 4.4940226972103181 2.4966792762279502 2.9960151314735395 4.743690624833107 7.7397057563066483 2.7463472038507462 2.496679276227951 3.7450189143419257 7.240369901061058 5.7423623353242865 2.7463472038507488 2.4966792762279502 12.733064308762549 9.2377133220434171 2.7463472038507462 14.730407729744909 2.4966792762279537 3.4953509867191306 10.735720887780188 2.7463472038507462 2.7463472038507453 2.496679276227951 4.494022697210311 8.9880453944206256 7.7397057563066545 2.4966792762279502 3.2456830590963346 6.7410340458154678 14.480739802122114 64.663993254303932 6.2416981905698767 3.2456830590963355 5.2430264800786963 109.85388815402985 7.2403699010610572 4.2443547695875168 10.486052960157393 13.232400164008139 2.9960151314735404 18.974762499332428
leaf_count=33 69 570 335 29 40 32 15 13 41 60 18 16 20 20 11 10 11 11 25 23 19 10 29 35 33 11 22 12 23 13 15 19 17 13 10 19 21 29 35 14 115 28 15 156 11 30 19 17 12 10 18 18 103 17 18 10 12 19 31 11 10 15 29 23 11 10 51 37 11 59 10 14 43 11 11 10 18 36 31 10 13 27 58 259 25 13 21 440 29 17 42 53 12 76
internal_value=0.072923 0.0640034 0.0747595 0.0789327 0.0855695 0.0614291 0.0694111 0.0716389 0.0624525 0.0647478 0.0846787 0.0531808 0.0631679 0.0570952 0.070285 0.121724 0.0746378 0.070038 0.0695537 0.0455579 0.0709006 0.0882237 0.0993949 0.129353 0.057353 0.0751638 0.0926878 0.120561 0.0855452 0.0700986 0.0839763 0.051603 0.0780976 0.0871396 0.0549689 0.037982 0.0594013 0.0792869 0.0334235 0.0518591 0.0787753 0.071237 0.0703426 0.0616611 0.0838384 0.105908 0.056436 0.0675764 0.0442403 0.095234 0.0939294 0.0901805 0.0961385 0.0912205 0.0857718 0.0710617 0.0771271 0.056757 0.095234 0.12587 0.0337425 0.0855743 0.0304465 0.0890603 0.0768594 0.0904026 0.111265 0.0628821 0.115489 0.0934249 0.0847227 0.100426 0.0680955 0.0402027 0.0841081 0.0792869 0.101275 0.0922671 0.0992279 0.0878167 0.0791458 0.0542536 0.0903542 0.070637 0.0753422 0.0671983 0.0636481 0.0667978 0.0560616 0.109327 0.0904556 0.0851417 0.0618563 0.094889
internal_weight=0 170.773 829.397 465.88 243.926 162.534 363.517 221.955 91.6281 88.3824 32.4568 55.9256 40.9455 36.9509 24.7171 5.24303 27.9628 359.771 357.025 18.9748 338.05 222.953 61.4183 11.2351 20.9721 12.7331 50.1833 10.2364 39.9469 333.307 161.535 8.48871 130.327 60.17 10.4861 7.98937 17.7264 9.98672 20.2231 11.4847 34.2045 12.7331 70.1567 42.6932 27.4635 10.2364 19.4741 14.7304 7.98937 6.74103 49.6839 45.4396 40.9455 36.4515 153.046 27.9628 25.4661 11.9841 13.4821 5.74236 7.73971 32.2072 12.2337 125.084 32.9562 27.2138 15.4794 11.7344 6.49137 92.1275 43.6919 22.4701 21.2218 7.73971 13.4821 4.99336 48.4356 33.7052 29.2111 20.2231 17.7264 9.98672 18.9748 330.061 148.303 96.3718 88.8818 181.758 71.9044 7.49004 51.9309 45.6892 13.4821 32.2072
internal_count=4006 684 3322 1866 977 651 1456 889 367 354 130 224 164 148 99 21 112 1441 1430 76 1354 893 246 45 84 51 201 41 160 1335 647 34 522 241 42 32 71 40 81 46 137 51 281 171 110 41 78 59 32 27 199 182 164 146 613 112 102 48 54 23 31 129 49 501 132 109 62 47 26 369 175 90 85 31 54 20 194 135 117 81 71 40 76 1322 594 386 356 728 288 30 208 183 54 129
is_linear=0
shrinkage=1


end of trees

feature_importances:
Column_3=29
Column_0=27
Column_2=20
Column_1=18

parameters:
[boosting: gbdt]
[objective: binary]
[metric: binary_logloss]
[tree_learner: serial]
[device_type: cpu]
[data_sample_strategy: bagging]
[data: ]
[valid: ]
[num_iterations: 10000]
[learning_rate: 0.05]
[num_leaves: 95]
[num_threads: 0]
[seed: 1238]
[deterministic: 0]
[force_col_wise: 0]
[force_row_wise: 0]
[histogram_pool_size: -1]
[max_depth: -1]
[min_data_in_leaf: 10]
[min_sum_hessian_in_leaf: 0.001]
[bagging_fraction: 1]
[pos_bagging_fraction: 1]
[neg_bagging_fraction: 1]
[bagging_freq: 0]
[bagging_seed: 10438]
[feature_fraction: 1]
[feature_fraction_bynode: 1]
[feature_fraction_seed: 6707]
[extra_trees: 0]
[extra_seed: 23424]
[early_stopping_round: 0]
[early_stopping_min_delta: 0]
[first_metric_only: 0]
[max_delta_step: 0]
[lambda_l1: 0]
[lambda_l2: 0]
[linear_lambda: 0]
[min_gain_to_split: 0]
[drop_rate: 0.1]
[max_drop: 50]
[skip_drop: 0.5]
[xgboost_dart_mode: 0]
[uniform_drop: 0]
[drop_seed: 18682]
[top_rate: 0.2]
[other_rate: 0.1]
[min_data_per_group: 100]
[max_cat_threshold: 32]
[cat_l2: 10]
[cat_smooth: 10]
[max_cat_to_onehot: 4]
[top_k: 20]
[monotone_constraints: ]
[monotone_constraints_method: basic]
[monotone_penalty: 0]
[feature_contri: ]
[forcedsplits_filename: ]
[refit_decay_rate: 0.9]
[cegb_tradeoff: 1]
[cegb_penalty_split: 0]
[cegb_penalty_feature_lazy: ]
[cegb_penalty_feature_coupled: ]
[path_smooth: 0]
[interaction_constraints: ]
[verbosity: -1]
[saved_feature_importance_type: 0]
[use_quantized_grad: 0]
[num_grad_quant_bins: 4]
[quant_train_renew_leaf: 0]
[stochastic_rounding: 1]
[linear_tree: 0]
[max_bin: 255]
[max_bin_by_feature: ]
[min_data_in_bin: 3]
[bin_construct_sample_cnt: 200000]
[data_random_seed: 4081]
[is_enable_sparse: 1]
[enable_bundle: 1]
[use_missing: 1]
[zero_as_missing: 0]
[feature_pre_filter: 1]
[pre_partition: 0]
[two_round: 0]
[header: 0]
[label_column: ]
[weight_column: ]
[group_column: ]
[ignore_column: ]
[categorical_feature: ]
[forcedbins_filename: ]
[precise_float_parser: 0]
[parser_config_file: ]
[objective_seed: 31546]
[num_class: 1]
[is_unbalance: 0]
[scale_pos_weight: 1]
[sigmoid: 1]
[boost_from_average: 1]
[reg_sqrt: 0]
[alpha: 0.9]
[fair_c: 1]
[poisson_max_delta_step: 0.7]
[tweedie_variance_power: 1.5]
[lambdarank_truncation_level: 30]
[lambdarank_norm: 1]
[label_gain: ]
[lambdarank_position_bias_regularization: 0]
[eval_at: ]
[multi_error_top_k: 1]
[auc_mu_weights: ]
[num_machines: 1]
[local_listen_port: 12400]
[time_out: 120]
[machine_list_filename: ]
[machines: ]
[gpu_platform_id: -1]
[gpu_device_id: -1]
[gpu_use_dp: 0]
[num_gpu: 1]

end of parameters

pandas_categorical:null
