tree
version=v4
num_class=1
num_tree_per_iteration=1
label_index=0
max_feature_idx=3
objective=binary sigmoid:1
feature_names=Column_0 Column_1 Column_2 Column_3
feature_infos=[15.15:141.56999999999999] [5850800:319317900] [15.15:141.56999999999999] [5850800:591052200]
tree_sizes=3353 3359 3365 3369 3365 3365 3384 3373 3375 3390 3387 3372 3376 3380 3376 3365

Tree=0
num_leaves=31
num_cat=0
split_feature=1 0 0 3 1 2 3 3 3 1 2 0 2 2 1 3 3 0 2 3 1 0 1 0 2 0 0 0 0 3
split_gain=9.99928 8.97302 6.21381 10.6434 8.31746 5.79245 5.16556 6.031 7.90161 5.5642 6.726 6.2121 8.85166 6.02034 4.44005 4.78379 8.60959 6.36867 5.30331 5.29719 4.70901 4.61403 4.43109 8.4859 5.66048 4.13574 7.66767 6.78334 5.81341 4.91136
threshold=92948800.000000015 138.09000000000003 24.625000000000004 54179050.000000007 38204100.000000007 25.805000000000003 33772004.500000007 31682595.000000004 30803867.500000004 63021700.000000007 24.815000000000001 25.555000000000003 25.497500000000006 25.765000000000004 39204296.000000007 62496250.000000007 58421450.000000007 29.170000000000005 26.400000000000002 77442700.000000015 49641950.000000007 33.585000000000008 49058100.000000007 26.595000000000002 27.005000000000006 75.590000000000018 70.030000000000015 65.905000000000015 68.990000000000023 29371250.500000004
decision_type=2 2 2 2 2 2 2 2 2 2 2 2 2 2 2 2 2 2 2 2 2 2 2 2 2 2 2 2 2 2
left_child=1 2 3 -1 5 -4 7 8 -6 10 -8 12 -12 -13 -15 16 22 -18 -17 21 -21 -20 23 -16 -25 26 27 -7 -29 -27
right_child=-2 -3 4 -5 6 25 9 -9 -10 -11 11 13 -14 14 15 18 17 -19 19 20 -22 -23 -24 24 -26 29 -28 28 -30 -31
leaf_value=0.054430309742224257 -0.0073130175136596753 -0.043703322779934356 0.071856730584724166 0.014028392843295968 0.027006500083055995 0.014477792149604554 -0.045290686150328011 0.061856341351244105 -0.040528596039147026 0.015353610569407709 0.0087292735483812615 -0.032828195008301191 0.076142611684787059 -0.027682027367123919 0.07018999904581083 -0.053365534599721855 0.069751385482938869 0.011854395183843781 -0.023385071638895492 -0.01314657789985638 0.043434571710622934 0.022965938776599408 -0.0034328240265716035 -0.038147550983556537 0.012158358382429801 0.033234537683008054 -0.012877750232289712 0.059548559220441 0.0089971411171351906 0.0080806633976248897
leaf_weight=25.249017223715782 59.9976646900177 6.7497372776269904 4.9998053908348075 45.998209595680237 24.749036684632305 238.24072687327862 6.9997275471687308 8.9996497035026533 5.2497956603765479 135.74471636116505 15.999377250671388 11.749542668461798 6.9997275471687308 10.749581590294836 5.9997664690017691 5.7497761994600287 9.4996302425861376 9.4996302425861341 26.248978301882744 5.9997664690017691 9.4996302425861341 6.7497372776269904 78.496944636106491 5.9997664690017691 82.246798679232597 72.497178167104721 23.249095067381859 16.249367520213131 8.7496594339609128 26.498968571424484
leaf_count=101 240 27 20 184 99 953 28 36 21 543 64 47 28 43 24 23 38 38 105 24 38 27 314 24 329 290 93 65 35 106
internal_value=0.0124783 0.0137393 0.0141539 0.0283463 0.0129832 0.0183847 0.00852621 0.0259575 0.0151879 0.00696071 0.00314384 0.00430693 0.0292464 0.00217059 0.00377229 0.00514682 0.00885558 0.0408029 -0.00796204 -0.00257916 0.0215322 -0.0139042 0.00534184 0.0126502 0.00873813 0.0176912 0.0146468 0.0170778 0.0418556 0.0265014
internal_weight=0 941.713 934.964 71.2472 863.716 390.485 473.232 38.9985 29.9988 434.233 298.488 291.489 22.9991 268.49 256.74 245.99 191.743 18.9993 54.2479 48.4981 15.4994 32.9987 172.743 94.2463 88.2466 385.485 286.489 263.24 24.999 98.9961
internal_count=4007 3767 3740 285 3455 1562 1893 156 120 1737 1194 1166 92 1074 1027 984 767 76 217 194 62 132 691 377 353 1542 1146 1053 100 396
is_linear=0
shrinkage=1


Tree=1
num_leaves=31
num_cat=0
split_feature=1 0 3 0 3 3 3 1 0 1 1 1 1 2 0 2 2 0 0 1 1 1 2 3 2 0 3 3 3 1
split_gain=9.02425 8.10168 5.65557 7.03808 9.92192 5.77026 4.02846 3.58595 3.42192 3.4212 7.05118 5.67765 4.36111 3.20951 6.2017 3.60493 6.67147 3.17743 7.38684 3.08735 9.26858 5.3409 8.10107 6.98616 7.00144 8.18643 5.11133 5.02661 7.672 5.02252
threshold=92948800.000000015 138.09000000000003 23159274.500000004 24.625000000000004 54179050.000000007 22580464.500000004 139477600.00000003 54005450.000000007 64.945000000000007 24654216.500000004 21110498.000000004 30293879.500000004 28158344.500000004 54.030000000000008 58.070000000000007 74.235000000000014 109.43000000000002 19.290000000000003 21.795000000000005 38204100.000000007 31369370.000000004 29792950.000000004 40.065000000000005 46866900.000000007 62.970000000000006 68.715000000000018 33772004.500000007 31682595.000000004 30803867.500000004 63021700.000000007
decision_type=2 2 2 2 2 2 2 2 2 2 2 2 2 2 2 2 2 2 2 2 2 2 2 2 2 2 2 2 2 2
left_child=1 2 5 4 -4 9 -2 -6 -7 10 13 12 -11 -1 -15 -16 -17 -9 -19 20 21 22 -5 24 -24 -26 27 28 -21 -28
right_child=6 -3 3 19 7 8 -8 17 -10 11 -12 -13 -14 14 15 16 -18 18 -20 26 -22 -23 23 -25 25 -27 29 -29 -30 -31
leaf_value=-0.024534683811461573 -0.014188529393794514 -0.053396222144513665 0.040743660800654037 0.028248113535331416 -0.023429830782599623 0.019147866116945855 -0.055190641776282405 0.034435420811531142 0.072599136921377594 0.024620996538425893 -0.02148376001234388 -0.005309532898383082 0.078661064052327145 0.069279755169438947 -0.0059678785490750791 0.043494605328046491 -0.015951693208733627 -0.043560690224051832 0.016632744114432399 0.017640313827448139 0.013477481817467541 -0.02861890082308385 -0.015618309872246489 -0.058891244799007175 0.045222790492748993 -0.0010009649291423228 -0.0088690191081946031 0.046953052762759281 -0.050375481766424146 0.0027315769878973927
leaf_weight=5.2497249394655219 53.249289035797119 6.7467781305313101 24.731677830219269 19.747727915644646 10.999459087848662 6.24943560361862 6.7499098777770987 9.249545142054556 5.7486170828342438 14.748217836022382 21.996179550886154 11.997724905610083 4.9988259673118582 4.9997380375862113 18.497279450297356 14.496465921401979 6.9980673789978018 6.9996557831764248 18.749077990651131 19.746398970484737 118.48525816202164 20.747401878237724 58.746921941637993 5.9995485395193091 12.244773551821707 43.991890430450439 298.44272373616695 8.9913965463638288 5.2478445768356314 135.74199767410755
leaf_count=21 213 27 99 79 44 25 27 37 23 59 88 48 20 20 74 58 28 28 75 79 474 83 235 24 49 176 1194 36 21 543
internal_value=0 0.00119813 0.00159213 0.000128525 0.0152043 0.0119257 -0.0188013 0.00147258 0.0447579 0.00813739 0.00212517 0.0218186 0.0383009 0.0124614 0.0167782 0.0102145 0.0241404 0.00929905 0.00026948 -0.00129676 0.00285684 -0.00493609 -0.00144463 -0.00629129 -0.00354676 0.00906363 -0.00378059 0.0148929 0.00335957 -0.00524225
internal_weight=0 941.59 934.844 818.863 70.7294 115.98 59.9992 45.9977 11.9981 103.982 72.2375 31.7448 19.747 50.2413 44.9916 39.9918 21.4945 34.9983 25.7487 748.134 279.964 161.478 140.731 120.983 114.984 56.2367 468.17 33.9856 24.9942 434.185
internal_count=4007 3767 3740 3276 283 464 240 184 48 416 289 127 79 201 180 160 86 140 103 2993 1120 646 563 484 460 225 1873 136 100 1737
is_linear=0
shrinkage=0.05


Tree=2
num_leaves=31
num_cat=0
split_feature=1 0 0 0 0 1 3 0 3 3 3 1 3 3 3 2 1 1 1 3 0 0 1 1 2 1 2 3 0 3
split_gain=8.14625 7.32554 5.30244 9.36309 10.352 7.90047 6.41657 6.07283 8.72832 5.54304 4.1222 4.12007 3.64188 3.58267 6.4026 4.12601 3.9894 4.98766 3.37038 3.27911 3.16308 7.84617 3.89417 3.09664 8.37398 4.25479 5.80154 5.35962 4.09506 3.79471
threshold=92948800.000000015 138.09000000000003 80.625000000000014 68.990000000000023 65.905000000000015 22850761.500000004 17598820.000000004 24.625000000000004 60142150.000000007 55912350.000000007 46013800.000000007 54005450.000000007 139477600.00000003 16807204.000000004 23159274.500000004 93.990000000000023 25904163.000000004 20391800.500000004 26313309.500000004 31373845.500000004 19.290000000000003 21.795000000000005 73920150.000000015 41827000.000000007 25.805000000000003 63021700.000000007 24.815000000000001 28683998.500000004 49.840000000000011 50038250.000000007
decision_type=2 2 2 2 2 2 2 2 2 2 2 2 2 2 2 2 2 2 2 2 2 2 2 2 2 2 2 2 2 2
left_child=1 2 3 4 7 6 -5 8 -1 13 19 -10 -2 -4 16 18 17 -15 -16 -7 -13 -22 -23 24 -9 26 -25 -28 29 -27
right_child=12 -3 9 5 -6 10 -8 23 11 -11 -12 20 -14 14 15 -17 -18 -19 -20 -21 21 22 -24 25 -26 28 27 -29 -30 -31
leaf_value=0.033739833360862274 -0.013480510718747042 -0.050823996163505407 -0.014010512321973033 0.041524857415063843 0.034877283985196669 -0.044320513169277098 -0.018960385148689654 0.05340744805641652 -0.032863993994897929 -0.039754204495544294 -0.079445037415418862 0.032890707856081502 -0.052482614419858499 0.049909298243480948 0.062513156366281311 0.0018951195006623952 0.069137297056200128 0.0011378430003939199 0.014748080842921266 -0.0057642334738087532 -0.050534511282579381 0.037364732066553538 -0.011880555155573786 -0.050991869959821967 0.0014906199436098232 0.023078266134299797 0.03602457995786653 -0.0076067491066457733 -0.041109325614992129 0.00097377871772978642
leaf_weight=31.942379906773567 53.243845716118813 6.7341147512197486 10.244580417871473 6.9960844665765789 22.470193937420845 14.245698586106306 11.747248038649557 7.9891070276498786 8.2498175650835019 4.999101221561431 4.9988206326961508 8.495011121034624 6.7434118241071692 10.733655482530599 5.4987842738628414 51.987875580787659 7.2394762039184561 10.24606794118881 11.246963500976561 8.9973679929971677 6.2486372888088253 8.9978853464126605 7.2482965290546408 7.4946202039718619 279.42802838981152 23.745252057909966 7.2471321523189536 244.43593382835388 4.9992788136005393 106.49129068851471
leaf_count=128 213 27 41 28 90 57 47 32 33 20 20 34 27 43 22 208 29 41 45 36 25 36 29 30 1118 95 29 978 20 426
internal_value=0 0.0011386 0.00151298 0.000122033 0.00143518 -0.0215513 0.00361617 0.000437258 0.0143341 0.0117094 -0.0382542 -0.00146273 -0.0178649 0.0141094 0.0170807 0.00884779 0.0371338 0.0260903 0.0304327 -0.0293954 0.00689661 -0.00291987 0.0153938 -0.00101355 0.00293371 -0.00389001 -0.00764129 -0.0063504 0.00329928 0.00500396
internal_weight=0 941.399 934.665 822.468 775.483 46.9852 18.7433 753.013 71.182 112.197 28.2419 39.2396 59.9873 107.197 96.9528 68.7336 28.2192 20.9797 16.7457 23.2431 30.9898 22.4948 16.2462 681.831 287.417 394.414 259.178 251.683 135.236 130.237
internal_count=4007 3767 3740 3291 3103 188 75 3013 285 449 113 157 240 429 388 275 113 84 67 93 124 90 65 2728 1150 1578 1037 1007 541 521
is_linear=0
shrinkage=0.05


Tree=3
num_leaves=31
num_cat=0
split_feature=3 0 1 2 2 1 3 3 1 1 1 1 2 3 2 0 2 1 0 2 2 0 0 2 2 2 3 3 3 2
split_gain=7.67527 6.44286 5.56701 8.66971 5.7116 7.63681 7.27383 4.84972 5.47833 5.57595 4.10568 6.59032 6.6279 6.15855 5.89486 7.39114 4.40096 4.05561 4.48673 5.89423 4.00234 3.94011 3.43327 3.81158 3.56209 4.02194 3.33431 3.22318 4.02682 3.14712
threshold=154640550.00000003 138.09000000000003 42550065.000000007 25.805000000000003 24.404750000000003 47681100.000000007 58062700.000000007 23159274.500000004 24654216.500000004 20823752.000000004 31139998.500000004 29792950.000000004 40.065000000000005 48652500.000000007 62.970000000000006 68.715000000000018 78.785000000000011 38204100.000000007 27.365000000000006 29.288750000000004 74.235000000000014 30.167500000000004 63.180000000000007 72.340000000000018 50.055000000000007 45.335000000000008 28683998.500000004 29066045.000000004 31894450.000000004 109.43000000000002
decision_type=2 2 2 2 2 2 2 2 2 2 2 2 2 2 2 2 2 2 2 2 2 2 2 2 2 2 2 2 2 2
left_child=1 2 3 -1 5 -4 -7 8 9 20 11 12 21 14 -14 -16 26 -12 -19 -20 -5 -9 24 -24 25 -21 -17 -18 -29 -22
right_child=-2 -3 4 7 -6 6 -8 10 -10 -11 17 -13 13 -15 15 16 27 18 19 22 29 -23 23 -25 -26 -27 -28 28 -30 -31
leaf_value=0.042176268776145817 -0.050441469212581407 -0.048436837644727504 -0.041089432646166699 0.0022784070160553776 -0.0048314399152349745 0.044180770810783407 0.0056719689071039678 -0.012216434200261451 0.029519308702902231 -0.013924952113511394 0.011013977898602131 -0.034839351031572451 -0.014767237359491077 -0.059153483970936338 0.042237465407111943 -0.05941880063976044 0.019207615565134305 -0.042612757192309274 0.03881412622834074 0.0010038413342150884 0.044078844118774614 0.039627078829649907 -0.058318242574580917 -0.0006722713580286394 0.023059572411219382 -0.050478619239932979 -0.0035691130952639513 -0.042404243476660719 0.014403518579704662 0.006191311288915877
leaf_weight=14.952149763703344 7.4850309640169135 6.7132096141576758 6.4864898175001136 29.482712090015411 456.82861617207527 16.692850679159164 46.204882264137268 4.9975568056106594 33.194498017430305 25.492134943604469 118.21160936355591 16.997819662094116 59.249766275286674 5.2434522807598105 12.216957464814184 4.996078208088873 20.986077845096588 6.9979070872068396 8.2457853406667692 15.743035688996317 14.706472918391229 13.743281215429304 5.9942066520452482 5.4973840564489365 11.744445770978926 4.9980380386114112 5.7459261268377304 5.9993967562913877 6.4985903203487396 8.7373813688755018
leaf_count=60 30 27 26 118 1828 67 185 20 133 102 473 68 237 21 49 20 84 28 33 63 59 55 24 22 47 20 23 24 26 35
internal_value=0 0.000380292 0.000712367 0.00472595 -0.00280132 0.0105651 0.0158921 0.00346964 0.0124933 0.0052862 0.000455164 -0.00544327 -0.00186595 -0.00615352 -0.00375145 0.00781212 -0.0016975 0.00566355 -0.00501653 2.13885e-05 0.0145393 0.0258021 -0.00725232 -0.0307414 0.00105682 -0.011402 -0.0295447 0.00723613 -0.0128659 0.0299584
internal_weight=0 993.599 986.886 460.673 526.213 69.3842 62.8977 445.721 111.613 78.4187 334.107 156.675 139.677 120.936 115.693 56.443 44.2261 177.432 59.2208 52.2229 52.9266 18.7408 43.9771 11.4916 32.4855 20.7411 10.742 33.4841 12.498 23.4439
internal_count=4007 3977 3950 1844 2106 278 252 1784 447 314 1337 627 559 484 463 226 177 710 237 209 212 75 176 46 130 83 43 134 50 94
is_linear=0
shrinkage=0.05


Tree=4
num_leaves=31
num_cat=0
split_feature=1 0 0 0 0 0 1 3 3 1 1 3 1 3 3 2 1 1 3 1 1 3 2 3 0 2 3 0 1 1
split_gain=7.11157 6.01951 4.72934 4.87021 8.03613 9.5557 6.88777 5.50899 4.79708 3.83829 7.22934 3.65383 3.38302 3.3279 5.51123 3.6879 3.50466 4.17063 3.07878 3.08217 2.98667 2.96158 3.06994 2.90725 2.72127 6.46834 5.56696 5.6578 5.14347 5.01248
threshold=92948800.000000015 138.09000000000003 18.940000000000005 80.625000000000014 68.990000000000023 65.905000000000015 22850761.500000004 17598820.000000004 55912350.000000007 90098600.000000015 86199300.000000015 46013800.000000007 72167300.000000015 16807204.000000004 23159274.500000004 93.990000000000023 25904163.000000004 20391800.500000004 139477600.00000003 96429050.000000015 26313309.500000004 31373845.500000004 71.485000000000014 40708200.000000007 25.325000000000003 25.245000000000001 47398150.000000007 21.795000000000005 52840200.000000007 50568750.000000007
decision_type=2 2 2 2 2 2 2 2 2 2 2 2 2 2 2 2 2 2 2 2 2 2 2 2 2 2 2 2 2 2
left_child=1 2 12 4 5 9 7 -6 13 10 24 21 -1 -5 16 20 17 -15 19 -2 -16 22 -8 -17 26 -26 -4 -28 29 -29
right_child=18 -3 3 8 6 -7 11 -9 -10 -11 -12 -13 -14 14 15 23 -18 -19 -20 -21 -22 -23 -24 -25 25 -27 27 28 -30 -31
leaf_value=0.0065405946376580109 -0.042979045720519721 -0.04621156450707125 0.035091442412572796 -0.014067190837190477 0.038298632271364652 0.033076796057333456 -0.020594632107319252 -0.017794827302242109 -0.037101409638553642 0.038204219294526123 -0.042096674276403102 -0.074853140703211779 0.064788879606162336 0.046056177186294428 0.058939666384651472 -0.0030597250789643985 0.064642736275110219 0.001403916297016005 -0.048604238306133529 -0.0078968365056745638 0.013935407042273695 -0.0052100722947660133 -0.067216119204394784 0.031076953591896373 -0.051600082508834057 -0.00047385094000213066 -0.027498130766208613 0.0031340563946760541 0.017993903898867531 -0.053248623427857626
leaf_weight=4.9874090254306775 7.247445121407508 6.6853501796722403 15.923490509390829 10.240789130330084 6.9786493629217174 22.420758470892906 7.7410154193639809 11.74163845181465 4.9928433895111075 6.4984255582094184 10.246596962213514 4.982796221971511 4.9835736751556396 10.682322338223463 5.4850937724113491 44.726332440972328 7.1983818262815467 10.244555175304411 6.7138101905584326 45.983275055885315 11.242996573448179 8.9953795671462995 6.4924945831298828 7.2477640658617011 6.2482096552848807 626.44091661274433 12.972114384174345 13.967353060841562 44.941811680793762 5.4917345941066733
leaf_count=20 29 27 64 41 28 90 31 47 20 26 41 20 20 43 22 179 29 41 27 184 45 36 26 29 25 2507 52 56 180 22
internal_value=0 0.00106435 0.0014027 0.00103315 -0.000315192 0.000916647 -0.0203984 0.00311599 0.0108043 -5.4169e-05 -0.00039186 -0.0360017 0.0356535 0.0130383 0.0159051 0.00827271 0.0345487 0.0241971 -0.0166976 -0.0126733 0.0286922 -0.0276677 -0.0418606 0.00170062 0.000196763 -0.000978755 0.00816853 0.00262775 0.00869593 -0.0127782
internal_weight=0 940.801 934.115 924.144 812.083 765.151 46.932 18.7203 112.061 742.731 736.232 28.2117 9.97098 107.068 96.8274 68.7022 28.1253 20.9269 59.9445 53.2307 16.7281 23.2289 14.2335 51.9741 725.986 632.689 93.2965 77.373 64.4009 19.4591
internal_count=4007 3767 3740 3700 3251 3063 188 75 449 2973 2947 113 40 429 388 275 113 84 240 213 67 93 57 208 2906 2532 374 310 258 78
is_linear=0
shrinkage=0.05


Tree=5
num_leaves=31
num_cat=0
split_feature=3 0 1 2 2 1 3 3 1 1 1 1 2 2 0 2 3 1 0 2 2 1 0 2 2 2 2 3 3 2
split_gain=6.5204 5.29933 4.80398 7.71965 4.9132 6.94632 6.35063 4.13357 4.9263 4.76363 3.76351 5.93367 6.04147 5.32005 7.38971 3.70002 4.63194 3.65478 4.05252 5.32159 3.35812 3.30368 3.09922 3.46628 3.21538 3.63164 2.99957 2.76919 2.73819 2.72184
threshold=154640550.00000003 138.09000000000003 42550065.000000007 25.805000000000003 24.404750000000003 47681100.000000007 58062700.000000007 23159274.500000004 24654216.500000004 20823752.000000004 31139998.500000004 29792950.000000004 41.682500000000012 62.970000000000006 68.715000000000018 78.785000000000011 29371250.500000004 38204100.000000007 27.365000000000006 29.288750000000004 74.235000000000014 28376863.000000004 63.180000000000007 72.340000000000018 50.055000000000007 45.335000000000008 30.525000000000002 51794900.000000007 33173546.500000004 109.43000000000002
decision_type=2 2 2 2 2 2 2 2 2 2 2 2 2 2 2 2 2 2 2 2 2 2 2 2 2 2 2 2 2 2
left_child=1 2 3 27 5 -4 -7 8 9 20 11 12 21 -14 -15 -16 -17 -12 -19 -20 -5 26 24 -24 25 -21 -9 -1 -6 -22
right_child=-2 -3 4 7 28 6 -8 10 -10 -11 17 -13 13 14 15 16 -18 18 19 22 29 -23 23 -25 -26 -27 -28 -29 -30 -31
leaf_value=0.023347372082648959 -0.046607196187857698 -0.044128914467372778 -0.039467600457600338 0.00204427534826399 0.011691169079107271 0.04138542389855674 0.0053418647312444513 0.0022008903107196311 0.027704567478258474 -0.013055376612632133 0.010479961293537095 -0.033138130861957653 -0.017027639573003482 0.038091353534011191 -0.030008467182998023 0.017485771663407826 -0.019701536501347445 -0.040482129451232127 0.036919577397384801 0.00097734684734834387 0.040616153140313249 -0.011353257502808261 -0.055531870448431268 -0.00052935531619797364 0.021934927640363432 -0.047951146460654868 0.047994330858759399 0.068048358370966622 -0.0054215994695678282 0.0053282235172771187
leaf_weight=9.4259196370840055 7.4482354670763007 6.6516714245080939 6.4859862029552451 29.473511785268784 24.712643727660179 16.620664671063423 46.165227174758911 5.2457213401794496 33.109082728624344 25.484602555632591 118.17384207248688 16.987762644886971 58.490568980574608 12.668431475758551 11.211865127086638 21.45868307352066 13.732222154736517 6.9938878864049903 8.2408694177865964 15.74298617243767 14.623243793845178 5.4940945655107489 5.9826530218124372 5.4957413375377655 11.74201028048992 4.9959641247987738 11.234254628419874 5.4782556593418112 432.04799893498421 8.7248321622610074
leaf_count=38 30 27 26 118 99 67 185 21 133 102 473 68 234 51 45 86 55 28 33 63 59 22 24 22 47 20 45 22 1729 35
internal_value=0 0.000350118 0.000650105 0.00438094 -0.0026139 0.00979438 0.0148833 0.00319623 0.0115356 0.0046991 0.000413487 -0.00523733 -0.00184056 -0.00633857 0.00424543 -0.00499486 0.00297451 0.00540022 -0.00474086 4.78274e-05 0.013265 0.0222239 -0.00686436 -0.0291972 0.00102781 -0.0108094 0.0334179 0.0397779 -0.00449573 0.0274296
internal_weight=0 992.895 986.244 460.211 526.033 69.2719 62.7859 445.307 111.415 78.3062 333.892 156.524 139.536 117.562 59.0712 46.4028 35.1909 177.368 59.1941 52.2002 52.8216 21.9741 43.9594 11.4784 32.481 20.739 16.48 14.9042 456.761 23.3481
internal_count=4007 3977 3950 1844 2106 278 252 1784 447 314 1337 627 559 471 237 186 141 710 237 209 212 88 176 46 130 83 66 60 1828 94
is_linear=0
shrinkage=0.05


Tree=6
num_leaves=31
num_cat=0
split_feature=1 0 0 0 0 0 1 3 3 1 1 3 3 3 2 1 1 1 3 3 2 0 0 3 2 0 3 1 1 3
split_gain=6.19302 4.96399 4.14966 4.13071 7.20061 8.54681 6.03775 4.72713 4.2136 3.47716 6.44065 3.27269 3.08804 4.76438 3.33588 3.09532 3.70627 3.04923 2.79923 5.47955 10.0655 4.31767 4.15064 4.96631 4.36212 4.58821 4.7704 7.72532 5.53879 6.00676
threshold=92948800.000000015 138.09000000000003 18.940000000000005 80.625000000000014 68.990000000000023 65.905000000000015 22850761.500000004 17598820.000000004 55912350.000000007 90098600.000000015 86199300.000000015 46013800.000000007 16807204.000000004 23159274.500000004 93.990000000000023 25904163.000000004 18707681.000000004 72167300.000000015 80176800.000000015 63407648.000000007 36.520000000000003 28.545000000000005 24.625000000000004 58062700.000000007 25.315000000000001 25.555000000000003 42347350.000000007 32776848.000000004 73496300.000000015 43936946.000000007
decision_type=2 2 2 2 2 2 2 2 2 2 2 2 2 2 2 2 2 2 2 2 2 2 2 2 2 2 2 2 2 2
left_child=1 2 17 4 5 9 7 -6 12 10 18 -8 -5 15 -15 16 -14 -1 19 22 -21 -20 -4 24 -24 -26 -27 -28 29 -29
right_child=-2 -3 3 8 6 -7 11 -9 -10 -11 -12 -13 13 14 -16 -17 -18 -19 21 20 -22 -23 23 -25 25 26 27 28 -30 -31
leaf_value=0.0058198660574688317 -0.015591147779816659 -0.042172788594620057 0.018273342651599373 -0.014057446677745097 0.03540122107612708 0.031342139934037332 -0.026077023437528581 -0.016640622104877125 -0.034979546015144442 0.036382399022914007 -0.039733453389808535 -0.070875820604353199 0.055976552321727185 0.02717901046372866 0.0014890690307240979 0.060656706182611667 0.0092157427334063069 0.061223495845082548 0.019726230187156739 -0.016019268951719536 0.050904827283678171 -0.0098541255705783884 -0.029231606265443688 0.015296372984040976 0.031692514065454369 0.0025204521510240729 -0.051816713067317624 -0.037424539367123325 0.03272732920141834 -0.0043773488123601996
leaf_weight=4.9809811264276487 59.873394414782524 6.6131703257560721 33.247222691774368 10.235670670866964 6.947581663727763 22.349908083677292 23.193067237734798 11.731512472033499 4.9831722974777213 6.4956634491682044 10.242277786135672 4.9461410194635382 5.9173724651336732 16.697263836860657 51.958308547735214 7.129193887114524 14.927120864391325 4.9528480917215347 40.471345245838165 89.425973698496819 5.9950226098299018 17.745249629020691 13.727179139852522 48.710604801774025 10.723655894398687 291.69572296738625 9.4856228530406934 15.24565230309963 8.9990006983280164 140.1865888684988
leaf_count=20 240 27 134 41 28 90 93 47 20 26 41 20 24 67 208 29 60 20 162 358 24 71 55 195 43 1168 38 61 36 561
internal_value=0 0.000993779 0.00129963 0.000953841 -0.000287631 0.000877681 -0.0193222 0.00271604 0.0099619 -3.94535e-05 -0.000360943 -0.0339515 0.0120576 0.0148238 0.00773695 0.0322171 0.0224903 0.0334432 0.000194779 -0.00072237 -0.0118146 0.0107097 0.00112797 6.99461e-05 -0.00144351 -0.000642703 -0.00138742 -0.00794177 -0.00541073 -0.0076188
internal_weight=0 939.96 933.347 923.413 811.565 764.747 46.8183 18.6791 111.848 742.397 735.901 28.1392 106.865 96.6293 68.6556 27.9737 20.8445 9.93383 725.659 667.442 95.421 58.2166 572.021 538.774 490.063 476.336 465.613 173.917 164.431 155.432
internal_count=4007 3767 3740 3700 3251 3063 188 75 449 2973 2947 113 429 388 275 113 84 40 2906 2673 382 233 2291 2157 1962 1907 1864 696 658 622
is_linear=0
shrinkage=0.05


Tree=7
num_leaves=31
num_cat=0
split_feature=3 0 1 2 0 3 1 1 1 3 1 2 3 2 0 1 1 1 3 3 2 0 2 3 0 3 2 3 3 0
split_gain=5.78519 4.37397 4.08824 6.86602 4.30403 3.44367 4.38691 4.1647 3.45149 4.3305 4.38971 5.65746 7.17592 4.08415 4.08826 3.74539 3.39438 3.87058 5.15402 6.05856 4.42875 3.32232 3.38747 4.37448 3.98861 3.67875 4.53547 3.01683 2.90536 3.41058
threshold=154640550.00000003 138.09000000000003 42550065.000000007 25.805000000000003 19.290000000000003 23159274.500000004 24654216.500000004 20823752.000000004 31369370.000000004 46866900.000000007 29792950.000000004 41.682500000000012 37884963.500000007 48.455000000000005 46.900000000000013 30873050.000000004 38204100.000000007 39204296.000000007 46866900.000000007 37016046.000000007 45.665000000000006 52.052500000000002 62.970000000000006 26527353.500000004 68.715000000000018 29198300.000000004 78.785000000000011 39505400.000000007 18206540.000000004 67.345000000000013
decision_type=2 2 2 2 2 2 2 2 2 2 2 2 2 2 2 2 2 2 2 2 2 2 2 2 2 2 2 2 2 2
left_child=1 2 3 -1 -4 6 7 28 9 10 11 -7 13 14 -13 -12 -10 -18 19 20 -19 -15 23 -23 -24 26 -26 -21 29 -5
right_child=-2 -3 4 5 -6 8 -8 -9 16 -11 15 12 -14 21 -16 -17 17 18 -20 27 -22 22 24 -25 25 -27 -28 -29 -30 -31
leaf_value=0.037497195244828134 -0.044017793745707745 -0.040329627850078209 0.023642072082286001 -0.028434759223672626 -0.0031961717148490743 0.025123539563076076 0.025840134638576331 -0.012500508250086674 0.010286250738209926 -0.036461055334716302 -0.042130261159527498 -0.010396849717951722 0.044239774398782565 0.032245998994683472 -0.054792032618892844 0.0056416212287511529 -0.028019273850605781 0.039685892052428784 0.026537924020598971 -0.062103969446686426 -0.014273240291122397 -0.050056161151554417 0.029486856988690864 -0.0049828863862794838 -0.033829277178723458 -0.025994217406662291 0.016315351887150879 -0.015467617422921659 0.023325443758311998 0.01183793954120849
leaf_weight=14.84388807415962 7.4089223593473426 6.5707239657640448 15.388962358236311 7.4940835982561138 510.34639564156532 19.704328417778015 32.991333797574043 25.475264176726341 114.62433429062366 10.185021072626112 11.978391647338869 14.746813893318178 7.2297032028436652 6.49859595298767 7.998271942138671 6.2404180616140357 13.466916322708128 7.7349064499139804 14.969129100441931 5.2453538924455634 7.4801411032676697 8.2482179403305071 10.620718389749525 15.496651887893675 5.7110509425401714 13.731972113251684 21.430559515953064 10.232254579663275 27.580204665660858 17.611853048205376
leaf_count=60 30 27 62 30 2044 79 133 102 459 41 48 59 29 26 32 25 54 31 60 21 30 33 43 62 23 55 86 41 111 71
internal_value=0 0.000329512 0.000600657 0.00404543 -0.00241058 0.00292889 0.0105509 0.00409745 0.000389093 -0.00491397 -0.00276671 0.000421929 -0.00393504 -0.00726851 -0.0260083 -0.0257671 0.00526694 -0.00446329 0.00248401 -0.00924733 0.0131581 -0.00205379 -0.00501635 -0.0206399 0.00218793 -0.0049055 0.00576408 -0.0312727 0.012123 -0.000183399
internal_weight=0 991.876 985.306 459.57 525.735 444.726 111.153 78.1614 333.574 159.821 149.636 131.417 111.713 104.483 22.7451 18.2188 173.753 59.1287 45.6618 30.6927 15.215 81.7378 75.2392 23.7449 51.4943 40.8736 27.1416 15.4776 52.6861 25.1059
internal_count=4007 3977 3950 1844 2106 1784 447 314 1337 641 600 527 448 419 91 73 696 237 183 123 61 328 302 95 207 164 109 62 212 101
is_linear=0
shrinkage=0.05


Tree=8
num_leaves=31
num_cat=0
split_feature=1 0 2 0 1 1 3 2 1 0 1 1 1 1 0 3 3 3 0 0 2 0 3 2 0 3 2 3 1 1
split_gain=5.41396 4.14543 6.99612 3.56411 3.3448 2.79591 2.57677 4.69362 4.72488 3.31373 2.43981 5.75968 2.47732 6.45541 7.36532 7.03922 8.15736 7.24798 6.39395 5.17392 4.87314 4.9935 4.09573 3.92811 6.94084 3.87131 3.60794 3.90131 3.24579 7.06179
threshold=92948800.000000015 137.06500000000003 132.72500000000002 18.940000000000005 17944560.000000004 72167300.000000015 81731450.000000015 25.005000000000006 100130500.00000001 27.402500000000003 90098600.000000015 86199300.000000015 63021700.000000007 51284200.000000007 26.595000000000002 76866100.000000015 62889050.000000007 58421450.000000007 26.105000000000004 21.795000000000005 27.005000000000006 27.125000000000004 71159450.000000015 27.084750000000003 23.630000000000006 75687350.000000015 24.815000000000001 65019500.000000007 47681100.000000007 43404300.000000007
decision_type=2 2 2 2 2 2 2 2 2 2 2 2 2 2 2 2 2 2 2 2 2 2 2 2 2 2 2 2 2 2
left_child=1 2 3 5 -5 -1 7 -2 -9 -10 11 12 13 14 18 16 17 23 28 -14 -16 -22 -18 24 -15 -23 27 -21 29 -6
right_child=6 -3 -4 4 10 -7 -8 8 9 -11 -12 -13 19 15 20 -17 22 -19 -20 26 21 25 -24 -25 -26 -27 -28 -29 -30 -31
leaf_value=0.0043540942205821664 0.03592620302122649 -0.031070871904009919 0.051294843101562695 0.016257697595095787 0.022379394709516793 0.057555160029296497 -0.023911025266804276 -0.049672519617852365 -0.029777391040018211 0.020239132177321987 0.029960530653728064 -0.037541698819561264 -0.039515702324979064 0.029520913511901777 -0.035474111954110002 0.019803895985432848 -0.048440350483005712 0.023422725551217865 0.063399378491282382 0.054906604499533454 0.044675624362955288 0.00031995382577891843 -0.01169920325174143 -0.0039237760012376804 -0.034354208978082876 -0.031541000390599316 0.0047710017924531764 0.0097036783673132183 0.031256869027624833 -0.024441801077082031
leaf_weight=4.9737627357244474 5.9953209906816509 10.012362211942671 6.9382591694593421 32.776378467679024 20.027671486139297 4.9050302654504776 33.090536713600159 6.487689912319186 5.2432170510292044 8.9886428117752057 6.738630384206771 10.227984711527823 5.9788034856319419 4.9372438490390769 9.7328809797763807 17.486217752099037 21.467227682471275 16.485497355461121 6.9957608878612509 7.9316408187150982 6.2459874004125586 476.88599333167076 11.729748427867888 51.71435721218586 30.68449991941452 9.7286136001348478 123.45295676589012 11.987234726548193 15.447500288486479 13.46928623318672
leaf_count=20 24 41 28 132 81 20 133 26 21 36 27 41 24 20 39 70 86 66 28 32 25 1913 47 207 123 39 494 48 62 54
internal_value=0 0.00092975 0.00127466 0.000898249 0.00057473 0.0307696 -0.0145857 -0.00303493 -0.0143086 0.00181234 -9.82405e-06 -0.000241265 0.000201121 -0.00102535 0.00147685 -0.0100708 -0.0138834 -0.00698477 0.0186871 0.0060566 -0.000438706 0.000253164 -0.0354583 -0.0127245 -0.025501 -0.000317024 0.00795703 0.0277034 0.0122963 0.00355237
internal_weight=0 938.962 928.949 922.011 912.132 9.87879 59.8054 26.7149 20.7195 14.2319 879.356 872.617 862.389 713.038 558.534 154.505 137.019 103.822 55.9402 149.351 502.593 492.861 33.197 87.3361 35.6217 486.615 143.372 19.9189 48.9445 33.497
internal_count=4007 3767 3726 3698 3658 40 240 107 83 57 3526 3499 3458 2860 2241 619 549 416 225 598 2016 1977 133 350 143 1952 574 80 197 135
is_linear=0
shrinkage=0.05


Tree=9
num_leaves=31
num_cat=0
split_feature=3 0 2 0 3 0 0 0 3 2 0 1 1 1 1 1 2 2 0 3 0 3 3 3 1 1 2 2 1 1
split_gain=5.07759 3.68578 3.71092 7.76115 6.28517 3.84411 4.1812 3.27048 6.88053 4.53213 6.50194 3.25239 3.15405 3.08576 2.67809 3.48263 3.38363 3.95231 2.78435 2.66595 4.79263 3.29801 2.89565 5.07105 7.11426 4.49538 6.93332 5.07154 4.31352 2.84375
threshold=154640550.00000003 138.09000000000003 75.260000000000005 70.030000000000015 56873900.000000007 65.905000000000015 68.990000000000023 24.625000000000004 54179050.000000007 24.485000000000003 24.205000000000002 35479950.000000007 92948800.000000015 48870200.000000007 104427300.00000001 110114800.00000001 27.265000000000004 29.645000000000003 27.125000000000004 84238000.000000015 28.545000000000005 91406200.000000015 42347350.000000007 43936946.000000007 45333200.000000007 43752100.000000007 56.755000000000003 25.805000000000003 44389850.000000007 61344950.000000007
decision_type=2 2 2 2 2 2 2 2 2 2 2 2 2 2 2 2 2 2 2 2 2 2 2 2 2 2 2 2 2 2
left_child=1 2 3 5 -4 7 -7 8 -1 10 13 -5 19 -10 18 -16 -17 -18 -14 22 -21 -22 -9 24 -24 26 27 -25 -27 -30
right_child=-2 -3 4 11 -6 6 -8 12 9 -11 -12 -13 14 -15 15 16 17 -19 -20 20 21 -23 23 25 -26 28 -28 -29 29 -31
leaf_value=0.030703764943416551 -0.041389082206494135 -0.037258262007459617 0.011323764314169992 -0.016888682702593142 -0.044843212004109533 0.029486540483711788 -0.0074360517581800846 0.0021517493760083712 -0.038963203004433962 -0.043781467196075612 0.058283617864399152 -0.056754628216940488 0.0010272740095233579 0.0026471950654407342 0.029087971129412072 -0.045686580516713288 0.031791846149828523 -0.024901545114462506 -0.042440386411048116 0.024184306041191751 0.018619606844454975 -0.030800913659006491 -0.063733264381761218 0.054016241830261616 -0.0021686477543531083 -0.045504578962596402 -0.047719041210923949 0.0083098636050106655 -0.009440083839848519 0.0013379730635550903
leaf_weight=25.34659318625927 7.3552848547697058 6.4866890162229529 113.28307741880417 21.608392849564556 5.2098115384578696 22.26043576002121 11.696330368518828 296.73945413529873 4.9801653176546088 5.4853661060333243 4.9883675575256339 6.703159734606742 5.2315017133951214 42.293148174881935 5.9893788695335415 5.9875325411558178 5.4886561185121518 6.9882107824087143 12.455314725637434 26.723884597420692 5.4978843033313742 8.746057912707327 8.4933169484138507 6.8905645459890357 10.486035600304602 6.7411513179540625 4.9813750684261313 50.910154685378075 147.80932116508484 104.44507429003716
leaf_count=103 30 27 456 87 21 90 47 1189 20 22 20 27 21 170 24 24 22 28 50 107 22 35 34 28 42 27 20 204 592 418
internal_value=0 0.000307906 0.000555433 -0.00058012 0.00885425 0.000290105 0.0167686 -0.000406123 0.00898665 -0.000545521 0.00399251 -0.0263275 -0.00148921 -0.00173639 -0.0147622 -0.00404247 -0.0147891 3.8252e-05 -0.0295833 -0.000664805 0.0116989 -0.0117256 -0.00145934 -0.00460397 -0.029719 -0.00312262 0.00888076 0.0137586 -0.00603231 -0.00497747
internal_weight=0 990.946 984.46 865.967 118.493 837.655 33.9568 803.699 83.0936 57.747 52.2617 28.3116 720.605 47.2733 42.1406 24.4538 18.4644 12.4769 17.6868 678.464 40.9678 14.2439 637.496 340.757 18.9794 321.778 62.7821 57.8007 258.996 252.254
internal_count=4007 3977 3950 3473 477 3359 137 3222 335 232 210 114 2887 190 169 98 74 50 71 2718 164 57 2554 1365 76 1289 252 232 1037 1010
is_linear=0
shrinkage=0.05


Tree=10
num_leaves=31
num_cat=0
split_feature=3 0 2 1 0 3 2 0 2 1 1 0 3 2 0 1 0 1 3 1 2 0 0 3 3 0 0 2 0 1
split_gain=4.6097 3.38599 6.36019 3.07029 3.06723 6.80278 4.09535 5.88017 3.17101 4.22494 2.78729 2.49172 3.90335 3.81891 2.95746 2.50743 7.99209 5.19492 5.72602 5.01524 4.408 4.47824 3.97651 3.29415 4.14679 2.65862 6.50547 4.29645 2.2804 2.26793
threshold=154640550.00000003 137.06500000000003 132.72500000000002 17944560.000000004 24.625000000000004 54179050.000000007 24.485000000000003 24.205000000000002 24.815000000000001 62227750.000000007 48870200.000000007 25.265000000000004 77442700.000000015 25.245000000000001 25.035000000000004 50918050.000000007 26.595000000000002 54602200.000000007 72175150.000000015 54005450.000000007 27.005000000000006 27.125000000000004 26.105000000000004 61316800.000000007 58062700.000000007 56.545000000000009 35.935000000000009 29.492500000000003 25.615000000000006 86199300.000000015
decision_type=2 2 2 2 2 2 2 2 2 2 2 2 2 2 2 2 2 2 2 2 2 2 2 2 2 2 2 2 2 2
left_child=1 2 3 -1 5 -5 7 10 9 -6 -7 12 14 -13 -10 16 22 18 19 -17 -18 -22 28 24 -23 26 27 -25 -15 -19
right_child=-2 -3 -4 4 8 6 -8 -9 11 -11 -12 13 -14 15 -16 17 20 29 -20 -21 21 23 -24 25 -26 -27 -28 -29 -30 -31
leaf_value=0.015302564457649648 -0.039548699109507666 -0.028763972940600097 0.048405905206126559 0.030702368201447467 -0.051507941939086158 -0.037046895159828876 -0.041645854069839755 0.055478111822863808 -0.022012554467334574 0.0025844262899187929 0.0025149792599312945 -0.034126759059071407 0.050057922499295748 0.040109827714940503 0.019444076942045103 -0.019416447322153585 -0.033600864605823455 0.0007154893922446089 0.030351944604538012 -0.070813765026867856 0.042479852256659512 0.00020854582429950743 0.060283553052212606 -0.0049056607543338697 0.03775000346197388 -0.050826370242219525 0.031270664308897508 -0.062399502992852962 0.0040853705080568332 -0.011483342741253984
leaf_weight=32.727527037262917 7.3137435913085929 9.9257106781005842 6.9045911729335776 25.006088182330132 7.2020751982927305 4.9759772568941107 5.4784826338291159 4.9788101911544791 6.9839240014553132 7.2373847365379333 42.290781542658806 8.7289727032184583 5.9910656660795203 6.656910374760634 11.202716708183287 34.943695157766342 9.7172564864158613 191.3298663944006 4.9939355850219718 5.4922422766685477 6.2442340850830069 451.80405105650425 6.9840925037860861 7.4879849851131492 7.4775383025407782 4.9204147458076468 6.4874724596738806 5.7405523210763931 12.916972279548643 47.574433252215385
leaf_count=132 30 41 28 102 29 20 22 20 28 29 170 35 24 27 45 140 39 766 20 22 25 1813 28 30 30 20 26 23 52 191
internal_value=0 0.000292642 0.000586791 0.000247658 -0.000276029 0.00891841 -0.000518418 0.00379421 -0.00116245 -0.0243956 -0.00164987 -0.00076482 0.0150549 -0.00123155 0.00352415 -0.000877391 0.00116612 -0.0046609 -0.0201593 -0.0263975 -0.000253892 0.000407197 0.0278938 -0.000135687 0.000819756 -0.0179474 -0.00974201 -0.0298552 0.016337 -0.00171374
internal_weight=0 990.406 980.48 973.575 940.848 82.7301 57.7241 52.2456 858.118 14.4395 47.2668 843.678 24.1777 819.501 18.1866 810.772 526.437 284.334 45.4299 40.4359 499.88 490.162 26.558 483.918 459.282 24.6364 19.716 13.2285 19.5739 238.904
internal_count=4007 3977 3936 3908 3776 334 232 210 3442 58 190 3384 97 3287 73 3252 2113 1139 182 162 2006 1967 107 1942 1843 99 79 53 79 957
is_linear=0
shrinkage=0.05


Tree=11
num_leaves=31
num_cat=0
split_feature=3 0 2 0 3 0 0 1 0 3 2 0 2 1 1 2 3 3 3 2 1 2 1 1 0 3 2 0 1 0
split_gain=4.18723 3.10768 3.27013 7.04786 5.44196 3.47935 3.80613 2.91089 2.67786 5.63634 3.70371 5.32639 2.80907 3.83788 2.51938 2.4343 2.8526 5.12179 3.16515 2.73157 3.04047 3.13174 2.58796 4.73681 2.32351 3.52579 3.39356 2.66943 2.52376 7.15405
threshold=154640550.00000003 138.09000000000003 75.260000000000005 70.030000000000015 56873900.000000007 65.905000000000015 68.990000000000023 35479950.000000007 24.625000000000004 54179050.000000007 24.485000000000003 24.205000000000002 24.815000000000001 62227750.000000007 48870200.000000007 93.990000000000023 15809408.500000002 24005119.500000004 40708200.000000007 88.540000000000006 18707681.000000004 83.530000000000015 25904163.000000004 22162875.500000004 25.265000000000004 77442700.000000015 25.245000000000001 25.035000000000004 50918050.000000007 26.595000000000002
decision_type=2 2 2 2 2 2 2 2 2 2 2 2 2 2 2 2 2 2 2 2 2 2 2 2 2 2 2 2 2 2
left_child=1 2 3 5 15 8 -7 -5 9 -1 11 14 13 -10 -11 19 -17 22 -19 20 -4 -22 23 -18 25 27 -26 -14 29 -28
right_child=-2 -3 4 7 -6 6 -8 -9 12 10 -12 -13 24 -15 -16 16 17 18 -20 -21 21 -23 -24 -25 26 -27 28 -29 -30 -31
leaf_value=0.02787328090459178 -0.037810481404086438 -0.034461614518112173 0.04244058499265016 -0.016202940596753448 -0.041845223721377778 0.028123150191590753 -0.0071261368288460889 -0.053996861967382848 -0.049158197083453176 -0.035248491569305963 -0.039647803102063645 0.052887553029403227 -0.020912033008932795 0.0024552644853039381 0.0023893683156163787 -0.028865706218404237 0.032071782877215037 -0.0070979209771474252 0.027844953138368822 0.039988015336278056 0.023370981652589509 -0.023381285364437152 0.048100470695537648 -0.022582741985188108 -0.032465109226368638 0.047585693024942227 0.02655216175090562 0.018475823555467109 -0.0047952209710599948 -0.00032500421719428881
leaf_weight=25.145940288901329 7.2686284631490699 6.395981401205062 5.3936146348714855 21.586759284138683 5.1740440130233756 22.194784179329872 11.692538514733313 6.6686134487390509 7.1698198616504651 4.9685431122779837 5.4671200364828101 4.9619591683149329 6.9838822633028093 7.2372101992368698 42.28839735686779 5.4920472949743262 12.797395616769796 39.930492296814919 7.7361967265605918 12.91005192697048 6.7129475921392423 7.6798295080661774 8.7741825729608518 5.743619590997695 8.7172433286905271 5.9872718006372443 26.507109820842743 11.200374275445936 271.07103852927685 375.32447755336761
leaf_count=103 30 27 22 87 21 90 47 27 29 20 22 20 28 29 170 22 52 160 31 52 27 31 36 23 35 24 107 45 1086 1504
internal_value=0 0.000278175 0.000504094 -0.000562217 0.0082995 0.000266978 0.0159607 -0.0251228 -0.000395285 0.00811855 -0.000492745 0.00360664 -0.00137448 -0.0232308 -0.00156784 0.0105921 0.00591781 0.00846553 -0.00142677 0.0220966 0.0104229 -0.00157552 0.0257282 0.015141 -0.000928341 0.014306 -0.00146858 0.00334844 -0.00106703 0.00144797
internal_weight=0 989.913 983.518 865.173 118.344 836.918 33.8873 28.2554 803.03 82.832 57.686 52.2189 720.198 14.407 47.2569 113.17 80.4739 74.9819 47.6667 32.6964 19.7864 14.3928 27.3152 18.541 705.791 24.1715 681.62 18.1843 672.903 401.832
internal_count=4007 3977 3950 3473 477 3359 137 114 3222 335 232 210 2887 58 190 456 324 302 191 132 80 58 111 75 2829 97 2732 73 2697 1611
is_linear=0
shrinkage=0.05


Tree=12
num_leaves=31
num_cat=0
split_feature=1 0 0 0 0 0 3 1 1 3 1 3 3 1 1 1 1 3 3 2 0 0 3 3 0 3 2 2 3 1
split_gain=3.91055 3.06543 2.86921 2.81715 5.66019 6.19299 4.69958 3.02048 5.19033 2.92852 4.76149 4.16436 3.0294 4.71936 2.75501 2.48116 2.43634 2.56616 2.80796 2.43467 2.48915 4.26762 3.12536 2.95776 4.41026 3.80042 6.63495 4.06197 6.39708 3.42984
threshold=92948800.000000015 18.940000000000005 138.09000000000003 80.625000000000014 68.990000000000023 65.905000000000015 46013800.000000007 90098600.000000015 86199300.000000015 29642895.000000004 31369370.000000004 16807204.000000004 34327074.000000007 48130450.000000007 17586440.000000004 72167300.000000015 96429050.000000015 81731450.000000015 65728692.500000007 65.450000000000017 21.795000000000005 24.625000000000004 43145073.000000007 80176800.000000015 28.545000000000005 68243950.000000015 30.167500000000004 26.612500000000001 72175150.000000015 60196200.000000007
decision_type=2 2 2 2 2 2 2 2 2 2 2 2 2 2 2 2 2 2 2 2 2 2 2 2 2 2 2 2 2 2
left_child=1 15 3 4 5 7 14 8 19 11 -11 -5 -12 -14 -6 -1 -2 18 -18 20 -3 22 -22 25 29 -23 27 28 -27 -25
right_child=16 2 -4 9 6 -7 -8 -9 -10 10 12 -13 13 -15 -16 -17 17 -19 -20 -21 21 23 -24 24 -26 26 -28 -29 -30 -31
leaf_value=0.0037636647285365765 -0.039172713347712364 -0.019667225006094302 -0.033014192728719111 -0.015234359199746856 0.014229576272050633 0.026799264946238945 -0.063949845561774091 0.033938666731075186 -0.035766763326336014 -0.024965755882093085 -0.020502971496646392 0.019278611988691789 0.038617011028983524 -0.012762631744051076 -0.018162908549704537 0.054105127646402719 -0.011135592592557256 -0.01872800005765984 0.023738475886370264 -0.032289226453472798 0.054090469713378213 6.0660965819065408e-05 0.011373046523174078 -0.0024553261067773199 -0.0079746445315110048 -0.036141612348916961 0.025256111176115044 -0.038813003813780417 0.023570976902787075 0.034417682978334051
leaf_weight=4.9572712630033475 7.4481211155652991 15.10734401643276 6.343921333551406 10.210860058665274 8.161163851618765 22.128353402018547 4.8242677599191657 6.4816105663776389 10.197582215070723 14.939761653542517 5.9837193489074734 60.685887917876244 12.458324313163759 6.9696005135774604 33.543079733848572 4.8347085565328598 13.698209181427957 28.421342864632607 9.9752230644226056 5.7366366684436789 4.8380687385797492 566.47648222744465 37.243292137980461 8.9758505076169985 17.715543612837791 8.9519055634737033 8.4881813675165159 20.469775334000587 8.9893198758363706 21.207398369908333
leaf_count=20 30 61 27 41 33 90 20 26 41 60 24 246 50 28 135 20 55 115 40 23 20 2271 151 36 71 36 34 82 36 85
internal_value=0 0.000790273 0.000496353 0.00072723 -0.000298008 0.000734426 -0.0172286 -4.40704e-05 -0.000343994 0.00818773 -0.00256531 0.0143079 0.0106041 0.020185 -0.011824 0.0286193 -0.0124243 -0.00860002 0.00355922 0.0001548 0.000413853 0.000845173 0.0162842 -0.000137319 0.011829 -0.00107178 -0.01475 -0.0235907 -0.00622306 0.0234524
internal_weight=0 936.92 927.128 920.784 809.536 763.007 46.5285 740.879 734.397 111.248 40.3514 70.8967 25.4116 19.4279 41.7042 9.79198 59.5429 52.0948 23.6734 724.2 718.463 703.356 42.0814 661.274 47.8988 613.376 46.8992 38.411 17.9412 30.1832
internal_count=4007 3767 3727 3700 3251 3063 188 2973 2947 449 162 287 102 78 168 40 240 210 95 2906 2883 2822 171 2651 192 2459 188 154 72 121
is_linear=0
shrinkage=0.05


Tree=13
num_leaves=31
num_cat=0
split_feature=3 0 2 1 0 3 2 1 2 2 1 3 3 3 3 3 3 0 0 0 3 0 3 3 2 1 3 1 3 3
split_gain=3.706 2.6474 5.55076 2.56399 2.33762 5.43465 3.51749 4.67895 5.71252 2.62794 3.40363 2.483 2.75996 2.57584 2.19659 2.11551 2.21978 2.10174 2.01913 3.23259 3.13296 2.43312 2.18253 4.51318 4.43225 5.96667 3.84434 3.73273 3.31606 3.18088
threshold=154640550.00000003 137.06500000000003 132.72500000000002 17944560.000000004 24.625000000000004 59774300.000000007 24.485000000000003 54005450.000000007 23.780000000000005 24.815000000000001 62227750.000000007 75241150.000000015 87172850.000000015 112265900.00000001 16807204.000000004 15216130.000000002 16807204.000000004 19.640000000000004 25.265000000000004 25.378750000000004 77442700.000000015 25.035000000000004 63407648.000000007 65728692.500000007 26.612500000000001 62227750.000000007 58062700.000000007 73920150.000000015 73540850.000000015 68243950.000000015
decision_type=2 2 2 2 2 2 2 2 2 2 2 2 2 2 2 2 2 2 2 2 2 2 2 2 2 2 2 2 2 2
left_child=1 2 3 14 5 -5 7 -7 11 10 -6 17 -13 -14 -1 -11 -17 -9 20 -20 21 -18 26 -24 25 -25 -21 -28 -27 -26
right_child=-2 -3 -4 4 9 6 -8 8 -10 15 -12 12 13 -15 -16 16 18 -19 19 22 -22 -23 23 24 29 28 27 -29 -30 -31
leaf_value=-0.0018298221279524783 -0.035742927827331031 -0.025628110518230253 0.045424994905275434 0.023928437965716018 -0.046784545656886604 -0.035029901472503421 -0.042465160908381504 0.0057064354324121202 0.049915497553241366 0.026729835133836945 0.0019084892251392375 0.032128752434863593 -0.026452350221767448 0.021473860722672128 0.024632865020441829 -0.031954807357418256 -0.019937388169857059 -0.037541927507879352 -0.033888671233044364 -0.00066874833948316178 0.044976196435050929 0.017672915499776797 -0.02767976003264451 -0.019900328271085812 0.016930168495829161 -0.0014959683655353219 0.021059843997645693 -0.012591405694786971 0.042107869889981296 -0.011097506796029534
leaf_weight=13.120616704225538 7.1994470953941336 9.7771260738372785 6.8336266428232184 31.890302076935768 7.125501871109007 7.2105908989906302 4.9515178650617591 4.9618190228939074 6.9416327923536292 6.9780895859003058 7.2304293364286423 8.4483530372381228 6.4367214739322645 4.9670081585645676 19.491509154438972 5.7204438447952262 6.9824786037206712 6.4751801639795303 7.4601173549890509 599.97592370212078 5.9686895757913581 11.194298133254049 21.134598821401596 8.9516885280609149 11.453905865550039 6.2433450371027019 38.633955597877502 10.475057259202002 14.456421241164206 87.125961005687714
leaf_count=53 30 41 28 131 29 29 20 20 28 28 29 34 26 20 79 23 28 26 30 2409 24 45 85 36 46 25 155 42 58 350
internal_value=0 0.000260923 0.000519515 0.00020381 -0.000274665 0.00777535 -0.00244688 0.00191372 0.00888155 -0.00104747 -0.0222601 -0.000222025 0.0104689 -0.00557761 0.0139863 -0.000686124 -0.000915026 -0.0187791 -0.000701111 -0.00112796 0.0135459 0.00322519 -0.000821868 -0.00627129 -0.00274283 0.0142066 0.000432141 0.013882 0.0289563 -0.007841
internal_weight=0 988.617 978.84 972.006 939.394 82.2831 50.3928 45.4413 38.2307 857.111 14.3559 31.2891 19.8521 11.4037 32.6121 842.755 835.777 11.437 830.056 805.911 24.1455 18.1768 798.451 149.366 128.231 29.6515 649.085 49.109 20.6998 98.5799
internal_count=4007 3977 3936 3908 3776 334 203 183 154 3442 58 126 80 46 132 3384 3356 46 3333 3236 97 73 3206 600 515 119 2606 197 83 396
is_linear=0
shrinkage=0.05


Tree=14
num_leaves=31
num_cat=0
split_feature=1 0 0 2 1 3 3 1 1 3 3 1 1 1 1 0 1 1 3 3 3 0 0 2 0 0 3 2 2 0
split_gain=3.45113 2.74417 2.44409 4.98999 2.26403 2.2824 2.45934 2.2593 2.24593 2.12841 3.66309 2.0605 4.72372 2.19884 2.62657 3.43444 2.44679 4.95217 5.95315 6.62229 6.43829 5.60003 5.11954 4.1504 5.82052 6.33476 5.63333 4.49074 3.98796 4.86826
threshold=92948800.000000015 18.940000000000005 137.06500000000003 132.72500000000002 96429050.000000015 81731450.000000015 65728692.500000007 72167300.000000015 17944560.000000004 97814250.000000015 133707750.00000001 90098600.000000015 86199300.000000015 83617393.000000015 80989550.000000015 27.075000000000003 63021700.000000007 51284200.000000007 76866100.000000015 62889050.000000007 59774300.000000007 26.595000000000002 26.105000000000004 22.840000000000003 25.265000000000004 25.505000000000006 57799650.000000007 25.925000000000004 27.084750000000003 23.630000000000006
decision_type=2 2 2 2 2 2 2 2 2 2 2 2 2 2 2 2 2 2 2 2 2 2 2 2 2 2 2 2 2 2
left_child=1 7 3 8 -2 6 -6 -1 -3 -7 -11 12 13 14 16 -16 17 21 19 20 28 22 -10 -18 26 -26 -25 -27 29 -19
right_child=4 2 -4 -5 5 9 -8 -9 11 10 -12 -13 -14 -15 15 -17 23 18 -20 -21 -22 -23 -24 24 25 27 -28 -29 -30 -31
leaf_value=0.0034887926361076103 -0.037518162307378276 0.013302235926759871 -0.024457230696010124 0.043429853614523097 -0.010301353777038218 -0.036587167421876815 0.022339214474009501 0.051695408025859257 0.010528389724049911 0.013577371234354069 -0.030786824153603461 0.027529523103266541 -0.034162008599968853 0.022905018049574507 -0.053695186018011355 0.0035676292980826364 -0.028022150776348849 0.023739308097232091 0.018576881855640898 -0.031940008780415419 0.029080989512848557 -0.00046766943684691756 0.056425331525375967 0.073033164986696611 -0.047256088148341369 0.04270465356554963 0.016294667819567166 0.003486611685258113 -0.0019258917223221646 -0.029934053159983799
leaf_weight=4.9489381611347181 7.4218209981918326 32.576456874608994 9.7340580075979215 6.7912611067295066 13.682697758078577 9.684848368167879 9.980187922716139 4.7762245088815689 48.454503610730171 9.7043509185314196 8.9386250078678113 6.711820811033248 10.167185738682745 10.459549099206923 5.2334463745355588 5.2404968738555908 8.146248593926428 4.8439684361219397 17.440359309315681 33.025859862565994 11.480038627982138 501.81458052992821 6.9468851536512366 6.1130118668079403 5.7411584407091132 7.9881346970796576 15.384357661008833 84.657317608594894 54.171324968338013 33.046068578958511
leaf_count=20 30 132 41 28 55 39 40 20 197 39 37 27 41 42 21 21 33 20 70 133 46 2016 28 25 23 32 62 339 217 133
internal_value=0 0.00074244 0.000465002 0.000729718 -0.0116849 -0.00799709 0.00346531 0.027164 0.000410925 -0.0175719 -0.00769364 -6.78912e-05 -0.000280711 0.000119757 -0.000160714 -0.0250445 0.000149838 -0.00099561 -0.00893168 -0.0124447 -0.00622637 0.00119782 0.0162835 0.00651294 0.00885964 0.00370978 0.0324289 0.00686809 -0.0106292 -0.0230723
internal_weight=0 935.893 926.168 916.434 59.4125 51.9907 23.6629 9.72516 909.643 28.3278 18.643 877.066 870.354 860.187 849.728 10.4739 839.254 711.224 154.008 136.567 103.541 557.216 55.4014 128.03 119.884 98.3866 21.4974 92.6455 92.0614 37.89
internal_count=4007 3767 3727 3686 240 210 95 40 3658 115 76 3526 3499 3458 3416 42 3374 2860 619 549 416 2241 225 514 481 394 87 371 370 153
is_linear=0
shrinkage=0.05


Tree=15
num_leaves=31
num_cat=0
split_feature=3 0 2 0 3 0 0 1 2 2 1 2 3 3 3 1 1 2 0 2 2 3 1 0 1 1 1 1 0 2
split_gain=3.24135 2.21678 2.54888 6.05681 4.70356 2.87684 3.01606 2.45538 2.33021 2.49303 2.59491 2.9326 2.43429 4.36287 2.85379 2.35243 4.10031 2.30856 3.43931 2.39638 2.15529 2.149 2.04018 2.52695 2.42545 3.55313 2.37675 2.07777 1.96123 3.39227
threshold=154640550.00000003 138.09000000000003 75.260000000000005 70.030000000000015 56873900.000000007 65.905000000000015 68.990000000000023 35479950.000000007 93.990000000000023 88.540000000000006 18707681.000000004 83.530000000000015 15809408.500000002 24005119.500000004 40708200.000000007 25904163.000000004 22162875.500000004 100.855 106.84000000000002 113.06000000000002 65.450000000000017 29198300.000000004 92948800.000000015 18.940000000000005 90098600.000000015 86199300.000000015 96429050.000000015 72167300.000000015 21.795000000000005 24.580000000000002
decision_type=2 2 2 2 2 2 2 2 2 2 2 2 2 2 2 2 2 2 2 2 2 2 2 2 2 2 2 2 2 2
left_child=1 2 3 5 8 20 -7 -5 9 10 -4 -12 -10 15 17 16 -14 -15 -19 -20 22 -8 23 27 25 28 -24 -1 -25 -30
right_child=-2 -3 4 7 -6 6 21 -9 12 -11 11 -13 13 14 -16 -17 -18 18 19 -21 -22 -23 26 24 -26 -27 -28 -29 29 -31
leaf_value=0.0033151368611139334 -0.033619820938256224 -0.029546200306112574 0.039357821099530135 -0.015160352254016535 -0.039485524314954522 0.025445108558169283 0.015880179549026405 -0.050040451657217502 -0.027269145071801018 0.037863190348606281 0.02268128303849248 -0.022566196904463921 0.02904181369996485 -0.02880457432615878 0.025947059247290339 0.044776498736594575 -0.021896235270047845 0.023521826545459246 -0.031148601904057261 0.0032521625959783442 -0.030878836885453051 -0.027034570338928733 -0.035785719736266396 -0.017630101394151939 0.030753146988154286 -0.030155182883674914 -0.0053178021763235946 0.049679924457205114 0.014554645039970003 -0.00012982717026710085
leaf_weight=4.9478006958961469 7.1176659762859336 6.2059204727411261 5.3329713195562389 21.530014842748646 5.1320819705724707 22.04786279797554 5.725194111466406 6.5897823721170417 5.4863692373037329 12.858592972159384 6.7077932804822904 7.6821751147508621 12.675052016973501 9.4785528331994993 7.7230652123689643 8.6496481448411924 5.7396831661462775 9.9762958884239215 9.2349641621112841 11.204576432704924 5.7375304847955695 5.9477942734956741 7.3928049504756919 14.825010702013968 6.451411470770835 9.6642701178789121 47.704989954829216 4.7228581756353378 41.827795431017876 658.35291893780231
leaf_count=20 30 27 22 87 21 90 23 27 22 52 27 31 52 38 31 36 23 40 37 45 23 24 30 60 26 39 192 20 171 2641
internal_value=0 0.000243015 0.000431398 -0.000510129 0.00732795 0.000258189 0.0145646 -0.0233344 0.00945878 0.020734 0.00956642 -0.00147437 0.00487637 0.00723789 -0.00187308 0.0232678 0.0131649 -0.00725872 -0.000544335 -0.0122907 -0.000343618 -0.00598638 -0.000123491 0.000566903 0.000231047 -4.06774e-05 -0.00940587 0.0259583 0.000366361 0.000747402
internal_weight=0 987.556 981.35 863.468 117.882 835.348 33.7209 28.1198 112.75 32.5815 19.7229 14.39 80.1682 74.6818 47.6175 27.0644 18.4147 39.8944 30.4158 20.4395 801.627 11.673 795.89 740.792 731.121 724.67 55.0978 9.67066 715.006 700.181
internal_count=4007 3977 3950 3473 477 3359 137 114 456 132 80 58 324 302 191 111 75 160 122 82 3222 47 3199 2977 2937 2911 222 40 2872 2812
is_linear=0
shrinkage=0.05


end of trees

feature_importances:
Column_1=134
Column_3=133
Column_0=120
Column_2=93

parameters:
[boosting: gbdt]
[objective: binary]
[metric: binary_logloss]
[tree_learner: serial]
[device_type: cpu]
[data_sample_strategy: bagging]
[data: ]
[valid: ]
[num_iterations: 10000]
[learning_rate: 0.05]
[num_leaves: 31]
[num_threads: 0]
[seed: 1237]
[deterministic: 0]
[force_col_wise: 0]
[force_row_wise: 0]
[histogram_pool_size: -1]
[max_depth: -1]
[min_data_in_leaf: 20]
[min_sum_hessian_in_leaf: 0.001]
[bagging_fraction: 1]
[pos_bagging_fraction: 1]
[neg_bagging_fraction: 1]
[bagging_freq: 0]
[bagging_seed: 32458]
[feature_fraction: 1]
[feature_fraction_bynode: 1]
[feature_fraction_seed: 15412]
[extra_trees: 0]
[extra_seed: 19498]
[early_stopping_round: 0]
[early_stopping_min_delta: 0]
[first_metric_only: 0]
[max_delta_step: 0]
[lambda_l1: 0]
[lambda_l2: 0]
[linear_lambda: 0]
[min_gain_to_split: 0]
[drop_rate: 0.1]
[max_drop: 50]
[skip_drop: 0.5]
[xgboost_dart_mode: 0]
[uniform_drop: 0]
[drop_seed: 818]
[top_rate: 0.2]
[other_rate: 0.1]
[min_data_per_group: 100]
[max_cat_threshold: 32]
[cat_l2: 10]
[cat_smooth: 10]
[max_cat_to_onehot: 4]
[top_k: 20]
[monotone_constraints: ]
[monotone_constraints_method: basic]
[monotone_penalty: 0]
[feature_contri: ]
[forcedsplits_filename: ]
[refit_decay_rate: 0.9]
[cegb_tradeoff: 1]
[cegb_penalty_split: 0]
[cegb_penalty_feature_lazy: ]
[cegb_penalty_feature_coupled: ]
[path_smooth: 0]
[interaction_constraints: ]
[verbosity: -1]
[saved_feature_importance_type: 0]
[use_quantized_grad: 0]
[num_grad_quant_bins: 4]
[quant_train_renew_leaf: 0]
[stochastic_rounding: 1]
[linear_tree: 0]
[max_bin: 255]
[max_bin_by_feature: ]
[min_data_in_bin: 3]
[bin_construct_sample_cnt: 200000]
[data_random_seed: 4078]
[is_enable_sparse: 1]
[enable_bundle: 1]
[use_missing: 1]
[zero_as_missing: 0]
[feature_pre_filter: 1]
[pre_partition: 0]
[two_round: 0]
[header: 0]
[label_column: ]
[weight_column: ]
[group_column: ]
[ignore_column: ]
[categorical_feature: ]
[forcedbins_filename: ]
[precise_float_parser: 0]
[parser_config_file: ]
[objective_seed: 21231]
[num_class: 1]
[is_unbalance: 0]
[scale_pos_weight: 1]
[sigmoid: 1]
[boost_from_average: 1]
[reg_sqrt: 0]
[alpha: 0.9]
[fair_c: 1]
[poisson_max_delta_step: 0.7]
[tweedie_variance_power: 1.5]
[lambdarank_truncation_level: 30]
[lambdarank_norm: 1]
[label_gain: ]
[lambdarank_position_bias_regularization: 0]
[eval_at: ]
[multi_error_top_k: 1]
[auc_mu_weights: ]
[num_machines: 1]
[local_listen_port: 12400]
[time_out: 120]
[machine_list_filename: ]
[machines: ]
[gpu_platform_id: -1]
[gpu_device_id: -1]
[gpu_use_dp: 0]
[num_gpu: 1]

end of parameters

pandas_categorical:null
