tree
version=v4
num_class=1
num_tree_per_iteration=1
label_index=0
max_feature_idx=10
objective=binary sigmoid:1
feature_names=Column_0 Column_1 Column_2 Column_3 Column_4 Column_5 Column_6 Column_7 Column_8 Column_9 Column_10
feature_infos=[12.99:702.40999999999997] [13.19:705.07000000000005] [12.720000000000001:699.57000000000005] [13.119999999999999:702.10000000000002] [702500:189560600] [0:3.29] [13.280000000000001:700.5172] [13.354999999999999:691.09659999999997] [13.820499999999999:680.78600000000006] [13.119999999999999:702.10000000000002] [702500:189560600]
tree_sizes=6574 6695 6658 6690 6682 6692 6654 6678 6689 6665 6689 6678

Tree=0
num_leaves=63
num_cat=0
split_feature=4 10 7 10 10 10 9 4 4 10 2 10 2 10 4 3 7 10 7 3 2 8 8 10 3 8 4 10 3 9 8 9 4 10 1 8 10 8 8 1 7 8 8 10 10 4 8 0 3 10 1 4 8 0 10 7 1 4 4 10 10 7
split_gain=7.21671 12.7989 7.84915 7.91209 7.61863 11.6283 10.7794 8.30746 7.42344 11.3 6.60691 5.63362 5.61864 5.42208 5.2771 5.0073 4.76016 8.52462 4.69876 4.64157 7.40029 4.09199 3.78146 9.68582 8.54073 7.38308 6.58017 6.47894 14.5337 4.58006 4.66668 4.65979 9.42231 4.93558 4.81492 4.557 4.42563 5.76903 5.74844 4.31576 5.97244 4.47192 4.20727 4.16882 3.88928 3.73579 3.67543 4.91649 9.04254 11.1895 8.84812 5.82835 4.70457 4.51266 3.61119 3.60554 3.53049 4.07854 3.47128 3.61506 3.94589 3.46304
threshold=6678250.0000000009 25523196.500000004 389.53700000000009 8673050.0000000019 15240102.000000002 13897750.000000002 270.52500000000003 20062516.000000004 5748650.0000000009 6971350.0000000009 19.400000000000002 21932600.000000004 14.130000000000001 8238300.0000000009 4793600.0000000009 126.74000000000002 26.543000000000003 6272700.0000000009 402.76400000000007 20.800000000000001 17.025000000000002 331.81735000000009 90.859937500000015 28802853.000000004 85.920000000000016 100.08070000000002 67198291.000000015 40929331.500000007 94.195000000000007 99.885000000000019 111.82450000000001 114.96000000000002 71889555.000000015 62119845.000000007 110.75500000000001 114.03337500000002 32926785.500000004 93.503822500000027 96.404000000000011 85.540000000000006 63.097950000000004 64.833050000000028 115.28150000000001 31776915.500000004 48902698.000000007 27311650.500000004 331.81735000000009 26.150000000000002 20.135000000000002 10081250.000000002 21.395000000000003 8322100.0000000009 19.875250000000005 23.785000000000004 27640300.000000004 408.19285000000008 25.095000000000002 5400050.0000000009 26798150.000000004 7299050.0000000009 6971350.0000000009 111.43000000000002
decision_type=2 2 2 2 2 2 2 2 2 2 2 2 2 2 2 2 2 2 2 2 2 2 2 2 2 2 2 2 2 2 2 2 2 2 2 2 2 2 2 2 2 2 2 2 2 2 2 2 2 2 2 2 2 2 2 2 2 2 2 2 2 2
left_child=8 2 4 -4 5 46 -6 -7 12 -10 -11 18 14 -12 -1 16 17 56 -5 20 -19 -8 23 45 39 26 27 36 -29 42 61 32 34 35 -32 -33 37 -24 -39 40 43 -42 -27 -25 -45 54 47 48 52 50 -50 -52 -2 -53 -3 -20 57 -14 59 60 -49 -31
right_child=1 22 3 11 6 7 21 -9 9 10 13 -13 15 -15 -16 -17 -18 19 55 -21 -22 -23 25 24 -26 29 -28 28 -30 30 31 33 -34 -35 -36 -37 -38 38 -40 -41 41 -43 -44 44 -46 -47 -48 58 49 -51 51 53 -54 -55 -56 -57 -58 -59 -60 -61 -62 -63
leaf_value=0.082334407214382968 0.083085029467794128 0.087479581569583104 0.10380220366194218 0.016261987214120539 0.086245276378765862 0.02675134347411761 0.14775620837114811 0.089300181726038541 0.014915661048002245 0.12490302923005592 0.081289541037634638 0.022544842656005967 0.06653020990626031 0.006690449626873235 0.16940658861007762 0.0091937748419994442 0.08186515593740018 -0.012653427035465792 0.12935338516805808 -0.0068275065348083613 0.091525359695039624 0.10583007521004661 0.019207075702504378 0.031723701778135445 -0.0041572929720070789 0.012054717945000834 0.15510187309507067 0.12587049791223026 0.028794278654051562 0.077759428191897323 0.076976119128494058 0.12649244206505669 0.12935338516805808 0.039409349368435244 0.0072864794399985083 0.068877797362321067 0.12253581862473562 0.13126068057005902 0.041964577658197263 0.11478858391641462 -0.030859428600019959 0.040877652191656698 0.075163756981796351 0.11218772655004972 0.041964577658197263 0.060929162621274693 0.058545043368773531 0.091253996528088271 -0.012653427035465542 -0.019733538755014671 0.055922512191022247 0.1560555207960711 0.13936668602856297 0.06927358000502877 0.15400151036314702 0.068392644445453565 0.0091937748419994442 0.11218772655004972 0.046165962634632879 0.10778627562235527 0.023758576093642916 0.11748576933338563
leaf_weight=5.7423623353242856 14.480739802122118 5.4926944077014905 14.480739802122114 4.2443547695875159 176.76489275693893 18.225758716464046 9.2377133220434207 7.4900378286838523 17.476754933595657 4.494022697210311 6.2416981905698758 7.4900378286838523 72.903034865856171 3.9946868419647217 2.496679276227951 3.7450189143419257 41.694543913006783 2.7463472038507444 2.4966792762279502 6.2416981905698776 4.4940226972103119 15.72907944023609 2.996015131473543 3.9946868419647208 7.4900378286838523 6.9907019734382612 3.4953509867191306 5.7423623353242901 11.734392598271368 29.460815459489822 3.245683059096339 3.4953509867191306 2.4966792762279502 14.231071874499319 10.486052960157393 189.49795706570148 11.734392598271368 5.2430264800786972 2.7463472038507462 2.7463472038507453 2.4966792762279537 16.727751150727272 4.2443547695875168 6.9907019734382612 2.7463472038507462 5.9920302629470816 13.981403946876524 10.236385032534598 2.7463472038507524 4.494022697210311 7.4900378286838514 3.7450189143419266 4.9933585524559012 2.496679276227951 3.2456830590963364 85.136763319373131 2.4966792762279502 5.2430264800786963 3.2456830590963355 35.7025136500597 2.7463472038507453 6.7410340458154669
leaf_count=23 58 22 58 17 708 73 37 30 70 18 25 30 292 16 10 15 167 11 10 25 18 63 12 16 30 28 14 23 47 118 13 14 10 57 42 759 47 21 11 11 10 67 17 28 11 24 56 41 11 18 30 15 20 10 13 341 10 21 13 143 11 27
internal_value=0.072923 0.0749127 0.0806104 0.0692736 0.084477 0.0751415 0.090589 0.0449695 0.0638572 0.0421057 0.0743651 0.0642418 0.068597 0.0521777 0.10872 0.0662284 0.067801 0.061571 0.067641 0.02477 0.0520093 0.121343 0.0680655 0.0563253 0.044385 0.0702272 0.0893002 0.0835783 0.0606908 0.0671509 0.0685033 0.0658053 0.0400039 0.0678259 0.0237586 0.0699213 0.101184 0.0783766 0.100565 0.0545687 0.0495504 0.0315611 0.0358959 0.0747354 0.0923812 0.0913368 0.0824366 0.0860526 0.0729822 0.0502006 0.0692736 0.085659 0.0975162 0.121343 0.112188 0.0701294 0.0677235 0.0695935 0.0962325 0.0995702 0.0769761 0.0851567
internal_weight=0 820.159 447.655 113.849 333.806 132.074 201.732 25.7158 180.011 32.2072 14.7304 99.3678 147.803 10.2364 8.23904 139.564 135.819 94.1248 91.8778 13.4821 7.24037 24.9668 372.505 57.923 43.1926 314.582 43.6919 40.1965 17.4768 270.89 259.655 223.453 16.2284 207.224 13.7317 192.993 22.7198 10.9854 7.98937 35.7025 32.9562 19.2244 11.2351 13.7317 9.73705 14.7304 106.359 92.3771 40.4462 20.9721 16.4781 13.7317 19.4741 6.2417 8.73838 87.6334 80.6427 78.1461 51.9309 48.6852 12.9827 36.2018
internal_count=4006 3285 1793 456 1337 529 808 103 721 129 59 398 592 41 33 559 544 377 368 54 29 100 1492 232 173 1260 175 161 70 1085 1040 895 65 830 55 773 91 44 32 143 132 77 45 55 39 59 426 370 162 84 66 55 78 25 35 351 323 313 208 195 52 145
is_linear=0
shrinkage=1


Tree=1
num_leaves=63
num_cat=0
split_feature=4 10 4 10 6 10 10 4 4 10 10 7 2 4 4 3 0 1 10 3 2 10 7 0 4 10 10 10 0 7 0 7 4 1 4 0 6 2 3 10 1 7 7 4 7 7 6 10 7 1 0 10 10 3 7 10 3 0 10 10 3 3
split_gain=6.55747 11.4406 7.97215 8.49424 7.66352 7.3263 8.53729 6.28553 6.16652 5.77493 5.74011 5.43755 5.07916 4.80547 4.63978 4.51166 4.46801 4.31331 9.87465 6.48012 6.66935 3.9501 6.21139 3.76216 3.72459 3.67415 3.6099 6.73449 5.99553 5.0093 4.27461 3.28858 7.42521 4.54358 4.42309 5.52249 3.8789 3.8936 4.10459 3.81467 3.28413 4.14632 5.58663 4.7885 3.5912 3.26584 8.28858 7.05032 5.37709 4.47824 7.21819 4.39865 7.35184 6.75278 5.29725 5.00634 3.71616 5.51886 4.80694 3.66835 4.5759 4.55566
threshold=6582300.0000000009 25523196.500000004 5748650.0000000009 7097500.0000000009 519.77750000000003 15373500.000000002 13897750.000000002 20062516.000000004 16602074.000000002 8238300.0000000009 8673050.0000000019 563.34900000000016 14.130000000000001 4793600.0000000009 9983900.0000000019 126.74000000000002 353.65000000000003 25.770000000000007 6272700.0000000009 20.800000000000001 17.025000000000002 6400900.0000000009 54.064075000000003 51.955000000000005 10978550.000000002 14539500.000000002 24617113.000000004 24253900.000000004 173.18500000000003 113.59150000000002 129.83000000000004 71.496000000000009 26203223.000000004 75.355000000000004 17255235.000000004 236.49635000000004 42.413100000000007 58.695000000000007 67.010000000000019 15775850.000000002 36.110000000000007 54.064075000000003 65.955000000000027 4289800.0000000009 95.74549500000002 90.281500000000008 87.410750000000021 28402071.500000004 98.296000000000006 99.440000000000012 99.180000000000021 40929331.500000007 69248746.500000015 94.195000000000007 94.898695000000018 37189387.500000007 59.285000000000004 78.740000000000023 34298273.000000007 56809538.500000007 100.37000000000002 221.13000000000002
decision_type=2 2 2 2 2 2 2 2 2 2 2 2 2 2 2 2 2 2 2 2 2 2 2 2 2 2 2 2 2 2 2 2 2 2 2 2 2 2 2 2 2 2 2 2 2 2 2 2 2 2 2 2 2 2 2 2 2 2 2 2 2 2
left_child=2 4 12 23 5 6 -2 16 24 -5 -6 -12 13 -1 -13 17 25 18 -14 20 -20 40 -23 -4 -7 -8 27 31 30 -29 -28 32 36 -33 35 -35 -10 -38 -39 -36 -19 -42 -43 44 -44 46 47 -3 51 -50 -51 55 53 54 -53 -47 58 -58 -49 60 -52 -62
right_child=1 45 3 9 10 8 7 -9 26 -11 11 14 15 -15 -16 -17 -18 21 19 -21 -22 22 -24 -25 -26 -27 28 29 -30 -31 -32 33 -34 34 39 -37 37 38 -40 -41 41 42 43 -45 -46 48 -48 56 49 50 59 52 -54 -55 -56 -57 57 -59 -60 -61 61 -63
leaf_value=0.0089442213491313979 0.0075542932313960032 0.027345589939012961 -0.067522678879217909 0.024463287654385407 0.026493566525600566 -0.0084587843592560021 -0.068917386563809899 0.014528557232962511 0.055794030546655229 -0.046807521101354499 -0.034310967979920969 0.060288507585795452 -0.0043427515359383082 0.092208276684401069 -0.008014375558114236 -0.06046096227417036 0.00062767829974249363 -0.031849563527629056 -0.081188771656427003 -0.090964036573215334 0.017686134387387451 0.08408632995730983 -0.004097831780954935 -0.00074581181063767231 0.033959599152826557 -0.023014035318912471 0.029077744236214988 0.012380065292189796 -0.016701948285575984 -0.071108329427936143 0.09586846001231572 0.077652810255197352 -0.054410650483910965 -0.073677203111632325 0.066375085157923133 0.018592191206269197 -0.041887391275892083 0.062473102124265351 -0.024354828384665614 0.01325090812118058 0.048370932794955065 -0.067840876348382748 0.076036281389525728 -0.037487045601988594 0.010741818806171134 0.018900221419959905 -0.063673261764422603 -0.037144828794215219 -0.040177654555974746 0.076921473886586378 -0.059056999879868427 -0.023885487805117706 0.07639871777674348 -0.042229449661069146 0.076814921463200653 0.081959182639896017 -0.041810526474865495 0.0049246843273117588 0.034017284057717007 -0.019373393267331084 0.0014897274786996465 -0.018616105847421235
leaf_weight=5.7402662187814695 138.73397991061211 10.974171802401541 13.498290628194811 7.732731416821478 9.4747152775526029 5.7392727881669989 9.2483454197645241 9.2317555099725706 3.7430351972579983 4.4941312372684479 22.476312518119812 2.7467866539955166 80.152755156159401 2.4821488559246063 26.221409976482391 3.7499206513166419 6.7422120720148078 6.2403663396835318 2.7498898506164533 5.7499328255653381 4.4905892014503479 3.9941366314887992 3.9933056831359863 2.4998609721660605 52.635871648788452 8.2459506690502149 5.9888563156127912 2.9944281578063956 3.9927690476179114 4.4916422367095947 3.9925708770751953 2.7448924779891959 5.9888563156127921 3.2439638376235953 3.4898763447999945 3.2426756471395493 3.9925708770751935 2.9944281578063965 2.4953567981719971 106.54169954359531 5.2412137091159847 2.7453976571559933 2.4958160519599941 4.4924688935279837 13.477406680583952 14.959861367940904 7.7400756031274787 3.7426191717386228 8.7379309087991697 2.7407673448324195 3.4979373216629019 2.4943532198667553 2.4946708530187598 9.2453705072402936 2.7410934120416641 3.9861891865730277 19.988875448703769 9.2354124784469587 6.4849957674741745 36.459740445017815 193.99098524451256 32.96089106798172
leaf_count=23 556 44 54 31 38 23 37 37 15 18 90 11 321 10 105 15 27 25 11 23 18 16 16 10 211 33 24 12 16 18 16 11 24 13 14 13 16 12 10 427 21 11 10 18 54 60 31 15 35 11 14 10 10 37 11 16 80 37 26 146 777 132
internal_value=0 0.00187235 -0.00875931 -0.0331088 0.00722422 0.00979726 0.0020862 -0.0205803 0.0158796 -0.00173316 -0.00926988 -0.0158566 -0.00410921 0.0340796 -0.00153784 -0.00635896 -0.0339534 -0.00486527 -0.0108968 -0.051336 -0.019866 0.00829761 0.0399988 -0.0570882 0.0297891 -0.0472808 0.0108028 0.00847859 0.0350802 -0.037713 0.055794 0.0109757 -0.00822097 0.0140684 0.0125705 -0.0275517 0.0126951 -0.00431761 0.0230059 0.0149358 0.000998894 0.00820346 -0.000866618 0.00811773 0.0209441 -0.00461403 -0.0154974 -0.00810267 -0.00259996 -0.00494914 -0.00380757 0.015606 -0.00287822 -0.0165356 0.0288377 0.0321676 -0.0179632 -0.0270413 0.00797674 -0.00463654 -0.002305 -0.0014303
internal_weight=0 823.91 176.021 28.225 451.434 390.515 172.202 33.4683 218.313 12.2269 60.9192 51.4445 147.796 8.22242 28.9682 139.573 24.2365 135.823 93.1432 12.9904 7.24048 42.6801 7.98744 15.9982 58.3751 17.4943 159.938 145.963 13.9742 7.48607 9.98143 138.477 19.2142 119.263 116.518 6.48664 13.2254 9.48236 5.48978 110.032 34.6927 28.4523 23.2111 20.4657 15.9732 372.476 58.1662 50.4261 314.31 278.388 269.65 35.9215 16.9755 14.4808 5.23545 18.9461 39.4519 29.2243 10.2276 266.91 230.45 226.952
internal_count=4006 3301 705 113 1809 1565 690 134 875 49 244 206 592 33 116 559 97 544 373 52 29 171 32 64 234 70 641 585 56 30 40 555 77 478 467 26 53 38 22 441 139 114 93 82 64 1492 233 202 1259 1115 1080 144 68 58 21 76 158 117 41 1069 923 909
is_linear=0
shrinkage=0.05


Tree=2
num_leaves=63
num_cat=0
split_feature=4 10 4 10 6 6 10 10 4 2 10 10 4 2 4 10 0 4 4 1 3 0 3 1 4 1 4 4 4 0 4 10 0 0 10 0 10 1 4 10 10 0 7 0 7 10 4 10 6 4 0 3 10 1 4 6 7 10 1 10 10 7
split_gain=5.921 10.3306 7.19914 7.66936 6.92065 6.62983 7.15356 7.60635 5.99042 5.49284 6.2587 5.2961 5.08815 4.59684 4.40389 4.32921 4.5995 5.96112 4.85659 4.18762 4.07476 3.96804 5.43112 5.16222 4.10146 5.75884 3.7843 4.33924 7.69294 3.65453 6.19282 5.04837 4.44219 3.39899 3.37425 3.31225 3.31957 3.24409 4.19802 3.24055 6.10736 5.43616 4.50908 3.90868 3.19166 4.59111 3.17021 4.89075 3.1227 7.11873 4.00604 8.4504 10.6767 7.97653 5.27691 4.95184 4.17512 4.13629 3.06454 2.98474 2.99086 2.94829
threshold=6582300.0000000009 25523196.500000004 5748650.0000000009 7097500.0000000009 519.77750000000003 507.35900000000009 15373500.000000002 13897750.000000002 20062516.000000004 19.400000000000002 8238300.0000000009 23290952.000000004 16306700.000000002 14.130000000000001 4793600.0000000009 8673050.0000000019 561.82075000000009 9366400.0000000019 10854900.000000002 450.35500000000008 126.74000000000002 17.745000000000001 14.860000000000001 15.435 2527050.0000000005 24.045000000000005 10854900.000000002 16445800.000000002 18590880.500000004 184.05000000000004 13372950.000000002 16029100.000000002 166.64500000000001 51.955000000000005 21442200.000000004 353.65000000000003 14539500.000000002 17.805000000000003 4356250.0000000009 24617113.000000004 24253900.000000004 173.18500000000003 113.59150000000002 129.83000000000004 591.08500000000015 7171500.0000000009 3671550.0000000005 4682100.0000000009 337.12200000000001 10744450.000000002 26.150000000000002 20.135000000000002 10081250.000000002 21.395000000000003 8322100.0000000009 19.968 23.071500000000004 6971350.0000000009 351.94500000000005 13990950.000000002 19722550.000000004 90.281500000000008
decision_type=2 2 2 2 2 2 2 2 2 2 2 2 2 2 2 2 2 2 2 2 2 2 2 2 2 2 2 2 2 2 2 2 2 2 2 2 2 2 2 2 2 2 2 2 2 2 2 2 2 2 2 2 2 2 2 2 2 2 2 2 2 2
left_child=2 4 13 33 5 6 7 48 35 -5 -11 15 19 14 -1 44 18 -18 -17 29 21 22 46 -24 25 -23 -19 -28 -29 32 31 -31 34 -4 -8 36 -9 38 -25 40 -14 43 -42 -41 45 -6 -15 -48 50 -50 51 55 53 -53 -55 57 -56 -2 -51 -30 -61 -3
right_child=1 61 3 9 11 -7 12 8 -10 10 -12 -13 39 20 -16 16 17 26 -20 -21 -22 24 23 37 -26 -27 27 28 59 30 -32 -33 -34 -35 -36 -37 -38 -39 -40 41 42 -43 -44 -45 -46 -47 47 -49 49 58 -52 52 -54 54 56 -57 -58 -59 -60 60 -62 -63
leaf_value=0.0085003945508412993 -0.0091720292880382078 -0.014725637594292122 -0.064183276825046209 0.051407334727509781 -0.046584366659944733 0.0804980282746042 0.03391355518442124 -0.065488677845538454 0.013811967008625164 0.0077824762005425461 -0.081360473959343274 -0.080072606400060323 0.010522756434631554 -0.019256007548981012 0.088490371688878258 -0.068390440732447738 0.074325246065918976 -0.057157254909750634 -0.013656481636460849 -0.032058845649793791 -0.057474951534924705 0.09698533608304899 -0.089253281289815078 -0.033313173215703144 -0.0029589575726069665 0.0071299083605611147 0.020177423306132352 -0.08721505745471525 -0.042654684523012104 0.060926550553511018 0.06185605672390742 -0.020553268190197774 -0.039294801202116134 -0.00070851722785865412 -0.019589096505681428 -0.0030985918893699509 -0.021857033832931569 -0.069608025717400226 0.036343552597507767 0.027665344740404382 0.011767963032139846 -0.015856629040213992 -0.067427363854447836 0.091675326607117358 0.073806786817596545 0.038100110344862437 0.078785933797226052 -0.0090518218642491564 0.023147338070290707 -0.059067594232373066 0.019916613519978588 -0.081563753404077038 -0.088937624603709423 -0.016522742664865669 0.079293413808352628 0.078541968571948576 -0.0042803139515913803 0.038611657784554582 -0.013473100737761158 0.060789767131323329 -0.010087537823417069 -0.0024697892825340461
leaf_weight=5.7380395233631116 10.477543875575071 58.150776609778404 13.49063152074814 3.4866014420986167 2.4897526800632459 3.2438345253467551 18.93713968992234 9.2458897382021004 9.2253449559211713 5.7339535355567914 2.998793363571167 2.4998906999826422 142.1143187135458 7.7425120174884814 2.4577067792415619 5.9982579946517971 2.4906386584043529 3.2458964437246349 12.495850920677183 2.7436937093734732 3.747537061572074 2.4975845217704755 3.9952111244201687 6.4931036829948408 96.084167301654816 6.2336358577013016 12.988779842853548 3.247719705104827 2.4981883168220502 2.9872044324874896 17.172949582338333 5.2283082157373428 2.9897122085094443 2.4998745322227469 3.4900028705596915 6.4923787713050833 8.2482553422451002 2.9958070069551459 3.2434975057840347 5.9800951480865461 2.9927165508270255 3.9952737987041465 4.4997422397136688 3.9670169353485107 2.4894192814826965 4.4809547066688538 2.747342973947525 3.7447927892208099 13.724016413092611 4.4945315867662456 55.101773723959923 2.7499821335077348 4.7498204857110968 7.4924500286579114 3.7263133674860001 3.2355001270771018 2.4950174689292908 7.9768606871366492 20.470318958163261 2.7476503700017929 3.247687891125679 314.26676763594151
leaf_count=23 42 233 54 14 10 13 76 37 37 23 12 10 570 31 10 24 10 13 50 11 15 10 16 26 385 25 52 13 10 12 69 21 12 10 14 26 33 12 13 24 12 16 18 16 10 18 11 15 55 18 221 11 19 30 15 13 10 32 82 11 13 1259
internal_value=0 0.0017801 -0.00832492 -0.0314701 0.00686782 0.00931455 0.0087179 0.00103373 -0.0204289 -0.00164673 -0.0228289 -0.00880553 0.0147317 -0.00390496 0.0324875 -0.00575593 -0.0117389 0.00020118 -0.0314085 0.0281091 -0.00604266 -0.0046231 -0.0203499 -0.0396675 2.25668e-05 0.0328332 -0.00639793 0.000264394 -0.0217644 0.0313584 0.0447759 0.00907323 0.0179558 -0.05426 0.0255877 -0.0335981 -0.0449169 -0.0241084 -0.0101088 0.0103517 0.00820315 0.0334066 -0.0357943 0.0531932 0.0252087 0.00785305 0.00235095 0.0281194 0.00624839 -0.00577958 0.0109966 -0.000459584 -0.0228976 -0.00384493 0.0117398 0.0214857 0.0457768 0.0114823 -0.0216817 0.0032623 0.0223954 -0.00438347
internal_weight=0 823.586 175.931 28.2099 451.169 390.248 387.004 169.906 33.2119 12.2193 8.73275 60.9207 217.098 147.721 8.19575 58.4208 48.9607 30.4666 18.4941 53.549 139.525 135.778 30.9623 16.7276 104.815 8.73122 27.9759 24.73 11.7412 50.8053 25.3885 8.21551 25.4169 15.9905 22.4271 23.9865 17.4941 12.7324 9.7366 163.549 149.607 13.9424 7.49246 9.94711 9.46013 6.97071 14.2346 6.49214 136.694 38.6889 98.0053 42.9035 21.2136 16.4638 13.7138 21.6899 6.22133 18.4544 24.9649 8.49353 5.99534 372.418
internal_count=4006 3301 705 113 1809 1565 1552 681 133 49 35 244 871 592 33 234 196 122 74 215 559 544 124 67 420 35 112 99 47 204 102 33 102 64 90 96 70 51 39 656 600 56 30 40 38 28 57 26 548 155 393 172 85 66 55 87 25 74 100 34 24 1492
is_linear=0
shrinkage=0.05


Tree=3
num_leaves=63
num_cat=0
split_feature=4 10 4 10 2 10 10 10 10 8 9 0 1 10 1 2 10 10 4 8 4 4 4 2 2 4 3 8 3 1 2 3 4 4 4 3 7 4 10 4 9 8 4 4 0 4 4 10 10 10 0 8 4 10 10 8 10 3 8 4 10 3
split_gain=5.34744 9.33291 6.51771 6.9387 6.25878 5.92948 5.81467 7.93408 5.27291 5.0172 14.995 5.61479 6.93893 6.88948 6.9425 4.97281 5.67055 4.69951 6.16845 7.1028 10.1683 4.57075 4.55794 4.16391 4.16279 4.05804 3.68806 4.09115 5.39612 3.9228 5.26787 4.52436 3.66668 3.61363 3.5416 3.49202 4.96036 6.58794 3.84714 5.84812 5.77217 3.43793 3.39532 3.38335 3.08319 3.06224 4.79577 3.55426 3.14832 5.43119 5.4211 3.29394 2.94039 3.60727 4.60772 2.91072 8.11089 7.68838 6.45772 5.87442 5.44884 12.3408
threshold=6582300.0000000009 25523196.500000004 5748650.0000000009 7097500.0000000009 517.67500000000007 20494000.000000004 15373500.000000002 10545250.000000002 7299050.0000000009 37.242500000000014 21.495000000000001 245.61500000000004 207.58500000000001 13990950.000000002 166.76000000000002 19.400000000000002 8238300.0000000009 19107700.000000004 16105800.000000002 558.26558750000015 11792850.000000002 16602074.000000002 21237700.000000004 14.130000000000001 443.75000000000006 4793600.0000000009 126.74000000000002 20.3565 19.875000000000004 21.545000000000005 19.590000000000003 21.655000000000005 4521100.0000000009 10138800.000000002 13567000.000000002 22.315000000000001 24.434000000000001 4951000.0000000009 4774450.0000000009 3728600.0000000005 23.330000000000002 23.664250000000003 12142550.000000002 20500550.000000004 51.955000000000005 55909565.000000007 38121750.500000007 20325050.500000004 24617113.000000004 24253900.000000004 173.18500000000003 94.972450000000023 2891500.0000000005 2920600.0000000005 5940350.0000000009 90.859937500000015 28802853.000000004 85.920000000000016 100.08070000000002 67198291.000000015 40929331.500000007 94.195000000000007
decision_type=2 2 2 2 2 2 2 2 2 2 2 2 2 2 2 2 2 2 2 2 2 2 2 2 2 2 2 2 2 2 2 2 2 2 2 2 2 2 2 2 2 2 2 2 2 2 2 2 2 2 2 2 2 2 2 2 2 2 2 2 2 2
left_child=2 4 23 44 6 17 7 8 -2 10 -9 12 13 -11 -15 -5 41 18 19 20 -6 42 -7 25 -13 -1 27 28 52 30 -29 -31 -32 -21 -35 -33 37 38 39 -37 -41 -17 -8 -20 -4 46 48 -48 49 -23 51 -50 -25 -54 -55 56 -3 -58 59 60 -57 -62
right_child=1 55 3 15 5 22 21 9 -10 11 -12 24 -14 14 -16 16 -18 -19 43 33 -22 45 -24 26 -26 -27 -28 29 -30 31 32 35 -34 34 -36 36 -38 -39 -40 40 -42 -43 -44 -45 -46 -47 47 -49 50 -51 -52 -53 53 54 -56 58 57 -59 -60 -61 61 -63
leaf_value=0.008078736253459614 -0.00018297712364890014 0.017600308576633417 -0.061139669833207733 0.049022727269997464 -0.043147635454790938 -0.086891576524047026 -0.00033540641858544691 0.020357278046619291 0.025189345732839458 0.023060726199284332 -0.097998722575703648 -0.022863122311896633 0.081187198842178065 -0.00096796283815326484 -0.084729765749277222 -0.033049680606647064 -0.077552321333254112 0.053196782476911543 -0.059610047111851007 0.061782964071048878 0.039617443508467708 0.0088876391972801498 -0.0071386028930306728 -0.039816001790758129 0.013176074004173864 0.085230696322864452 -0.054729718347100213 -0.026764424369407836 -0.068203089701798073 -0.065220314267149179 0.026813961362034275 0.050853639480851948 0.095759173654635266 -0.0066123158051646291 0.049069788420375154 -0.046269079856885588 0.0063079478156541887 -0.09933061832412271 -0.041869505085185603 0.08172645953360308 -0.0093522309506948609 0.04447233423184202 0.031727614328820805 -0.0022986423181359048 -0.00067308613928949003 -0.045108359602935619 0.094897248191412806 0.023991480582551974 0.026330197892547976 -0.036352000537920558 -0.015056580614525895 0.089031954911697894 -0.055299032440513186 0.0093217948413553339 -0.036305236616965296 0.026372536136189468 -0.015721209401514107 -0.071427257264253974 -0.0051406031511625552 0.077972720752909383 0.049473519119907917 -0.040110928385491018
leaf_weight=5.735712066292761 38.623850166797638 14.712336078286169 13.454917520284654 3.4737080931663504 12.725690230727198 3.9954554140567771 9.9639456868171674 5.2240792214870435 43.584197118878365 18.919581025838855 5.4868685454130173 36.936184138059616 3.2403555512428275 8.4788430035114271 3.4928843826055518 2.7411569058895093 2.9889594912528992 3.4927608072757712 7.2439191639423353 4.9572351723909405 5.2387285679578772 130.82693430781364 3.2477099597454071 7.245522052049636 10.232320889830588 2.4249297380447388 3.7389361113309851 3.2434962540864936 4.4934645593166342 2.7467612177133551 6.487029090523718 3.2444451153278342 2.7442295402288437 8.7323313653469068 4.2433339655399314 3.4954936355352455 48.891656011343002 2.4950222074985495 6.741817280650138 3.2471514195203781 3.7468912899494171 2.990352988243103 48.191404312849045 3.9955587834119797 2.4998867511749259 2.4932122677564612 2.7414260506629935 4.9741168469190598 4.4770767688751203 6.9887348413467398 3.9971377700567237 3.9360270500183105 3.2484844326972953 26.714699655771255 6.9787330329418173 22.653108030557632 35.712100878357887 7.493708685040473 270.95235019922256 3.4735925942659369 5.7142495214939144 11.747632309794424
leaf_count=23 155 59 54 14 51 16 40 21 175 76 22 148 13 34 14 11 12 14 29 20 21 525 13 29 41 10 15 13 18 11 26 13 11 35 17 14 196 10 27 13 15 12 194 16 10 10 11 20 18 28 16 16 13 107 28 91 143 30 1085 14 23 47
internal_value=0 0.00169268 -0.00791354 -0.029963 0.00653268 -0.00881821 0.00879433 0.00198023 0.0132687 -0.0081055 -0.0402726 -0.00386762 0.0115792 0.0042776 -0.0254064 -0.00156767 -0.0217198 -0.00276475 -0.00691141 0.00320951 -0.0190119 0.0142253 -0.0511317 -0.0037103 -0.0150451 0.0310044 -0.00574102 -0.00439189 -0.0160007 0.00209758 0.0280501 -0.00224171 0.0473097 0.02547 0.011597 0.000165487 -0.00223118 -0.0233954 -0.0124003 0.00654015 0.0329332 0.00739659 0.0262342 -0.0392362 -0.0516654 0.00987221 0.0107401 0.0491852 0.00876559 0.0065935 0.0328867 0.0556649 -0.0106922 -0.00498008 -0.000128678 -0.00416381 -0.0144644 -0.025383 -0.00226711 0.0155949 0.0101936 -0.0107952
internal_weight=0 823.141 175.813 28.149 450.682 57.8727 392.809 174.219 82.208 92.0111 10.7109 81.3002 34.1317 30.8913 11.9717 12.1942 8.72047 50.6296 47.1368 35.8973 17.9644 218.59 7.24317 147.664 47.1685 8.16064 139.504 135.765 48.6809 87.084 12.4748 74.6092 9.23126 17.9329 12.9757 71.8625 68.618 19.7264 17.2314 10.4895 6.99404 5.73151 58.1553 11.2395 15.9548 160.435 157.941 7.71554 150.226 137.816 12.4102 8.4131 44.1874 36.9419 33.6934 372.459 57.9181 43.2058 314.541 43.5886 40.115 17.4619
internal_count=4006 3301 705 113 1809 232 1577 699 330 369 43 326 137 124 48 49 35 203 189 144 72 878 29 592 189 33 559 544 195 349 50 299 37 72 52 288 275 79 69 42 28 23 234 45 64 644 634 31 603 553 50 34 177 148 135 1492 232 173 1260 175 161 70
is_linear=0
shrinkage=0.05


Tree=4
num_leaves=63
num_cat=0
split_feature=8 1 10 6 6 9 10 2 3 8 1 0 8 10 0 4 4 8 4 4 4 10 10 10 10 0 4 10 8 8 3 4 8 10 3 10 9 6 2 10 8 6 6 10 3 3 4 2 0 4 3 4 4 1 2 4 3 4 4 9 0 4
split_gain=5.10134 6.04585 9.33626 7.36218 5.28361 6.28268 6.46047 9.73886 5.14176 5.50796 4.66053 5.93255 5.861 4.44877 4.28182 4.15387 4.74732 3.72987 8.67146 4.22821 6.73129 4.6071 4.62392 3.43284 7.81027 13.3354 7.09247 4.18463 3.39604 5.83732 5.60672 5.3592 5.17483 4.10602 8.94653 5.35336 3.95611 4.8111 4.38491 4.32732 3.8451 7.30901 6.06176 3.64119 3.63719 7.82868 3.38856 5.10992 4.54094 4.05045 4.07065 4.35286 4.07826 3.59569 3.83193 3.45967 3.34606 3.22582 3.18705 3.18672 5.07268 4.58787
threshold=14.328000000000001 36.110000000000007 25523196.500000004 52.540000000000006 519.77750000000003 512.50100000000009 15373500.000000002 55.650000000000006 14.180000000000001 14.575250000000002 450.35500000000008 268.74000000000007 331.81735000000009 23290952.000000004 47.790000000000006 13372950.000000002 15284750.000000002 566.1605350000001 10138800.000000002 11547750.000000002 17358567.500000004 8673050.0000000019 7599650.0000000009 9697350.0000000019 15775850.000000002 20.515000000000004 8322100.0000000009 21171150.000000004 90.859937500000015 100.08070000000002 67.75500000000001 67198291.000000015 98.775750000000002 40929331.500000007 94.195000000000007 38724431.500000007 99.885000000000019 92.721800000000016 98.829950000000011 55974582.500000007 107.5185 108.09100000000002 110.02900000000001 28523675.000000004 85.920000000000016 75.63000000000001 10978550.000000002 64.335000000000022 81.050000000000011 7093550.0000000009 124.44000000000001 4216050.0000000009 4612150.0000000009 114.21000000000002 99.63000000000001 3671550.0000000005 18.555000000000003 21036150.000000004 21520650.000000004 111.67500000000003 110.41250000000001 43080570.000000007
decision_type=2 2 2 2 2 2 2 2 2 2 2 2 2 2 2 2 2 2 2 2 2 2 2 2 2 2 2 2 2 2 2 2 2 2 2 2 2 2 2 2 2 2 2 2 2 2 2 2 2 2 2 2 2 2 2 2 2 2 2 2 2 2
left_child=-1 8 3 14 5 6 46 -8 9 -2 11 -9 -13 17 -3 -14 -17 19 -19 21 -21 22 -6 26 25 56 -10 -26 30 31 58 32 33 35 -35 -30 37 -31 -38 40 -40 -42 -43 -32 45 -45 49 -48 -49 50 51 53 -53 54 -5 -52 -25 -22 -4 60 -44 -61
right_child=1 2 28 4 13 -7 7 10 23 -11 -12 12 15 -15 -16 16 -18 18 -20 20 57 -23 -24 24 27 -27 -28 -29 29 36 43 -33 -34 34 -36 -37 38 -39 39 -41 41 42 59 44 -46 -47 47 48 -50 -51 55 52 -54 -55 -56 -57 -58 -59 -60 61 -62 -63
leaf_value=0.056565156465749368 -0.0083080613343627513 0.019391367154686787 0.055588111840318699 0.02161030381454275 -0.033717027496955362 0.076698437185015872 -0.073648639671314339 0.010980381125151643 -0.010591987334682182 0.090397670713549691 -0.026399692355974683 0.06822142417224096 -0.023674091949511335 -0.074062114283893379 0.061835738948975143 0.078218575949293018 0.018985329271928812 0.069774780426934913 -0.0050100339523656539 0.028305904340629212 -0.078954964791896454 -0.055014643712061953 0.052214516583409191 -0.025532335134801888 0.062367242050354793 -0.081463649064337673 0.024091748779076824 -0.018263193381697043 0.01894075953488393 0.023627166436699331 0.0031112028904818957 0.074682972309027054 -0.053590607803262781 0.050546735481976579 -0.031023641802884777 0.091216412673975844 0.05927651553684124 -0.052519237573725688 0.028236044578769187 -0.020442071334495934 -0.074837653704668897 0.059063799303493196 0.016912139547779637 -0.05802964121511496 -0.068041722626385914 0.011610322543858326 0.057631582027249231 -0.072318697484991798 -0.0092857504884731462 0.021136783369275939 -0.080046621168039123 -0.069804232676691752 -0.0032955437370966248 0.049090595610714022 -0.043476792403732832 -0.0053907466348694479 0.046429562967766215 -0.0076157336107571796 -0.0040189981615564091 -0.0060247961639944159 -0.07508020819868283 0.012490141392607771
leaf_weight=3.9703811705112448 2.9677911400794974 25.865936696529388 2.4912250936031368 7.475157439708715 4.238659709692004 3.2251255661249152 3.2423440068960181 153.9608740657568 145.78400355577469 2.6983688622713089 6.9805340319871894 9.1334372460842115 4.2321010380983379 2.4886787831783286 7.7139953076839438 4.1985889822244671 17.406222656369209 4.6851305961608913 22.449736550450325 9.4760668277740461 2.7456117123365393 10.480441838502882 2.4822423458099365 3.2374449968338075 2.9855480790138236 10.181293487548826 16.39747741818428 3.4904514104127884 18.650485992431644 2.7445573508739463 6.4819286912679699 3.4459497630596152 2.9885150492191306 4.9461108595132819 10.492126047611235 2.9700081348419181 2.7412863671779624 8.4949577450752241 10.237173140048979 35.733102515339851 3.4958545565605155 3.9945803731679908 2.4969972521066657 8.744868561625486 7.4736848026514044 7.4940149635076514 2.7374176681041709 2.9874354898929587 65.573342904448509 27.149691298604012 2.9840186089277259 2.9968907833099356 9.9827542901039106 6.484499678015708 3.2421495169401169 3.2333412915468216 3.224002480506897 3.7474076300859451 22.460795640945435 154.60729031264782 3.7477559298276901 42.698991000652313
leaf_count=16 12 104 10 30 17 13 13 619 585 11 28 37 17 10 31 17 70 19 90 38 11 42 10 13 12 41 66 14 75 11 26 14 12 20 42 12 11 34 41 143 14 16 10 35 30 30 11 12 263 109 12 12 40 26 13 13 13 15 90 619 15 171
internal_value=0 -0.00022346 0.00167771 0.00665481 0.00476713 0.0072468 0.00657617 0.0122982 -0.00822004 0.0386981 0.0137207 0.015203 0.0337936 -0.00854956 0.0291417 0.0216233 0.0304965 -0.00584599 0.00790238 -0.0170928 0.00143463 -0.0342929 -0.00197978 -0.00965471 -0.0276798 -0.0458083 -0.00708526 0.0189088 -0.00416072 -0.0021538 -0.0156056 0.0148499 0.00970147 0.0148055 -0.00489008 0.0288693 -0.00488283 -0.0339252 -0.00362617 -0.00429709 -0.00168992 -0.00314156 -0.00193393 -0.0300985 -0.0391765 -0.0258918 -0.00187473 -0.00935765 -0.0120323 0.00652072 -0.00438132 0.00320779 -0.0186518 0.019702 0.00192046 -0.0412218 0.0103738 -0.037782 0.00193221 -0.00313098 -0.0382966 -0.00201798
internal_weight=0 994.198 803.232 433.6 400.02 337.226 334.001 199.154 190.966 5.66616 195.912 188.931 34.9703 62.794 33.5799 25.8369 21.6048 60.3053 27.1349 33.1704 15.9691 17.2013 6.7209 185.3 23.1187 16.6427 162.181 6.476 369.632 314.486 55.1465 43.4932 40.0472 37.0587 15.4382 21.6205 270.993 11.2395 259.753 257.012 221.279 211.041 207.546 30.1945 23.7126 16.2389 134.847 71.2982 68.5608 63.5485 36.3988 30.1815 12.9796 17.2018 10.7173 6.21736 6.46145 6.49302 24.952 203.551 6.24475 197.306
internal_count=4006 3990 3223 1742 1607 1355 1342 801 767 23 788 760 141 252 135 104 87 242 109 133 64 69 27 744 93 67 651 26 1481 1260 221 175 161 149 62 87 1085 45 1040 1029 886 845 831 121 95 65 541 286 275 255 146 121 52 69 43 25 26 26 100 815 25 790
is_linear=0
shrinkage=0.05


Tree=5
num_leaves=63
num_cat=0
split_feature=8 6 10 2 10 10 10 10 8 8 3 8 4 4 4 4 4 10 1 1 10 4 8 4 10 10 2 3 4 4 4 2 10 10 3 6 8 8 4 3 8 10 3 10 9 6 8 9 4 1 10 4 10 10 4 6 10 3 3 10 3 3
split_gain=4.62487 5.48732 7.96482 5.73243 5.4556 4.94534 5.20783 8.76382 6.11042 7.78583 4.84414 5.05358 4.54704 4.48504 4.54961 4.99012 4.31953 4.29689 4.40579 5.48104 4.2655 5.15764 6.13475 8.31893 4.08062 5.40249 12.2475 5.03264 3.95345 3.6697 3.66542 4.32271 3.6698 3.82295 3.5927 3.45544 3.19827 5.2805 4.90506 4.842 4.67147 3.71605 8.10498 4.91834 3.57485 4.34618 3.98129 3.99412 8.26283 4.2806 3.93605 4.08604 7.38736 4.77507 4.40823 3.50883 3.29914 3.31875 7.08267 3.18647 3.06796 3.27197
threshold=14.328000000000001 25.542000000000005 25523196.500000004 517.67500000000007 20494000.000000004 6400900.0000000009 10545250.000000002 15240102.000000002 51.196500000000007 58.042535000000008 14.180000000000001 14.575250000000002 15995769.500000002 10978550.000000002 12341250.000000002 14169250.000000002 21237700.000000004 5810400.0000000009 117.46500000000002 114.21000000000002 19107700.000000004 16105800.000000002 558.26558750000015 11792850.000000002 15775850.000000002 10081250.000000002 19.400000000000002 18.555000000000003 8322100.0000000009 12341250.000000002 7921100.0000000009 46.340000000000011 4682100.0000000009 3327000.0000000005 100.98 541.51180000000011 90.859937500000015 100.08070000000002 67198291.000000015 67.75500000000001 98.775750000000002 40929331.500000007 94.195000000000007 38724431.500000007 99.885000000000019 92.721800000000016 111.82450000000001 114.96000000000002 71889555.000000015 110.75500000000001 62119845.000000007 37359390.500000007 32018501.000000004 28802853.000000004 36530371.000000007 126.76400000000002 28523675.000000004 85.920000000000016 75.63000000000001 27197215.000000004 107.50000000000001 113.52000000000002
decision_type=2 2 2 2 2 2 2 2 2 2 2 2 2 2 2 2 2 2 2 2 2 2 2 2 2 2 2 2 2 2 2 2 2 2 2 2 2 2 2 2 2 2 2 2 2 2 2 2 2 2 2 2 2 2 2 2 2 2 2 2 2 2
left_child=-1 10 3 5 20 17 8 -8 -7 -10 11 -2 29 -11 -15 -16 -6 18 19 30 21 22 23 -5 25 28 27 -27 -12 -9 31 -3 33 34 -33 -25 39 38 40 -4 41 43 -43 59 45 -39 60 48 49 -48 51 54 53 -53 -49 -52 -41 58 -58 -38 -46 -62
right_child=1 2 36 4 16 6 7 12 9 13 24 -13 -14 14 15 -17 -18 -19 -20 -21 -22 -23 -24 35 -26 26 -28 -29 -30 -31 -32 32 -34 -35 -36 -37 37 44 -40 56 -42 42 -44 -45 46 -47 47 50 -50 -51 55 52 -54 -55 -56 -57 57 -59 -60 -61 61 -63
leaf_value=0.053977352819919312 -0.0078873332708567691 -0.028831746729263388 0.00074023106588252746 -0.037752350594251916 -0.081951596391138193 0.048011607187430777 -0.0064705648168306637 -0.00088321705102785235 -0.068800185454562054 0.034177464424387169 -0.011198550678338123 0.086944144798773965 0.0091314744003527012 -0.051024059282708256 0.073804223108667535 -0.016421573628036354 -0.0052056757855244891 -0.045353158225280715 -0.031506583823240557 0.074890087077468956 0.050575950002726959 -0.036442840357792841 0.022847021526543689 0.075070791670634782 0.041484382029672362 -0.028607252791400924 -0.080151020425321295 0.069826611880003372 0.018105951099939128 0.034098675204638162 0.056759992404619201 0.050911796886724252 0.050095623211726607 -0.02459643972540191 -0.023249654356946651 -0.0063831838721153779 -0.031767753863356292 0.022469065995007777 0.071713314792598043 0.0029560849274049483 -0.050853713358888865 0.048299667245662176 -0.029501569900612885 0.087627389605346218 -0.007529285380197967 -0.04994043962093403 0.0051750232067927504 -0.0055812944691663036 0.054016773290118517 -0.060523423062841558 0.0056640692656772171 0.017143958172290124 0.014666753080083415 -0.051617315339810635 -0.050434229819527755 -0.046968355140127226 -0.055241204347866814 -0.064965557136868607 0.011032456951215089 0.02660868035564401 0.03578876540424919 -0.0043791275654887791
leaf_weight=3.9531195759773246 2.9697428196668616 10.968446508049967 26.193678498268127 13.946940302848818 4.219356194138526 18.390624508261681 80.228782996535301 9.4485473930835706 2.740492761135104 18.392213657498363 128.36987106502056 2.6660691797733307 171.55418409407139 3.7425221055746061 2.4875089526176453 3.9914369136095047 3.2423285096883774 6.2241548746824256 9.4431130290031415 2.7352109104394904 3.4808149933814994 11.229658231139181 18.349166750907898 2.7316221296787253 3.7287760376930228 2.7407859414815894 8.1423121541738492 2.4676019847393036 12.642785191535948 36.295742928981781 2.7357905805110923 4.7209427505731609 4.4799922555685034 8.2299587875604612 2.4967437237501144 2.4878568351268768 2.7409841120243135 2.7417862415313712 3.4101088196039191 6.4809886664152172 2.9917815178632727 4.9181161969900122 10.482016950845717 2.9378562569618216 12.97220194339752 8.4870904833078367 3.2461859881877926 117.41734510660172 2.4882936328649512 10.495253846049307 4.7499235570430747 3.7467481940984708 58.430383309721947 7.7418297976255417 5.7460792958736411 9.4998471140861493 8.727368772029882 7.4370752424001685 7.492257446050643 15.8849631100893 15.717722281813623 7.483709678053855
leaf_count=16 12 44 105 56 17 74 322 38 11 74 515 11 690 15 10 16 13 25 38 11 14 45 74 11 15 11 33 10 51 147 11 19 18 33 10 10 11 11 14 26 12 20 42 12 52 34 13 470 10 42 19 15 234 31 23 38 35 30 30 64 63 30
internal_value=0 -0.000211785 0.00143905 0.0058415 -0.00861111 0.00800185 0.0101558 0.0076521 0.0251303 0.0117094 -0.00857704 0.0369735 0.0128663 0.0194202 -0.00713358 0.0182195 -0.0486032 -0.00637305 -0.00107689 0.00682452 -0.00289734 -0.00671577 0.00218252 -0.0176008 -0.0102009 -0.0114494 -0.0418492 0.0180282 -0.00857119 0.0268731 0.00128888 -0.00362298 0.0102523 -0.00130275 0.0252579 0.0362459 -0.00401254 -0.00204638 0.0141529 -0.0149838 0.00924033 0.0141042 -0.00465532 0.0275016 -0.00463896 -0.03226 -0.00344484 -0.00593492 -0.0298218 -0.0450033 -0.00406508 -0.00219354 0.00746015 -0.0291923 -0.00767387 -0.0294242 -0.0286501 -0.0373089 -0.0246277 0.018018 0.0119445 0.0228325
internal_weight=0 993.384 829.656 458.994 59.6877 399.306 347.272 297.527 49.7448 31.3542 163.728 5.63581 217.298 28.6137 10.2215 6.47895 7.46168 52.0344 45.8102 36.3671 52.2261 48.7452 37.5156 19.1664 158.092 154.363 13.3507 5.20839 141.013 45.7443 33.6319 30.8961 19.9276 15.4476 7.21769 5.21948 370.662 314.33 43.3658 56.3314 39.9557 36.9639 15.4001 21.5638 270.964 11.2289 259.736 223.562 16.2297 13.7414 207.332 193.082 69.919 11.4886 123.163 14.2498 30.1377 23.6567 16.2196 18.6259 36.1736 23.2014
internal_count=4006 3990 3332 1846 240 1606 1397 1197 200 126 658 23 875 115 41 26 30 209 184 146 210 196 151 77 635 620 54 21 566 185 135 124 80 62 29 21 1486 1260 175 226 161 149 62 87 1085 45 1040 895 65 55 830 773 280 46 493 57 121 95 65 75 145 93
is_linear=0
shrinkage=0.05


Tree=6
num_leaves=63
num_cat=0
split_feature=4 10 4 10 10 10 4 7 0 0 10 2 10 3 1 6 7 7 3 9 4 0 7 1 7 0 1 6 7 3 3 10 4 3 0 0 9 1 4 1 7 0 7 10 3 2 1 4 4 9 4 3 4 7 9 7 7 10 0 4 7 6
split_gain=4.09655 6.97015 5.79783 6.25036 5.00652 5.15674 4.9276 4.80957 13.2522 5.97909 4.52543 4.35943 4.81195 4.13675 6.89792 7.39609 7.67016 8.11701 8.12875 4.38563 3.56821 6.3805 3.89097 3.56127 3.53997 3.53653 3.51299 4.68015 3.45133 4.29522 5.1291 3.74262 3.11634 3.04622 3.0275 2.93784 4.35249 4.35118 3.70993 3.28413 2.81572 2.76865 2.69309 5.42995 4.51812 3.67531 3.12872 4.20636 3.0152 2.77455 4.67027 4.19288 7.03191 3.21711 4.00351 2.67117 7.69768 5.44723 5.31741 4.48595 3.07978 2.92228
threshold=6582300.0000000009 24253900.000000004 5748650.0000000009 7097500.0000000009 16168700.000000002 10545250.000000002 15995769.500000002 36.938000000000009 20.515000000000004 38.310000000000009 13723750.000000002 19.400000000000002 8238300.0000000009 221.13000000000002 242.06000000000003 250.66300000000004 338.92410000000001 380.97250000000003 405.95000000000005 215.75500000000002 13013900.000000002 154.30000000000004 125.66550000000001 431.83500000000009 14.3725 190.57500000000002 44.020000000000003 64.155000000000015 591.08500000000015 519.29900000000009 491.29800000000006 7299050.0000000009 10854900.000000002 126.74000000000002 460.50000000000006 348.64500000000004 25.475000000000005 18.815000000000001 15016550.000000002 425.02505000000002 522.64252500000009 51.955000000000005 26.543000000000003 6272700.0000000009 20.800000000000001 17.025000000000002 25.095000000000002 4855450.0000000009 4951000.0000000009 14.365 2527050.0000000005 14.710000000000003 3622450.0000000005 20.060950000000002 24.195000000000004 54.064075000000003 65.955000000000027 6272700.0000000009 47.790000000000006 4289800.0000000009 95.74549500000002 102.61200000000002
decision_type=2 2 2 2 2 2 2 2 2 2 2 2 2 2 2 2 2 2 2 2 2 2 2 2 2 2 2 2 2 2 2 2 2 2 2 2 2 2 2 2 2 2 2 2 2 2 2 2 2 2 2 2 2 2 2 2 2 2 2 2 2 2
left_child=2 4 24 41 5 28 20 8 10 -9 -7 -5 -13 19 -15 -16 -17 -18 -19 -3 25 22 -22 -8 -1 -6 -11 -28 29 30 31 -2 -31 42 -25 36 37 -33 -38 -37 -36 -4 43 46 45 -45 47 49 -49 -26 -51 52 -52 -53 -55 57 -57 58 -44 60 -58 -61
right_child=1 13 3 11 6 7 23 9 -10 26 -12 12 -14 14 15 16 17 18 -20 -21 21 -23 -24 34 33 -27 27 -29 -30 32 -32 35 -34 -35 40 39 38 -39 -40 -41 -42 -43 55 44 -46 -47 -48 48 -50 50 51 53 -54 54 -56 56 59 -59 -60 61 -62 -63
leaf_value=0.042591151689569194 -0.0014499708647500737 -0.0023461525504323041 -0.057476815081649792 0.046738443627623971 0.03344268020310915 0.07127810405755837 0.010439201466541714 0.074567982592645313 -0.077809329461947394 -0.062593053471666618 -0.022231260152920387 0.0070290022014384132 -0.071638460524438716 -0.068326781911257572 0.064891883150395013 -0.064137561348867583 0.061233378766466243 -0.10121786468150318 -0.0035703551514943118 0.042668867154994995 0.021895205407550522 0.052397732223535491 -0.05159192704654663 -0.064899815967446262 -0.045418350755733791 -0.0190599199287677 0.03886230972999058 -0.004931787435826623 0.05311211714910017 -0.033543590321331911 0.076661056746655687 0.059076581175205325 0.016962859823057366 -0.049088475950964494 0.040356055437048288 -0.032584532071404708 0.06113640533581393 -0.010708030501705431 0.005163078658879253 0.021439580030146951 -0.016065957597598143 -0.00013418972032033785 -0.020133227611975259 -0.056071774294728975 -0.068517913625755808 0.017537811133661412 -0.058061226479357644 0.074478344650558179 0.013146670984555759 0.04415465640142948 -0.025224944905006826 -0.02590428614431451 0.063871498428564946 0.0055720342256161065 -0.060957364259238971 -0.059520292823117375 0.072092750677705666 0.077178946670630688 0.052877432101452217 0.0077987718960536058 0.013996361913214057 -0.065135153725248737
leaf_weight=4.1431861668825141 37.817477583885193 353.37044604122639 13.368573874235155 3.4539536237716666 5.9502419233322126 2.7038958966732007 130.7764468640089 2.4836760014295569 7.3663955628871918 2.4885852336883536 2.4811460822820663 5.7230250090360624 2.9437666237354279 5.9971888214349738 2.998657330870631 6.7480856478214291 3.9989076852798489 2.4993859231472042 14.471287712454794 5.4948884844779959 6.6553720533847827 20.159936189651489 2.4696577191352844 2.4938754886388805 4.2352069020271292 6.9581303596496582 6.4479462057352057 113.23138219118118 4.3922961950302115 9.6901434361934644 2.9766622781753531 2.9790773987770107 4.4598004072904578 3.6966762095689765 2.7409188747405997 4.7237762212753278 11.63269107043743 8.9277587085962278 3.9708905816078177 6.95484559237957 11.441983744502066 2.4984010308980933 6.7442815303802472 2.7266874611377698 6.1929019093513489 4.4851120859384537 2.4983399957418433 2.4652656465768805 10.708957627415655 4.7359697669744483 3.998891204595564 24.735162168741226 4.9632115811109543 23.727533221244816 2.4994812309741965 4.7455148845911053 2.7182456254959169 3.7089884281158438 3.9570199549198151 2.7466922104358664 14.187868937849997 2.7469806373119354
leaf_count=17 152 1419 54 14 24 11 526 10 30 10 10 23 12 24 12 27 16 10 58 22 27 82 10 10 17 28 26 455 18 39 12 12 18 15 11 19 47 36 16 28 46 10 27 11 25 18 10 10 43 19 16 99 20 95 10 19 11 15 16 11 57 11
internal_value=0 0.00148519 -0.00693374 -0.027796 0.00592805 0.00106265 0.0119757 -0.00520412 -0.0347056 -0.00223356 0.026532 -0.000761285 -0.0196912 -0.00329231 -0.0192782 -0.00970171 -0.0177717 -0.00285096 -0.0179516 -0.00165689 0.0270425 0.036696 0.00200617 0.00766437 -0.00297165 0.00514167 -0.00379493 -0.0025723 0.00978953 0.00776808 0.0122604 0.009771 -0.0176249 -0.00428968 -0.0140954 0.0205993 0.0295189 0.006752 0.046892 -0.000412126 -0.00516211 -0.0484477 -0.00310278 -0.00762681 -0.0371926 -0.010293 -0.0029404 -0.00126243 0.0246235 -0.00621235 -0.00364438 -0.00742207 0.0241167 -0.0129684 -0.000768336 0.00756323 -0.00167301 0.0249619 0.00686392 0.0105823 0.0233374 -0.0286701
internal_weight=0 820.954 175.356 27.9877 425.375 235.728 189.647 137.203 12.5514 124.652 5.18504 12.1207 8.66679 395.579 36.7135 30.7163 27.7177 20.9696 16.9707 358.865 42.1933 29.285 9.12503 147.453 147.368 12.9084 122.168 119.679 98.5254 94.1331 79.9832 77.0065 14.1499 143.225 16.6768 39.189 27.5104 11.9068 15.6036 11.6786 14.1829 15.867 139.528 97.9727 13.4047 7.2118 84.568 82.0697 13.1742 68.8955 64.6602 59.9243 8.9621 50.9622 26.227 41.5556 27.1453 14.4103 10.7013 22.3998 16.9061 5.49367
internal_count=4006 3301 705 113 1713 949 764 552 51 501 21 49 35 1588 147 123 111 84 68 1441 171 119 37 593 592 52 491 481 397 379 322 310 57 575 67 158 111 48 63 47 57 64 560 393 54 29 339 329 53 276 259 240 36 204 105 167 109 58 43 90 68 22
is_linear=0
shrinkage=0.05


Tree=7
num_leaves=63
num_cat=0
split_feature=8 1 7 0 10 10 10 1 8 1 10 7 3 3 8 8 10 8 4 10 3 7 4 4 3 8 3 7 4 0 4 0 0 10 3 0 4 9 6 2 10 3 6 8 7 7 7 3 8 6 0 1 8 7 7 6 8 6 6 0 1 10
split_gain=4.00552 4.57123 9.33699 6.22234 6.35144 5.43688 4.97602 6.11418 4.9875 10.5363 4.76912 4.7336 4.12974 4.09284 4.56888 3.90305 11.2472 4.73123 4.43218 4.15249 9.49858 3.7989 3.74022 3.60784 6.94999 4.59923 5.19224 4.25497 4.02377 3.94182 4.4354 3.57336 3.77659 3.46909 3.4562 5.22788 3.44002 3.41182 3.93241 3.83048 4.05005 4.50697 6.09036 5.7888 4.71688 5.99408 8.82264 7.55346 4.70784 3.33118 3.34531 3.33261 3.64631 3.25474 4.63154 3.24171 3.14765 5.47417 4.85441 3.30878 4.82774 3.70352
threshold=14.328000000000001 36.110000000000007 52.751000000000012 55.365000000000002 5746900.0000000009 24253900.000000004 15373500.000000002 450.35500000000008 204.93450000000004 205.83500000000004 24617113.000000004 55.038000000000004 59.285000000000004 14.180000000000001 14.575250000000002 90.859937500000015 28523675.000000004 100.08070000000002 67198291.000000015 40929331.500000007 94.195000000000007 198.73400000000001 27311650.500000004 16445800.000000002 585.22000000000014 562.46666000000005 552.56500000000017 99.241000000000028 18775950.000000004 65.645000000000024 6266750.0000000009 47.790000000000006 53.180000000000007 13990950.000000002 85.920000000000016 78.740000000000023 10138800.000000002 99.885000000000019 92.721800000000016 98.829950000000011 55974582.500000007 221.13000000000002 246.54290000000003 216.59975 253.37550000000002 338.92410000000001 380.97250000000003 405.95000000000005 257.87023750000009 96.188800000000015 93.645000000000024 101.15000000000002 96.404000000000011 478.09875000000005 520.73380000000009 93.679000000000016 107.5185 108.09100000000002 110.02900000000001 112.05500000000002 111.74500000000002 41687461.000000007
decision_type=2 2 2 2 2 2 2 2 2 2 2 2 2 2 2 2 2 2 2 2 2 2 2 2 2 2 2 2 2 2 2 2 2 2 2 2 2 2 2 2 2 2 2 2 2 2 2 2 2 2 2 2 2 2 2 2 2 2 2 2 2 2
left_child=-1 13 31 4 -4 6 23 8 9 21 -7 -6 -12 14 -2 16 -14 18 19 22 55 -8 -17 25 28 26 27 29 33 30 -5 -3 -33 -25 35 -18 -27 38 -19 -39 41 43 -43 56 -44 48 -47 -48 -46 50 -24 52 -51 -9 -55 -21 -41 -58 -59 60 -60 -61
right_child=1 2 3 5 11 10 7 53 -10 -11 12 -13 15 -15 -16 17 34 37 -20 20 -22 -23 49 24 -26 36 -28 -29 -30 -31 -32 32 -34 -35 -36 -37 -38 39 -40 40 -42 42 44 -45 45 46 47 -49 -50 51 -52 -53 -54 54 -56 -57 57 58 59 61 -62 -63
leaf_value=0.050494144991631421 -0.0074145023293496794 0.01599766036869249 0.025187055649974723 -0.03735670540420271 -0.026472158124887169 -0.043633035449589901 0.010080247664453156 -0.05334171317872443 0.027363224083442418 -0.061014279104823543 0.058528357270751702 -0.10414802568850333 0.023414512608018592 -0.0084364624798602076 0.083298082922923317 -0.018313452833173757 -0.035819719941168886 0.021486628866119663 0.069099225247083715 0.011021278866136649 -0.034848864463280359 0.063209982501924042 0.015240824817784805 -0.013094874227697543 -0.096282367982552949 0.064864347312525619 -0.050744335438203336 -0.002353185030687102 0.0017595100187269019 0.049655148892042589 0.035231120957704289 0.066264973186866027 -0.0040785497956581868 -0.079581852820615195 -0.062051159271735205 0.016618724163452375 0.012382265580704117 0.056488511256221209 -0.047437244824191725 0.027729945913348625 -0.018711648965033422 -0.060785499341424735 0.058496531567600978 0.060132250937986888 -0.0092036621354593725 0.068869077502635948 -0.096288391442983262 -0.0019871124603502818 -0.098122534835945671 0.02210299646378423 0.079645297664535888 0.052431912274057114 -0.051287624313084146 0.048813256925238246 -0.014005218583925189 0.087552895317295168 -0.060299270700890376 0.055414527397724789 0.012188265068612444 -0.0032072159925540379 -0.066206648893291906 0.014156495296544122
leaf_weight=3.9126461297273627 2.9654776602983466 29.729520559310913 2.969790190458296 3.9886196106672305 4.4794845879077911 7.2307441234588614 110.22456081211567 3.9917711019516018 49.803832292556763 5.2098080217838278 2.7394969165325156 3.4890888780355453 12.692210793495176 184.69195862114429 2.6095610111951828 4.4704507589340237 19.93827319145203 2.7388279587030402 3.3689518570899954 3.1961654722690609 11.709102764725683 3.4704447686672202 3.2164792567491549 4.9864128232002276 2.4931986033916465 4.6028434485197058 4.9691114723682395 103.69773654639721 21.938758581876755 8.1722225248813611 4.4550802558660507 8.138678699731825 2.4923783093690863 3.2345919162034988 7.3843551576137534 6.2406517863273612 9.7071542143821699 2.7300122380256644 8.4676890522241575 10.4631500095129 35.717804282903671 6.4960053265094748 2.4955065995454815 4.2392370551824561 2.7476350516080883 3.742028251290324 2.4960073977708843 14.228333026170729 3.2485467493534088 4.4345526397228223 5.4033161997795105 3.7167541831731796 2.7370165437459946 3.4660667330026653 19.121727153658867 2.439964234828949 3.7447789609432212 3.9758280664682379 3.4911421686410895 125.25206433236599 4.4890453964471817 40.684198200702667
leaf_count=16 12 120 12 16 18 29 444 16 202 21 11 14 51 744 11 18 80 11 14 13 47 14 13 20 10 19 20 417 88 33 18 33 10 13 30 25 39 11 34 42 143 26 10 17 11 15 10 57 13 18 22 15 11 14 77 10 15 16 14 502 18 163
internal_value=0 -0.000195523 0.00145895 0.000215764 -0.0372234 0.000761867 0.00510431 0.0105682 0.0140798 0.00851593 -0.00341213 -0.060483 -0.00263687 -0.00716237 0.0350462 -0.00308683 -0.016679 -0.00115908 0.0139534 0.00945756 -0.00917815 0.011702 0.022938 -0.00109047 -0.0160525 0.00240938 -0.000657916 0.00141072 -0.00942016 0.0249007 0.000942215 0.0248943 0.0497734 -0.0392545 -0.0318407 -0.0233192 0.0292632 -0.00355888 -0.0305925 -0.00243783 -0.00303919 -0.000624168 -0.0170313 0.00233855 -0.00721614 -0.0134131 -0.000532571 -0.016061 -0.0573772 0.0323911 0.0556127 0.0140075 -0.0059064 -0.0117211 -0.00436581 0.044153 0.00106317 -0.000472961 0.000786432 -0.000462397 -0.0319107 0.00105001
internal_weight=0 991.466 801.199 760.839 10.9384 749.9 367.534 195.288 168.709 118.905 382.366 7.96857 375.136 190.267 5.57504 372.396 46.2555 326.141 44.6928 41.3238 17.3452 113.695 23.9786 172.246 32.653 139.593 125.283 120.314 30.1598 16.6159 8.4437 40.3606 10.6311 8.221 33.5633 26.1789 14.31 281.448 11.2065 270.241 267.511 231.794 35.4541 196.339 28.9581 26.4626 20.4664 16.7243 5.99618 19.5081 8.6198 10.8883 7.17157 26.5796 22.5878 5.63613 192.1 181.637 177.892 173.916 7.98019 165.936
internal_count=4006 3990 3223 3060 44 3016 1481 788 681 479 1535 32 1506 767 23 1495 186 1309 181 167 70 458 97 693 131 562 504 484 121 67 34 163 43 33 135 105 58 1128 45 1083 1072 929 142 787 116 106 82 67 24 79 35 44 29 107 91 23 770 728 713 697 32 665
is_linear=0
shrinkage=0.05


Tree=8
num_leaves=63
num_cat=0
split_feature=8 1 6 0 10 10 10 10 0 3 3 8 1 9 8 10 8 4 10 3 10 10 10 10 4 4 3 8 4 8 0 6 4 1 3 0 8 4 4 10 0 10 8 4 6 0 4 9 6 2 3 8 9 3 10 8 10 8 6 10 4 1
split_gain=3.64218 4.12726 6.69095 4.51854 6.91103 5.07406 4.33696 4.30872 3.90147 3.74162 3.71707 4.23002 3.55247 3.92812 3.53498 10.1819 4.28804 4.0778 3.76181 8.61377 3.47086 5.78166 3.44029 5.17599 3.39411 3.30141 5.50842 5.53022 6.5962 3.8966 3.84788 4.46903 3.71481 3.28021 3.17917 4.72799 3.17901 3.12997 6.2085 4.33123 4.32431 3.59716 5.42973 3.20869 3.17545 3.65133 4.36419 3.08987 3.56192 3.47386 3.80054 4.69558 4.31818 6.1441 3.57288 3.63738 5.0375 9.15552 5.45001 5.26624 5.79441 5.44734
threshold=14.328000000000001 36.110000000000007 52.540000000000006 55.365000000000002 5746900.0000000009 24253900.000000004 16168700.000000002 24617113.000000004 47.790000000000006 59.285000000000004 14.180000000000001 14.575250000000002 38.965000000000011 36.95000000000001 90.859937500000015 28523675.000000004 100.08070000000002 67198291.000000015 40929331.500000007 94.195000000000007 8159150.0000000009 10545250.000000002 19722550.000000004 23795672.500000004 27311650.500000004 16445800.000000002 573.93000000000018 93.503822500000027 17255235.000000004 96.404000000000011 65.645000000000024 57.981000000000009 7093550.0000000009 44.020000000000003 85.920000000000016 78.740000000000023 52.533504999999998 15428950.000000002 13567000.000000002 16426850.000000002 185.32000000000002 17242500.000000004 439.02465000000012 19392536.000000004 390.40900000000005 64.815000000000012 28547600.000000004 99.885000000000019 92.721800000000016 98.829950000000011 102.97000000000001 111.82450000000001 114.96000000000002 110.73500000000001 62119845.000000007 189.66000000000003 41687461.000000007 145.39130250000002 189.08400000000003 48098335.000000007 34597994.500000007 128.03000000000003
decision_type=2 2 2 2 2 2 2 2 2 2 2 2 2 2 2 2 2 2 2 2 2 2 2 2 2 2 2 2 2 2 2 2 2 2 2 2 2 2 2 2 2 2 2 2 2 2 2 2 2 2 2 2 2 2 2 2 2 2 2 2 2 2
left_child=-1 10 8 4 -4 6 25 -7 12 -9 11 -2 13 -3 15 -11 17 18 24 -20 -14 -22 33 -24 -16 29 27 -27 -29 30 31 -5 -33 -23 35 -17 -10 38 41 43 -40 -8 -43 -39 45 -41 -47 48 -18 -49 -51 -52 53 -53 55 56 58 59 -54 60 -58 -61
right_child=1 2 3 5 -6 7 37 9 36 14 -12 -13 20 -15 16 34 47 -19 19 -21 21 22 23 -25 -26 26 -28 28 -30 -31 -32 32 -34 -35 -36 -37 -38 39 40 44 -42 42 -44 -45 -46 46 -48 49 -50 50 51 52 54 -55 -56 -57 57 -59 -60 61 -62 -63
leaf_value=0.04832409219003922 -0.0070400267377714563 -0.0017391717609295703 0.036291110473452778 0.059703132519005747 -0.056441408672498729 -0.041495392218642929 -0.04590415052877609 0.055828319337746284 0.067303649404047178 0.022279471512538979 -0.0080141792786467218 0.080672548313878378 -0.053371785290701551 0.057048380610918409 -0.017376164872788903 -0.034093379930518218 0.020441102297441578 0.066620505171764155 0.042255611335283133 -0.033184137868716615 0.070961283686313825 -0.062788865677533154 0.071855450048389516 -0.020223322588487663 0.030922582056781653 -0.049914219866603562 -0.068549189951599296 -0.054682347951902369 0.010656734149340732 0.00061808154689582369 0.057808326755678721 -0.060508185818589744 0.017449836304750145 0.0076666241246144814 -0.059466540127588612 0.015798063019392971 0.0052317343322868031 0.090133372516426655 0.0013430087071849891 -0.03640476188292973 0.061727076650725701 0.042758357622409711 -0.03740622675147099 0.011468066434258538 -0.011780286536145664 0.0062834347606358521 0.031332789094990203 0.053942199189618914 -0.045215870338818215 -0.0512800699113019 0.016165542399350107 0.0035201383270458291 -0.0044396625002735652 -0.059691843199874584 -0.026983161117520322 -0.011267922446719404 -0.031961449161537522 0.047328999725979218 0.063981425593050631 0.010150209048298234 0.045233854977838515 -0.060365651707957539
leaf_weight=3.8846423327922812 2.9670160859823218 4.7050289362669009 2.7152196466922742 2.7317247092723829 7.7267135977745056 7.2232424467802039 3.2217085212469128 2.7286524772644034 6.8686849623918516 12.672387987375258 184.70225667953491 2.5609881579875946 2.7251473665237453 7.1744550764560699 4.4758654385805157 19.90138112008572 2.735064670443534 3.3208025991916648 5.5965202152729061 11.682352811098097 2.9424039572477332 3.7279259413480741 2.7166008353233337 3.4829786121845245 19.417922034859657 6.2110368311405173 3.9709139019250861 4.4844561964273444 27.858487263321877 135.72789286077023 6.1583977341651908 2.7423704713582993 3.4512027055025101 2.9666614979505539 7.3216177225112906 6.2366930544376364 2.9480553567409515 2.7150069326162329 3.9478578716516486 4.2251995205879203 11.908198729157446 6.1735627353191358 3.21090267598629 2.4807086735963821 21.129878059029579 93.940443903207779 21.337569132447243 2.7162780910730353 8.4401871711015684 3.9967533499002448 30.876689836382866 7.2201712876558295 100.04485256969929 8.2213107347488386 14.235980644822119 61.100829005241394 3.495874762535097 16.225481122732162 2.9976365566253653 5.2374247908592206 7.9796727746725082 5.7406095713376999
leaf_count=16 12 19 11 11 31 29 13 11 28 51 744 11 11 29 18 80 11 14 23 47 12 15 11 14 79 25 16 18 112 547 25 11 14 12 30 25 12 11 16 17 49 25 13 10 85 379 86 11 34 16 124 29 401 33 57 245 14 65 12 21 32 23
internal_value=0 -0.000185202 0.00138858 0.000336213 -0.0323281 0.000791306 0.00498415 -0.00324545 0.0212531 -0.00250794 -0.00680503 0.033595 0.012414 0.0337648 -0.00293596 -0.0158899 -0.0011015 0.0133217 0.00902284 -0.00874967 -0.00125053 0.00771846 -0.00671333 0.0201248 0.0218751 -0.000172161 -0.0124765 -0.00670123 0.00159725 0.00329734 0.0274062 0.00642887 -0.0170682 -0.031567 -0.030346 -0.022189 0.0486629 0.0107039 0.0258706 0.00774375 0.0466926 -0.000319379 0.01533 0.0525744 0.00608748 0.00924675 0.01092 -0.00338311 -0.0291468 -0.00231711 -0.00288865 -0.00215431 -0.00458724 -0.030135 -0.00276978 -0.00107026 0.00332629 0.0187124 -0.00244921 -0.00196657 0.0217173 -0.0267238
internal_weight=0 990.4 800.17 759.912 10.4419 749.47 367.628 381.842 40.2579 374.619 190.23 5.528 30.4412 11.8795 371.89 46.1321 325.758 44.4935 41.1727 17.2789 18.5617 15.8366 12.8942 6.19958 23.8938 193.336 42.5249 38.554 32.3429 150.812 15.0837 8.9253 6.19357 6.69459 33.4597 26.1381 9.81674 174.291 28.4622 145.829 15.8561 12.6062 9.38447 5.19572 140.633 119.503 115.278 281.265 11.1753 270.09 267.373 263.377 232.5 15.4415 217.058 202.822 141.722 38.6791 103.042 22.4536 11.4755 10.978
internal_count=4006 3990 3223 3060 42 3018 1483 1535 163 1506 767 23 123 48 1495 186 1309 181 167 70 75 64 52 25 97 779 171 155 130 608 61 36 25 27 135 105 40 704 116 588 65 51 38 21 567 482 465 1128 45 1083 1072 1056 932 62 870 813 568 155 413 90 46 44
is_linear=0
shrinkage=0.05


Tree=9
num_leaves=63
num_cat=0
split_feature=4 10 4 10 7 7 10 6 10 7 10 4 9 3 10 10 9 4 8 10 10 2 4 10 8 10 3 8 4 10 3 2 2 3 9 0 6 10 8 7 8 3 3 10 10 8 0 4 10 10 10 3 7 4 10 3 8 6 4 6 10 8
split_gain=3.37939 5.49574 5.22959 5.72685 3.94628 7.12041 3.92813 3.55062 3.5088 3.50313 3.07647 3.98462 3.86977 2.98894 2.96547 8.85822 7.99057 5.96896 4.97432 4.49419 4.95027 4.29077 3.4221 3.3059 2.81133 6.06211 5.83089 5.11929 3.54798 4.23682 7.81172 3.31053 3.43737 3.18507 4.4054 3.62877 3.0294 3.01356 2.80345 2.77652 2.76309 9.60411 4.01653 3.52057 3.11092 4.37827 4.03636 3.10521 2.7026 3.72791 6.55169 3.90579 3.8601 3.65308 2.7646 2.81371 2.78283 5.97179 2.98641 2.77084 2.90532 2.54086
threshold=6582300.0000000009 27852532.000000004 5748650.0000000009 6836950.0000000009 389.53700000000009 402.76400000000007 8673050.0000000019 407.46670000000006 8238300.0000000009 380.97250000000003 21771892.500000004 22861050.000000004 420.60500000000008 126.74000000000002 15240102.000000002 13897750.000000002 270.52500000000003 20692407.000000004 251.26637500000001 16426850.000000002 19559200.000000004 337.15500000000003 22667700.000000004 11966200.000000002 88.760500000000008 28523675.000000004 85.920000000000016 100.08070000000002 67198291.000000015 40929331.500000007 94.195000000000007 93.015000000000015 94.663000000000025 59.285000000000004 46.495000000000005 78.740000000000023 93.679000000000016 37189387.500000007 224.3633725 14.3725 21.119500000000006 20.135000000000002 21.340000000000003 7299050.0000000009 6583750.0000000009 17.978500000000007 15.195000000000002 26798150.000000004 14139600.000000002 15240102.000000002 15775850.000000002 449.97500000000008 478.09875000000005 15546700.000000002 13232250.000000002 573.93000000000018 566.1605350000001 519.77750000000003 12341250.000000002 461.5030000000001 10198050.000000002 20.3565
decision_type=2 2 2 2 2 2 2 2 2 2 2 2 2 2 2 2 2 2 2 2 2 2 2 2 2 2 2 2 2 2 2 2 2 2 2 2 2 2 2 2 2 2 2 2 2 2 2 2 2 2 2 2 2 2 2 2 2 2 2 2 2 2
left_child=2 4 13 -4 9 -6 -7 -8 -5 14 12 -12 -9 39 15 21 18 -17 38 -18 -21 40 -19 -23 25 -3 33 28 29 31 36 -26 -33 34 37 -35 -31 -27 -16 -1 41 43 -43 44 45 46 -2 -42 54 -50 -51 -52 -53 -54 56 -56 57 59 -59 -14 -61 -41
right_child=1 24 3 8 5 6 7 10 -10 -11 11 -13 48 -15 16 17 19 22 -20 20 -22 23 -24 -25 27 26 -28 -29 -30 30 -32 32 -34 35 -36 -37 -38 -39 -40 61 47 42 -44 -45 -46 -47 -48 -49 49 50 51 52 53 -55 55 -57 -58 58 -60 60 -62 -63
leaf_value=0.039260174973744205 0.021635650708423548 0.048138059415578166 -0.047140117019190714 0.017266452058869255 -0.055445656050466419 0.024241359962592419 0.042308677529788688 -0.056884624314669778 -0.037947549905569727 0.042376995414766104 -0.063227825451393382 0.011923813293490583 -0.0095961550404216334 -0.047079046170273788 0.0073829009718114763 -0.041719365088216089 0.072900661969899569 0.056703439183743265 -0.034817737745910841 -0.0053614321623783644 0.051009332246175425 -0.056929056403851777 -0.015971653592396908 0.006671592938433956 -0.004885702889644526 -0.061140285717262668 -0.06722600185192644 -0.0046964075034529613 0.064338012851805723 0.0084271256643542979 -0.031613590262262188 0.087060340006978584 0.026202309625091846 -0.032466978344811687 0.044213666861678255 0.013474238885897228 0.08300871749497149 0.016567550628617884 0.047525724667769942 -0.011279777991427568 0.017135316902219543 -0.094060948291432911 -0.020603073735471409 0.040360711802503557 -0.049415557835492306 0.060865694161142472 -0.061755269789656543 -0.031247882274535583 0.043737065505154916 -0.068369198326461905 0.054189369766949137 -0.051380925959039828 0.041914222173800322 -0.0066522945874349579 -0.014961011097622335 -0.076711137863395298 0.022249456308318982 -0.052893802505369618 -0.00060782455088575615 0.07241341376979317 0.0086532456956010962 0.002662387985296413
leaf_weight=4.0785692781209937 3.4614850878715568 3.4638734459877005 15.011519849300386 8.4174800068140012 6.2234736680984488 14.027388811111448 3.9519023150205603 3.2419358789920798 4.3718598634004584 6.9185665696859351 4.9376847743988028 2.7439882010221481 9.4726216495037132 3.6733626425266257 208.171716183424 17.885218501091007 6.6069913357496288 2.7291801571845999 6.9322989284992209 7.5553506314754477 8.0379105508327466 4.4912786930799466 3.9848557412624359 3.7484163492918015 6.4088124930858639 2.497050076723097 5.7942875772714606 236.83793643116951 3.2680229246616355 3.1732443422079113 11.650400787591932 2.8894941061735144 11.777033448219298 19.854583173990253 4.9631670266389847 5.4859034717082968 2.3847939819097519 2.4935160428285599 4.4420862793922415 52.455254450440407 67.531708508729935 3.2159890830516806 4.4162145704030991 7.8946049213409415 2.7452592849731436 2.9846240878105164 2.4984596520662308 3.4874591976404181 6.4724874645471564 2.9855460971593883 4.1654434800148037 2.9941426217556026 5.9216637611389187 11.185769602656363 5.7379264533519727 2.7189280092716217 8.37633068859577 8.6856956630945188 3.9834897369146338 2.7145538181066504 5.2266500890254974 86.674012735486031
leaf_count=17 14 14 61 34 25 57 16 13 18 28 20 11 38 15 840 72 27 11 28 31 33 18 16 15 26 10 24 950 14 13 47 12 48 80 20 22 10 10 18 211 273 13 18 32 11 12 10 14 26 12 17 12 24 45 23 11 34 35 16 11 21 349
internal_value=0 0.00135249 -0.00630828 -0.0261937 0.00466018 -0.00342126 -0.000465621 -0.00409404 -0.00160769 0.00712388 -0.00609676 -0.0363827 -0.0033233 -0.00254448 0.00646968 0.000413663 0.00975325 -0.0266289 0.0068626 0.0383399 0.0236962 0.00666136 0.01357 -0.0279957 -0.00372267 -0.0153842 -0.0207393 -0.00185641 0.0143311 0.0100623 -0.00834538 0.0250926 0.0381921 -0.0131075 0.0108583 -0.0225213 0.0404279 -0.0223139 0.00822159 -0.00140215 0.00956828 -0.00397748 -0.0515561 0.0145643 -0.00285709 0.0114326 -0.0133225 0.0147594 -0.00117002 0.00962608 0.00152472 0.0101237 0.000992414 0.0101588 -0.00893065 -0.034814 -0.00323914 -0.0103362 -0.0364539 0.00866535 0.0304485 -0.00259416
internal_weight=0 818.449 174.682 27.8009 495.507 115.768 109.544 95.5168 12.7893 379.74 91.5649 7.68167 83.8832 146.881 372.821 131.075 241.746 24.5993 219.546 22.2003 15.5933 106.475 6.71404 8.2397 322.942 44.5524 41.0885 278.39 41.5518 38.2838 17.2084 21.0753 14.6665 35.2942 9.95373 25.3405 5.55804 4.99057 212.614 143.208 98.2358 27.2166 7.6322 19.5844 11.6898 8.94457 5.95994 71.0192 80.6412 33.7251 27.2526 24.267 20.1016 17.1074 46.9162 8.45685 38.4593 30.083 12.6692 17.4138 7.9412 139.129
internal_count=4006 3301 705 113 2001 467 442 385 52 1534 369 31 338 592 1506 529 977 99 886 91 64 430 27 33 1300 180 166 1120 170 156 70 86 60 142 40 102 23 20 858 577 397 110 31 79 47 36 24 287 325 136 110 98 81 69 189 34 155 121 51 70 32 560
is_linear=0
shrinkage=0.05


Tree=10
num_leaves=63
num_cat=0
split_feature=8 7 10 7 10 10 10 4 3 7 0 1 1 10 8 4 4 10 9 2 10 4 3 8 4 4 0 4 4 4 8 10 3 8 10 10 10 10 4 8 4 10 3 0 3 4 10 10 0 4 4 8 8 4 10 4 9 7 7 10 10 3
split_gain=3.20912 3.54175 5.08125 3.92763 4.5657 4.66661 4.50006 3.94204 3.84798 3.71301 10.3444 3.62923 4.87366 3.62642 7.03192 4.89539 3.4978 4.96731 6.00073 5.76516 4.72508 4.00639 3.72424 3.62363 5.22142 5.05044 3.48608 3.4789 4.94394 4.35189 6.27922 3.59775 3.46006 3.93827 3.45496 4.92535 3.09325 4.26436 3.05283 3.04364 3.02082 4.79958 4.95747 3.59596 5.69862 4.97836 8.67388 6.37825 5.34481 4.65984 3.94329 3.86589 3.54139 3.41927 3.01957 2.95789 2.8536 4.20906 2.85304 2.66735 4.99593 9.893
threshold=14.328000000000001 25.441000000000006 25523196.500000004 389.53700000000009 6400900.0000000009 5810400.0000000009 21932600.000000004 55909565.000000007 390.61500000000007 51.622500000000002 55.365000000000002 117.46500000000002 114.21000000000002 8925300.0000000019 37.242500000000014 17925450.000000004 9594900.0000000019 15240102.000000002 270.52500000000003 64.335000000000022 13897750.000000002 21156670.500000004 316.76250000000005 331.81735000000009 19185544.500000004 12843650.000000002 47.790000000000006 36852728.000000007 34053200.000000007 28547600.000000004 94.154750000000021 20325050.500000004 14.180000000000001 14.575250000000002 16426850.000000002 19950500.000000004 8673050.0000000019 7171500.0000000009 7921100.0000000009 52.533504999999998 19392536.000000004 24617113.000000004 67.75500000000001 174.26000000000002 183.87500000000003 25853615.000000004 23290952.000000004 21276250.000000004 118.96000000000002 23531436.500000004 22091800.000000004 193.33625000000004 66.79825000000001 20500550.000000004 18333183.000000004 21237700.000000004 48.495000000000012 52.751000000000012 24.691000000000003 15775850.000000002 10081250.000000002 19.615000000000006
decision_type=2 2 2 2 2 2 2 2 2 2 2 2 2 2 2 2 2 2 2 2 2 2 2 2 2 2 2 2 2 2 2 2 2 2 2 2 2 2 2 2 2 2 2 2 2 2 2 2 2 2 2 2 2 2 2 2 2 2 2 2 2 2
left_child=-1 32 3 4 5 11 8 9 -5 13 39 12 38 -6 -15 26 -12 19 27 -18 23 -22 -20 24 -21 -25 -16 28 29 40 -31 -29 33 -2 -24 -36 37 -10 56 -11 52 42 -42 45 -45 46 50 -47 -48 55 53 -51 -19 -44 -55 -46 -3 -58 59 60 -34 -62
right_child=1 2 -4 6 7 -7 -8 -9 36 10 16 -13 -14 14 15 -17 17 18 22 20 21 -23 34 25 -26 -27 -28 31 -30 30 -32 -33 58 -35 35 -37 -38 -39 -40 -41 41 -43 43 44 49 47 48 -49 -50 51 -52 -53 -54 54 -56 -57 57 -59 -60 -61 61 -63
leaf_value=0.045636649554067932 -0.006800916012374804 -0.023544427130127707 -0.0032020831976788131 -0.062110502738513929 0.0481884391427587 -0.048056717295141022 -0.041005763299169239 -0.049873035051603676 -0.01533588230857009 -0.027104005655282804 0.039746643190508482 -0.028570827654631259 0.070813219442744282 -0.027940737030438423 -0.00065484808559665756 0.062371203049183671 0.070057264171045214 0.057173992237246542 0.068308241656909241 0.029747997766706322 -0.042199793471222505 0.013464711278509543 0.057481771635311797 -0.051703551282594018 -0.027846622616952688 0.011383869806835667 0.065733494476940046 0.088441970065427852 -0.051679162404879145 -0.012997928184549043 0.053071555804145312 0.015994111438544768 -0.00544831974730247 0.078343392152589203 -0.014527556441780326 0.051800777160351419 -0.0028928584201705632 0.038990800502845917 0.051966554355675591 -0.097560257416956536 -0.063244277748216976 0.041025625660291477 0.041539079055742209 -0.089305065483066048 0.00098633054537225029 -0.090103744266240945 -0.078126446337826741 0.0050028900414997761 0.017903374300404794 -0.027230887312807761 0.048643516878961887 0.049886066766588029 0.01061172949487147 -0.053919026870920497 0.011539280585920714 -0.047471790092425192 0.066600246345464673 -0.0011466428184506287 -0.0499938216096825 0.036192575007756474 0.018897924277197012 -0.073424977829074409
leaf_weight=3.8380728811025611 2.9663256257772437 11.179816588759424 369.14318661391735 2.4917106926441184 11.571656435728071 5.9356236308813086 7.3972164094448081 2.7387034446001044 5.4256381839513805 3.9786719381809226 9.375989153981207 9.3921841830015165 2.7099902629852286 7.1274611651897457 10.805106252431871 7.3590354472398749 2.4647707492113105 4.4480390250682822 6.4732044339180019 15.880373850464823 13.639581903815271 4.2365033626556388 5.3333775997161892 5.9906624704599363 5.2315762639045706 6.7433084696531296 2.4203318655490866 2.7008657306432715 3.4676413834094992 5.2081608176231411 11.619122281670569 4.6882053464651108 137.71320050954819 2.5049999803304672 7.8161821067333204 4.3601426780223846 89.394195109605789 10.80707313120365 2.7059434950351706 2.4934703856706619 3.4842073172330847 6.1395162194967261 4.961172848939901 2.4813435971736935 5.4593154340982455 2.7329277694225302 3.4787977486848822 4.9665011763572693 2.4833042919635773 2.4818337708711615 12.654979869723318 4.707988515496254 49.844818994402885 2.7312848418951035 4.9634071588516235 7.4418100714683533 2.6603372246027019 16.590375691652298 3.9922845363616934 3.4648461043834677 4.6561823189258558 7.700594574213028
leaf_count=16 12 45 1487 10 47 24 30 11 22 16 38 38 11 29 44 30 10 18 27 64 55 17 22 24 21 27 10 11 14 21 47 19 554 11 32 18 361 44 11 10 14 25 20 10 22 11 14 20 10 10 51 19 202 11 20 30 11 67 16 14 19 32
internal_value=0 -0.00017208 0.00115855 0.00468955 0.00739328 -0.006373 -0.00327683 0.00982937 -0.000695502 0.0104002 0.00813071 -0.000903813 0.00634526 0.0246792 0.0148624 0.0296832 0.00980806 0.00859455 0.0126471 -0.00465271 -0.00821295 -0.0290077 0.0359028 0.00277002 0.015476 -0.0182954 0.0114946 0.00900523 0.00730847 0.00874603 0.0326226 0.0424754 -0.00690706 0.0321817 0.0239228 0.00922353 0.000753262 0.0208326 0.0010729 -0.0542481 0.00554363 -0.00123287 -0.00522259 -0.00193783 -0.0178186 0.00726013 0.0161272 -0.0287554 -0.0381286 -0.00898966 0.0289074 0.0232663 0.0144264 0.0091727 -0.0116956 -0.026966 -0.00345267 0.00821559 -0.00826472 -0.00717966 -0.00818105 -0.0386366
internal_weight=0 988.017 825.019 455.875 340.36 51.1743 115.516 289.185 108.119 286.447 247.163 45.2386 35.8465 39.2836 27.7119 20.5845 240.691 231.315 177.128 54.1868 51.722 17.8761 23.9829 33.8459 21.112 12.734 13.2254 153.145 145.756 142.289 16.8273 7.38907 162.998 5.47133 17.5097 12.1763 105.627 16.2327 33.1365 6.47214 125.461 71.1684 65.0289 61.5447 22.5723 38.9724 31.2729 7.69943 5.9621 20.0909 25.3108 7.18982 54.2929 12.6559 7.69469 12.9011 30.4305 19.2507 157.527 153.535 150.07 12.3568
internal_count=4006 3990 3332 1845 1378 207 467 1171 437 1160 1000 183 145 160 113 84 974 936 718 218 208 72 99 136 85 51 54 619 589 575 68 30 658 23 72 50 427 66 134 26 507 287 262 248 91 157 126 31 24 81 102 29 220 51 31 52 123 78 635 619 605 51
is_linear=0
shrinkage=0.05


Tree=11
num_leaves=63
num_cat=0
split_feature=10 4 0 8 2 10 10 8 4 0 3 10 4 10 4 10 10 10 6 2 0 6 8 3 10 2 2 9 8 4 4 4 10 8 10 6 9 10 3 10 3 3 4 10 10 4 4 4 4 4 10 4 4 6 6 4 10 4 10 4 8 1
split_gain=2.97341 4.42208 3.91156 3.87977 3.83959 4.28449 3.88753 3.73452 3.57626 3.39652 3.55272 3.39573 4.34362 3.8168 3.53626 3.36138 3.83504 7.76672 3.57 10.5021 4.4391 3.85512 5.17113 4.42907 3.30587 3.48292 3.85566 6.55229 7.25077 11.5229 7.27626 4.37478 4.2837 4.45311 3.81952 3.77251 4.51439 4.78863 6.31533 3.69966 3.30082 3.25477 5.12183 3.35477 7.15682 3.14104 7.6367 7.60529 5.0897 4.96612 4.20833 5.18458 3.60014 3.42242 6.16733 3.39149 3.3045 6.92585 3.28485 3.84342 3.10083 5.57589
threshold=39098608.500000007 8322100.0000000009 202.31000000000003 95.993250000000018 14.355000000000002 5113400.0000000009 3726650.0000000005 59.776050000000005 3129300.0000000005 585.17000000000019 530.67000000000019 10545250.000000002 15546700.000000002 14539500.000000002 18384000.000000004 22356300.000000004 34880490.500000007 34558954.000000007 169.18100000000004 193.14500000000001 268.74000000000007 163.67600000000002 145.39130250000002 128.82500000000002 40181984.000000007 145.78500000000003 125.72500000000001 119.64000000000001 112.89625000000002 34380625.000000007 66154009.500000007 39913919.500000007 46628144.000000007 127.32762500000001 60811209.000000007 159.92800000000005 164.47000000000003 42439423.500000007 176.71000000000001 46058819.500000007 154.49500000000003 32.965000000000011 2527050.0000000005 3104350.0000000005 3216450.0000000005 47674219.000000007 32555100.000000004 25637797.000000004 26798150.000000004 24418563.500000004 20494000.000000004 30298073.000000004 24926344.000000004 137.45500000000001 130.38300000000004 15995769.500000002 21442200.000000004 21644450.000000004 16168700.000000002 13013900.000000002 391.44187500000004 264.97500000000008
decision_type=2 2 2 2 2 2 2 2 2 2 2 2 2 2 2 2 2 2 2 2 2 2 2 2 2 2 2 2 2 2 2 2 2 2 2 2 2 2 2 2 2 2 2 2 2 2 2 2 2 2 2 2 2 2 2 2 2 2 2 2 2 2
left_child=1 4 3 7 5 6 8 -2 -1 10 41 12 -3 -13 -14 45 17 -17 21 -20 -21 22 23 -18 -5 26 27 28 29 -26 34 -31 -29 -34 -30 40 -37 -38 -39 -28 -27 42 -6 -44 -45 46 47 49 -49 53 -50 -52 -51 54 -15 58 -57 -58 60 -60 61 -55
right_child=2 11 -4 24 9 -7 -8 -9 -10 -11 -12 13 14 15 -16 16 18 -19 19 20 -22 -23 -24 -25 25 35 39 32 30 31 -32 -33 33 -35 -36 36 37 38 -40 -41 -42 -43 43 44 -46 -47 -48 48 50 52 51 -53 -54 55 -56 56 57 -59 59 -61 -62 -63
leaf_value=-0.016259385557246434 0.029448119606898054 0.020544620789429497 -0.03622482297449172 -0.036966879761473011 0.045176222736033229 0.053667508808163039 -0.028935504832519388 -0.030373784622345291 0.05504103706761513 0.049585013129539418 -0.055977266064362374 -0.0073507708167986838 -0.054996630721994101 0.016188485479806808 0.020217332285364421 -0.00090042867734943944 0.015280181934674009 -0.07351894834973681 -0.058508964888444426 0.062489693026355708 -0.020697282981170344 0.079475703430195568 -0.037366323031383424 0.067799049412193696 0.10022815190902459 0.019943138304920699 0.013662884743518167 0.06337915769831684 -0.067050448882082433 -0.055410834994433139 0.02992142143415218 0.0034190460532648246 -0.023399385105304871 0.059898490774391827 -0.012021708475336998 -0.044477496296792096 -0.02587799933715032 0.071009636462990522 -0.0016362125291885219 -0.041151367370731003 0.096454077441590777 0.0032126402214940199 -0.038868766359257532 0.066302290734507358 -0.011901642989304302 -0.041964879521727054 0.053998964601889021 -0.06192596427745789 -0.030462877850723186 0.091202895374499993 0.051288449325153619 -0.034585516926554011 0.020948871382047984 -0.018083367053711087 0.090866823554306142 0.0012187781278440958 -0.072527566471381144 0.031714741067878971 -0.005768342889995743 0.03747603359413456 -0.032931839104736078 0.051948736192773785
leaf_weight=2.9833516925573367 2.9871576875448254 47.743448257446289 10.224168494343756 5.9608894586563101 3.9817039966583243 5.566659837961196 5.8702229857444763 20.601658627390862 4.284182995557785 2.6413036137819281 3.7077030837535849 87.415014684200287 3.707557648420333 40.607418656349182 2.7013800889253616 228.28428457677364 20.415388301014911 3.7423534691333762 5.7475391477346403 4.4860821664333344 2.4959727227687836 2.7483264207839957 3.7396556586027137 4.9970006197690955 2.9845505803823462 3.2434977144002941 4.2407719939947119 6.2317048162221891 9.4500984400510806 3.450168088078498 3.714736893773078 37.586806386709213 4.4910097867250443 2.4963444769382477 4.7324744164943686 3.4887201189994839 4.4925838410854366 5.9793587923049909 5.9873449057340622 11.230239957571028 2.4932674914598465 59.596910953521729 10.971221670508383 2.9968075454235068 122.98193500936031 2.9606303274631491 9.3460414707660657 5.4611664265394237 8.4216057360172289 3.2154924273490897 4.9400633722543708 2.7283849716186523 4.2125246673822403 6.4417781829834002 2.9666822999715796 55.412841469049454 4.4697056859731665 2.4761037677526474 6.9417820572853115 19.774115666747093 5.4575207978487006 5.0864960849285126
leaf_count=12 12 194 41 24 16 23 24 84 18 11 15 353 15 165 11 920 83 15 23 18 10 11 15 20 12 13 17 25 38 14 15 153 18 10 19 14 18 24 24 45 10 242 44 12 496 12 38 22 34 13 20 11 17 26 12 224 18 10 28 82 22 21
internal_value=0 0.00119052 -0.0063285 -0.00423265 -0.00478973 0.0169045 0.00132751 -0.0227983 0.0257719 -0.00675117 -0.00747974 0.00340516 0.0153563 0.00223904 -0.0232938 0.00403189 0.000510144 -0.00207169 0.0139328 -0.00845341 0.0327517 0.0228659 0.017529 0.0256073 -0.00065045 0.00121103 -0.00339595 0.00128424 -0.00553798 0.0053717 -0.0323722 -0.00152705 0.0332399 0.00636012 -0.0486883 0.0174632 0.00718703 0.0181379 0.0346625 -0.0261262 0.0531957 -0.00658304 -0.0107254 -0.0123507 -0.0100413 0.00913514 0.00994003 0.00763463 -0.0202183 0.0114564 -0.00606218 0.020735 0.0513609 0.00947555 0.0212729 0.00462871 -0.00285625 -0.0353663 0.0153091 0.0262395 -0.00188264 0.0128161
internal_weight=0 834.726 156.068 145.843 225.582 18.7044 13.1378 23.5888 7.26753 206.878 204.236 609.144 54.1524 554.992 6.40894 467.577 276.657 232.027 44.63 12.7296 6.98205 31.9004 29.152 25.4124 122.255 116.294 90.6089 75.1379 61.9188 44.0215 17.8973 41.037 13.2191 6.98735 14.1826 25.6848 19.948 16.4593 11.9667 15.471 5.73677 200.529 140.932 136.95 125.979 190.92 187.96 178.614 21.5512 157.062 16.0901 7.66845 7.42802 149.634 43.5741 106.06 62.3587 6.94581 43.7017 26.7159 16.9858 11.5283
internal_count=4006 3376 630 589 913 77 54 96 30 836 825 2463 220 2243 26 1890 1115 935 180 51 28 129 118 103 493 469 366 304 251 179 72 167 53 28 57 103 80 66 48 62 23 810 568 552 508 775 763 725 87 638 65 31 30 608 177 431 252 28 179 110 69 47
is_linear=0
shrinkage=0.05


end of trees

feature_importances:
Column_10=190
Column_4=153
Column_3=78
Column_8=78
Column_0=56
Column_7=52
Column_1=41
Column_6=39
Column_2=32
Column_9=25

parameters:
[boosting: gbdt]
[objective: binary]
[metric: binary_logloss]
[tree_learner: serial]
[device_type: cpu]
[data_sample_strategy: bagging]
[data: ]
[valid: ]
[num_iterations: 10000]
[learning_rate: 0.05]
[num_leaves: 63]
[num_threads: 0]
[seed: 2]
[deterministic: 0]
[force_col_wise: 0]
[force_row_wise: 0]
[histogram_pool_size: -1]
[max_depth: -1]
[min_data_in_leaf: 10]
[min_sum_hessian_in_leaf: 0.001]
[bagging_fraction: 0.9]
[pos_bagging_fraction: 1]
[neg_bagging_fraction: 1]
[bagging_freq: 0]
[bagging_seed: 29216]
[feature_fraction: 0.9]
[feature_fraction_bynode: 1]
[feature_fraction_seed: 17795]
[extra_trees: 0]
[extra_seed: 19650]
[early_stopping_round: 0]
[early_stopping_min_delta: 0]
[first_metric_only: 0]
[max_delta_step: 0]
[lambda_l1: 0]
[lambda_l2: 0]
[linear_lambda: 0]
[min_gain_to_split: 0]
[drop_rate: 0.1]
[max_drop: 50]
[skip_drop: 0.5]
[xgboost_dart_mode: 0]
[uniform_drop: 0]
[drop_seed: 24198]
[top_rate: 0.2]
[other_rate: 0.1]
[min_data_per_group: 100]
[max_cat_threshold: 32]
[cat_l2: 10]
[cat_smooth: 10]
[max_cat_to_onehot: 4]
[top_k: 20]
[monotone_constraints: ]
[monotone_constraints_method: basic]
[monotone_penalty: 0]
[feature_contri: ]
[forcedsplits_filename: ]
[refit_decay_rate: 0.9]
[cegb_tradeoff: 1]
[cegb_penalty_split: 0]
[cegb_penalty_feature_lazy: ]
[cegb_penalty_feature_coupled: ]
[path_smooth: 0]
[interaction_constraints: ]
[verbosity: -1]
[saved_feature_importance_type: 0]
[use_quantized_grad: 0]
[num_grad_quant_bins: 4]
[quant_train_renew_leaf: 0]
[stochastic_rounding: 1]
[linear_tree: 0]
[max_bin: 255]
[max_bin_by_feature: ]
[min_data_in_bin: 3]
[bin_construct_sample_cnt: 200000]
[data_random_seed: 45]
[is_enable_sparse: 1]
[enable_bundle: 1]
[use_missing: 1]
[zero_as_missing: 0]
[feature_pre_filter: 1]
[pre_partition: 0]
[two_round: 0]
[header: 0]
[label_column: ]
[weight_column: ]
[group_column: ]
[ignore_column: ]
[categorical_feature: ]
[forcedbins_filename: ]
[precise_float_parser: 0]
[parser_config_file: ]
[objective_seed: 29484]
[num_class: 1]
[is_unbalance: 0]
[scale_pos_weight: 1]
[sigmoid: 1]
[boost_from_average: 1]
[reg_sqrt: 0]
[alpha: 0.9]
[fair_c: 1]
[poisson_max_delta_step: 0.7]
[tweedie_variance_power: 1.5]
[lambdarank_truncation_level: 30]
[lambdarank_norm: 1]
[label_gain: ]
[lambdarank_position_bias_regularization: 0]
[eval_at: ]
[multi_error_top_k: 1]
[auc_mu_weights: ]
[num_machines: 1]
[local_listen_port: 12400]
[time_out: 120]
[machine_list_filename: ]
[machines: ]
[gpu_platform_id: -1]
[gpu_device_id: -1]
[gpu_use_dp: 0]
[num_gpu: 1]

end of parameters

pandas_categorical:null
