tree
version=v4
num_class=1
num_tree_per_iteration=1
label_index=0
max_feature_idx=10
objective=binary sigmoid:1
feature_names=Column_0 Column_1 Column_2 Column_3 Column_4 Column_5 Column_6 Column_7 Column_8 Column_9 Column_10
feature_infos=[13.130000000000001:702.40999999999997] [13.19:705.07000000000005] [12.93:699.36170000000004] [13.140000000000001:700.09500000000003] [904100:189560600] [0:3.0499999999999998] [13.280000000000001:700.5172] [13.456999999999999:691.09659999999997] [13.820499999999999:680.67899999999997] [13.119999999999999:698.70000000000005] [702500:189560600]
tree_sizes=9838 9946 9982 9939 9978 9956

Tree=0
num_leaves=95
num_cat=0
split_feature=2 3 7 10 3 7 10 8 9 10 10 3 3 7 7 9 3 3 4 8 4 4 4 8 4 4 4 4 3 4 10 8 0 0 3 8 2 3 1 8 4 10 7 8 10 10 7 10 10 10 3 10 4 4 0 8 10 1 7 1 7 3 0 10 3 10 8 1 9 10 1 10 0 10 2 2 10 0 2 0 4 4 4 0 8 4 10 10 10 0 9 1 2 2
split_gain=9.08123 9.63412 7.39351 4.91046 7.71717 8.98512 9.14231 5.72033 7.62467 5.57095 5.45037 5.56619 4.98112 4.85108 11.8405 10.1699 4.6487 6.8612 6.84689 7.35643 4.55341 6.02927 4.41864 6.36772 13.0551 7.22847 13.0627 4.27237 5.02403 6.45615 4.20834 6.41138 4.16348 3.92366 3.60847 3.56097 3.4802 13.5359 5.83197 4.20294 6.56789 10.1137 5.40485 5.60292 5.22476 8.26277 7.6629 7.56152 6.29863 5.53703 5.07215 4.29133 4.21567 8.90507 4.18548 11.024 5.0447 4.83243 4.17213 3.91837 3.86404 6.89813 6.56191 14.3442 4.82237 4.21646 3.50459 3.45138 4.4001 5.88385 3.42603 3.40583 5.39893 5.72332 4.07649 3.62617 3.60462 3.30546 3.79126 7.41558 4.56395 4.54833 4.38478 6.17123 6.75266 5.5393 4.73312 3.50459 3.31097 3.25048 4.06094 3.22324 5.64355 5.71891
threshold=25.160000000000004 24.095000000000002 14.3725 25641743.500000004 520.23400000000004 481.05225000000002 19656550.000000004 600.31389750000005 524.29500000000019 20537706.500000004 18987500.000000004 523.62500000000011 526.74500000000012 387.72100000000006 343.7892500000001 249.91500000000002 14.225000000000003 15.860000000000001 2464450.0000000005 15.232000000000003 44706163.500000007 40540251.000000007 15962950.000000002 560.32155 11654350.000000002 12377050.000000002 13478250.000000002 3681500.0000000005 14.805000000000001 4382900.0000000009 9325500.0000000019 22.863175000000002 240.60000000000002 444.19500000000005 220.80500000000004 257.60150000000004 145.41000000000003 140.68500000000003 154.20500000000001 112.90425000000003 47922950.000000007 49667750.000000007 109.53550000000003 107.85475000000001 67198291.000000015 40791562.000000007 90.033000000000015 27044042.000000004 45847073.000000007 62387256.500000007 86.300000000000026 75363176.500000015 26931001.000000004 29651745.500000004 129.66500000000005 127.67637500000001 34561376.500000007 111.15000000000002 96.059000000000012 98.250000000000014 129.18025000000003 127.09000000000002 117.19500000000001 56682750.000000007 129.93500000000003 46884548.500000007 109.57450000000001 129.19500000000002 121.48000000000002 40367151.000000007 15.200000000000001 40367151.000000007 177.15500000000003 61238128.000000007 212.91500000000002 179.85000000000002 33085388.500000004 52.415000000000006 207.26500000000001 394.54000000000008 21722897.500000004 21159920.500000004 31842700.000000004 114.41500000000001 153.18425000000002 28765306.500000004 20917599.500000004 20769683.500000004 24953226.000000004 110.36500000000002 112.41000000000001 24.375000000000004 23.005000000000006 22.775000000000002
decision_type=2 2 2 2 2 2 2 2 2 2 2 2 2 2 2 2 2 2 2 2 2 2 2 2 2 2 2 2 2 2 2 2 2 2 2 2 2 2 2 2 2 2 2 2 2 2 2 2 2 2 2 2 2 2 2 2 2 2 2 2 2 2 2 2 2 2 2 2 2 2 2 2 2 2 2 2 2 2 2 2 2 2 2 2 2 2 2 2 2 2 2 2 2 2
left_child=1 2 -1 4 5 6 -2 8 13 10 11 -6 -13 14 15 32 -4 27 -19 -20 21 77 23 24 -14 -25 -27 -18 29 -29 31 -3 34 -15 36 -17 37 39 -38 42 41 54 43 44 45 46 50 -48 -47 -50 52 -46 -5 -54 57 -56 -57 -41 -49 -60 61 62 63 -42 -62 -64 -45 68 -59 -70 -30 74 73 -73 76 -74 -40 -8 80 87 81 -79 85 -84 -85 86 -82 -80 -88 -44 -91 92 93 -21
right_child=3 30 16 7 9 -7 20 -9 -10 -11 -12 12 22 33 -16 35 17 18 19 91 -22 -23 -24 25 -26 26 -28 28 70 -31 -32 -33 -34 -35 -36 -37 38 -39 71 40 60 -43 89 66 51 48 47 58 49 -51 -52 -53 53 -55 55 56 -58 67 59 -61 64 -63 65 -65 -66 -67 -68 -69 69 -71 -72 72 75 -75 -76 -77 -78 78 79 -81 82 -83 83 84 -86 -87 88 -89 -90 90 -92 -93 -94 -95
leaf_value=0.1125889113985639 0.073904535039908459 0.10883399450596304 0.11328426637867517 0.094621835944721039 -0.00053999498107761001 0.12179213907650721 0.12440994606045552 0.0087028773699399098 0.13553562574223588 0.023267403498815994 0.12179213907650721 0.13250134946538666 0.017494877898956575 -0.01466104996179883 0.15639627514557403 0.054477102346407617 0.009880890512716678 0.13136349586156826 0.13136349586156826 0.060876459456604588 0.039331219082135216 0.16891266478757691 0.036824808140057043 0.12006821740415098 0.12179213907650721 -0.031349569484469333 0.10567195922798335 0.1381030902841851 0.00027078329532743972 0.040172657041261467 -0.031349569484469333 0.019880304399077377 0.13250134946538666 0.062106139842485579 0.037490573546546557 -0.011323346057264705 0.13076747730718713 0.0020274695608717003 0.075039742472555224 0.11429569180429151 -0.0027406788741768801 0.0020274695608717003 0.15070700712648169 0.0020274695608717003 0.15460821948243075 0.019880304399077377 0.035404508606212776 0.13553562574223585 0.074536209555922925 0.0020274695608717003 0.027987388818359174 0.083085992956699939 -0.015944782232773388 0.075687141936796751 0.16891266478757694 0.011563766430969159 0.093814326935559564 0.028303010936991266 0.045674366774009989 0.10836826837974897 0.16891266478757691 0.0087028773699399098 0.15556184916944049 0.11050284645823008 0.076483941277401712 0.084591724041452168 0.068781547651553782 -0.011323346057264719 0.049837822787981836 0.12599932887213844 0.053610166267307857 0.12719136598090058 0.018715989083542217 0.054477102346407624 0.11884710621956535 0.081618870361300333 0.048206660568809304 0.075570097965860436 0.16891266478757666 0.056765813595231002 0.13250134946538666 0.018715989083542217 0.0020274695608716725 0.13810309028418516 0.028729100797144545 0.13458199605522614 0.074051606448186577 0.11050284645823008 0.11884710621956535 0.052971371261655409 0.10796328913956282 0.10633071657756246 0.0087028773699399098 0.12599932887213844
leaf_weight=7.9895243644714347 268.39808411896229 2.4967263638973227 4.4941074550151816 15.479703456163405 3.2457442730665198 12.733304455876349 6.7411611825227729 3.7450895458459845 4.4941074550151816 8.2391970008611661 4.2444348186254492 2.7463990002870551 10.236578091979025 2.9960716366767874 3.9947621822357169 3.4954169094562513 8.488869637250902 3.9947621822357169 3.9947621822357169 94.875601828098297 4.2444348186254492 2.4967263638973227 11.734613910317419 10.236578091979029 4.2444348186254492 2.7463990002870551 4.7437800914049149 3.2457442730665234 4.743780091404914 3.4954169094562531 2.7463990002870551 10.73592336475849 2.7463990002870551 3.7450895458459854 7.9895243644714347 4.9934527277946472 5.2431253641843787 7.4901790916919699 39.947621822357178 2.7463990002870586 5.2431253641843885 8.9882149100303632 2.7463990002870586 4.4941074550151816 3.4954169094562513 10.73592336475849 3.7450895458459881 10.486250728368761 21.721519365906719 2.9960716366767874 6.7411611825227729 5.2431253641843796 3.2457442730665234 14.481012910604475 2.9960716366767866 3.4954169094562531 3.9947621822357178 11.734613910317426 3.2457442730665198 10.73592336475849 2.4967263638973227 3.7450895458459845 3.7450895458459836 5.9921432733535767 3.2457442730665207 4.7437800914049149 3.4954169094562531 2.4967263638973227 9.2378875464200956 3.4954169094562522 8.2391970008611661 11.984286546707155 2.9960716366767874 3.4954169094562522 3.9947621822357169 9.7372328191995603 18.226102456450462 29.461371093988419 2.9960716366767945 6.2418159097433081 5.4927980005741111 3.9947621822357169 2.9960716366767866 3.2457442730665207 2.4967263638973236 8.7385422736406309 23.718900457024578 17.97642982006073 4.9934527277946463 4.7437800914049175 11.484941273927687 3.9947621822357169 4.9934527277946463 3.4954169094562522
leaf_count=32 1075 10 18 62 13 51 27 15 18 33 17 11 41 12 16 14 34 16 16 380 17 10 47 41 17 11 19 13 19 14 11 43 11 15 32 20 21 30 160 11 21 36 11 18 14 43 15 42 87 12 27 21 13 58 12 14 16 47 13 43 10 15 15 24 13 19 14 10 37 14 33 48 12 14 16 39 73 118 12 25 22 16 12 13 10 35 95 72 20 19 46 16 20 14
internal_value=0.072405 0.0619511 0.0657376 0.0745758 0.0779425 0.0804533 0.0791181 0.0701742 0.0708222 0.0615721 0.0673972 0.0627737 0.0671752 0.0699931 0.0708161 0.0698108 0.0632093 0.0616418 0.0670477 0.0647404 0.0902382 0.0920153 0.0630923 0.0726626 0.0480648 0.0927566 0.0554307 0.0395397 0.0523043 0.0873243 0.0249742 0.036664 0.0711943 0.0279874 0.0706823 0.015771 0.0715089 0.0681155 0.0795005 0.0703892 0.0611282 0.0499752 0.0756005 0.0716899 0.0745669 0.0714356 0.0816189 0.101568 0.051858 0.0657473 0.0675299 0.111695 0.0755573 0.0589095 0.0606964 0.0878541 0.0554307 0.0511114 0.111695 0.0938143 0.0799072 0.070912 0.0827239 0.0576559 0.11667 0.115902 0.0312324 0.0446759 0.0503901 0.0707449 0.0341208 0.0765265 0.0909344 0.110772 0.0699879 0.0668182 0.0666328 0.0904032 0.0883627 0.104608 0.0831699 0.0687815 0.0924841 0.0601989 0.0905492 0.0990537 0.0899772 0.118847 0.0818421 0.100402 0.0918887 0.0622614 0.0605582 0.0631905
internal_weight=0 172.024 156.045 828.414 469.385 406.966 394.233 359.029 355.284 62.4182 54.179 49.9345 46.6888 350.79 344.049 340.054 148.056 143.562 115.349 111.354 125.835 121.591 43.9424 32.2078 14.481 17.7268 7.49018 28.213 19.7241 6.74116 15.979 13.2326 331.565 6.74116 328.819 8.48887 320.829 225.205 95.6246 217.715 78.3972 49.1855 139.317 120.342 112.353 103.614 68.1606 28.213 35.4535 24.7176 39.9476 8.73854 33.2065 17.7268 40.1973 10.4863 7.49018 29.711 24.4679 13.9817 29.2117 23.4692 19.7241 11.2353 5.74247 8.48887 7.98952 26.9646 24.4679 12.7333 12.983 90.3815 28.213 15.4797 62.1685 12.7333 58.1737 119.094 112.353 27.2143 85.1384 33.4561 51.6822 8.73854 5.74247 42.9437 34.2052 20.9725 28.7124 18.9751 16.2287 107.359 103.364 98.371
internal_count=4007 689 625 3318 1880 1630 1579 1438 1423 250 217 200 187 1405 1378 1362 593 575 462 446 504 487 176 129 58 71 30 113 79 27 64 53 1328 27 1317 34 1285 902 383 872 314 197 558 482 450 415 273 113 142 99 160 35 133 71 161 42 30 119 98 56 117 94 79 45 23 34 32 108 98 51 52 362 113 62 249 51 233 477 450 109 341 134 207 35 23 172 137 84 115 76 65 430 414 394
is_linear=0
shrinkage=1


Tree=1
num_leaves=95
num_cat=0
split_feature=2 3 7 9 10 10 4 3 10 10 10 4 4 3 6 4 4 2 4 7 3 3 1 2 0 3 10 7 6 3 10 2 3 4 6 6 9 10 7 7 3 10 1 4 4 4 4 10 7 4 3 3 9 1 3 10 10 3 10 4 10 9 2 4 4 0 0 4 4 10 0 0 3 1 4 6 7 10 1 10 0 4 10 7 3 0 0 7 4 2 4 4 4 4
split_gain=8.19641 8.6849 6.68115 4.5602 6.69637 6.5764 6.02331 5.18951 8.29714 5.21936 4.5427 4.49545 8.78289 4.20029 7.93871 6.48293 4.7033 5.7605 4.72717 4.40604 4.02951 8.69003 7.97695 3.94628 5.99758 5.10156 3.79178 4.16384 3.6786 4.58652 4.28624 3.63329 6.37494 9.37721 9.61197 8.10249 5.87251 5.33059 4.21774 3.5917 7.77157 7.68349 3.84546 3.54319 8.9674 7.49941 5.95859 6.81902 4.26303 3.54565 5.84331 3.37783 4.94571 5.9442 4.67411 3.29461 3.26855 3.25936 3.96597 3.18243 3.14437 3.93515 3.44366 3.11416 3.1068 3.08339 3.06459 3.02664 7.10669 2.96634 2.87333 3.24387 2.79292 3.50198 2.76656 2.70844 4.84428 2.66951 4.66361 5.29626 5.72619 4.32101 3.91247 3.36959 8.62688 2.99943 3.618 4.71376 2.8671 2.71086 2.51808 4.11791 2.45199 9.4703
threshold=25.160000000000004 24.095000000000002 14.3725 536.30450000000008 25641743.500000004 18987500.000000004 16936108.500000004 570.30500000000018 14280650.000000002 14920950.000000002 19312650.000000004 24172381.500000004 28335650.000000004 14.225000000000003 14.790000000000003 2464450.0000000005 3681500.0000000005 14.425000000000002 5636300.0000000009 14.851500000000003 486.40400000000005 520.23400000000004 531.97500000000014 207.26500000000001 394.54000000000008 206.21500000000003 9325500.0000000019 23.688500000000001 199.06401000000002 170.13500000000002 24794335.000000004 15.930000000000001 19.795000000000005 5792700.0000000009 21.128000000000004 19.968 19.695000000000004 2732800.0000000005 16.171500000000005 20.451500000000003 20.830000000000002 6253000.0000000009 20.860000000000003 25090274.000000004 24172381.500000004 22335634.500000004 29861434.000000004 16321350.000000002 446.58710000000008 3154650.0000000005 123.90100000000002 178.82000000000002 186.03700000000003 191.34500000000003 196.02500000000003 20917599.500000004 11438700.000000002 17.085000000000004 8715450.0000000019 11654350.000000002 13804900.000000002 22.185000000000006 20.740000000000006 3870000.0000000005 33623182.500000007 113.27000000000002 22.945000000000004 17957250.000000004 19269100.000000004 14280650.000000002 119.58500000000002 71.165000000000006 14.065000000000003 14.640000000000002 9288900.0000000019 15.094000000000001 15.522500000000003 23269465.000000004 143.83960000000005 23998629.000000004 109.59500000000001 25431143.500000004 20033467.000000004 52.751000000000012 68.155000000000015 150.13000000000002 131.80500000000004 108.44300000000001 21801933.500000004 143.64000000000001 22525899.000000004 20841166.000000004 13478250.000000002 12091450.000000002
decision_type=2 2 2 2 2 2 2 2 2 2 2 2 2 2 2 2 2 2 2 2 2 2 2 2 2 2 2 2 2 2 2 2 2 2 2 2 2 2 2 2 2 2 2 2 2 2 2 2 2 2 2 2 2 2 2 2 2 2 2 2 2 2 2 2 2 2 2 2 2 2 2 2 2 2 2 2 2 2 2 2 2 2 2 2 2 2 2 2 2 2 2 2 2 2
left_child=1 2 72 4 5 20 7 8 56 92 -11 -8 -13 -4 16 -16 -15 18 -18 -17 43 -22 74 25 67 28 27 -3 29 30 77 38 35 37 36 57 -35 -34 75 42 -41 63 -39 44 45 48 -45 64 49 50 65 -31 -53 -54 -55 -26 -5 -33 -59 -24 61 62 -36 -42 -48 -2 -63 -25 -69 -50 71 -32 -1 -74 -23 -21 -77 82 79 81 -81 -79 89 -84 -85 86 87 -86 -87 -7 91 -70 93 -9
right_child=3 26 13 6 -6 23 11 9 -10 10 -12 12 -14 14 15 19 17 -19 -20 31 21 22 59 24 55 -27 -28 -29 -30 51 70 32 33 34 60 -37 -38 39 -40 40 41 -43 -44 46 -46 -47 47 -49 69 -51 -52 52 53 54 -56 -57 -58 58 -60 -61 -62 66 -64 -65 -66 -67 -68 68 90 -71 -72 -73 73 -75 -76 76 -78 78 -80 80 -82 -83 83 84 85 88 -88 -89 -90 -91 -92 -93 -94 -95
leaf_value=-0.0056413476072938798 -0.019849656641825097 0.0087460255149487392 0.038910855311449354 -0.03171976445047666 -0.0020255666750191655 -0.024223317791498108 -0.04783327674033036 0.048889525223712559 0.038261446498368913 -0.048326831720638834 0.035836333371502264 0.076752454560875524 -0.033617751640393045 -0.089385107004502654 0.056182938672119709 0.037439917193191355 0.05562221019688799 -0.083236685212159961 -0.041691315857205397 -0.056646071140560542 0.054420753405278688 -0.009554914978357941 -0.0013592950556217149 0.072310266483779959 0.038858053610532434 -0.053119987493029708 -0.098456832206578457 -0.052350505290961885 0.065458770892312279 -0.033192994498351169 0.075853120150730202 0.045949427945061773 0.063503557049597911 -0.012145040098004474 -0.036409931891083443 0.09704697297085102 -0.096882591906647553 -0.0030457056755998596 -0.077262950975900357 0.053528417037611513 -0.021986997191889058 -0.085965842263586431 -0.084939715477241468 -0.050821700939531755 0.082132788955443972 -0.053766895335939473 0.012990844315968192 0.06562675442612613 -0.011196632227726379 0.006007902837041652 -0.085628543806168134 0.056067835499022757 -0.070613773077019951 0.043964401585162301 -0.032239325280764695 -0.020259834588502883 -0.10176490155395324 -0.01026888867070456 0.040876428931828079 0.07665639990414265 0.036551084048983551 -0.078484567765220142 0.034489048816819211 0.013788784688854971 -0.057618303392780283 0.041818050074746482 -0.019045186511730108 -0.045396124209511377 0.061033565432331821 -0.070669417496984577 0.081132275857398184 0.0075369312216004656 0.094675894035933628 0.014422100721351619 -0.073656334839863002 0.055629731045570834 -0.027299293099594876 -0.089550556304220486 0.040438274330606157 0.039173464659740226 -0.049983196570678692 -0.0034167003862178151 0.06435459515428113 -0.057102024974271942 0.043319590400536151 -0.043831393532855291 0.070302841686284437 -0.013016391483440713 0.028738889931416656 0.035953910808295554 0.060379589101869892 -0.021942556510121919 0.077049559367262044 -0.061564914298433443
leaf_weight=2.4920940399169913 7.7394272089004499 3.9924633204936972 4.4855933189392081 4.9968606829643267 352.13647677004337 7.4856965094804746 14.740193933248522 8.7211788296699542 3.4906064569950104 4.4895764589309684 2.4938762784004211 2.4955851286649686 6.4901626706123352 4.4998902976512891 3.9827930927276602 4.9932492673397055 2.4926688373088837 2.7482731193304062 2.499114602804184 3.2455918639898291 11.211886614561083 3.2466219961643201 2.4987528324127197 6.7264731675386455 3.4935891032218915 2.9962997734546652 2.7493245154619208 9.2490858733654004 3.2444650232791892 8.485945865511896 2.493862032890318 3.9920766204595557 2.9967484623193732 2.7474537789821643 2.9972223043441799 2.4976852536201468 7.9925928115844727 2.9972223043441764 3.9976095259189597 5.7446760833263388 10.489705920219427 2.9971815645694724 2.7474537789821625 8.4884040355682391 3.4952251911163321 5.9918146133422843 2.9959073066711408 3.2455662488937378 6.9881154298782331 203.4720379114151 2.7462483644485465 3.7429903894662848 2.995301440358161 4.7433445751667005 3.4949181377887726 7.2421059906482697 2.4981176555156708 24.227546960115436 4.4933015853166571 2.7411687970161438 2.4967375695705405 3.9950644224882108 3.9962964057922363 14.478742405772207 3.2455662488937378 2.7462483644485474 4.7430397123098373 2.4926322847604778 2.9892547428607967 2.9953235685825348 3.7359388172626486 5.7302269041538239 2.9905128479003906 2.4920940399169922 3.4955005496740341 2.4931822270154935 5.9962794780731201 3.4948475807905215 4.4912221133708945 5.2402689456939697 2.7439588159322739 2.4959335327148438 4.9821930825710288 3.246133744716647 11.471452772617349 2.4964483231306067 5.9844499528408042 5.490145504474639 2.9924609512090683 2.4953122287988663 10.215041622519491 2.991701602935791 2.7429491281509391 2.4960101544857016
leaf_count=10 31 16 18 20 1411 30 59 35 14 18 10 10 26 18 16 20 10 11 10 13 45 13 10 27 14 12 11 37 13 34 10 16 12 11 12 10 32 12 16 23 42 12 11 34 14 24 12 13 28 815 11 15 12 19 14 29 10 97 18 11 10 16 16 58 13 11 19 10 12 12 15 23 12 10 14 10 24 14 18 21 11 10 20 13 46 10 24 22 12 10 41 12 11 10
internal_value=0 -0.00992969 -0.00633329 0.00206442 0.00306042 0.00732189 -0.0117585 0.00242069 -0.0254119 0.0170198 -0.0182711 -0.0308403 -0.00296496 -0.00873438 -0.0102229 -0.00663373 -0.0487358 -0.0251033 0.00690262 -0.00859818 0.0028319 0.022782 -0.00682316 0.0160347 0.0303132 0.0112003 -0.0450236 -0.0339293 0.0130574 0.0113663 0.0172588 -0.0104768 -0.00716741 -0.0157515 -0.0376837 0.0102443 -0.0752055 -0.000785294 -0.0329071 -0.00566826 0.000559334 -0.0103215 -0.0422124 0.00101124 0.00263996 0.00144585 -0.020388 0.00684211 0.00290523 0.00437694 -0.0207029 -0.00798967 0.00629092 -0.0102946 0.0116365 -0.00102181 -0.0550662 0.00361673 -0.00226734 0.0394532 -0.015576 -0.023849 0.00410377 -0.00124128 -0.0237259 -0.00369859 -0.0462209 0.0435496 0.0331979 -0.0290402 0.0447709 0.028253 0.0382474 0.0581969 -0.0427887 -0.017797 -0.00294473 0.0122051 -0.00388539 -0.0181299 0.00853278 -0.0536647 0.0185753 0.0261309 0.0201198 0.0289354 0.0368778 0.0250847 -0.0042673 -0.00917865 0.0452939 0.0195285 0.0346738 0.0243116
internal_weight=0 172.031 156.04 828.06 772.405 420.268 55.6551 31.9292 10.9856 20.9436 6.98345 23.7259 8.98575 148.065 143.579 131.339 12.2399 7.74006 4.99178 127.357 277.344 23.1939 11.982 142.925 36.1508 106.774 15.9909 13.2415 103.778 100.533 77.0706 122.363 106.631 71.4201 28.9684 35.2106 10.74 42.4517 15.7327 39.455 33.7103 27.9656 5.74468 254.15 236.174 232.679 17.9754 9.48704 226.687 216.704 13.2319 23.4625 14.9766 11.2336 8.23826 10.7357 7.49498 32.7129 28.7208 5.23992 18.2284 15.7316 6.99352 24.9684 6.24147 10.4857 8.7381 25.4151 18.6886 9.98344 11.96 8.22409 7.9747 5.48261 6.74212 11.7351 8.48946 65.1105 18.4662 13.975 7.98423 5.99078 46.6443 36.6633 31.6811 28.435 22.946 16.9616 5.48891 9.98101 16.196 5.98096 13.9601 11.2172
internal_count=4007 689 625 3318 3095 1684 223 128 44 84 28 95 36 593 575 526 49 31 20 510 1111 93 48 573 145 428 64 53 416 403 309 490 427 286 116 141 43 170 63 158 135 112 23 1018 946 932 72 38 908 868 53 94 60 45 33 43 30 131 115 21 73 63 28 100 25 42 35 102 75 40 48 33 32 22 27 47 34 261 74 56 32 24 187 147 127 114 92 68 22 40 65 24 56 45
is_linear=0
shrinkage=0.05


Tree=2
num_leaves=95
num_cat=0
split_feature=2 9 7 4 3 6 4 6 0 1 7 2 10 1 9 10 10 4 3 10 10 10 4 4 4 4 2 4 3 1 3 3 1 3 0 7 6 7 10 10 7 10 9 4 4 4 3 4 4 10 0 10 10 4 10 10 4 9 2 1 10 3 4 2 6 4 10 10 10 0 0 4 4 10 7 6 4 10 10 4 10 4 4 3 4 1 0 9 10 7 1 4 4 10
split_gain=7.4019 7.84816 6.50508 4.62904 9.08861 8.75244 8.04551 6.14163 5.21348 4.43068 4.40669 6.60154 5.84138 4.48929 4.11793 6.05088 5.95244 5.43398 4.69042 7.49134 4.72531 4.09733 4.05261 7.94733 3.87148 5.45216 3.6996 4.75951 4.09473 3.96869 3.64829 7.87936 7.20757 3.43625 3.43121 3.42572 3.43369 3.83277 4.53919 3.41794 3.40999 6.97192 5.53833 3.39504 3.71035 3.50708 5.41571 3.37645 7.0954 5.08442 4.94046 4.14732 4.82971 3.66975 3.41188 5.93896 3.37124 3.19388 3.3633 4.9004 3.14368 3.21847 3.02231 5.35659 7.09188 5.48723 3.32677 6.17981 3.26605 6.55936 4.94422 5.52794 5.28212 6.58317 4.78479 4.33286 3.50755 3.24948 2.9567 2.91103 9.64727 2.89698 2.87975 5.26394 3.50462 4.19044 6.17137 4.83439 4.70919 5.74011 3.70779 3.27829 3.57437 3.07962
threshold=25.160000000000004 24.990000000000006 14.3725 5120000.0000000009 20.020000000000003 19.968 4817900.0000000009 21.128000000000004 19.955000000000002 15.200000000000001 16.171500000000005 17.055000000000003 5429000.0000000009 19.840000000000003 536.30450000000008 25641743.500000004 18987500.000000004 16936108.500000004 570.30500000000018 14280650.000000002 14920950.000000002 19312650.000000004 24172381.500000004 28335650.000000004 44706163.500000007 40540251.000000007 17.840000000000003 2464450.0000000005 14.225000000000003 19.270000000000003 486.40400000000005 520.23400000000004 531.97500000000014 23.255000000000006 22.945000000000004 20.097500000000007 21.646000000000004 21.150500000000005 3224850.0000000005 4498250.0000000009 338.97300000000001 8456550.0000000019 333.51500000000004 2888750.0000000005 3390300.0000000005 3681500.0000000005 14.805000000000001 13303600.000000002 11289850.000000002 13657100.000000002 420.19000000000005 10063150.000000002 11881850.000000002 14227550.000000002 15669900.000000002 16795550.000000004 4952550.0000000009 21.565000000000001 21.305000000000003 22.945000000000004 7363350.0000000009 18.720000000000002 21970300.000000004 108.66000000000001 97.413800000000023 31842700.000000004 23998629.000000004 21774842.500000004 20537706.500000004 191.48000000000002 107.95000000000002 16756595.500000002 16593171.000000002 23441355.000000004 196.80485000000002 394.63800000000009 19950200.000000004 20537706.500000004 11438700.000000002 3775300.0000000005 3673500.0000000005 11654350.000000002 3154650.0000000005 123.90100000000002 16593171.000000002 258.66000000000003 209.74000000000004 192.14650000000003 13454750.000000002 58.310250000000003 51.230000000000011 32830532.000000004 24926344.000000004 16058007.500000002
decision_type=2 2 2 2 2 2 2 2 2 2 2 2 2 2 2 2 2 2 2 2 2 2 2 2 2 2 2 2 2 2 2 2 2 2 2 2 2 2 2 2 2 2 2 2 2 2 2 2 2 2 2 2 2 2 2 2 2 2 2 2 2 2 2 2 2 2 2 2 2 2 2 2 2 2 2 2 2 2 2 2 2 2 2 2 2 2 2 2 2 2 2 2 2 2
left_child=1 2 -1 6 5 9 26 8 -6 -5 12 -12 -11 60 15 16 30 18 19 78 -20 -22 -19 -24 25 62 28 -28 -4 -29 40 -32 -33 34 57 39 37 38 -37 -31 42 -42 82 -30 -45 -46 -47 48 50 -50 -43 -52 -53 -49 -55 -56 -8 -9 -59 -60 61 -13 68 64 65 66 67 77 69 -18 71 -70 75 -74 76 -72 -75 -64 -16 -38 -81 -34 83 -2 -84 86 87 88 -86 90 -90 92 -91 -94
right_child=14 -3 3 4 7 -7 56 33 -10 10 11 13 -14 -15 17 -17 24 22 20 -21 21 -23 23 -25 -26 -27 27 29 43 35 31 32 81 -35 -36 36 79 -39 -40 -41 41 47 -44 44 45 46 -48 53 49 -51 51 52 -54 54 55 -57 -58 58 59 -61 -62 -63 63 -65 -66 -67 -68 -69 70 -71 72 -73 73 74 -76 -77 -78 -79 -80 80 -82 -83 84 -85 85 -87 -88 -89 89 91 -92 -93 93 -95
leaf_value=0.036450365962141705 -0.0035130884665387462 -0.074652768512038448 0.031045523584081899 -0.047863255518834018 -0.0094802422502233349 0.078232107315647587 0.067618407012471807 0.015389742242608313 -0.083123383151132393 -0.019582994660459527 -0.054176338638513094 0.0359547150249169 0.071669874942139236 -0.048367288841740262 -0.030124829783767217 -0.0019241497013259411 0.0022414999217069231 -0.045422603574262477 0.033047202338349402 0.036428950773548442 -0.045851935004033173 0.034108823597547813 0.073218313569991464 -0.031915260812529996 -0.031769139151042104 0.090310754202578836 0.053618810396386218 0.057262603765437237 -0.066824079653700491 -0.0029731062938010643 0.051905291741600107 -0.040641124528449951 -0.0012913053108523738 -0.042418558108414883 0.033118377976666981 0.058962899217871914 -0.036473868554996382 0.074898980623826994 -0.017754723349500408 -0.08378397802999818 0.056206098527393514 0.029386699429945984 0.060601862771735182 0.027033080994754568 -0.072214799802279253 0.031184617126352645 -0.039193824641037364 0.036294926216530611 -0.087981041068269608 -0.015741153684344332 -0.084036459950416142 0.03448867367235503 -0.05355413296655414 -0.02635395699845058 0.058751576697461616 -0.021377093070284854 0.01089812061474423 -0.083210251826337359 0.036721955675085932 -0.056462132428136635 0.058280636504602329 -0.03588613740663562 0.0040897556757292621 0.032732585680576839 -0.051506853013430665 -0.047387652433666938 0.062884909418943508 -0.037844392450530978 -0.016887497847079193 0.061148579213115478 0.043952999025416592 0.052155294372672571 -0.037158595476991373 -0.049089316580917086 0.074726510251438616 -0.030209521462566443 0.029179203943259152 0.078093886798241891 -0.09676077218229838 0.079718667237932306 -0.023226799351627803 0.073242737053898027 0.0095237988073440458 -0.081234782376959913 -0.034562354810004942 -0.050360689064993816 0.058490976987542513 -0.043181700195516509 -0.0037195170914724228 0.020201749356506225 -0.083513090488766553 0.064112359498036148 0.017585399719025386 -0.056263795475255764
leaf_weight=7.9508199095726004 10.485155418515204 4.4929085075855246 3.2312522530555752 5.7428383231163016 3.2474844157695761 3.2341041266918173 5.2381376028060895 4.2460911571979585 9.244825214147566 2.9938172101974514 6.2428965270519283 3.2479198873043043 4.2338407188653946 2.7468236982822409 4.9982959777116793 352.16113129258156 12.224029570817949 14.746132627129557 13.916690766811373 3.4830722510814667 4.4951403737068167 2.4892880022525787 2.4854744076728803 6.4944279342889786 4.2458251863718024 2.4707771539688101 3.9650316238403311 2.4979139268398276 4.7448331117630032 2.4974976927041999 11.168544977903368 6.7433711588382703 2.4987977892160416 11.981815129518507 3.9904331415891638 2.7427001148462278 8.496484190225603 2.4927737414836875 6.4916854798793793 2.7483897507190704 3.7443257570266715 5.9904313087463406 4.2421053051948538 3.493334352970126 3.7468618601560619 3.9782349020242682 8.7361971586942655 4.9925772249698666 6.240586966276167 3.9949680864810944 2.4961661398410779 3.2445478141307831 2.9960022121667862 14.229482144117357 3.9939136207103711 5.4927454143762589 5.2406892776489258 2.748264864087103 2.496054396033287 3.2451814562082291 3.9913809597492218 2.9980798959732056 2.7412119507789665 45.298240259289742 4.737808719277381 2.7461972683668128 4.9704696238040915 3.736769825220108 4.4796836078166953 7.7040029168128958 6.9660368114709836 8.2167818993329984 17.956866547465328 2.7448587566614133 2.4902312904596329 2.7457310110330582 2.9914577007293701 3.2325750589370728 2.4959465265274048 2.9940102398395529 9.4867837876081449 2.725847914814949 118.31101834774017 2.7499054223299018 7.9900218397378913 4.7445008754730216 3.9920532256364814 7.4913435727357855 3.4929519444704047 21.712342575192459 2.4963197261095047 3.2385630309581748 2.4979148209094992 3.2464671730995178
leaf_count=32 42 18 13 23 13 13 21 17 37 12 25 13 17 11 20 1411 49 59 56 14 18 10 10 26 17 10 16 10 19 10 45 27 10 48 16 11 34 10 26 11 15 24 17 14 15 16 35 20 25 16 10 13 12 57 16 22 21 11 10 13 16 12 11 182 19 11 20 15 18 31 28 33 72 11 10 11 12 13 10 12 38 11 474 11 32 19 16 30 14 87 10 13 10 13
internal_value=0 -0.00943905 -0.00768881 -0.00988971 -0.0187463 -0.000178207 -0.00169513 -0.0347147 -0.0639792 -0.00805417 0.000587644 -0.0119241 0.0338714 0.00839114 0.00196297 0.00290939 0.00696277 -0.0111788 0.00230581 -0.0241587 0.016205 -0.0173535 -0.0292968 -0.00281619 0.0152602 0.0167024 -0.00762612 0.00134054 -0.0218842 -0.00378415 0.00269203 0.0217003 -0.00648698 -0.0219801 -0.00733891 -0.00780229 -0.00178578 0.0198825 0.00503114 -0.045311 0.000961311 -0.00975919 0.00409072 -0.0288086 -0.0197693 -0.0297014 -0.017173 -0.0143612 -0.0278102 -0.0597856 -0.00558683 -0.0295668 -0.00777947 -0.00266707 -0.0108691 0.0123573 0.0392514 -0.0200154 -0.0377235 -0.0159495 0.0236202 0.00147111 0.0153649 0.0228772 0.00273591 0.0174825 0.0296169 0.0125883 0.00796848 0.0250145 0.000977709 0.027795 -0.00850781 -0.0201891 0.0168517 0.0229856 -0.00827271 0.0441354 -0.0523178 -0.0138993 0.00146873 0.0375952 0.00284506 -0.0196617 0.0045072 -0.00523821 -0.00142605 -0.00601126 0.000221738 0.00779783 -0.0369774 0.0165344 0.0109225 -0.0241509
internal_weight=0 171.898 167.405 159.455 76.6319 35.4317 82.8228 41.2001 12.4923 32.1976 26.4548 19.2271 7.22766 12.9842 827.708 772.104 419.943 55.6045 31.8784 10.9773 20.9011 6.98443 23.726 8.9799 142.7 138.454 72.344 44.4133 27.9307 40.4482 277.243 23.1366 11.968 28.7078 16.726 37.9503 32.7044 11.7272 9.23439 5.24589 254.106 57.4157 196.691 24.6995 19.9546 16.4613 12.7144 53.6714 24.9627 10.2356 14.7271 8.73672 6.24055 28.7087 23.7161 9.48666 10.4788 12.7356 8.4895 5.74124 10.2374 6.246 135.983 67.4633 22.165 17.4272 14.681 9.71056 68.5197 19.928 48.5916 12.6965 35.8952 26.1834 8.22655 9.71177 5.73632 5.97379 7.49424 20.9773 12.4808 5.22465 192.449 13.2351 179.213 60.9025 56.158 52.1659 44.6746 36.6846 5.98927 30.6953 27.4567 5.74438
internal_count=4007 689 671 639 307 142 332 165 50 129 106 77 29 52 3318 3095 1684 223 128 44 84 28 95 36 573 556 290 178 112 162 1111 93 48 115 67 152 131 47 37 21 1018 230 788 99 80 66 51 215 100 41 59 35 25 115 95 38 42 51 34 23 41 25 546 271 89 70 59 39 275 80 195 51 144 105 33 39 23 24 30 84 50 21 771 53 718 244 225 209 179 147 24 123 110 23
is_linear=0
shrinkage=0.05


Tree=3
num_leaves=95
num_cat=0
split_feature=2 9 7 8 4 9 9 10 10 4 8 4 4 4 10 4 4 2 3 3 3 10 4 4 7 3 3 8 4 4 3 4 1 10 4 7 0 0 4 4 4 9 4 10 1 7 10 3 10 4 4 10 10 0 4 0 10 3 4 0 2 10 4 9 1 9 8 3 10 7 10 1 9 10 10 7 7 8 0 10 3 10 7 0 3 0 2 0 10 10 10 7 4 8
split_gain=6.68857 7.11608 5.8853 4.76737 5.51977 5.38414 3.72121 5.4695 5.4809 4.90807 6.15599 5.0506 4.88421 6.89885 3.95764 4.14111 5.80048 4.35755 3.82166 6.32745 6.95164 5.3467 3.65768 7.20563 3.62167 3.35659 5.90299 5.03559 3.66237 3.31692 4.02525 5.32768 3.15993 3.12728 5.03305 10.3586 9.9601 3.15026 3.03968 9.62708 6.51772 6.61371 6.39529 3.23024 2.97205 2.97116 2.93155 4.67535 4.14338 4.04805 6.03561 4.14073 9.2061 8.2658 6.16997 5.35062 3.83891 3.8493 3.63584 3.68182 3.9099 6.95675 3.56257 3.29081 3.7363 5.5475 4.3336 7.7372 4.29292 6.67299 4.63472 3.40246 6.92989 3.27122 3.22536 2.91555 5.71104 6.12316 5.02929 4.66386 4.45293 4.25091 2.66412 3.5068 2.66188 4.00462 2.6435 5.90892 3.46905 2.63453 2.61868 2.58757 3.67479 2.56598
threshold=25.160000000000004 24.990000000000006 14.3725 24.056250000000002 4886800.0000000009 23.490000000000006 536.30450000000008 25641743.500000004 19656550.000000004 16936108.500000004 560.32155 11289850.000000002 12377050.000000002 13478250.000000002 20537706.500000004 44706163.500000007 22525899.000000004 439.88000000000005 486.40400000000005 520.23400000000004 523.62500000000011 12604750.000000002 24172381.500000004 28335650.000000004 187.47200000000004 14.225000000000003 15.860000000000001 15.232000000000003 2464450.0000000005 3681500.0000000005 14.805000000000001 4382900.0000000009 606.04000000000008 24600556.000000004 16593171.000000002 80.337055000000007 144.20500000000001 173.49500000000003 25090274.000000004 24172381.500000004 29861434.000000004 67.145000000000024 22335634.500000004 15376850.000000002 15.200000000000001 446.58710000000008 4733300.0000000009 114.65500000000002 3224850.0000000005 11049600.000000002 11654350.000000002 14524800.000000002 14132900.000000002 59.550000000000004 12922450.000000002 336.91000000000003 3940250.0000000005 53.795000000000009 10610250.000000002 420.19000000000005 30.270000000000007 6253000.0000000009 4382900.0000000009 73.965000000000018 393.64495000000005 374.77000000000004 206.75930000000002 204.35500000000005 15985550.000000002 193.25900000000004 16637050.000000002 188.215 143.74500000000003 17538573.000000004 14524800.000000002 54.736500000000014 66.141500000000008 96.421000000000006 43.995000000000012 9472150.0000000019 345.59500000000008 5901300.0000000009 153.30900000000005 86.365000000000023 24.73 24.310000000000006 95.980000000000018 46.390000000000008 4314450.0000000009 18333183.000000004 2610900.0000000005 14.643000000000002 2990550.0000000005 110.6315
decision_type=2 2 2 2 2 2 2 2 2 2 2 2 2 2 2 2 2 2 2 2 2 2 2 2 2 2 2 2 2 2 2 2 2 2 2 2 2 2 2 2 2 2 2 2 2 2 2 2 2 2 2 2 2 2 2 2 2 2 2 2 2 2 2 2 2 2 2 2 2 2 2 2 2 2 2 2 2 2 2 2 2 2 2 2 2 2 2 2 2 2 2 2 2 2
left_child=1 2 -1 25 5 -5 7 8 18 10 11 -8 -12 -14 24 16 17 33 38 -20 -21 -22 -11 -24 82 -4 29 -28 -29 91 31 -31 -15 34 36 -36 -16 -35 39 42 -40 -42 45 -43 -32 46 47 56 -49 58 74 52 54 73 55 -52 57 -2 59 60 61 -48 90 -55 65 66 67 68 -65 70 -70 72 89 -53 -51 78 -77 -78 79 81 -79 -62 83 -10 85 -30 87 88 -58 -72 -59 -27 -93 -18
right_child=6 -3 3 4 -6 -7 9 -9 14 22 12 -13 13 32 15 -17 93 -19 19 20 21 -23 23 -25 -26 26 27 28 84 30 44 -33 -34 37 35 -37 -38 -39 40 -41 41 43 -44 -45 -46 -47 49 48 -50 50 51 53 -54 63 -56 -57 86 62 -60 -61 75 -63 -64 64 -66 -67 -68 -69 69 -71 71 -73 -74 -75 -76 76 77 80 -80 -81 -82 -83 -84 -85 -86 -87 -88 -89 -90 -91 -92 92 -94 -95
leaf_value=0.034736991882044994 0.050603479686961189 -0.07119680464163429 0.036032221820050225 0.055691013211885659 -0.06370444769452635 -0.038002215299979054 -0.057690144892553842 -0.0018278212230232065 -0.0051159592110916067 -0.043181207699759062 0.042952068907467923 0.010865070745936239 -0.066385798667959003 0.053607055607823723 -0.027523895402461224 -0.038168020678109787 0.011147726314528948 -0.054227037435639371 0.049566655531696271 -0.065286441898486577 -0.006464775960109386 0.075099456321417513 0.070029185198855579 -0.030316254710410398 0.071402101412488636 -0.094605370388750235 0.052564348340194827 0.045802271021431265 -0.0070795288511091448 0.060608408630754632 -0.065024628881129184 -0.028543139092064518 -0.011492741837660124 0.075528510669480436 0.054780718611910341 -0.022343514915193603 0.069508238599846423 0.0075405650335845613 -0.047630672210219362 0.079863732797771828 -0.061418888061206801 -0.012051638124179182 -0.043323249568840837 0.054950307644853459 -0.015328283523839246 -0.02348617364769583 -0.064597839750100819 -0.012380754025164781 -0.086552184978471142 -0.015998660072018441 0.015311684722005253 -0.010591494312361172 -0.063998907433008692 0.055800671455195877 0.0093355021971048332 -0.076946679482147617 -0.044357163584919049 -0.019630430441879079 0.053926656934950815 -0.023289230209811693 -0.004477776760480395 0.025582254734329797 -0.050023279025344328 -0.019728434058214377 0.055018180233777247 -0.062993857944359452 0.035794998542160575 -0.064061657125308577 0.060150320060866042 0.095486970487922596 0.0024131012167617123 -0.049157599122928344 0.053634581043411733 -0.084729681348456098 -0.086410609577276878 -0.02752458422954809 0.095887385294325486 -0.00045432793907996844 0.095722328222220279 -0.031805078119398762 0.059192327245957299 0.062322293227986707 -0.023867278276044113 0.058506047276903762 -0.051155986417636072 0.045638316238105194 0.023023599601866666 -0.079242722037745406 0.034060725155942932 -0.053636296405915967 0.040714038197134143 0.0027887753540375257 -0.077348659237100492 0.033621906827089494
leaf_weight=7.9264557957649222 5.4907145649194744 4.4758422374725333 4.4647313654422751 2.4897008389234534 8.2292989343404752 3.9917865693569183 6.2354670912027377 352.18388456106186 3.4880873113870638 14.736173719167711 10.164635673165323 4.7204187661409378 3.2385714650154096 3.7231235206127167 4.4832751154899579 3.9980097562074652 20.363626956939697 3.2488916367292395 11.11213392019272 3.2434383183717719 6.227126404643057 2.9663112461566925 2.4691288173198682 6.495090663433075 5.4219638258218756 2.7389131933450717 3.9537887573242179 3.4495987296104422 97.520500272512436 3.2203969955444363 4.7382339537143698 3.4939174354076385 3.7331080287694931 2.9770185053348532 5.2124194204807308 26.427322417497635 6.4488327652215958 3.9838753193616867 9.493873596191408 3.9721404165029517 2.496523052453993 2.7453449219465256 7.742460072040557 5.2178040742874146 8.2409638315439206 10.239289820194243 3.7425110489130002 4.4893028438091269 3.2430633902549744 3.9921244382858267 2.4942766577005377 3.2459137439727774 6.2395280897617331 4.9903290867805472 35.686517179012299 4.2482742071151733 2.4953470379114133 2.9971195310354215 5.9860359430313101 6.2376122772693625 3.4930103123188037 4.9900147318840027 2.7445081025362015 8.232588514685629 4.983911231160163 2.4978263676166526 15.200296327471731 3.7424181699752799 4.2406296581029954 2.7416332811117163 6.9842548966407794 2.7455856204032889 5.9856646209955207 2.7471019178628922 2.7445004433393478 6.4873588234186199 2.7448477745056179 11.973889887332918 3.2435095757246009 2.7445081025362006 4.2360288500785819 7.485022097826004 2.4944525212049475 5.7138248085975647 3.2422794103622428 3.7405207157135001 2.7448477745056143 3.9930308014154434 3.2435095757246017 2.9958080053329468 4.4928725510835648 2.9919507056474686 2.7411982417106628 33.750734388828278
leaf_count=32 22 18 18 10 33 16 25 1411 14 59 41 19 13 15 18 16 82 13 45 13 25 12 10 26 22 11 16 14 391 13 19 14 15 12 21 106 26 16 38 16 10 11 31 21 33 41 15 18 13 16 10 13 25 20 143 17 10 12 24 25 14 20 11 33 20 10 61 15 17 11 28 11 24 11 11 26 11 48 13 11 17 30 10 23 13 15 11 16 13 12 18 12 11 136
internal_value=0 -0.00897887 -0.00731308 -0.0094061 -0.0365232 -0.00201231 0.00186687 0.00276635 0.00662324 -0.0106363 0.00219522 -0.0281527 0.0181347 -0.00545247 0.0152474 0.0117932 0.0136618 0.00186852 0.00283587 0.0221474 -0.00235117 0.0198524 -0.0278612 -0.00267684 0.0376235 -0.00664615 -0.0080065 -0.00285704 -0.00488686 -0.0284662 -0.0172121 0.0142168 0.0210136 0.00554787 0.000467695 -0.00963785 0.0297152 0.0366175 0.00113863 0.00264924 -0.0176359 0.00958925 0.00139234 0.031851 -0.0334706 0.00285761 0.00405096 -0.00904594 -0.0434893 0.0065266 0.0013676 0.00395284 -0.00729157 0.0116245 0.00104769 -0.0428175 0.00039769 0.0168295 0.0168454 0.0129769 0.0174003 -0.0130664 -0.00128986 0.0167791 0.0135524 0.00981985 0.01326 0.00416649 0.0116928 0.0217606 0.0129539 0.00225756 0.0110993 -0.0445752 -0.0446845 0.0236738 0.0129681 0.0268268 0.0397282 0.0264932 0.0151327 0.0410677 0.0219652 0.0343894 -0.00656008 -0.00513216 -0.0203124 -0.0325352 -3.66325e-05 -0.0144118 0.0165672 -0.0546266 -0.0355274 0.0251647
internal_weight=0 171.65 167.174 159.248 14.7108 6.48149 827.206 771.691 419.507 55.5157 31.8153 10.9559 20.8594 10.6948 128.012 110.894 106.896 52.7816 291.494 23.549 12.4369 9.19344 23.7004 8.96422 17.1183 144.537 140.072 111.907 107.953 28.1656 19.6935 6.71431 7.45623 49.5327 42.5718 31.6397 10.9321 6.96089 267.945 247.992 19.9535 10.4597 244.02 7.96315 12.9792 236.277 226.038 35.9343 7.73237 190.104 126.739 120.003 48.6686 71.334 42.4291 6.74255 28.2019 15.7252 63.3643 57.3783 51.1407 8.73253 10.2345 65.3409 60.3506 55.3667 52.8689 37.6686 33.9262 25.6936 22.9519 18.7113 15.9657 5.99302 6.73662 42.4082 25.4421 18.9548 16.9661 13.7225 16.2099 10.978 11.6964 9.20191 104.503 101.261 12.4767 9.73189 5.73886 9.98006 7.48999 8.47206 5.73315 54.1144
internal_count=4007 689 671 639 59 26 3318 3095 1684 223 128 44 84 43 515 446 430 212 1169 95 50 37 95 36 69 580 562 449 433 113 79 27 30 199 171 127 44 28 1074 994 80 42 978 32 52 947 906 144 31 762 508 481 195 286 170 27 113 63 254 230 205 35 41 262 242 222 212 151 136 103 92 75 64 24 27 170 102 76 68 55 65 44 47 37 419 406 50 39 23 40 30 34 23 218
is_linear=0
shrinkage=0.05


Tree=4
num_leaves=95
num_cat=0
split_feature=2 9 10 10 6 1 6 0 9 9 8 8 3 2 4 9 10 10 4 8 4 4 4 10 4 4 2 3 3 3 10 1 3 2 3 6 2 4 10 8 4 10 4 4 4 1 0 10 1 4 4 4 6 4 10 0 10 10 6 4 4 6 2 10 4 4 8 0 4 8 8 10 1 10 10 10 4 10 4 4 10 4 10 10 10 10 10 10 8 8 2 4 10 3
split_gain=6.04497 6.62593 6.76511 6.48053 6.25457 7.24458 3.9446 8.16757 4.96144 4.40598 4.90843 3.56741 4.14943 6.21415 4.90561 3.36479 4.94759 4.95996 4.43785 5.5693 4.57069 4.42926 6.2455 3.59982 3.74108 5.24753 3.93574 3.46715 5.75365 6.29728 4.87343 3.44213 3.35458 3.31786 5.99304 3.31421 5.69245 5.37264 5.43873 6.48469 4.54472 7.95371 4.3046 3.30456 6.54443 3.26738 4.9206 2.93736 2.86674 2.7472 8.76562 5.88416 5.97777 5.77209 2.95035 2.73234 3.55922 2.7128 2.67006 3.66684 2.893 2.6938 3.88943 2.6569 3.33747 2.62372 2.52537 3.854 2.50552 4.79916 2.69103 4.89729 4.34517 4.08001 6.85134 3.69997 2.9435 2.90335 3.91858 11.0841 5.63754 3.1092 3.60809 4.34612 2.41863 3.47651 5.47555 2.36722 2.48394 6.8107 4.88516 9.46847 8.48569 6.98856
threshold=25.160000000000004 21.565000000000001 10063150.000000002 16795550.000000004 21.128000000000004 21.410000000000004 22.679000000000006 22.580000000000002 22.990000000000006 23.490000000000006 23.834750000000003 14.456500000000004 14.225000000000003 15.930000000000001 2464450.0000000005 536.30450000000008 25641743.500000004 19656550.000000004 16936108.500000004 560.32155 11289850.000000002 12377050.000000002 13478250.000000002 20537706.500000004 44706163.500000007 22525899.000000004 439.88000000000005 486.40400000000005 520.23400000000004 523.62500000000011 12604750.000000002 175.77000000000001 17.085000000000004 21.305000000000003 22.185000000000006 220.32000000000002 152.92000000000004 18525752.000000004 22694350.500000004 88.723250000000021 16593171.000000002 23580624.000000004 16936108.500000004 24172381.500000004 28335650.000000004 144.48490000000004 86.365000000000023 5743350.0000000009 606.04000000000008 25090274.000000004 24172381.500000004 29861434.000000004 67.121000000000024 22335634.500000004 16481300.000000002 24.310000000000006 5429000.0000000009 5429000.0000000009 15.739000000000003 2888750.0000000005 5120000.0000000009 15.094000000000001 14.760000000000002 4176300.0000000005 7352850.0000000009 5993500.0000000009 166.48406750000001 199.51000000000002 3154650.0000000005 118.25462500000002 330.92980000000006 8456550.0000000019 328.96555000000006 15669900.000000002 16795550.000000004 17919500.000000004 18824150.000000004 11650150.000000002 12922450.000000002 11049600.000000002 10063150.000000002 16936108.500000004 13657100.000000002 14280650.000000002 25163500.000000004 20537706.500000004 17404900.000000004 25807750.000000004 112.90425000000003 113.38787500000002 145.41000000000003 47922950.000000007 49667750.000000007 140.68500000000003
decision_type=2 2 2 2 2 2 2 2 2 2 2 2 2 2 2 2 2 2 2 2 2 2 2 2 2 2 2 2 2 2 2 2 2 2 2 2 2 2 2 2 2 2 2 2 2 2 2 2 2 2 2 2 2 2 2 2 2 2 2 2 2 2 2 2 2 2 2 2 2 2 2 2 2 2 2 2 2 2 2 2 2 2 2 2 2 2 2 2 2 2 2 2 2 2
left_child=1 4 6 -4 5 11 7 33 -8 57 55 65 -13 58 -15 16 17 27 19 20 -17 -21 -23 31 25 26 35 49 -29 -30 -31 45 -16 -3 -35 36 37 -25 -39 -40 -38 -42 -37 84 -45 46 -19 -12 -24 50 53 66 -53 68 -54 -11 -57 -10 59 -14 -60 62 -61 -6 -65 -1 -51 -68 69 -2 72 -72 -70 76 -75 -76 77 78 79 80 -73 82 -79 -84 85 86 -20 -18 -89 -90 91 92 93 -91
right_child=15 2 3 -5 63 -7 8 -9 9 10 47 12 13 14 32 18 87 23 43 21 -22 22 48 24 -26 -27 -28 28 29 30 -32 -33 -34 34 -36 42 40 38 39 -41 41 -43 -44 44 -46 -47 -48 -49 -50 51 -52 52 54 -55 -56 56 -58 -59 60 61 -62 -63 -64 64 -66 -67 67 -69 70 -71 71 73 -74 74 75 -77 -78 81 -80 -81 -82 -83 83 -85 -86 -87 -88 88 89 90 -92 -93 -94 -95
leaf_value=0.0099316547401629568 -0.000399956030202573 -0.063182966881202438 -0.095585587756274709 0.0018311987716610415 0.078056171848672321 -0.060805011082091222 -0.063224555150636005 0.069958526000484231 0.046347123020691876 -0.028209540818132813 -0.034505940646369679 0.039985881133799403 -0.059772596318195675 0.068968089313418302 0.043927724832715419 -0.054930938074233063 -0.040004140089073346 -0.0048588944804194845 -0.061843327099540962 0.040978711817872479 0.010327857534507842 -0.063269055114826653 0.051153146027145185 -0.010345450942361098 -0.036263825184896986 0.023957493836449236 -0.051543820163381104 0.047382674773520532 -0.062258844198573284 -0.0061406213538337832 0.071944287642160806 0.064998927325035857 -0.0038685150090309248 0.060621669141571827 -0.029883865026284519 0.067558895312819764 0.035925773031515888 0.082252017561656399 0.070702504600592533 -0.02964335329567467 -0.062071709571267564 0.016290131597917354 0.0036279209106078779 0.067129479306587025 -0.028811429413210184 -0.021274358854230572 0.077853834930199761 -0.093916666852971342 -0.01091234966609954 -0.073936559321684414 0.076504236667391215 -0.058355006264411924 0.0018673991797923438 -0.041152146661695518 0.062967039927127141 -0.019028829008182646 0.063561636201197411 -0.020152921577073907 -0.019936790182877803 -0.010916526417966171 -0.09614097281402588 0.016359999005555466 -0.078761111249916929 -0.022878529928081245 0.057105281505478757 0.070204158204080741 0.022887988739513393 -0.062937297975850001 0.0062865652658275943 -0.068769941568841392 0.046758243721480443 -0.030692092969616804 0.072912228202599336 0.053412890963882909 -0.046961477824316589 0.017259038879911131 0.03035229507391813 -0.04681723842619543 0.032917065333742349 -0.08547575306929707 0.056352392755063256 -0.083077734352024216 0.040550255624830424 -0.032145591232640873 0.0037811949636013665 -0.09464995959006943 0.020979272576402284 0.0039140722501953681 -0.082910708080282475 -0.0085340721648795911 0.0026229332839900928 0.010111877322915273 -0.068212011792575689 -0.066479396161499046
leaf_weight=5.4361265748739225 9.7322619557380659 2.7450006306171408 5.4738367944955817 2.480965256690979 2.9883721023797971 5.4823908507823935 6.7413447052240363 3.742144599556922 3.9791040271520641 4.7350861132144946 8.7167500555515272 4.9435933530330649 4.4693402498960522 2.6941522955894461 3.9741464704275122 6.2215640544891375 3.9953688681125632 3.4889730513095873 5.9851405620574969 10.122479110956194 4.7177278399467468 3.2284387201070768 3.70704086124897 10.449829518795015 3.9975454509258261 54.002598792314529 3.2471433877944937 11.044806674122812 3.2313918471336356 6.2280315756797773 2.9421762228012085 6.3690163493156424 48.134947389364243 2.7441966682672483 5.485104113817215 4.434913828969 2.7194720059633282 4.4688915461301786 2.7058237940073013 3.9755332618951797 9.2430471032857877 4.9843870848417273 6.4803905338048935 2.4475336670875532 6.49266417324543 3.4738574326038361 3.7102110981941223 2.7327443659305564 3.7350251525640488 4.2455566227436083 3.940024033188819 2.4962085485458356 4.2378237992525101 7.7433349639177314 3.7014777809381485 2.4911272376775742 2.738457664847374 2.4953594356775284 2.4876642376184455 13.897192522883421 2.4941950887441635 6.7208060175180426 2.4911761134862891 2.4937606602907181 2.7341984361410141 2.7035758495330811 2.4975278377532959 2.7464508265256882 160.53974199295044 3.4860808700323096 4.2312674820423117 3.4907770454883593 2.4850507527589789 6.2130752354860297 4.4918382763862592 4.4793870598077774 2.9948343634605399 9.7233006358146721 4.7396327704191199 4.24566251039505 3.9821186661720276 2.7482705116271964 3.4959502667188627 4.9915849268436432 2.4941161125898352 3.239616096019744 2.9937817454338074 138.0229054838419 2.7485129088163367 39.195598274469376 123.80813567340374 28.934457376599312 9.4999413639307004 5.9999788999557486
leaf_count=22 39 11 22 10 12 22 27 15 16 19 35 20 18 11 16 25 16 14 24 41 19 13 15 42 16 218 13 45 13 25 12 26 193 11 22 18 11 18 11 16 37 20 26 10 26 14 15 11 15 17 16 10 17 31 15 10 11 10 10 56 10 27 10 10 11 11 10 11 644 14 17 14 10 25 18 18 12 39 19 17 16 11 14 20 10 13 12 553 11 157 496 116 38 24
internal_value=0 -0.00854015 -0.0224133 -0.065203 -0.0015758 -0.00483544 -0.0155155 0.00616992 -0.024731 -0.0154262 -0.0263539 -0.00178062 -0.00457873 -0.00710048 0.00317819 0.00177644 0.00263147 0.00630405 -0.0101275 0.00209195 -0.0267871 0.0172854 -0.00519107 0.0145174 0.0112244 0.0130034 0.0017805 0.00269985 0.0211367 -0.00223793 0.0189122 0.0359098 -0.000223292 -0.0155815 0.000296705 0.00528118 -0.00160606 0.0154133 0.0395539 0.0109948 -0.0232984 -0.0346187 0.0296032 -0.0265208 -0.00254595 0.0185512 0.0377684 -0.048686 0.0200037 0.00108495 0.00252142 -0.0167766 0.00913406 0.00132586 0.0303534 -0.000694151 0.0242194 0.020717 -0.0244008 -0.0183153 -0.0580888 -0.0102974 -0.0212295 0.0404493 0.0189526 0.029951 -0.0452701 -0.0220616 0.00271918 -0.0184312 0.0039737 -0.00509607 0.00730217 -0.00904254 0.0130546 -0.0148958 -0.0173452 -0.0211629 -0.00544554 -0.0209615 0.0156917 -0.033505 -0.0260237 -0.00220273 -0.0410893 -0.0502485 -0.0342283 -0.00173632 -0.00129724 -0.00471934 -0.00368332 -0.0130193 -0.0252559 -0.0162267
internal_weight=0 171.447 57.3012 7.9548 114.146 105.929 49.3464 14.7164 34.63 27.8886 21.4142 100.447 92.3072 87.3636 54.8032 826.467 771.082 418.877 55.3851 31.7323 10.9393 20.793 10.6705 127.752 110.71 106.712 52.7094 291.126 23.4464 12.4016 9.17021 17.0421 52.1091 10.9743 8.2293 49.4623 38.547 21.6001 11.1502 6.68136 16.9469 14.2274 10.9153 23.6529 8.9402 10.673 7.19918 11.4495 7.44207 267.679 247.754 19.925 10.4355 243.814 7.9393 9.96467 5.22958 6.47446 32.5604 27.5785 4.98186 23.1092 16.3884 8.21633 5.22796 8.1397 9.48954 5.24398 236.071 13.2183 222.852 59.8277 163.025 55.5964 15.1843 8.97123 40.4121 37.4173 16.4582 11.7186 7.4729 20.9591 18.2108 8.48754 14.7127 12.2185 8.97892 352.205 348.21 210.187 207.438 83.63 54.6955 45.1956
internal_count=4007 689 230 32 459 426 198 59 139 112 86 404 371 351 220 3318 3095 1684 223 128 44 84 43 515 446 430 212 1169 95 50 37 69 209 44 33 199 155 87 45 27 68 57 44 95 36 43 29 46 30 1074 994 80 42 978 32 40 21 26 131 111 20 93 66 33 21 33 38 21 947 53 894 240 654 223 61 36 162 150 66 47 30 84 73 34 59 49 36 1411 1395 842 831 335 219 181
is_linear=0
shrinkage=0.05


Tree=5
num_leaves=95
num_cat=0
split_feature=2 3 8 3 6 4 8 0 3 4 6 6 9 10 8 8 9 2 8 3 10 4 0 4 4 10 6 10 10 8 4 6 0 2 6 4 10 10 10 10 10 8 9 10 10 4 8 4 4 4 3 3 10 6 6 2 6 1 10 10 10 3 8 1 0 1 4 4 0 0 3 10 10 10 10 10 4 10 4 4 4 6 3 9 10 4 4 4 10 8 10 10 2 10
split_gain=5.46548 6.18838 3.87693 4.14381 4.19044 4.50696 4.33995 4.25173 4.03458 7.35277 7.77542 7.15293 4.87392 4.43074 3.37829 3.52327 3.79124 3.64607 3.36381 7.28732 6.98893 3.53748 3.22382 3.19912 5.41371 4.85664 3.81915 3.28031 3.1991 4.72637 3.19116 3.16574 11.5038 4.3767 3.45226 3.41816 4.67613 6.872 7.49761 7.29185 5.12473 3.03267 2.97461 4.49019 6.10246 4.01883 5.04297 4.14401 4.01918 5.6639 3.52101 10.1369 9.68898 7.31286 7.10717 4.61136 3.44606 5.04196 5.01375 6.24422 4.99087 4.79212 5.4491 10.2121 4.78365 7.32138 4.77547 5.55334 3.8647 3.70792 3.6513 3.46991 4.34291 4.66342 3.98046 3.61252 3.3322 3.20051 3.15337 6.35634 3.08223 4.38424 3.05166 3.04108 4.3161 2.99256 5.95284 2.95834 2.92677 2.91778 2.88445 3.67359 2.7279 3.49107
threshold=25.160000000000004 24.095000000000002 14.456500000000004 14.225000000000003 14.790000000000003 2464450.0000000005 15.04725 16.595000000000002 19.795000000000005 5792700.0000000009 21.128000000000004 19.968 19.695000000000004 2732800.0000000005 24.056250000000002 21.067000000000004 22.185000000000006 20.740000000000006 20.505450000000003 20.830000000000002 6253000.0000000009 3281950.0000000005 20.700000000000006 7896000.0000000009 6726600.0000000009 7363350.0000000009 18.276000000000003 4246350.0000000009 9325500.0000000019 22.863175000000002 4247800.0000000009 52.81900000000001 56.995000000000012 52.770000000000003 51.797000000000004 26560852.000000004 6531200.0000000009 10638800.000000002 19830638.500000004 15985550.000000002 3755500.0000000005 37.69850000000001 536.30450000000008 25641743.500000004 15523650.000000002 16936108.500000004 560.32155 11289850.000000002 12377050.000000002 13478250.000000002 215.25500000000002 204.35500000000005 19523100.000000004 199.06401000000002 352.86400000000009 196.02500000000003 109.92300000000002 115.02500000000002 11650150.000000002 11438700.000000002 12604750.000000002 523.62500000000011 253.57964999999999 207.92500000000004 354.87630000000007 387.35995000000008 14227550.000000002 7973800.0000000009 194.82500000000002 98.590000000000018 60.135000000000005 4314450.0000000009 8456550.0000000019 7363350.0000000009 6836950.0000000009 3224850.0000000005 12377050.000000002 2259800.0000000005 44706163.500000007 38977498.500000007 15807750.000000002 224.97400000000002 395.29500000000002 430.08500000000009 14132900.000000002 24172381.500000004 28335650.000000004 7352850.0000000009 3117850.0000000005 58.8962 16795550.000000004 16184821.500000002 14.425000000000002 4034900.0000000005
decision_type=2 2 2 2 2 2 2 2 2 2 2 2 2 2 2 2 2 2 2 2 2 2 2 2 2 2 2 2 2 2 2 2 2 2 2 2 2 2 2 2 2 2 2 2 2 2 2 2 2 2 2 2 2 2 2 2 2 2 2 2 2 2 2 2 2 2 2 2 2 2 2 2 2 2 2 2 2 2 2 2 2 2 2 2 2 2 2 2 2 2 2 2 2 2
left_child=1 2 -1 -4 88 -6 -7 -8 11 13 12 23 -11 -10 15 -12 17 -17 -15 22 21 -21 -20 24 25 26 -9 -28 29 -3 -29 34 33 -33 35 36 40 -38 39 41 -2 -39 43 44 56 46 47 -44 -48 -50 51 53 -53 55 80 78 60 -58 59 71 66 62 63 68 -64 -66 67 69 -60 70 -34 75 73 74 -73 77 -56 -59 79 -46 -52 -82 -67 -84 -85 -47 -87 -18 -5 -45 91 -78 93 -90
right_child=31 28 3 4 5 6 7 8 9 10 14 -13 -14 18 -16 16 87 -19 19 20 -22 -23 -24 -25 -26 -27 27 30 -30 -31 -32 32 42 -35 -36 -37 37 38 -40 -41 -42 -43 45 89 50 85 48 -49 49 -51 54 52 -54 -55 76 -57 57 58 61 -61 -62 -63 64 -65 65 82 -68 -69 -70 -71 -72 72 -74 -75 -76 -77 90 -79 -80 -81 81 -83 83 84 -86 86 -88 -89 92 -91 -92 -93 -94 -95
leaf_value=0.02857165841486713 0.050870835980982076 0.034329762118072892 0.038165278695167171 -0.077410647279070391 0.047168254447374193 0.029592310388971206 -0.036019182014597195 0.018979791104924829 0.058929453903237096 -0.0090330002844869802 -0.0418966409419856 0.089837132166801045 -0.08628422086527858 -0.03579105914283362 -0.061374045447935489 -0.0034385967470895668 0.015963893498277482 0.078504676371566551 0.015394200581004588 -0.040467811377539742 -0.080041534490466748 0.0098040362000022946 0.094028208402571395 0.035125563199953372 -0.069344356481669617 0.061603781111477345 0.010521877437764037 -0.000160911444990562 -0.087553398754434436 -0.042185862321921695 -0.069978258941265442 -0.014542565038806543 0.036085440273728724 -0.077397254955458614 0.057204276438665269 -0.022594867731907612 0.0503974377592524 -0.027307510974317953 0.045545434837195697 -0.068922084584238041 -0.015241097608112429 0.034834364135813513 -0.05238040642913952 0.042245315635364031 0.010110292151763817 -0.039162786950655511 0.039122390039146311 0.0098174659407666686 -0.060415106583577793 0.01905439776464871 0.06581965764334817 -0.10060592205418351 -0.002197000449157036 0.072830385780682891 -0.047765629262796636 -0.052039359026595233 -0.069264501436336459 -0.03991467746267801 -0.0059634934419582307 0.077651966103703784 0.054676313900253584 0.051657278258428502 -0.05211304182270169 0.060094681909837334 0.061999542424527099 -0.069556729641107623 -0.06185989085626023 0.077649304938922858 -0.068845348378813426 0.028555113795547538 -0.03272220332204772 0.037292176822561203 -0.0005997253091121113 0.071810425116658388 -0.042467091339755882 -0.067729184384901206 0.0036981473470369258 0.040224301795438899 -0.034496821444486007 0.074909357211885116 0.07911179327821706 0.019354870992380164 0.021285810185746174 -0.050838722615876256 0.018498098118484758 0.064474630036148284 -0.027392725424500948 -0.057793478273085841 0.042972845701800856 -0.0021494991267244114 0.0020023664679429138 0.088055465101982797 -0.061317932778034968 -0.033649942567956698
leaf_weight=8.1076782345771772 3.4848325699567821 2.488471880555152 4.921021655201911 3.207879662513732 3.8877349793910971 7.424944043159484 13.690373554825781 8.2344816476106768 2.9781769365072241 2.7481198012828845 4.2306731343269375 2.4667353779077521 7.9437847435474396 6.9852503091096869 2.9789164513349524 2.4889582246541959 2.9906222373247147 2.9861835837364197 2.4908902347087851 4.244044363498694 2.9905582070350638 19.942046582698822 2.7341877669095993 5.7355915606021872 2.9958550631999961 2.9846528172492972 3.9969945698976499 2.4981052428483963 2.6911001652479163 10.679871469736097 4.7462684959173203 4.9806223809719068 2.4946731179952755 6.2386973947286606 3.9760638475418082 7.473770707845687 14.931565850973127 3.243498697876932 7.4268378317356101 4.4910043329000464 18.451873779296875 4.9744793325662613 6.1988375186920184 3.7420340031385413 117.40176841616631 14.666824519634249 10.073879867792131 4.7149170935153961 3.212294787168501 7.4235184490680695 8.1261593550443667 3.9986188113689405 6.6790924668312073 4.7019843757152548 2.7351668328046825 2.9885502457618704 2.9942243099212638 2.4920560270547849 13.222671806812292 2.9836773574352256 5.9798830896615973 2.6795423030853263 13.708116441965101 5.7243384122848502 2.7465718984603908 3.243943557143214 2.4958794564008704 2.7424345612525931 2.9973517507314673 7.4771832525730124 8.4882397651672346 4.2388394474983198 32.256263449788094 4.9517569690942764 2.4791531413793564 3.2309040129184723 2.7239567041397121 2.4914170056581497 3.7264605313539496 3.9105714261531821 3.7098248749971416 17.781385540962219 3.9880404174327841 7.4334135800600034 3.2152002453804016 2.4215534478425962 6.4876026660203934 2.4925892949104309 2.4756827056407911 338.17562536895275 21.036405026912689 2.4525861144065857 2.9700994342565536 3.7207340151071548
leaf_count=33 14 10 20 13 16 30 55 33 12 11 17 10 32 28 12 10 12 12 10 17 12 80 11 23 12 12 16 10 11 43 19 20 10 25 16 30 60 13 30 18 74 20 25 15 473 59 41 19 13 30 33 16 27 19 11 12 12 10 53 12 24 11 55 23 11 13 10 11 12 30 34 17 130 20 10 13 11 10 15 16 15 72 16 30 13 10 26 10 10 1355 85 10 12 15
internal_value=0 -0.00812733 -0.00508894 -0.00694317 -0.00850354 -0.00585482 -0.00749086 -0.00981295 -0.00639228 -0.0131336 -0.0325978 0.00787308 -0.0664285 0.000125702 -0.0126884 -0.00314 0.0118227 0.0412539 -0.00432064 0.00246384 -0.00793341 0.000982604 0.0565419 0.00139117 -0.00620956 0.00221157 -0.00689022 -0.0258404 -0.0378781 -0.0277264 -0.0459029 0.00169034 0.000759278 -0.049494 0.0119874 0.00919902 0.0133675 0.024694 0.00563375 -0.0176897 -0.00473865 0.010308 0.00151521 0.0024079 0.00639991 -0.00965397 0.00199487 -0.0255099 0.0164896 -0.00494748 0.012038 0.00781914 -0.0390494 0.0115896 0.0223685 0.00934044 -0.00135948 -0.00521707 -0.00353609 0.00730432 0.0138583 -0.0136714 -0.0167817 0.00267929 -0.0292196 -0.0140055 0.00355858 0.0112594 -0.0175836 0.00139649 -0.0170931 0.00327875 0.00885662 0.0349948 0.00785847 -0.0265486 0.00475032 0.000149674 0.0108075 0.0121991 0.0395885 0.0296701 -0.0256803 -0.0159559 -0.0299034 -0.025279 -0.00242272 -0.0175651 -0.0363056 -0.00166363 0.0102301 0.0436657 -0.0219206 -0.00303649
internal_weight=0 171.149 155.29 147.182 142.261 129.887 125.999 118.574 104.884 71.225 28.8598 33.6587 10.6919 42.3652 18.1679 15.189 10.9584 5.47514 39.387 32.4017 27.1766 24.1861 5.22508 31.1919 25.4564 22.4605 19.4758 11.2414 15.8594 13.1683 7.24437 825.519 757.065 11.2193 68.4539 64.4779 57.0041 35.0674 20.1358 12.709 21.9367 8.21798 745.845 690.646 348.728 55.1994 31.6234 10.9138 20.7097 10.6358 201.973 143.407 10.6777 132.729 58.5655 128.027 146.756 117.077 114.083 55.1241 29.6783 58.9592 56.2796 21.9444 34.3353 20.6272 23.6984 21.2025 16.22 18.4601 10.9829 52.1404 43.926 11.6697 6.71799 8.21438 28.9481 4.98347 125.039 121.312 29.6174 21.4912 17.8806 14.6367 10.6486 23.576 8.90916 5.48321 12.3744 341.918 26.2129 5.17654 9.16652 6.19642
internal_count=4007 689 625 592 572 522 506 476 421 286 116 135 43 170 73 61 44 22 158 130 109 97 21 125 102 90 78 45 64 53 29 3318 3043 45 275 259 229 141 81 51 88 33 2998 2775 1405 223 128 44 84 43 815 578 43 535 237 516 590 471 459 222 119 237 226 88 138 83 95 85 65 74 44 210 177 47 27 33 117 20 504 489 120 87 72 59 43 95 36 22 50 1370 106 21 37 25
is_linear=0
shrinkage=0.05


end of trees

feature_importances:
Column_10=138
Column_4=135
Column_3=63
Column_0=42
Column_8=35
Column_2=34
Column_7=33
Column_1=30
Column_9=28
Column_6=26

parameters:
[boosting: gbdt]
[objective: binary]
[metric: binary_logloss]
[tree_learner: serial]
[device_type: cpu]
[data_sample_strategy: bagging]
[data: ]
[valid: ]
[num_iterations: 10000]
[learning_rate: 0.05]
[num_leaves: 95]
[num_threads: 0]
[seed: 2]
[deterministic: 0]
[force_col_wise: 0]
[force_row_wise: 0]
[histogram_pool_size: -1]
[max_depth: -1]
[min_data_in_leaf: 10]
[min_sum_hessian_in_leaf: 0.001]
[bagging_fraction: 0.9]
[pos_bagging_fraction: 1]
[neg_bagging_fraction: 1]
[bagging_freq: 0]
[bagging_seed: 29216]
[feature_fraction: 0.9]
[feature_fraction_bynode: 1]
[feature_fraction_seed: 17795]
[extra_trees: 0]
[extra_seed: 19650]
[early_stopping_round: 0]
[early_stopping_min_delta: 0]
[first_metric_only: 0]
[max_delta_step: 0]
[lambda_l1: 0]
[lambda_l2: 0]
[linear_lambda: 0]
[min_gain_to_split: 0]
[drop_rate: 0.1]
[max_drop: 50]
[skip_drop: 0.5]
[xgboost_dart_mode: 0]
[uniform_drop: 0]
[drop_seed: 24198]
[top_rate: 0.2]
[other_rate: 0.1]
[min_data_per_group: 100]
[max_cat_threshold: 32]
[cat_l2: 10]
[cat_smooth: 10]
[max_cat_to_onehot: 4]
[top_k: 20]
[monotone_constraints: ]
[monotone_constraints_method: basic]
[monotone_penalty: 0]
[feature_contri: ]
[forcedsplits_filename: ]
[refit_decay_rate: 0.9]
[cegb_tradeoff: 1]
[cegb_penalty_split: 0]
[cegb_penalty_feature_lazy: ]
[cegb_penalty_feature_coupled: ]
[path_smooth: 0]
[interaction_constraints: ]
[verbosity: -1]
[saved_feature_importance_type: 0]
[use_quantized_grad: 0]
[num_grad_quant_bins: 4]
[quant_train_renew_leaf: 0]
[stochastic_rounding: 1]
[linear_tree: 0]
[max_bin: 255]
[max_bin_by_feature: ]
[min_data_in_bin: 3]
[bin_construct_sample_cnt: 200000]
[data_random_seed: 45]
[is_enable_sparse: 1]
[enable_bundle: 1]
[use_missing: 1]
[zero_as_missing: 0]
[feature_pre_filter: 1]
[pre_partition: 0]
[two_round: 0]
[header: 0]
[label_column: ]
[weight_column: ]
[group_column: ]
[ignore_column: ]
[categorical_feature: ]
[forcedbins_filename: ]
[precise_float_parser: 0]
[parser_config_file: ]
[objective_seed: 29484]
[num_class: 1]
[is_unbalance: 0]
[scale_pos_weight: 1]
[sigmoid: 1]
[boost_from_average: 1]
[reg_sqrt: 0]
[alpha: 0.9]
[fair_c: 1]
[poisson_max_delta_step: 0.7]
[tweedie_variance_power: 1.5]
[lambdarank_truncation_level: 30]
[lambdarank_norm: 1]
[label_gain: ]
[lambdarank_position_bias_regularization: 0]
[eval_at: ]
[multi_error_top_k: 1]
[auc_mu_weights: ]
[num_machines: 1]
[local_listen_port: 12400]
[time_out: 120]
[machine_list_filename: ]
[machines: ]
[gpu_platform_id: -1]
[gpu_device_id: -1]
[gpu_use_dp: 0]
[num_gpu: 1]

end of parameters

pandas_categorical:null
