tree
version=v4
num_class=1
num_tree_per_iteration=1
label_index=0
max_feature_idx=3
objective=binary sigmoid:1
feature_names=Column_0 Column_1 Column_2 Column_3
feature_infos=[15.15:141.56999999999999] [5850800:319317900] [15.15:141.56999999999999] [5850800:591052200]
tree_sizes=6658 6695 6689 6708 6711 6698 6699 6710 6677 6686 6703 6682 6708

Tree=0
num_leaves=63
num_cat=0
split_feature=1 0 0 3 1 2 3 3 3 1 2 0 2 2 1 3 3 0 2 3 1 0 1 0 2 0 0 0 0 3 1 1 3 3 3 2 2 3 3 1 3 0 1 3 3 1 0 1 0 1 3 3 1 1 1 3 3 0 0 0 0 1
split_gain=9.99928 8.97302 6.21381 10.6434 8.31746 5.79245 5.16556 6.031 7.90161 5.5642 6.726 6.2121 8.85166 6.02034 4.44005 4.78379 8.60959 6.36867 5.30331 5.29719 4.70901 4.61403 4.43109 8.4859 5.66048 4.13574 7.66767 6.78334 5.81341 4.91136 7.27791 4.75838 4.23058 5.41289 4.31269 4.24025 6.8277 6.3744 6.23286 4.1106 5.29084 5.16344 4.18359 4.02856 3.90567 3.58591 3.52204 3.29362 3.28013 7.2832 6.40649 11.8764 6.25807 6.00912 4.62154 3.54624 3.35054 6.98209 3.23964 3.1774 7.38677 3.12371
threshold=92948800.000000015 138.09000000000003 24.625000000000004 54179050.000000007 38204100.000000007 25.805000000000003 33772004.500000007 31682595.000000004 30803867.500000004 63021700.000000007 24.815000000000001 25.555000000000003 25.497500000000006 25.765000000000004 39204296.000000007 62496250.000000007 58421450.000000007 29.170000000000005 26.400000000000002 77442700.000000015 49641950.000000007 33.585000000000008 49058100.000000007 26.595000000000002 27.005000000000006 75.590000000000018 70.030000000000015 65.905000000000015 68.990000000000023 29371250.500000004 31369370.000000004 33388600.000000004 42347350.000000007 37884963.500000007 52574400.000000007 43.315000000000005 48.455000000000005 35453250.000000007 32087150.000000004 48130450.000000007 46866900.000000007 54.990000000000002 44389850.000000007 139477600.00000003 29198300.000000004 54005450.000000007 29.580000000000002 32254400.000000004 28.065000000000001 86199300.000000015 52574400.000000007 73540850.000000015 77401650.000000015 73496300.000000015 69711600.000000015 75687350.000000015 52574400.000000007 29.925000000000004 46.900000000000013 19.290000000000003 21.795000000000005 30873050.000000004
decision_type=2 2 2 2 2 2 2 2 2 2 2 2 2 2 2 2 2 2 2 2 2 2 2 2 2 2 2 2 2 2 2 2 2 2 2 2 2 2 2 2 2 2 2 2 2 2 2 2 2 2 2 2 2 2 2 2 2 2 2 2 2 2
left_child=1 2 3 -1 5 -4 7 8 -6 10 -8 12 -12 -13 -15 16 22 -18 -17 21 -21 46 23 -16 -25 26 27 31 -29 -27 -31 32 33 35 -34 37 58 38 44 40 -26 42 -42 -2 -7 -5 -20 61 50 52 -11 -52 54 -53 56 -54 -50 -58 -37 -47 -61 -38
right_child=43 -3 4 45 6 25 9 -9 -10 48 11 13 -14 14 15 18 17 -19 19 20 -22 -23 -24 24 39 29 -28 28 -30 30 -32 -33 34 -35 -36 36 47 -39 -40 -41 41 -43 -44 -45 -46 59 -48 -49 49 -51 51 53 55 -55 -56 -57 57 -59 -60 60 -62 -63
leaf_value=0.054430309742224257 -0.0027001619165262659 -0.043703322779934356 0.071856730584724166 -0.01087376216497455 0.027006500083055995 0.031855173650803904 -0.045290686150328011 0.061856341351244105 -0.040528596039147026 0.052206842968061586 0.0087292735483812615 -0.032828195008301191 0.076142611684787059 -0.027682027367123919 0.07018999904581083 -0.053365534599721855 0.069751385482938869 0.011854395183843781 -0.013146577899856373 -0.01314657789985638 0.043434571710622934 0.022965938776599408 -0.0034328240265716035 -0.038147550983556537 -0.001235119519664157 0.033234537683008054 -0.012877750232289712 0.059548559220441 0.0089971411171351906 -0.013146577899856373 0.040426935850929678 0.025923383839310032 -0.035515869606324947 0.046739473905285864 0.021854784417323844 -0.0024318751496991663 0.012595164756694156 -0.028147161750076477 0.078523656740377534 0.050317430697228646 0.038684707761473203 0.068378334329600665 -0.0048129202052896621 -0.043703322779934356 -0.015419393634738213 0.046990897896071034 -0.056148251603820663 -0.024510656574265544 -0.007065260122740117 -0.050052776261508995 -0.0040082911865039067 0.06741211314762191 0.067412113147621924 0.021188091801758506 -0.01929435816634003 0.011854395183843781 0.0027631322443164505 0.075493235760535099 -0.035973553324104353 -0.031004415816785043 0.029188403188542562 0.050986353053983163
leaf_weight=25.249017223715782 53.247927412390709 6.7497372776269904 4.9998053908348075 10.999571859836577 24.749036684632305 21.249172911047939 6.9997275471687308 8.9996497035026533 5.2497956603765479 14.249445363879202 15.999377250671388 11.749542668461798 6.9997275471687308 10.749581590294836 5.9997664690017691 5.7497761994600287 9.4996302425861376 9.4996302425861341 19.999221563339237 5.9997664690017691 9.4996302425861341 6.7497372776269904 78.496944636106491 5.9997664690017691 47.74814148247242 72.497178167104721 23.249095067381859 16.249367520213131 8.7496594339609128 15.999377250671388 10.499591320753096 65.74744088947773 9.4996302425861341 10.749581590294836 4.9998053908348075 19.249250754714016 67.497372776269913 4.9998053908348075 5.9997664690017691 6.49974700808525 10.249601051211362 5.7497761994600287 11.999532938003538 6.7497372776269904 5.4997859299182883 9.2496399730443937 6.2497567385435095 5.4997859299182883 9.2496399730443972 5.2497956603765479 36.248589083552361 11.249562129378321 6.7497372776269895 18.749270215630531 15.249406442046164 4.9998053908348083 8.249678894877432 5.4997859299182883 11.499552398920057 6.9997275471687344 18.749270215630531 5.7497761994600287
leaf_count=101 213 27 20 44 99 85 28 36 21 57 64 47 28 43 24 23 38 38 80 24 38 27 314 24 191 290 93 65 35 64 42 263 38 43 20 77 270 20 24 26 41 23 48 27 22 37 25 22 37 21 145 45 27 75 61 20 33 22 46 28 75 23
internal_value=0.0124783 0.0137393 0.0141539 0.0283463 0.0129832 0.0183847 0.00852621 0.0259575 0.0151879 0.00696071 0.00314384 0.00430693 0.0292464 0.00217059 0.00377229 0.00514682 0.00885558 0.0408029 -0.00796204 -0.00257916 0.0215322 -0.0139042 0.00534184 0.0126502 0.00873813 0.0176912 0.0146468 0.0170778 0.0418556 0.0265014 0.00808066 0.0144778 0.0101152 0.0124873 -0.0157329 0.00998675 0.00500481 0.0244377 0.0324659 0.0121584 0.00888398 0.0261407 0.0152253 -0.00731302 0.0221352 0.0140284 -0.0233851 0.0128068 0.0153536 0.00597181 0.0217927 0.0152508 0.0118544 0.0385221 0.00205009 0.0437705 0.0162024 0.0318552 -0.0149759 0.0218548 0.0128253 0.0156088
internal_weight=0 941.713 934.964 71.2472 863.716 390.485 473.232 38.9985 29.9988 434.233 298.488 291.489 22.9991 268.49 256.74 245.99 191.743 18.9993 54.2479 48.4981 15.4994 32.9987 172.743 94.2463 88.2466 385.485 286.489 263.24 24.999 98.9961 26.499 238.241 172.493 157.994 14.4994 147.244 109.496 37.7485 32.7487 82.2468 75.7471 27.9989 22.2491 59.9977 26.749 45.9982 26.249 78.7469 135.745 55.2478 80.4969 66.2474 49.9981 29.9988 38.2485 11.7495 22.9991 13.7495 30.7488 34.9986 25.749 73.2471
internal_count=4007 3767 3740 285 3455 1562 1893 156 120 1737 1194 1166 92 1074 1027 984 767 76 217 194 62 132 691 377 353 1542 1146 1053 100 396 106 953 690 632 58 589 438 151 131 329 303 112 89 240 107 184 105 315 543 221 322 265 200 120 153 47 92 55 123 140 103 293
is_linear=0
shrinkage=1


Tree=1
num_leaves=63
num_cat=0
split_feature=1 0 3 0 3 3 3 0 1 1 1 1 1 2 0 2 2 1 1 1 2 3 2 0 3 3 3 1 2 0 2 0 2 3 3 3 3 3 0 1 1 2 1 1 0 2 3 3 3 1 2 1 3 0 1 0 0 0 1 2 1 3
split_gain=9.02477 8.10174 5.67827 7.04167 9.92106 5.77499 3.6389 3.4154 3.38606 7.03702 5.67883 4.34896 3.23657 3.19301 6.21705 3.59428 6.67147 3.0797 8.60706 5.37109 7.71765 6.81164 6.84574 8.08322 5.11155 5.02661 7.672 5.02271 6.07381 5.60801 8.00253 5.44293 4.38454 3.96429 7.58441 3.82055 3.50801 8.02604 5.4764 4.35968 4.43076 4.29894 4.22763 4.75077 7.32966 5.44096 4.19432 3.86812 3.8462 6.6756 4.21006 3.40498 4.10797 6.02714 3.53279 3.32714 3.6364 3.2451 5.89237 3.16825 3.07672 3.05233
threshold=92948800.000000015 138.09000000000003 23159274.500000004 24.625000000000004 54179050.000000007 22580464.500000004 139477600.00000003 64.945000000000007 24654216.500000004 21110498.000000004 30293879.500000004 28158344.500000004 54005450.000000007 54.030000000000008 58.070000000000007 74.235000000000014 109.43000000000002 38204100.000000007 31369370.000000004 29792950.000000004 40.065000000000005 46866900.000000007 62.970000000000006 68.715000000000018 33772004.500000007 31682595.000000004 30803867.500000004 63021700.000000007 24.815000000000001 25.555000000000003 25.497500000000006 25.833750000000002 78.785000000000011 40528800.000000007 31556150.000000004 28683998.500000004 62496250.000000007 58421450.000000007 29.170000000000005 39669764.000000007 58520050.000000007 26.400000000000002 56520300.000000007 49058100.000000007 26.595000000000002 27.005000000000006 45536850.000000007 49567200.000000007 77442700.000000015 48412642.000000007 34.045000000000009 48130450.000000007 46866900.000000007 54.990000000000002 44389850.000000007 29.580000000000002 28.286250000000003 41.660000000000004 30623852.500000004 25.765000000000004 96429050.000000015 29066045.000000004
decision_type=2 2 2 2 2 2 2 2 2 2 2 2 2 2 2 2 2 2 2 2 2 2 2 2 2 2 2 2 2 2 2 2 2 2 2 2 2 2 2 2 2 2 2 2 2 2 2 2 2 2 2 2 2 2 2 2 2 2 2 2 2 2
left_child=1 2 5 4 -4 8 60 -7 9 13 11 -10 -6 -1 -15 -16 -17 18 19 20 33 22 -22 -24 25 26 -19 28 -26 30 -30 59 35 34 -5 -25 37 39 -39 -33 42 -38 43 44 -41 -46 -42 -48 50 -50 55 52 -47 54 -54 56 -43 -21 -59 -31 -2 -34
right_child=6 -3 3 17 12 7 -8 -9 10 -11 -12 -13 -14 14 15 16 -18 24 -20 57 21 -23 23 32 27 -27 -28 -29 29 31 -32 36 61 -35 -36 -37 41 38 -40 40 46 48 -44 -45 45 51 47 -49 49 -51 -52 -53 53 -55 -56 -57 -58 58 -60 -61 -62 -63
leaf_value=-0.024401770160890776 -0.044692659950875617 -0.053396222144513665 0.040743660800654037 0.0056267162709250215 -0.022184247115808534 0.019205893905949109 -0.053396222144513665 0.072607242832697982 0.024590980237396767 -0.021409915704080709 -0.0053640827020136565 0.078556378077234548 0.0089101499763902907 0.069372997763366265 -0.0059233176323376978 0.043494605328046491 -0.015951693208733627 0.017640313827448139 0.013084297061757781 -0.062395566616303647 -0.015117001018046415 -0.057831608780819402 0.045220582872991161 -0.06054339874815811 -0.054906858948781917 0.046953052762759281 -0.050375481766424146 0.0027325951410460299 -0.0035615289026051061 -0.060875135346450254 0.060568127415964471 -0.036503566029574379 0.019772455539860252 -0.010653998688062447 0.077365144199298963 -0.0001481293218803468 -0.061239413889207686 0.053472799574008779 -0.00059273237701475991 0.058711473808812968 -0.065045938820354407 -0.037262890823847657 0.028414727501955079 -0.017681576132821189 -0.048110352120914572 -0.011174205325309912 0.020319202740464171 -0.038177743204440263 -0.038349380136423535 0.028402068519667173 0.0095091030193866621 0.035968956287654161 0.024390920235813008 0.060289194896519807 -0.016426113843900535 -0.065401324561738305 0.0090213776284944341 -0.04580494941140708 0.015989177143517639 -0.010126652234617034 -0.0096476187297887261 -0.011436036488427909
leaf_weight=5.2491261810064307 7.2499866038560858 6.7467781305313101 24.731677830219269 7.498437702655794 10.999674797058104 6.2489297240972501 6.7467781305313101 5.7486234605312347 14.74788929522038 21.995694816112518 11.996945202350615 4.9986909925937644 34.989220663905144 4.9998018145561209 18.497391059994698 14.496465921401979 6.9980673789978018 19.746398970484737 118.46559898555279 5.2479196190834072 58.742866262793541 5.9988920390605918 12.244411036372183 4.9988520145416242 6.9964113831520072 8.9913965463638288 5.2478445768356314 135.70476947724819 15.999694824218752 7.9978451728820783 6.9898637533187857 12.747797980904577 20.994202136993408 4.9979419708251944 7.2432917803525925 5.4991703033447266 5.4966389238834372 9.2389946132898348 9.4996664822101575 5.2437793761491767 5.7499832063913372 14.499336317181593 9.7499049156904203 51.749649032950401 5.9978177547454825 44.499984085559845 4.9998521804809553 6.499847799539566 5.7496031671762493 10.745466992259024 7.2488502860069266 6.4958874285221091 9.4964468181133324 5.4935759305953971 11.99993062019348 6.2452406287193289 5.9997036308050147 8.2485272884368879 7.2472179532051078 4.9970412403345108 45.99991500377655 12.499343395233153
leaf_count=21 29 27 99 30 44 25 27 23 59 88 48 20 140 20 74 58 28 79 474 21 235 24 49 20 28 36 21 543 64 32 28 51 84 20 29 22 22 37 38 21 23 58 39 207 24 178 20 26 23 43 29 26 38 22 48 25 24 33 29 20 184 50
internal_value=0 0.00119833 0.00159238 0.00012569 0.0152063 0.0119468 -0.0188021 0.0447931 0.00815685 0.00217561 0.021768 0.0382519 0.00147296 0.0125015 0.0168069 0.0102351 0.0241404 -0.00130004 0.0028487 -0.00466126 -0.0011599 -0.00588985 -0.00317984 0.00928945 -0.00378091 0.0148929 0.00335957 -0.00524276 -0.0088694 -0.00776418 0.0159368 -0.00979394 -0.000711457 0.0278283 0.0408751 -0.0289066 -0.00818813 -0.0050839 0.026064 -0.00831351 -0.00617416 -0.0192479 -0.00342703 -0.00562919 0.0013609 -0.00221996 -0.0301785 -0.0127444 -0.0146763 0.00513485 -0.0242896 0.00130942 -0.00183989 0.0135502 0.00160561 -0.0334505 -0.0237163 -0.0284132 -0.0169044 -0.0413604 -0.014419 0.00812586
internal_weight=0 941.491 934.744 818.766 70.7206 115.978 59.9967 11.9976 103.98 72.2365 31.7435 19.7466 45.9889 50.2409 44.9917 39.9919 21.4945 748.046 279.927 161.461 140.717 120.978 114.979 56.236 468.119 33.9856 24.9942 434.134 298.429 291.432 22.9896 268.443 43.9916 19.7397 14.7417 10.498 255.448 199.463 18.7387 180.724 167.977 55.9848 150.727 140.977 89.2274 83.9836 17.2497 11.4997 50.4882 16.4951 33.9931 77.9858 71.4899 26.99 21.4964 26.7443 20.499 20.7437 15.4957 12.9949 53.2499 33.4935
internal_count=4007 3767 3740 3276 283 464 240 48 416 289 127 79 184 201 180 160 86 2993 1120 646 563 484 460 225 1873 136 100 1737 1194 1166 92 1074 176 79 59 42 1022 798 75 723 672 224 603 564 357 336 69 46 202 66 136 312 286 108 86 107 82 83 62 52 213 134
is_linear=0
shrinkage=0.05


Tree=2
num_leaves=63
num_cat=0
split_feature=1 0 0 3 3 0 3 2 0 1 1 1 1 3 0 1 1 1 1 3 2 3 1 2 0 0 2 2 3 1 1 3 3 1 0 3 0 1 0 0 3 0 1 2 0 1 2 1 3 1 3 3 3 1 2 2 2 1 1 2 0 2
split_gain=8.14783 7.32571 5.20384 5.54808 5.22108 3.589 6.49271 5.22537 4.71494 4.69749 5.17311 3.73678 3.44947 3.29562 3.09734 3.05826 6.35195 5.13224 3.94684 3.04155 3.39922 6.04844 2.97434 2.88276 5.62379 3.33498 3.85861 2.9988 2.80294 4.11848 8.22121 6.55911 6.21234 5.06896 5.96876 4.55112 3.97148 3.40959 6.06827 4.80055 3.11972 3.8915 4.90439 4.11203 4.38624 3.45906 3.44824 5.9118 4.47292 11.3114 7.66086 6.21172 4.64016 4.15468 7.49059 4.07287 3.63431 3.32521 3.07547 2.94289 11.4383 4.15793
threshold=92948800.000000015 138.09000000000003 18.940000000000005 23159274.500000004 22580464.500000004 25.325000000000003 47398150.000000007 25.245000000000001 21.795000000000005 52840200.000000007 50568750.000000007 80989550.000000015 72167300.000000015 139477600.00000003 64.945000000000007 24654216.500000004 21110498.000000004 30293879.500000004 28158344.500000004 80176800.000000015 24.485000000000003 59050050.000000007 26125010.000000004 54.030000000000008 58.070000000000007 66.485000000000014 109.43000000000002 74.235000000000014 42347350.000000007 31695621.000000004 36352354.500000007 46994926.500000007 50488300.000000007 41613056.000000007 30.774950000000004 51794900.000000007 29.090000000000003 55989200.000000007 32.555000000000014 27.205000000000002 39051950.000000007 28.065000000000001 47361543.000000007 54.230000000000011 44.010000000000012 35479950.000000007 29.492500000000003 34893932.500000007 35453250.000000007 40320500.000000007 34533410.500000007 33493410.500000004 37644290.500000007 30873050.000000004 41.682500000000012 52.052500000000002 28.305000000000003 31894450.000000004 18707681.000000004 48.020000000000003 39.995000000000012 53.280000000000008
decision_type=2 2 2 2 2 2 2 2 2 2 2 2 2 2 2 2 2 2 2 2 2 2 2 2 2 2 2 2 2 2 2 2 2 2 2 2 2 2 2 2 2 2 2 2 2 2 2 2 2 2 2 2 2 2 2 2 2 2 2 2 2 2
left_child=1 2 12 4 15 6 -5 -7 -8 10 -10 19 -1 -2 -6 16 23 18 22 20 -11 -22 -17 -4 -25 -26 27 -27 40 -30 36 -32 37 34 -34 -35 -31 38 39 -33 46 42 -42 44 -43 -45 47 -9 50 -50 51 53 -51 54 -48 -52 -49 -53 -56 60 -37 -61
right_child=13 -3 3 5 14 7 8 28 9 11 -12 -13 -14 -15 -16 17 -18 -19 -20 -21 21 -23 -24 24 25 26 -28 -29 29 30 31 32 33 35 -36 59 -38 -39 -40 -41 41 43 -44 45 -46 -47 48 56 49 52 55 57 -54 -55 58 -57 -58 -59 -60 61 -62 -63
leaf_value=0.0080303599936047809 -0.013699596590755276 -0.050823996163505407 -0.023181777226909766 0.038350657332270333 0.018250178934949474 -0.046219866381503064 -0.023116144780260597 -0.025363749710568734 0.0038896452122934473 0.033333088386235672 -0.053368072523979848 -0.013379189948067896 0.066792349325122319 -0.050823996163505407 0.069137491173851734 0.052494782809253418 -0.020337537822773658 -0.0050955790966385377 0.074833966841790917 0.045194212039121419 0.033958331105136165 -0.028035736406826085 0.0060521537805311746 0.066014645472491099 -0.017065980275967244 0.0052117433490234009 -0.015150967573579616 0.041364551555013694 -0.029001491049616291 0.067621548180188409 -0.020931967079469205 0.024673095537060239 0.047181863217741961 -0.044105840723062728 -0.0089191387215620428 -0.0062306346088030753 0.015304768706909368 0.035771701228347087 0.044346879679280693 -0.025789305100729722 0.020514670018836237 0.019593860340055919 -0.045560322907332265 0.028184007713213832 0.065829550089653396 -0.023762014401658191 0.03120617278610674 0.015877085903622176 0.00079696021002339601 -0.031032945477388205 0.010890275153052718 -0.0053292875684412908 -0.08961436484952337 0.010325349181440562 0.019646778389843415 0.067991144759569994 0.060336067313566104 -0.057988033623355174 -0.012272095771113673 -0.055968058984171135 0.057806749854491107 -0.0070804756148539691
leaf_weight=4.9956202507019025 53.244178578257561 6.7341147512197486 5.249098375439643 15.469877466559408 6.2473969757556898 6.4955407530069342 14.241920456290243 6.4932624548673656 13.981870636343958 13.237522333860399 5.4951792806386939 8.496468245983122 4.9942455440759659 6.7341147512197486 5.7355464845895767 5.4973192214965882 21.99765419960022 11.997628673911093 4.9852558970451346 11.24373224377632 6.9926606565713874 8.9961575865745527 9.2453097105026227 4.9916109442710868 8.9997228235006315 9.4980718791484886 6.9994772076606742 14.481151551008223 15.986055389046667 4.9957574307918575 53.223024293780327 7.2422324120998445 9.7362623512744921 7.9938095957040778 9.2412253022193891 185.09104624390602 13.244973883032797 14.244816035032271 7.4878699779510489 13.495074003934858 5.7416710853576642 16.242767274379734 5.4970367550849915 5.7448691576719266 7.4971684813499442 7.2480070143938065 12.732989788055418 15.730855271220209 32.982171684503555 9.4976897388696653 6.2436412870883924 5.246260002255438 5.2481159418821326 76.189264610409737 8.2440895438194257 6.2478645294904709 6.4943643361330023 6.9952685385942459 89.212132811546326 6.7465422898530987 7.2462067753076544 12.240272447466849
leaf_count=20 213 27 21 62 25 26 57 26 56 53 22 34 20 27 23 22 88 48 20 45 28 36 37 20 36 38 28 58 64 20 213 29 39 32 37 741 53 57 30 54 23 65 22 23 30 29 51 63 132 38 25 21 21 305 33 25 26 28 357 27 29 49
internal_value=0 0.00113911 0.00151364 0.00112571 0.0113552 -0.000341211 0.00862049 -0.00157972 0.00305818 0.00850461 -0.0122648 0.0167659 0.0374073 -0.0178678 0.042607 0.00775232 0.00206777 0.0206921 0.036375 0.0230947 0.0145928 -0.000922821 0.02337 0.011882 0.0159748 0.00972699 0.0175107 0.0270446 -0.00116769 -0.00417989 -0.00305336 -0.00483853 -0.00178779 -0.00492765 0.0198631 -0.00707278 0.0296332 0.0158296 0.00576519 -0.00816597 0.00213794 0.0139421 -0.0118037 0.0218192 0.0341953 -0.000793805 0.000168735 0.0166064 -0.00165504 -0.0154786 0.00147018 -0.000918448 -0.0518824 0.00134768 -0.00485984 0.0394504 0.0288683 -0.0354205 -0.00957199 -0.00567192 -0.00381806 -0.0244516
internal_weight=0 941.045 934.311 924.321 115.925 808.396 98.1554 710.24 82.6855 68.4436 19.477 48.9665 9.98987 59.9783 11.9829 103.942 72.2168 31.7255 19.7279 40.4701 29.2263 15.9888 14.7426 50.2191 44.97 39.9784 30.9787 23.9792 703.745 368.215 352.229 333.988 280.765 238.295 18.9775 219.318 18.2407 42.47 28.2252 20.7373 335.529 47.9715 11.2387 36.7328 23.7399 12.9929 287.558 28.7185 258.839 47.728 211.112 198.62 14.7458 186.378 110.189 12.4915 22.2252 12.2415 97.4562 211.324 192.337 18.9868
internal_count=4007 3767 3740 3700 464 3236 393 2843 331 274 78 196 40 240 48 416 289 127 79 162 117 64 59 201 180 160 124 96 2817 1474 1410 1337 1124 954 76 878 73 170 113 83 1343 192 45 147 95 52 1151 115 1036 191 845 795 59 746 441 50 89 49 390 846 770 76
is_linear=0
shrinkage=0.05


Tree=3
num_leaves=63
num_cat=0
split_feature=3 0 0 0 0 1 3 3 0 3 2 1 2 1 3 3 2 1 1 1 0 2 3 1 1 2 2 0 3 3 3 2 1 2 1 2 3 0 3 3 2 2 3 1 1 1 3 3 3 2 3 3 0 2 3 3 0 0 1 2 0 0
split_gain=7.41759 6.44123 5.66622 7.76295 11.5949 6.92701 6.17699 5.40224 5.31221 9.03289 4.83939 5.21974 6.56054 4.58158 3.5113 6.09807 4.11361 3.88591 4.57004 3.42695 3.16815 5.49947 3.23006 2.86582 3.48325 3.44994 3.81328 2.78387 2.77258 2.74381 3.40865 3.03141 2.71257 7.9568 4.10576 5.34634 5.18529 4.01926 3.93871 3.92234 4.68129 5.03099 4.77002 3.33766 3.06503 7.48431 5.90229 6.53602 3.54836 2.92373 4.14391 5.873 3.54006 3.28809 3.24792 2.82346 7.41441 2.68702 3.49534 3.48031 7.43068 5.31907
threshold=154640550.00000003 138.09000000000003 80.625000000000014 68.990000000000023 65.905000000000015 22850761.500000004 17598820.000000004 55912350.000000007 24.625000000000004 59774300.000000007 24.485000000000003 54005450.000000007 23.780000000000005 92948800.000000015 16807204.000000004 23159274.500000004 93.990000000000023 25904163.000000004 20391800.500000004 26313309.500000004 19.290000000000003 20.605000000000004 76866100.000000015 104427300.00000001 110114800.00000001 27.265000000000004 29.645000000000003 27.125000000000004 40708200.000000007 46013800.000000007 31373845.500000004 71.485000000000014 41827000.000000007 25.805000000000003 63021700.000000007 24.815000000000001 28683998.500000004 49.840000000000011 31682595.000000004 58062700.000000007 26.815000000000001 37.850500000000004 50038250.000000007 65032550.000000007 28376863.000000004 31559650.000000004 47925950.000000007 42817750.000000007 31556150.000000004 48.880000000000003 27313224.500000004 38074500.000000007 52.052500000000002 46.770000000000003 33493410.500000004 37644290.500000007 31.495000000000005 25.105000000000004 62227750.000000007 25.497500000000006 25.555000000000003 25.325000000000003
decision_type=2 2 2 2 2 2 2 2 2 2 2 2 2 2 2 2 2 2 2 2 2 2 2 2 2 2 2 2 2 2 2 2 2 2 2 2 2 2 2 2 2 2 2 2 2 2 2 2 2 2 2 2 2 2 2 2 2 2 2 2 2 2
left_child=1 2 3 4 8 6 -5 14 9 -1 11 -11 20 32 -4 17 19 18 -16 -17 -13 -22 -23 27 -25 -26 -27 -15 -18 30 31 -7 33 -10 35 -34 -37 43 -38 40 -35 44 49 -36 48 -46 47 -47 -42 50 -43 53 -51 54 -52 56 -40 -57 59 61 -61 -59
right_child=-2 -3 7 5 -6 29 -8 -9 13 10 -12 12 -14 23 15 16 28 -19 -20 -21 21 22 -24 24 25 26 -28 -29 -30 -31 -32 -33 34 39 37 36 38 -39 55 -41 41 42 -44 -45 45 46 -48 -49 -50 52 51 -53 -54 -55 -56 57 -58 58 -60 60 -62 -63
leaf_value=0.031811691378779643 -0.049620323158897285 -0.048436837644727504 -0.014187697879354986 0.040359428257140756 0.035706644179151689 -0.022935306421220054 -0.019009272074107547 -0.039538444510018915 0.052032462099767321 -0.035653988435871073 -0.048555037547394146 0.022924857096235526 0.054420590710437935 -0.0026270199669647704 0.048123031961213536 0.062479734154021319 -0.0030226178301825226 0.067813696938946608 0.0014051511124745255 0.01430473987071069 -0.049758381428472449 -0.024959203888905563 0.024168202653047286 0.026306753171251536 -0.048705964891321382 0.028579865839814367 -0.027061669618757098 -0.046025788003204116 0.030330476496190598 -0.069694855650374116 -0.0047411474362247918 -0.069257654239812685 -0.048948270872962593 -0.043695093219412395 0.024285835023528924 0.035635284313874131 -0.045711396070681774 -0.040483241118160547 0.045984976560287293 0.027184897986251313 0.011823616429946905 0.005227453172105585 -0.048146717682688106 0.0018147817570814619 -0.037407885045325696 0.017475588197894933 0.054111255516448166 -0.02994736088597949 0.066285168231308603 0.025819193512207291 -0.0074919280117860133 0.018504468527807419 -0.00031456095729697181 -0.056021519572132077 -0.044379015544899945 0.026696940727160556 -0.017466954362991997 -0.00033830801848200109 -0.05004420831220692 0.049948481548132327 -0.0078696526788381814 -0.069910721736997014
leaf_weight=32.898697435855865 7.4751130640506736 6.7132096141576758 10.237879633903502 6.9897360801696804 22.707629457116127 7.7426418513059669 11.740340143442152 4.9947923868894568 7.9729018807411185 7.2451720237731925 4.9957992732524863 10.7331779897213 6.9918241798877707 5.2472023814916637 10.709383338689809 5.496857792139056 44.719482094049454 7.2241910845041266 10.240024477243422 11.239779025316237 6.245999068021777 5.2463844716548911 9.2359480410814268 5.9989825487136867 5.9989825487136867 5.4990673363208753 6.9974927604198456 12.492760330438612 7.2396405339241019 4.994455322623252 8.9904521554708463 6.4942658394575119 7.4787957668304434 5.9878172874450675 19.487273186445236 7.2454358935356131 6.4917110204696646 4.9956110566854468 8.7338244765996951 13.98152796924114 6.9927245229482633 27.980444222688675 5.7418127804994574 108.69883807003498 7.986484006047248 33.972366854548454 7.9901829212903968 9.2423460185527784 5.2259426414966583 14.988728269934652 17.736501291394237 8.2400824427604658 95.65801066160202 8.2446855902671796 8.9934766292572004 5.4968705624341956 9.7362195402383787 5.4976493716239911 4.9945233166217795 5.7228165715932837 191.78736039996147 5.491446778178215
leaf_count=132 30 27 41 28 91 31 47 20 32 29 20 43 28 21 43 22 179 29 41 45 25 21 37 24 24 22 28 50 29 20 36 26 30 24 78 29 26 20 35 56 28 112 23 435 32 136 32 37 21 60 71 33 383 33 36 22 39 22 20 23 768 22
internal_value=0 0.000374009 0.00070621 -0.000650775 0.000471618 -0.0204282 0.00314609 0.0112893 -0.000522767 0.0114089 -0.00183166 0.00327618 0.0106112 -0.00190608 0.0136596 0.0166027 0.00856874 0.0361919 0.0252874 0.030127 0.000875243 -0.0105421 0.00637126 -0.0178846 -0.00680045 -0.0175387 -0.00257681 -0.0331891 0.00162458 -0.0360739 -0.0288445 -0.0440656 -0.000911897 0.00278182 -0.0036166 -0.00728897 -0.00604866 0.00351618 -0.00728669 0.00137421 1.23331e-05 0.00102283 -0.00327683 0.0052309 0.0123174 0.00761098 0.0146326 0.00733323 0.0351169 -0.00186003 -0.00976382 -0.0194703 0.00322564 -0.0284172 -0.0199028 -0.00623623 0.0125372 -0.00781961 -0.00870832 -0.00771813 -0.00619438 -0.0351049
internal_weight=0 993.097 986.383 874.281 827.33 46.9519 18.7301 112.102 804.622 83.593 50.6943 45.6985 38.4533 721.029 107.107 96.8694 68.6958 28.1736 20.9494 16.7366 31.4615 20.7283 14.4823 42.2345 24.4945 18.4955 12.4966 17.74 51.9591 28.2218 23.2274 14.2369 678.794 286.936 391.858 258.677 251.198 133.182 243.952 278.963 264.982 258.994 187.584 128.186 71.41 59.1914 51.2049 43.2147 12.2187 181.842 71.1952 43.2147 110.647 34.9747 26.73 237.461 18.47 218.991 213.494 208.499 197.51 10.9891
internal_count=4007 3977 3950 3501 3313 188 75 449 3222 335 203 183 154 2887 429 388 275 113 84 67 126 83 58 169 98 74 50 71 208 113 93 57 2718 1149 1569 1036 1006 533 977 1117 1061 1037 751 513 286 237 205 173 49 728 285 173 443 140 107 951 74 877 855 835 791 44
is_linear=0
shrinkage=0.05


Tree=4
num_leaves=63
num_cat=0
split_feature=3 0 2 0 3 0 0 0 3 2 0 1 1 1 2 3 3 1 1 3 2 1 2 1 1 2 2 0 2 2 0 1 2 1 2 3 0 3 3 2 2 3 3 2 3 1 0 3 3 2 0 1 1 3 2 3 3 0 2 3 3 1
split_gain=6.7121 5.83822 5.13224 8.98932 8.01065 4.67663 5.75543 4.79998 8.29646 4.35503 6.1128 4.13825 3.79939 2.99618 2.79255 3.61848 6.81887 4.25382 4.89508 2.87959 2.71346 3.55911 2.85713 2.59077 3.14446 3.11885 3.44233 2.57611 4.73657 4.64348 2.51915 2.44917 7.2048 3.70711 4.8431 4.68411 3.62813 3.558 3.54202 4.31683 4.85316 4.30709 3.31167 3.68402 3.03186 5.78812 4.2662 2.90828 4.39206 3.64286 6.39386 4.84944 4.03019 2.91451 2.63958 3.74237 5.30334 3.19635 2.97878 2.93409 2.65656 2.59061
threshold=154640550.00000003 138.09000000000003 75.260000000000005 70.030000000000015 56873900.000000007 65.905000000000015 68.990000000000023 24.625000000000004 54179050.000000007 24.485000000000003 24.205000000000002 92948800.000000015 35479950.000000007 48870200.000000007 93.990000000000023 24005119.500000004 16807204.000000004 25904163.000000004 22162875.500000004 40708200.000000007 88.540000000000006 18707681.000000004 83.530000000000015 104427300.00000001 110114800.00000001 27.265000000000004 29.645000000000003 19.290000000000003 18.125000000000004 20.605000000000004 27.125000000000004 41827000.000000007 25.805000000000003 63021700.000000007 24.815000000000001 28683998.500000004 49.840000000000011 31682595.000000004 58062700.000000007 26.955000000000002 37.850500000000004 50038250.000000007 50038250.000000007 29.645000000000003 84238000.000000015 72167300.000000015 28.065000000000001 51794900.000000007 42347350.000000007 27.996250000000003 28.985000000000003 29703077.500000004 32098482.500000004 31556150.000000004 48.880000000000003 27313224.500000004 38074500.000000007 52.052500000000002 46.770000000000003 33493410.500000004 24512993.000000004 50918050.000000007
decision_type=2 2 2 2 2 2 2 2 2 2 2 2 2 2 2 2 2 2 2 2 2 2 2 2 2 2 2 2 2 2 2 2 2 2 2 2 2 2 2 2 2 2 2 2 2 2 2 2 2 2 2 2 2 2 2 2 2 2 2 2 2 2
left_child=1 2 3 5 14 7 -7 8 -1 10 13 31 -5 -10 20 16 -16 18 -18 -17 21 -4 -23 30 -25 -26 -27 28 -15 -29 -13 32 -9 34 -33 -36 42 -37 39 -34 47 54 43 -35 -44 -46 -47 48 49 -41 -51 53 -53 -52 55 60 58 -56 59 -57 -42 -39
right_child=-2 -3 4 12 -6 6 -8 11 9 -11 -12 23 -14 27 15 19 17 -19 -20 -21 -22 22 -24 24 25 26 -28 29 -30 -31 -32 33 38 36 35 37 -38 61 -40 40 41 -43 44 -45 45 46 -48 -49 -50 50 51 52 -54 -55 57 56 -58 -59 -60 -61 -62 -63
leaf_value=0.034553454465060723 -0.047261637533491468 -0.04621156450707125 0.048228519641540145 -0.018121802556602545 -0.050025052975851581 0.03323661146461511 -0.0099809546204958684 0.04958062807910861 -0.037354062538086638 -0.04200095147228828 0.05747928326383378 -0.002495817910130935 -0.061089090336735458 -0.0040156781771190503 -0.019333457696820294 -0.0060248103243350764 0.037993803412073757 0.063246640638898663 -0.019421711644367828 0.027303974525161291 0.04326687394471862 0.024690698576541274 -0.019850750285170277 0.024987030029296864 -0.046328732884479917 0.027146146852350325 -0.025724219079238161 -0.037669967456508441 0.058879802380716731 0.0072517871637786425 -0.043789376199328961 -0.046634833725293388 -0.038069151528105527 0.034574154073657756 0.033893164500475102 -0.043459010566671001 -0.038467917567650133 -0.00026178667946325862 0.025840712718778525 0.04926641868550162 -0.0081365534612323539 -0.045760525771341577 -0.0036994756922381759 -0.0086400058939512074 0.049854265691858211 0.015465525334825909 -0.039512510653552019 0.04816160568897708 -0.014596297576083748 -0.042259099454391741 0.021782094849866988 -0.032943315690496543 0.015952266519352099 0.072932036792920638 0.024538011644539039 -0.0071171924474893265 0.017589884970616337 -0.00029883194909251221 -0.053311584147172943 -0.042183013179904881 0.023081610691290409 -0.010742757726591987
leaf_weight=25.601502060890198 7.4562209397554389 6.6853501796722403 5.4747405946254757 21.716345280408863 5.2419389039278022 22.427616834640503 11.734268262982367 7.9493850469589225 4.9954499900341025 5.4892684370279303 4.9847309887409201 5.2468989491462734 6.7422563731670371 6.9809412211179716 7.9949110299348822 39.974731862545013 11.445530965924268 8.197765111923216 5.494345784187316 7.7348530590534201 12.974929913878439 6.7399513572454435 7.7289280891418457 6.0000000000000027 5.9916257858276394 5.4999911487102491 6.9933384209871292 7.7334727495908764 5.2405225932598114 22.459720134735107 12.474668771028517 7.4578218609094611 7.2386021912097922 16.728917062282566 7.2371586710214606 6.4868521541357032 4.9944752156734458 109.08847078680992 13.973566532135008 7.2413606643676749 16.236434072256092 5.739199459552764 78.968630313873291 6.9936425834894171 8.4879711568355578 11.997243463993074 4.9988616406917563 5.2332146018743506 14.72393850982189 4.9931598156690589 5.9916724711656553 5.2434419393539455 21.471842288970947 5.2035600543022156 14.982887238264082 17.736839041113857 8.2352201491594297 95.658338516950607 8.2308964282274228 8.9886714220046979 11.743625804781912 128.29552263021469
leaf_count=103 30 27 22 87 21 90 47 32 20 22 20 21 27 28 32 160 46 33 22 31 52 27 31 24 24 22 28 31 21 90 50 30 29 67 29 26 20 437 56 29 65 23 316 28 34 48 20 21 59 20 24 21 86 21 60 71 33 383 33 36 47 514
internal_value=0 0.000355675 0.000671456 -0.000665193 0.0104082 0.000272882 0.0183918 -0.000496756 0.010853 0.000370483 0.00480963 -0.0018114 -0.0283014 -0.000728098 0.0131928 0.00819391 0.0208877 0.0336798 0.0193714 -0.000621425 0.0254693 0.0138905 0.000897726 -0.0170024 -0.00646343 -0.0166719 -0.00244887 0.00358558 0.0229537 -0.00425416 -0.0315634 -0.000866505 0.00264411 -0.00343686 -0.00692753 -0.00574823 0.00334071 -0.00692464 0.00130613 1.18926e-05 0.00108175 -0.0031136 0.00496982 0.0218342 0.0011397 0.0161351 -0.000704509 0.012306 0.00941344 0.0164633 0.0109268 0.0179318 0.00635547 0.0455567 -0.00176739 -0.00927894 -0.0185071 0.00306454 -0.027011 -0.018911 0.00496615 -0.00592629
internal_weight=0 992.552 985.867 866.864 119.003 838.405 34.1619 804.244 83.4856 57.8841 52.3948 720.758 28.4586 47.4101 113.761 80.8421 33.1326 25.1376 16.9399 47.7096 32.9185 19.9436 14.4689 42.2065 24.485 18.485 12.4933 42.4147 12.2215 30.1932 17.7216 678.551 286.816 391.736 258.566 251.108 133.17 243.871 278.866 264.893 257.654 187.552 128.175 23.7226 104.453 25.4841 16.9961 70.1022 64.869 50.145 42.9037 37.9105 26.7153 11.1952 181.813 71.1717 43.1916 110.641 34.9564 26.7255 27.9801 237.384
internal_count=4007 3977 3950 3473 477 3359 137 3222 335 232 210 2887 114 190 456 324 133 101 68 191 132 80 58 169 98 74 50 170 49 121 71 2718 1149 1569 1036 1006 533 977 1117 1061 1032 751 513 95 418 102 68 281 260 201 172 152 107 45 728 285 173 443 140 107 112 951
is_linear=0
shrinkage=0.05


Tree=5
num_leaves=63
num_cat=0
split_feature=1 0 0 0 0 0 3 3 1 3 1 1 1 1 3 2 1 0 3 1 0 0 2 3 0 1 1 1 1 1 3 3 0 3 1 3 1 3 3 1 1 2 2 2 1 2 2 3 3 1 1 0 1 3 2 0 0 2 2 0 0 3
split_gain=6.08625 5.45389 4.31691 4.42314 7.47107 8.73794 6.71486 4.44295 4.73211 4.5633 4.10843 3.99398 6.60328 2.98572 2.67671 4.49061 4.38625 3.39699 2.62062 4.83004 2.49169 2.42604 5.59371 4.9609 3.35235 2.92638 7.52164 3.37183 5.28048 2.5703 3.63211 2.53835 2.52543 3.68937 3.46641 2.32133 2.13784 2.08801 3.61388 3.53853 5.59464 2.06526 2.03964 2.19165 1.9518 2.80359 1.8197 1.77012 1.76158 1.72784 2.13076 8.64062 5.45542 6.01962 4.77289 4.57336 4.34168 4.4062 3.83744 3.6099 2.86663 2.82635
threshold=92948800.000000015 138.09000000000003 18.940000000000005 80.625000000000014 68.990000000000023 65.905000000000015 46013800.000000007 29642895.000000004 31369370.000000004 16807204.000000004 17586440.000000004 90098600.000000015 86199300.000000015 72167300.000000015 81731450.000000015 25.005000000000006 100130500.00000001 27.402500000000003 34327074.000000007 48130450.000000007 84.580000000000013 25.325000000000003 25.245000000000001 40938400.000000007 21.795000000000005 52840200.000000007 50918050.000000007 42245884.500000007 47681100.000000007 80253900.000000015 80176800.000000015 60846950.000000007 24.305000000000003 65381700.000000007 62227750.000000007 31373845.500000004 26494518.000000004 23159274.500000004 27381850.000000004 25904163.000000004 22850761.500000004 68.91500000000002 65.450000000000017 64.585000000000008 22850761.500000004 71.485000000000014 107.58500000000002 74529800.000000015 15216130.000000002 84498589.000000015 50918050.000000007 26.595000000000002 54602200.000000007 72175150.000000015 27.005000000000006 27.125000000000004 32.796000000000006 28.093750000000004 27.235000000000003 26.105000000000004 26.045000000000005 51028753.500000007
decision_type=2 2 2 2 2 2 2 2 2 2 2 2 2 2 2 2 2 2 2 2 2 2 2 2 2 2 2 2 2 2 2 2 2 2 2 2 2 2 2 2 2 2 2 2 2 2 2 2 2 2 2 2 2 2 2 2 2 2 2 2 2 2
left_child=1 2 13 4 5 11 10 9 36 48 -6 12 21 -1 15 -2 -17 -18 -10 -20 -11 23 -23 -4 31 26 27 -26 -29 30 32 -25 -27 34 -34 44 -9 39 46 40 -22 -7 43 49 -12 -46 -39 -14 -5 50 51 59 53 56 -53 -56 57 58 60 61 -52 -24
right_child=14 -3 3 7 6 41 -8 8 18 20 35 -13 47 -15 -16 16 17 -19 19 -21 37 22 42 24 25 29 -28 28 -30 -31 -32 -33 33 -35 -36 -37 -38 38 -40 -41 -42 -43 -44 -45 45 -47 -48 -49 -50 -51 52 54 -54 -55 55 -57 -58 -59 -60 -61 -62 -63
leaf_value=0.0067571964007316042 0.034424218091947907 -0.044128914467372778 0.055086776935093243 0.0081292765931359045 0.018493589989446887 0.041847087223700175 -0.074603954690229707 -0.002917684661264212 -0.018763979867158231 0.055954443775888589 -0.012032343429871193 0.038965330632334774 -0.018990020243719111 0.061549739548791386 -0.024960836473602449 -0.048816510858230813 -0.031177419266749593 0.019472652452517739 0.037708113159609979 -0.014211647243308144 0.037205552453186658 -0.048120029560357755 -0.00079524261495177119 0.0087206482620930462 0.041840904688874664 0.028730750368493235 -0.058034432760332669 -0.034878945411208513 0.02566884888876661 -0.016591898556275214 0.045330402268008552 -0.034137338708573571 -0.015824816632059511 -0.032223016939579865 0.03722584767711877 -0.00032962533106548926 -0.041226168362001409 0.013642867141650215 0.039188156602538139 0.061128965871629241 -0.02439408576589407 0.0090523578436528165 -0.030146613263041702 0.028679745642793849 -0.02077896091848061 -0.065355010114192619 -0.01467285514517213 -0.060584242028430262 -0.033370032955111643 0.028758516688635855 -0.0088266743155690965 -0.03508118486388706 -0.0008725029989206292 0.030605973667293319 0.042843339489802623 -0.00034434588863132567 0.0012668792589544519 -0.067920343799301827 0.010645054924944282 0.060140501185294452 -0.056603949881864971 0.037897234032652237
leaf_weight=4.9871374070644361 5.9947908073663738 6.6516714245080939 5.2101952433586112 4.9900402873754484 8.226897791028021 15.414819061756136 4.9784153848886481 6.2428829073905936 5.9911857694387463 5.2246414422988883 9.7312416136264819 6.4948280304670325 4.9943431913852674 4.9579900950193405 33.115866526961327 6.4796043336391476 5.2412336617708197 8.9857107102870923 12.467746570706369 6.9913347214460364 12.408926442265516 6.2267347723245612 9.6981274038553291 5.723156511783599 5.7109080553054872 13.17017897963524 5.218791425228118 6.9599454551935178 7.4612667560577393 5.2428985685110083 10.957499980926512 8.7168331295251829 5.2339707762002963 5.9850221425294867 7.4794580340385437 9.7335801571607572 8.7411703765392286 12.722763285040861 8.4931538850069028 6.9031149744987479 5.2435841262340537 6.9720982015132895 5.7461078763008109 6.4917965084314337 7.7400961965322477 6.4808724671602249 10.241192594170569 5.2431164532899857 5.2450327128171921 4.9961088001728049 4.9820009022951188 9.7292227894067747 177.27251249551773 4.9920028895139685 6.2400431483983985 347.369285389781 9.4869962334632856 8.4844419509172422 5.4944903254508963 6.9678875207900992 8.4894658029079419 9.1940840482711774
leaf_count=20 24 27 21 20 33 62 20 25 24 21 39 26 20 20 133 26 21 36 50 28 50 25 39 23 23 53 21 28 30 21 44 35 21 24 30 39 35 51 34 28 21 28 23 26 31 26 41 21 21 20 20 39 710 20 25 1392 38 34 22 28 34 37
internal_value=0 0.000985452 0.00130716 0.000954053 -0.000331836 0.000857079 -0.0197042 0.0102724 -0.00297325 0.0177658 -0.0131832 -7.19024e-05 -0.000416776 0.0340732 -0.0154634 -0.00368439 -0.0147173 0.000813069 0.0101515 0.0190542 0.0229309 0.000146348 -0.000963758 0.00768296 0.00487186 0.00920324 -0.00454238 0.00932421 -0.00355264 0.0164525 0.0204979 -0.017151 0.0119596 0.000146914 0.0153855 -0.0209194 -0.0252655 0.0198506 0.0113214 0.030777 0.0189077 0.0316336 -0.000494427 -0.000219564 -0.0292866 -0.0410934 0.00101496 -0.0402925 -0.0131373 -0.000525416 -0.000765892 0.00145475 -0.0047087 -0.0209277 -0.000532791 0.000417775 -0.0278923 -0.0379699 -0.0245715 0.02938 -0.038935 0.0180348
internal_weight=0 939.445 932.794 922.849 810.942 764.051 46.8911 111.907 40.4343 71.4724 41.9127 741.664 735.169 9.94513 59.8172 26.7013 20.7065 14.2269 25.4503 19.4591 61.2374 724.931 631.861 93.0701 87.8599 73.4199 25.3509 20.1321 14.4212 48.069 42.8261 14.44 31.8686 18.6985 12.7134 33.6858 14.9841 56.0127 31.4571 24.5556 17.6525 22.3869 625.635 619.888 23.9522 14.221 22.964 10.2375 10.2351 613.397 608.401 389.199 219.202 41.9294 363.339 353.609 36.9374 27.4504 18.966 25.8601 13.4715 18.8922
internal_count=4007 3767 3740 3700 3251 3063 188 449 162 287 168 2973 2947 40 240 107 83 57 102 78 246 2906 2532 374 353 295 102 81 58 193 172 58 128 75 51 135 60 225 126 99 71 90 2507 2484 96 57 92 41 41 2458 2438 1560 878 168 1456 1417 148 110 76 104 54 76
is_linear=0
shrinkage=0.05


Tree=6
num_leaves=63
num_cat=0
split_feature=3 0 3 3 0 3 2 0 1 0 1 0 0 1 1 1 1 1 1 1 0 2 0 0 2 3 2 1 1 3 3 3 2 1 0 2 2 3 0 3 0 0 1 0 2 2 1 3 3 3 1 1 1 1 0 3 3 1 0 2 0 2
split_gain=5.87803 4.81134 4.34032 4.42397 4.03724 7.41896 3.82552 5.50953 3.05408 3.1017 8.05323 3.99079 5.072 2.69134 2.65419 2.55379 5.07179 4.79264 3.32272 2.77254 2.50977 2.49065 5.41203 2.64091 3.14991 2.30443 2.26815 2.25474 5.37065 5.08948 6.62579 8.77799 6.71052 4.68674 4.29548 5.90437 4.18688 3.86103 3.6391 3.48382 3.21453 4.72587 2.47282 2.23761 4.4606 3.81976 2.1968 4.45311 3.61885 4.13276 2.61181 2.16033 2.05653 4.72648 6.39133 5.6375 5.37624 4.19772 3.42841 3.31468 4.8188 3.67095
threshold=154640550.00000003 138.09000000000003 23159274.500000004 22580464.500000004 24.625000000000004 54179050.000000007 24.485000000000003 24.205000000000002 86199300.000000015 28.485000000000003 96429050.000000015 27.555000000000003 27.125000000000004 98362550.000000015 48870200.000000007 24654216.500000004 21110498.000000004 30293879.500000004 28158344.500000004 26125010.000000004 64.945000000000007 54.030000000000008 58.070000000000007 66.485000000000014 109.43000000000002 60142150.000000007 74.235000000000014 63021700.000000007 51284200.000000007 76866100.000000015 62889050.000000007 58421450.000000007 27.084750000000003 55614450.000000007 26.595000000000002 25.245000000000001 27.005000000000006 72175150.000000015 27.125000000000004 75687350.000000015 26.105000000000004 25.555000000000003 65032550.000000007 19.290000000000003 18.125000000000004 20.605000000000004 58520050.000000007 45536850.000000007 44642550.000000007 36045450.000000007 55989200.000000007 52664850.000000007 31369370.000000004 29792950.000000004 39.995000000000012 48652500.000000007 37884963.500000007 38204100.000000007 35.422500000000007 62.970000000000006 68.715000000000018 78.785000000000011
decision_type=2 2 2 2 2 2 2 2 2 2 2 2 2 2 2 2 2 2 2 2 2 2 2 2 2 2 2 2 2 2 2 2 2 2 2 2 2 2 2 2 2 2 2 2 2 2 2 2 2 2 2 2 2 2 2 2 2 2 2 2 2 2
left_child=1 2 3 15 5 -4 7 14 27 11 -11 12 13 -10 -7 16 21 18 19 -17 -5 -1 -23 -24 26 -12 -25 28 34 30 31 32 -30 -33 35 -6 -36 -32 -38 52 41 -37 -29 44 -16 -45 48 -48 49 -34 51 -50 53 54 58 56 59 -54 -40 -56 -61 -62
right_child=-2 -3 4 20 8 6 -8 -9 9 10 25 -13 -14 -15 43 17 -18 -19 -20 -21 -22 22 23 24 -26 -27 -28 42 29 -31 37 33 46 -35 36 40 38 -39 39 -41 -42 -43 -44 45 -46 -47 47 -49 50 -51 -52 -53 57 -55 55 -57 -58 -59 -60 60 61 -63
leaf_value=-0.022587997265228619 -0.044355850838437516 -0.042172788594620057 0.032689338503088992 0.01674907471015482 -0.020995836727600799 -0.035525913972215176 -0.039701490167543076 0.054345361733127186 0.018979229225787195 -0.077241185790096714 0.018103677125109702 0.024979982130810541 -0.057677815893347029 -0.018155682424705472 -0.0050645221523369227 0.04974887717812207 -0.018812952860508384 -0.0066776714311322823 0.069095868987835068 0.0048315784979016049 0.062746767100990572 0.063001201363274958 -0.016152837222568533 0.0043121482411735759 -0.014881936392320202 -0.022683968642164851 0.035820626648004526 0.020728958011895105 -0.03409201682117291 0.017556191770486798 -0.046537662340893876 -0.007228335837107646 -0.012197332480368153 0.049566238959768957 -0.033378957579130397 0.053859649385783415 0.038532533967898373 -0.0072709462605235631 0.011388329437230879 -0.030709226777686074 0.057341174132407552 0.0024598845647790771 0.0020748876337272092 -0.034650270367491881 0.056062623448384544 0.0061613634688377043 -0.053056516095477325 0.0043879377641230831 0.001494073436964765 0.039213179090769323 0.018330012086184261 -0.037052498851593493 0.010223115070499847 -0.027087724568334883 -0.014200271284054079 -0.056000140239565455 0.036738051109808781 -0.0028690872682739601 0.059379544107812432 0.033243628508103022 -0.03223364739468032 0.00361816125991416
leaf_weight=5.247238263487815 7.4133843034505835 6.6131703257560721 24.967148452997208 6.2396982312202436 7.9458365887403479 4.9868789911270133 5.4733921140432349 4.9640752524137488 8.4904634505510383 5.9682843387126949 5.2383199185132971 8.9781608879566175 5.2293917536735526 11.4712578356266 6.9677498489618284 5.4794707745313707 21.971531614661217 11.956362694501875 4.9105699658393851 9.2098958641290647 5.6514972299337387 4.9730765819549552 8.9974288642406446 9.483731567859655 6.9893094897270194 10.217553466558455 14.35979053378105 21.462771162390709 27.645431533455849 14.222652539610861 20.660371705889705 5.98705931007862 6.2308147847652462 9.2360903620719892 9.714476600289343 6.4318020492792192 5.985008016228675 8.9818907976150495 10.67903769016266 9.4733847826719266 6.9432410448789588 14.676229938864706 103.1401599496603 7.7024401724338558 5.2205368429422379 22.426920369267464 5.9771779775619489 7.7455324083566666 5.9956163763999966 10.490880712866781 5.4979218989610663 9.2315570116043073 107.79157324135303 20.206384345889091 56.189413368701935 5.2171226590871802 7.9784036874771109 141.72206053137779 5.711911365389823 10.689493656158445 9.2162997275590879 31.692477539181709
leaf_count=21 30 27 101 25 32 20 22 20 34 24 21 36 21 46 28 22 88 48 20 37 23 20 36 38 28 41 58 86 111 57 83 24 25 37 39 26 24 36 43 38 28 59 413 31 21 90 24 31 24 42 22 37 432 81 225 21 32 568 23 43 37 127
internal_value=0 0.000332634 0.000618143 0.00972582 -0.000591952 0.00991603 6.90425e-05 0.00423368 -0.00169717 -0.0129945 -0.0279096 -0.00364279 -0.013844 -0.00236082 -0.00102498 0.00640978 0.00121295 0.0182707 0.0334897 0.0215868 0.0386103 0.0100041 0.0138211 0.00768068 0.0146356 -0.00886018 0.0232882 -0.000837725 -0.00209693 -0.0107695 -0.0140268 -0.00752933 -0.0142431 0.0272297 0.000457116 0.0170519 -0.000924821 -0.0346395 -0.000178701 -0.000734882 0.0278294 0.0181218 0.00528804 0.00304075 0.0211177 -0.00427195 -0.00351923 -0.020633 0.00275228 0.0200567 -0.0112095 -0.021875 -3.73565e-05 -0.00450919 -0.00118811 -0.00515776 -0.00286649 0.00278683 0.0281123 -0.00579801 0.00335188 -0.00445886
internal_weight=0 991.155 984.542 115.47 869.073 82.7091 57.742 52.2686 786.364 55.5934 21.4242 34.1693 25.1911 19.9617 47.3045 103.578 72.0221 31.5563 19.5999 14.6894 11.8912 50.0506 44.8033 39.8303 30.8328 15.4559 23.8435 730.77 606.167 137.903 123.68 94.0381 78.8149 15.2231 468.264 35.9971 432.267 29.6423 422.553 416.568 28.0513 21.108 124.603 42.3176 12.1883 30.1294 51.1695 13.7227 37.4468 16.7217 20.7251 15.2272 407.094 157.581 137.374 120.983 115.766 249.514 16.3909 107.788 51.5983 40.9088
internal_count=4007 3977 3950 464 3486 333 232 210 3153 223 86 137 101 80 190 416 289 127 79 59 48 201 180 160 124 62 96 2930 2431 553 496 377 316 61 1878 145 1733 119 1694 1670 113 85 499 170 49 121 205 55 150 67 83 61 1632 632 551 485 464 1000 66 432 207 164
is_linear=0
shrinkage=0.05


Tree=7
num_leaves=63
num_cat=0
split_feature=3 0 0 0 1 0 0 3 0 3 2 1 2 3 1 3 3 3 2 1 1 1 1 1 1 1 3 3 3 3 0 3 1 1 1 2 2 0 1 1 3 0 3 3 3 1 1 2 2 1 1 1 0 3 2 2 1 0 3 3 1 0
split_gain=5.33093 4.37122 4.06244 5.96763 5.77878 4.04172 4.76251 4.00682 3.53324 6.61466 3.5217 4.19628 5.20472 3.30925 3.07318 2.66743 2.65172 4.39913 3.34561 3.03428 2.92161 3.4799 2.4209 3.51451 2.41976 4.20337 3.57613 2.85626 2.41081 3.00103 2.80851 2.28452 2.27008 2.14297 2.78409 2.67322 3.24112 2.17758 2.14069 2.0943 2.03318 4.75977 3.16438 3.03278 5.26331 6.91936 4.19335 6.97878 5.42858 4.37332 2.43493 4.18112 4.77558 4.95498 4.34243 3.90891 4.07728 4.02449 3.84014 3.77615 3.61248 3.42132
threshold=154640550.00000003 138.09000000000003 80.625000000000014 70.030000000000015 35180700.000000007 65.905000000000015 68.990000000000023 55912350.000000007 24.625000000000004 59774300.000000007 24.485000000000003 54005450.000000007 23.780000000000005 17598820.000000004 92948800.000000015 28683998.500000004 16807204.000000004 23159274.500000004 93.990000000000023 26313309.500000004 25904163.000000004 18707681.000000004 47681100.000000007 52460460.000000007 27077682.000000004 29472009.500000004 28435189.500000004 28435189.500000004 76340400.000000015 82724100.000000015 19.640000000000004 29198300.000000004 34258285.500000007 104427300.00000001 110114800.00000001 27.265000000000004 29.645000000000003 27.125000000000004 83004450.000000015 42790150.000000007 84238000.000000015 28.545000000000005 91406200.000000015 42347350.000000007 43936946.000000007 45333200.000000007 43752100.000000007 25.805000000000003 56.755000000000003 44389850.000000007 61344950.000000007 51284200.000000007 28.932500000000001 50038250.000000007 27.345000000000002 28.025000000000002 54602200.000000007 33.585000000000008 48206500.000000007 50488300.000000007 49857000.000000007 28.485000000000003
decision_type=2 2 2 2 2 2 2 2 2 2 2 2 2 2 2 2 2 2 2 2 2 2 2 2 2 2 2 2 2 2 2 2 2 2 2 2 2 2 2 2 2 2 2 2 2 2 2 2 2 2 2 2 2 2 2 2 2 2 2 2 2 2
left_child=1 2 3 5 13 8 -7 16 9 22 11 -11 28 -5 40 -15 -4 20 19 -19 21 -18 39 -24 26 -26 -20 -27 30 -30 -13 -8 -21 37 -35 -36 -37 -16 -31 -1 43 -42 -43 -10 45 -45 47 -46 -49 -48 51 52 58 -54 -53 -56 57 -57 -51 61 -60 -52
right_child=-2 -3 7 4 -6 6 31 -9 14 10 -12 12 -14 15 33 -17 17 18 24 32 -22 -23 23 -25 25 27 -28 -29 29 38 -32 -33 -34 34 35 36 -38 -39 -40 -41 41 42 -44 44 46 -47 49 48 -50 50 59 54 53 -55 55 56 -58 -59 60 -61 -62 -63
leaf_value=0.029316868356230725 -0.042340587003762045 -0.040329627850078209 -0.012602064905017816 0.01944697110912879 -0.057504204277235099 0.030534346514343516 0.013783080508861539 -0.034309333626918556 0.0022575364461373364 -0.032622311211335263 -0.042020458886759718 0.010119654716678488 0.048167503629196314 -0.031977829777679226 -0.00094558336611904519 0.0085554231129277344 0.054078223556108418 0.057389880062400589 0.0039171792202742041 -0.013180182175654531 0.058730403498076449 0.0086454141782249441 0.072014909044592179 0.025172330417114686 0.048026436907223219 -0.022642411078112639 -0.041619698353973944 0.011839686749548321 0.042547618830396726 0.023264610392932993 -0.038760671786582365 -0.030383018142590895 0.032090912925914226 0.024502626591417193 -0.042260093788001774 0.027154892925127589 -0.024169040257050182 -0.039390681618230408 -0.01690412942896086 -0.016727063823795532 0.022514820595552949 0.016456659904239692 -0.031994931453372899 -0.063804951484744993 0.055883677191706928 -0.0030702763372483467 -0.04573728609750579 0.0074647011090285533 -0.047240252853640828 0.043981391620695677 0.044389354817293142 -0.026591033007519489 -0.048181701547391591 -0.00032537443447095988 0.028441801408064266 -0.055630816406319783 0.0022509343973678682 0.0016441018032201399 -0.0049960731657083864 -0.0032078860453906588 0.039549856075126032 -0.00090136271808404682
leaf_weight=4.9248250871896726 7.3787990659475318 6.5707239657640448 10.221063300967215 7.2001694142818478 8.2017614841461164 22.554850906133652 5.7362591475248319 4.9710935652256003 296.42340478301048 7.2156044691801062 4.9593092799186698 5.220645487308504 6.9275668114423743 13.936891436576845 5.2418435513973263 5.7267498075962058 5.8780175894498887 5.4693114608526257 11.238300308585169 4.9853826314210874 7.0613534599542609 14.894499033689497 5.1904899924993542 17.521271333098412 5.7413901537656775 8.7390141636133212 6.9951017946004859 19.199597865343094 5.4682940840721157 5.4530936628580085 6.7228976190090179 5.9804374277591705 6.2289136946201324 5.9980575144290951 5.9603054821491268 5.4986053109168989 6.9819446802139282 12.387635350227354 8.4663037955760938 4.9538289755582809 26.677358135581017 5.4867714643478385 8.7342785745859128 8.4894922971725482 6.9008752554655066 10.477045297622679 6.7310848087072364 50.832568943500519 4.9791638404130927 7.7322029173374167 8.7181083709001559 46.020722672343254 7.9936823993921307 16.726814359426498 7.4863826632499686 7.9457353800535184 20.714582100510597 4.9952188581228256 22.14964954555035 87.655652150511742 5.728257790207862 7.9925817698240271
leaf_count=20 30 27 41 29 33 91 23 20 1189 29 20 21 28 56 21 23 24 22 45 20 29 60 21 71 23 35 28 77 22 22 27 24 25 24 24 22 28 50 34 20 107 22 35 34 28 42 27 204 20 31 35 185 32 67 30 32 83 20 89 351 23 32
internal_value=0 0.000316474 0.000587989 -0.000561641 -0.0207694 0.000284995 0.0171004 0.00956912 -0.000432958 0.00933369 -0.00201135 0.00235193 0.00894806 -0.00955394 -0.00155969 -0.0201731 0.0116143 0.0141811 0.00737843 0.0268567 0.0309464 0.0215016 0.0268902 0.0358776 0.00111863 0.00906126 -0.0135527 0.00105391 0.000276357 0.0111623 -0.0173946 -0.00876018 0.0119654 -0.0146728 -0.00508811 -0.0147128 -0.00155705 -0.0279596 -0.00116754 0.00622731 -0.000745565 0.010061 -0.0133013 -0.00143973 -0.00466057 -0.0302553 -0.00314971 0.00844933 0.00258428 -0.00596268 -0.00489968 -0.00903518 0.00108356 -0.0158003 -0.016039 -0.00423562 -0.0115044 -0.0335227 0.0128043 0.000944726 0.00415707 0.0227272
internal_weight=0 990.215 983.644 872.021 35.0656 836.956 34.2715 111.623 802.684 83.0241 50.4337 45.4744 38.2588 26.8638 719.66 19.6636 106.652 96.4309 68.597 16.6836 27.8339 20.7725 32.5904 22.7118 51.9134 33.68 18.2334 27.9386 31.3312 19.3877 11.9435 11.7167 11.2143 42.0684 24.4389 18.4409 12.4805 17.6295 13.9194 9.87865 677.592 40.8984 14.2211 636.693 340.27 18.9665 321.303 62.7126 55.8117 258.591 251.86 147.493 60.3306 24.7205 87.1626 41.1419 33.6555 12.941 35.6101 104.366 27.8779 16.7107
internal_count=4007 3977 3950 3501 141 3360 138 449 3222 335 203 183 154 108 2887 79 429 388 275 67 113 84 132 92 208 135 73 112 126 78 48 47 45 169 98 74 50 71 56 40 2718 164 57 2554 1365 76 1289 252 224 1037 1010 592 242 99 350 165 135 52 143 418 112 67
is_linear=0
shrinkage=0.05


Tree=8
num_leaves=63
num_cat=0
split_feature=3 0 2 0 3 0 0 0 3 2 1 2 1 1 2 3 3 1 1 3 2 1 2 2 0 2 1 1 3 3 0 3 1 0 2 1 1 0 3 3 0 3 3 3 1 1 2 2 1 2 3 1 3 3 3 0 3 2 0 1 1 2
split_gain=4.83822 3.97351 3.7173 6.88877 6.18397 3.38231 4.12762 3.19642 5.99196 3.1915 3.79503 4.72642 2.99214 2.78043 2.31308 2.73632 5.07007 3.45661 3.85467 2.52489 2.47526 2.97564 2.80731 2.41666 3.01298 2.739 2.20102 3.22302 2.17787 2.71423 2.5381 2.06395 1.96384 3.29062 4.93859 1.9334 1.8949 1.87653 1.84117 1.83602 4.29878 2.85618 2.73875 4.75425 6.27101 3.78764 6.34468 4.90756 3.95504 2.35266 8.14747 4.53741 5.06459 3.77179 4.35897 3.75857 3.18111 3.00378 4.11832 2.44237 4.60945 4.15083
threshold=154640550.00000003 138.09000000000003 75.260000000000005 70.030000000000015 56873900.000000007 65.905000000000015 68.990000000000023 24.625000000000004 59774300.000000007 24.485000000000003 54005450.000000007 23.780000000000005 35479950.000000007 92948800.000000015 93.990000000000023 24005119.500000004 16807204.000000004 25904163.000000004 22162875.500000004 40708200.000000007 88.540000000000006 18707681.000000004 83.530000000000015 100.855 106.84000000000002 113.06000000000002 47681100.000000007 52460460.000000007 76340400.000000015 82724100.000000015 19.640000000000004 29198300.000000004 96429050.000000015 27.555000000000003 29.005000000000006 83004450.000000015 42790150.000000007 26.655000000000005 27901550.000000004 84238000.000000015 28.545000000000005 91406200.000000015 42347350.000000007 43936946.000000007 45818250.000000007 43752100.000000007 25.805000000000003 56.755000000000003 44389850.000000007 37.850500000000004 40708200.000000007 29703077.500000004 31556150.000000004 28435189.500000004 30803867.500000004 25.833750000000002 37220068.500000007 30.965000000000003 27.722500000000004 35665750.000000007 38930220.500000007 29.288750000000004
decision_type=2 2 2 2 2 2 2 2 2 2 2 2 2 2 2 2 2 2 2 2 2 2 2 2 2 2 2 2 2 2 2 2 2 2 2 2 2 2 2 2 2 2 2 2 2 2 2 2 2 2 2 2 2 2 2 2 2 2 2 2 2 2
left_child=1 2 3 5 14 7 -7 8 26 10 -10 28 -5 39 20 16 -16 18 -18 23 21 -4 -23 -17 -25 -26 36 -28 30 -30 -12 -8 -15 37 -35 -31 -1 -34 -27 42 -41 -42 49 44 -44 46 -45 -48 -47 51 -51 52 -9 -53 -55 -56 57 58 -57 -58 -61 -62
right_child=-2 -3 4 12 -6 6 31 13 9 -11 11 -13 -14 32 15 19 17 -19 -20 -21 -22 22 -24 24 25 38 27 -29 29 35 -32 -33 33 34 -36 -37 -38 -39 -40 40 41 -43 43 45 -46 48 47 -49 -50 50 -52 53 -54 54 55 56 59 -59 -60 60 61 -63
leaf_value=0.027950111760291246 -0.04044535459158765 -0.038587949038301567 0.043061630255389671 -0.015800688353910877 -0.044450151576621418 0.0283483978790352 0.013093245210842326 0.0080377310297454936 -0.031056132235456918 -0.04008036608752838 0.0096181233596407192 0.046000110454433425 -0.054080141182966182 -0.040645825323662989 -0.016777262033219768 -0.02798616266209969 0.032820615394231652 0.05604770053117869 -0.018245798766520282 0.02530604178793221 0.039574795635038261 0.023199246675954324 -0.021033078936955756 0.0234393732003467 -0.030231226357367809 -0.015108567595704871 0.068997173788939589 0.023981435822088518 0.040494163767855355 0.02212651443756752 -0.03686754561460108 -0.028897879508211197 -0.013610338157896579 0.037532896790859721 -0.013853256068618031 -0.016062324254471457 -0.015874001775822728 -0.050109820912275983 0.025450133238086425 0.021405532619302108 0.015639568277866778 -0.03039796483837004 -0.058298607518816548 0.053409444349110186 -0.00075559637311988349 -0.043524939753566423 0.0070923128876193278 -0.044967446889656169 -0.0046574083289696684 -0.0027614704426935908 0.059065221240133428 0.034554551889745225 0.066396489499928144 -0.043735827417889755 -0.036301217368301379 0.00012556880827038446 -0.035012385958126356 -0.00043861816542047446 0.049245702749004687 0.045840323497664891 0.0093156909056134989 -0.033320565926749555
leaf_weight=4.9078038483858091 7.3393399566411963 6.5251016020774832 5.4080328345298794 21.63434557616711 5.1992281526327124 22.244215548038483 5.7365481555461866 8.4731622040271741 7.2008869200944892 4.9398873448371878 5.2182895094156283 6.8921681046485892 6.681541144847869 5.9250134378671637 7.985922083258628 9.4843935668468458 11.311900988221174 8.0133478939533216 5.48825979232788 7.7102858126163474 12.898484438657759 6.7147042602300626 7.7014815658330917 9.9825187772512454 9.2392631024122256 5.2484837621450406 5.1476925462484386 17.473034977912903 5.4585459828376797 5.4470515549182883 6.7148971408605576 5.973567321896553 9.2020936012268049 6.9766262918710735 14.177567094564436 8.4645518362522107 4.9589066952466965 5.7044365257024756 5.9933243840932846 26.6573496311903 5.4848055094480506 8.7334810197353345 9.2251794040203112 6.8605458438396445 9.7269039005041105 6.7198259979486457 50.826646521687508 4.9695156067609778 251.73104466497898 190.86359813809395 5.4816091507673255 8.9729003161191923 6.6240395158529273 5.237856611609458 5.4639931768178931 6.7144270390272203 5.2413261234760276 12.465589284896849 11.70771887898445 4.9845504015684154 14.949741765856745 9.2345664352178556
leaf_count=20 30 27 22 87 21 90 23 34 29 20 21 28 27 24 32 38 46 33 22 31 52 27 31 40 37 21 21 71 22 22 27 24 37 28 57 34 20 23 24 107 22 35 37 28 39 27 204 20 1010 765 22 36 27 21 22 27 21 50 47 20 60 37
internal_value=0 0.000301049 0.000559242 -0.000578706 0.00886875 0.0002427 0.0156997 -0.000411576 0.00889007 -0.00191417 0.00223895 0.00851598 -0.0248333 -0.00148256 0.0113181 0.00675961 0.0178745 0.0290268 0.0161383 -0.000889907 0.0225264 0.0114339 -0.000430751 -0.00594594 0.000915964 -0.010062 0.0256302 0.0342255 0.00026296 0.0106144 -0.0165397 -0.00832728 -0.0139683 -0.00958506 0.00309383 -0.00110959 0.00592457 -0.027578 0.00651442 -0.000708624 0.00956351 -0.0126387 -0.00136832 -0.00443048 -0.0287654 -0.00299421 0.00803473 0.00245558 -0.00566798 0.00214472 -0.00103538 0.00838434 0.0336432 0.00389657 0.000276935 0.0035348 0.00686819 0.0185164 0.0313426 -0.00358765 0.00205903 -0.00696459
internal_weight=0 989.335 982.81 864.43 118.38 836.114 33.9543 802.16 82.8237 50.3363 45.3964 38.1955 28.3159 719.336 113.18 80.4577 32.7994 24.8135 16.8002 47.6583 32.7227 19.8242 14.4162 39.948 30.4636 20.4811 32.4874 22.6207 31.3033 19.3701 11.9332 11.7101 41.9857 36.0607 21.1542 13.9116 9.86671 14.9065 11.2418 677.35 40.8756 14.2183 636.475 340.06 18.9521 321.108 62.6567 55.7962 258.451 296.415 196.345 100.07 15.0972 84.9727 75.9998 70.7619 65.2979 30.8877 18.4221 34.4102 29.1689 24.1843
internal_count=4007 3977 3950 3473 477 3359 137 3222 335 203 183 154 114 2887 456 324 133 101 68 191 132 80 58 160 122 82 132 92 126 78 48 47 169 145 85 56 40 60 45 2718 164 57 2554 1365 76 1289 252 224 1037 1189 787 402 61 341 305 284 262 124 74 138 117 97
is_linear=0
shrinkage=0.05


Tree=9
num_leaves=63
num_cat=0
split_feature=3 0 3 3 0 3 2 0 2 1 0 0 3 0 3 3 2 1 3 3 3 1 3 1 3 0 1 0 2 2 1 1 3 2 3 2 1 3 0 0 0 0 2 0 0 2 0 1 0 3 1 2 1 1 1 1 1 2 0 0 2 0
split_gain=4.39376 3.61368 3.46546 3.85016 3.03033 5.67254 2.82843 4.69561 2.41194 3.69491 2.2466 3.45397 3.29166 2.74087 2.67501 4.30361 4.55388 5.44047 4.13825 3.52684 4.07199 3.49882 3.05405 2.86325 4.51768 4.95765 2.75684 2.54308 3.04087 4.94563 3.78117 3.38421 2.53407 4.38744 5.95148 3.84438 3.09896 8.16183 2.49303 2.77926 2.4324 5.17624 4.01867 4.22814 3.85043 3.50148 8.63843 4.72189 4.19956 3.99069 2.91018 2.25136 2.16428 4.3749 4.30691 2.89418 2.60207 2.19155 5.04572 2.26536 2.71388 2.13133
threshold=154640550.00000003 138.09000000000003 23159274.500000004 22580464.500000004 24.625000000000004 54179050.000000007 24.485000000000003 24.205000000000002 24.815000000000001 62227750.000000007 25.265000000000004 25.378750000000004 77442700.000000015 25.035000000000004 63407648.000000007 65728692.500000007 26.612500000000001 61344950.000000007 58062700.000000007 68243950.000000015 69695300.000000015 73920150.000000015 73540850.000000015 79939250.000000015 112265900.00000001 27.275000000000002 104427300.00000001 26.165000000000003 27.005000000000006 27.875000000000004 56245958.500000007 41827000.000000007 77442700.000000015 28.257500000000004 72922100.000000015 27.875000000000004 50188250.000000007 92770350.000000015 27.365000000000006 30.965000000000003 25.895000000000003 25.555000000000003 26.055000000000003 26.355000000000004 26.595000000000002 27.265000000000004 27.275000000000002 61877450.000000007 27.205000000000002 44891650.000000007 47915900.000000007 26.055000000000003 24654216.500000004 21110498.000000004 30293879.500000004 28158344.500000004 26125010.000000004 54.030000000000008 58.070000000000007 66.485000000000014 109.43000000000002 64.945000000000007
decision_type=2 2 2 2 2 2 2 2 2 2 2 2 2 2 2 2 2 2 2 2 2 2 2 2 2 2 2 2 2 2 2 2 2 2 2 2 2 2 2 2 2 2 2 2 2 2 2 2 2 2 2 2 2 2 2 2 2 2 2 2 2 2
left_child=1 2 3 52 5 -4 7 -7 9 -6 12 -12 13 -10 18 38 17 -17 40 -18 -21 27 -19 32 25 -25 -27 -20 -29 -30 31 -31 33 -22 -35 -34 -37 -38 -16 -40 41 -13 -42 -44 -45 47 -47 48 49 -46 -43 -24 53 57 55 56 -54 -1 -59 -60 -61 -5
right_child=-2 -3 4 61 8 6 -8 -9 10 -11 11 14 -14 -15 15 16 19 22 21 20 23 -23 51 24 -26 26 -28 28 29 30 -32 -33 35 34 -36 36 37 -39 39 -41 42 50 43 44 45 46 -48 -49 -50 -51 -52 -53 54 -55 -56 -57 -58 58 59 60 -62 -63
leaf_value=-0.021571545312459795 -0.0386577772800486 -0.03693798710841481 0.02863720616296514 0.01571540630739874 -0.047374139513203947 -0.0012911958239438595 -0.034412520011979912 0.050138060756147809 -0.021282946681839929 0.0033789128174923355 -0.035466693552412935 0.022614711641846905 0.046122530956295323 0.018649159864008974 -0.049189937830868363 -0.020598638009236094 0.017124428723933698 -0.0024723695941615098 0.046848975952269632 -0.053179203509179998 -0.045893022696964866 -0.01148217409171458 0.022213077593874794 -0.075952560677274933 0.011756529090332831 -0.033205463127045767 0.011086579799126296 -0.021107803178382484 0.06634386031967042 0.027703965560832079 0.040931702278668339 -0.023180999623296072 0.037000728209486924 0.044339004349319533 -0.026746475098476503 -0.030326295212212157 0.038969290963091673 -0.031544013591393937 0.0061905301256695655 -0.041076412021824937 0.032877810200851822 -0.0077257381698525515 -0.04030747495274907 0.043567965812121356 -0.047984946031052939 0.062614941547207481 -0.00046128154127065429 0.020841846636910924 -0.063590038325719106 0.0012550145876034989 -0.048940833738057105 0.061374490160953435 0.047345164516647831 -0.017790180258383147 -0.0071185816202377038 0.064705871403245116 0.0037382314065402406 0.060218120517207374 -0.015406447082449768 0.021199135279220169 -0.014284803694475132 0.058328720949376023
leaf_weight=5.2449734956026068 7.2958951294422141 6.4769775420427314 24.680431663990021 6.2335571348667127 7.1221435219049436 47.097118765115738 5.4161032140254965 4.9000008106231681 6.978075906634337 7.2228545993566513 7.4588906168937674 6.1655318737030056 5.9629744738340369 11.185067445039747 8.4515116363763827 8.423998638987543 11.445535704493521 6.2417515367269543 7.6830822229385367 5.7191978096961966 7.7350454032421139 10.472205609083174 8.4763994365930539 5.206728518009192 7.4370058327913275 11.920622274279596 4.9812045246362677 4.9733761996030834 4.9831140637397793 5.224355652928355 6.9914660304784766 8.7236350029706937 7.7226993590593365 4.9729597121477109 7.2183917760848999 7.4568089395761517 9.4770577400922793 7.2380333691835395 7.231273874640463 5.4567404091358185 8.9668573290109617 7.6783548891544369 6.7129350155591956 4.9390507340431204 6.2104058116674521 5.4928575307130805 460.04705373942852 6.4764923304319373 5.9798822253942481 12.194676488637922 9.6856461614370328 6.4723642319440833 5.4555701017379823 21.944913566112518 11.909342676401137 4.8110913038253775 9.1729349792003614 4.9455246329307547 8.9948466867208463 23.693934693932537 6.9746857881546012 5.5438829511404037
leaf_count=21 30 27 101 25 29 190 22 20 28 29 30 25 24 45 34 34 46 25 31 23 31 42 34 21 30 48 20 20 20 21 28 35 31 20 29 30 38 29 29 22 36 31 27 20 25 22 1847 26 24 49 39 26 22 88 48 20 37 20 36 96 28 23
internal_value=0 0.000286704 0.000532268 0.00869077 -0.000549295 0.00859094 -2.64194e-05 0.00355529 -0.00150539 -0.0218195 -0.00112717 -0.0016126 0.0138897 0.00330769 -0.00127085 -0.00724965 -0.0038016 0.0133911 0.000242965 -0.00896903 -0.0123984 0.0141486 0.0269032 -0.00953199 -0.0219538 -0.0332934 -0.020152 0.0211061 0.0147044 0.0215752 0.0109213 -0.00412154 -0.00244977 -0.0164382 0.00224992 0.00628965 -0.00352226 0.00843535 -0.0281514 -0.0141376 -0.00101888 -0.0167412 -0.00030336 -0.000888989 -0.000361176 -0.000798259 0.000282948 -0.0171081 -0.0271873 -0.01536 -0.0307155 0.0391688 0.00559835 0.000812608 0.0165592 0.031065 0.020001 0.00900126 0.0125959 0.00665802 0.0131293 0.0357744
internal_weight=0 988.312 981.835 114.925 866.91 82.0937 57.4132 51.9971 784.816 14.345 770.471 746.345 24.1261 18.1631 738.886 149.285 128.146 29.6145 589.601 98.5313 87.0858 49.0512 21.1905 81.3666 29.5456 22.1086 16.9018 38.579 30.8959 25.9226 20.9395 13.948 51.821 19.9264 12.1914 31.8946 24.1719 16.7151 21.1395 12.688 540.55 23.5295 517.02 508.053 501.34 496.401 465.54 30.8615 24.385 18.4051 17.364 14.9488 103.148 71.7989 31.3489 19.4396 14.6285 49.854 44.609 39.6635 30.6686 11.7774
internal_count=4007 3977 3950 464 3486 333 232 210 3153 58 3095 2998 97 73 2968 600 515 119 2368 396 350 197 85 327 119 89 68 155 124 104 84 56 208 80 49 128 97 67 85 51 2171 95 2076 2040 2013 1993 1869 124 98 74 70 60 416 289 127 79 59 201 180 160 124 48
is_linear=0
shrinkage=0.05


Tree=10
num_leaves=63
num_cat=0
split_feature=3 0 0 0 1 3 1 3 0 0 3 0 3 2 1 2 3 1 3 1 3 0 1 1 1 0 2 3 0 0 1 3 2 3 1 2 3 1 1 1 1 3 3 2 3 2 0 3 3 3 1 3 3 3 1 0 1 1 0 0 1 3
split_gain=3.99207 3.28758 3.28902 5.11354 4.70613 3.47527 4.14351 3.4579 3.21463 3.95131 2.83735 2.62206 4.99712 2.64189 3.48007 4.10372 2.51437 4.25465 2.49932 2.48998 2.18053 2.1475 2.04022 2.07536 2.0402 2.03318 3.91639 2.52606 1.84152 2.61565 2.39427 3.83635 1.80799 1.78672 1.71518 1.71139 2.1476 4.48284 3.67934 3.42967 2.31599 5.98521 2.85493 2.90917 3.04426 3.45082 4.10138 3.46993 5.65581 3.40148 3.03839 4.45669 2.95097 3.61508 2.9113 4.30764 3.90811 2.77082 4.10102 3.40103 2.706 4.2191
threshold=154640550.00000003 138.09000000000003 80.625000000000014 70.030000000000015 35180700.000000007 29642895.000000004 31369370.000000004 16807204.000000004 65.905000000000015 68.990000000000023 17598820.000000004 24.625000000000004 59774300.000000007 24.485000000000003 54005450.000000007 23.780000000000005 34327074.000000007 48130450.000000007 28683998.500000004 92948800.000000015 42036350.000000007 84.580000000000013 47681100.000000007 52664850.000000007 26494518.000000004 19.290000000000003 20.605000000000004 76866100.000000015 31.495000000000005 27.555000000000003 100130500.00000001 86086950.000000015 26.235000000000003 29198300.000000004 63021700.000000007 65.450000000000017 18960201.000000004 18707681.000000004 18141718.500000004 23656288.500000004 41827000.000000007 58062700.000000007 21426256.500000004 37.505000000000003 50038250.000000007 48.880000000000003 47.585000000000008 27662510.000000004 38074500.000000007 24512993.000000004 28376863.000000004 51794900.000000007 33337900.000000004 29371250.500000004 31695621.000000004 27.722500000000004 37304954.000000007 45555100.000000007 52.960000000000008 25.950500000000002 50918050.000000007 60462700.000000007
decision_type=2 2 2 2 2 2 2 2 2 2 2 2 2 2 2 2 2 2 2 2 2 2 2 2 2 2 2 2 2 2 2 2 2 2 2 2 2 2 2 2 2 2 2 2 2 2 2 2 2 2 2 2 2 2 2 2 2 2 2 2 2 2
left_child=1 2 3 8 10 7 24 -4 11 -10 -5 12 20 14 -14 25 -8 -18 -12 35 -1 -9 -22 -24 -7 -16 -27 -28 29 32 -31 -32 -21 -11 -25 36 37 -13 -38 -40 41 42 -41 50 45 46 47 49 52 -45 -44 54 53 -49 -52 56 -56 58 59 -42 61 -59
right_child=-2 -3 5 4 -6 6 16 21 9 33 18 19 13 -15 15 -17 17 -19 -20 28 22 -23 23 34 -26 26 27 -29 -30 30 31 -33 -34 -35 -36 -37 38 -39 39 40 57 -43 43 44 -46 -47 -48 48 -50 -51 51 -53 -54 -55 55 -57 -58 60 -60 -61 -62 -63
leaf_value=0.054338258842792468 -0.03696733184633845 -0.035371385105438316 -0.011657541277230902 0.017737215875450504 -0.052639844365347271 -0.0021312794162935164 -0.019134409722217458 0.050675788736898021 0.027582510497292292 0.01166821089878502 -0.030464465887056681 -0.015110336234019287 -0.029958082441805631 -0.036703968505041977 0.018047380136356841 0.043108107942890994 0.035474639225461846 -0.013340110086529619 0.0087953087010206165 -0.0053024949839515596 -0.0050202313856093275 0.016942301019894294 0.054603963580175136 -0.0021550904743623395 -0.039608683660139761 -0.042173344984545745 -0.022294860480143681 0.021200000350808736 -0.035291296035508624 -0.021636572063476831 0.052072902323526349 -0.0073519540943861802 -0.036934488768592962 -0.027429354811065034 0.031534232863014114 -0.027814531749698675 0.036679285750848632 0.039585991981428419 -0.016275241841419593 0.03561992356344295 -0.043837560315614338 0.033611291342788507 0.03960794549905073 -0.016995342096966553 -0.040518155584229956 0.0051889731556998171 -0.048999607434392217 -0.048195582598550127 0.023072768441155689 0.034237436448838893 -0.028265835149923441 0.040961341663681289 -0.045540221873708438 0.0022955826025454901 0.011256420633499209 0.013764561168515566 -0.042710031589117882 0.013149350241891601 -0.049239848243947872 -0.0022861347823780369 -0.0033904435909451109 -0.017605926450488401
leaf_weight=4.8444992303848258 7.2492444366216651 6.4269407987594596 10.197484046220778 7.1722116619348553 8.1135416775941831 6.2235605269670478 5.9870735555887249 5.1567465513944617 22.411520183086395 5.7294586896896345 13.89729690551758 6.2049943953752509 7.1836881339550009 4.8951763659715644 10.655715480446817 6.8252944946289054 12.42275393009186 6.9672630280256262 5.72333800792694 8.9471978992223757 7.1467902213335064 55.4421266913414 4.842912137508395 6.6155536323785773 8.7187017649412137 6.1761209219694164 5.2417782843112937 9.1919355541467649 7.6906839907169333 5.1635906994342831 4.9797750115394575 5.9743323773145676 9.123931869864462 5.9637063443660736 8.8082984536886197 5.7368654012680045 6.4744891077280036 9.4531186074018461 35.65716065466404 5.9527712762355796 5.6897169202566138 15.59282912313938 7.085488647222518 5.2383854538202277 5.467147931456565 67.882290616631508 6.4743360280990592 4.9927860051393571 7.7123683840036383 8.4913553893566114 7.6877715140581122 7.6641431003808966 10.953984424471853 12.226193577051161 5.9484028071165067 36.393770530819893 7.6939074844121933 60.003654167056084 6.9796121120452872 36.626276642084122 266.62989890575409 13.696556776762007
leaf_count=20 30 27 41 29 33 25 24 21 91 23 56 25 29 20 43 28 50 28 23 36 29 225 20 27 35 25 21 37 31 21 20 24 37 24 36 23 26 38 143 24 23 63 29 21 22 272 26 20 31 34 31 31 44 49 24 146 31 241 28 147 1071 55
internal_value=0 0.00027277 0.000506279 -0.000528398 -0.0192777 0.0086068 -0.00311044 0.0152799 0.000255379 0.0152893 -0.00917484 -0.000384797 0.00806159 -0.0018101 0.0019627 0.00798276 0.00918898 0.0179344 -0.0190124 -0.0013538 0.0234147 0.0198129 0.0179499 0.0260499 -0.0239991 0.000314864 -0.00885322 0.00540431 -0.0131849 -0.00821217 0.00643181 0.0196628 -0.0212732 -0.00827219 0.0170843 -0.000621497 -0.00038896 0.0179109 -0.000826285 -0.00120059 -0.000323847 0.00373409 0.00149287 0.000486739 -0.00400413 -0.00239387 -0.011571 -0.0066869 -0.0148658 0.0146903 0.00850751 0.00513745 -0.0252515 -0.0123447 0.000381016 0.00478245 -0.0191793 -0.00265115 -0.01373 -0.00787305 -0.00104641 0.00743374
internal_weight=0 987.471 981.044 869.929 34.9064 111.116 40.3194 70.7964 835.022 34.1047 26.7928 800.918 82.4278 50.1697 45.2745 38.0908 25.3771 19.39 19.6206 718.49 32.2581 60.5989 27.4136 20.2668 14.9423 31.2656 20.6098 14.4337 41.8795 34.1888 16.1177 10.9541 18.0711 11.6932 15.4239 676.61 670.873 15.6581 655.215 648.741 613.084 223.458 207.865 201.912 129.439 123.972 56.0894 49.6151 35.8853 13.7297 72.4735 65.388 28.173 17.219 57.7239 50.0361 13.6423 389.626 49.2956 42.316 340.33 73.7002
internal_count=4007 3977 3950 3501 141 449 162 287 3360 138 108 3222 335 203 183 154 102 78 79 2887 132 246 112 83 60 126 83 58 169 138 65 44 73 47 63 2718 2695 63 2632 2606 2463 898 835 811 519 497 225 199 144 55 292 263 113 69 232 201 55 1565 198 170 1367 296
is_linear=0
shrinkage=0.05


Tree=11
num_leaves=63
num_cat=0
split_feature=3 0 2 1 0 3 2 0 3 2 1 0 2 3 0 3 1 1 1 3 3 0 2 2 2 3 1 1 0 0 0 1 1 2 0 2 1 3 2 1 1 0 2 0 0 0 3 3 3 1 3 0 1 3 0 1 0 2 2 2 1 0
split_gain=3.62859 3.0782 6.7344 3.07776 2.52667 4.96704 2.32871 4.1429 2.26044 2.13488 3.34763 2.05976 3.21621 3.02548 2.47905 2.01363 2.1903 4.72275 4.53638 4.84144 4.51457 4.64902 4.66935 4.41329 6.82691 6.2595 4.31689 3.32078 2.98855 2.48412 2.60809 2.23302 6.3413 3.11376 2.08371 3.98701 3.04383 2.6025 2.03418 2.33153 2.77922 2.63755 8.4009 5.97392 5.10627 3.32775 3.35832 2.44211 2.07271 2.00097 1.99687 1.95305 4.378 1.93005 1.90415 1.89142 1.76538 3.99468 2.87566 2.23442 2.03626 1.7437
threshold=154640550.00000003 137.06500000000003 132.72500000000002 17944560.000000004 24.625000000000004 54179050.000000007 24.485000000000003 24.205000000000002 15216130.000000002 24.815000000000001 62227750.000000007 25.265000000000004 25.245000000000001 77442700.000000015 25.035000000000004 16807204.000000004 38204100.000000007 31369370.000000004 29792950.000000004 46866900.000000007 34327074.000000007 59.240000000000002 37.505000000000003 42.252500000000005 31.645000000000007 25345280.500000004 28629597.000000004 39204296.000000007 94.065000000000012 106.84000000000002 80.625000000000014 26894172.000000004 25690557.000000004 65.805000000000021 70.030000000000015 64.960000000000022 24222382.000000004 19913440.500000004 27.395000000000003 31894450.000000004 33388600.000000004 62.305000000000007 55.915000000000006 52.660000000000004 46.445000000000007 29.665000000000003 36045450.000000007 31162338.500000004 38791200.000000007 38712700.000000007 33019496.000000004 40.410000000000004 30623852.500000004 16807204.000000004 108.21500000000002 48870200.000000007 19.290000000000003 18.125000000000004 20.605000000000004 22.360000000000003 76076700.000000015 80.625000000000014
decision_type=2 2 2 2 2 2 2 2 2 2 2 2 2 2 2 2 2 2 2 2 2 2 2 2 2 2 2 2 2 2 2 2 2 2 2 2 2 2 2 2 2 2 2 2 2 2 2 2 2 2 2 2 2 2 2 2 2 2 2 2 2 2
left_child=1 2 3 53 5 -5 7 55 -6 10 -10 13 -13 14 -11 -14 17 18 19 20 23 22 -22 24 -17 26 28 49 34 30 38 32 -27 -33 35 36 -25 -36 -19 -40 48 42 43 44 45 -42 47 -47 -41 -18 -32 -20 -53 -1 -30 -7 57 -57 -58 -60 -61 -55
right_child=-2 -3 -4 4 8 6 -8 -9 9 11 -12 12 15 -15 -16 16 27 29 51 -21 21 -23 -24 25 -26 31 -28 -29 54 -31 50 33 -34 -35 37 -37 -38 -39 39 40 41 -43 -44 -45 -46 46 -48 -49 -50 -51 -52 52 -54 61 -56 56 58 -59 59 60 -62 -63
leaf_value=0.0004629312435884029 -0.035365032830681674 -0.02755922903085058 0.049825789492234214 0.026792875808816466 0.027227796589018385 -0.030584101335682241 -0.031391265427779709 0.047235819752903745 -0.04499654651084363 -0.020174133085645862 0.0034059232404255605 -0.031751116501664615 -0.030782546153856651 0.044305176982046002 0.017815848055515122 -0.022198591933799125 -0.00819843348290622 0.03087605633124 -0.049607526209563262 -0.038138549643928932 0.042453385958814475 0.049387167260782225 -0.017108369272090907 -0.015170307917694423 0.042941468134863645 -0.01403632483443791 0.050068359524083152 -0.0024001384027599092 0.037866369323424354 -0.024671316095281118 0.014777866530502582 -0.016677300380346302 -0.067035985929900316 0.022819331360880993 -0.048519227158617312 0.037449207544124057 0.0186445133498515 -0.0049419869653955315 0.032193307427055833 -0.020824768751805098 0.027429034508712386 -0.014893312106235965 0.06692351795770865 -0.041521255034203133 0.048254664359420094 -0.0039955470931354728 0.0097857858898539561 -0.0523239913481858 0.0162760027868196 -0.045475791430324541 0.055903765146121533 -0.038739660213578157 0.011868707191194445 0.016077582571408254 0.0029453742800595387 -0.0065436681240171176 -0.030902358688668058 0.051506318014139234 0.031605886129111319 0.011193323065387152 -0.02402964717466205 0.049601175708606109
leaf_weight=13.113633617758749 7.2000707089900962 9.8447743654251081 6.8821420967578879 24.699422463774681 6.9658092260360709 4.9437248259782782 5.3662826865911475 4.8440216928720465 7.0680742114782316 6.9738320857286515 7.2226103544235229 8.6759529411792737 5.6899623423814765 5.94930276274681 11.176097273826597 5.9533710926771191 7.2163353115320188 9.6092613637447339 5.4475354403257397 7.9016762077808371 5.1229888945817974 9.444223687052725 9.1990658789873105 21.192059546709064 12.399901345372198 35.359329000115395 5.0766643434762946 447.7521016895771 8.3401759415864927 4.9601410776376715 6.4303322285413724 14.211555898189546 6.7157183140516272 7.6903433352708808 4.950230777263644 6.9151217341423026 9.7015887200832349 11.128522574901579 8.2248819768428785 15.46111609041691 11.189483538269995 9.6609512418508512 6.4885523766279212 5.7427391409873954 8.2221507728099805 5.4873025715351122 15.174046635627745 4.9919479787349701 4.9761657565832129 7.1833247989416122 5.4559827893972397 9.2067569643259066 7.9750348180532447 14.140173971652986 7.3383395820856085 6.9490640014410001 7.6306409984827068 5.1672974526882172 5.7193442583084133 9.1295874267816561 7.4527341425418845 5.3451950997114173
leaf_count=53 30 41 28 102 28 20 22 20 29 28 29 35 23 24 45 24 29 39 22 32 21 38 37 85 50 142 21 1800 34 20 26 57 27 31 20 28 39 45 33 62 45 39 26 23 33 22 61 20 20 29 22 37 32 57 30 28 31 21 23 37 30 22
internal_value=0 0.000259525 0.000539956 0.000190172 -0.000335202 0.00805432 -3.67529e-05 0.00320917 -0.00113865 -0.00137159 -0.0205336 -0.00104323 -0.00147188 0.0133617 0.00321878 -0.00114399 -0.000931994 0.00215722 -0.0023667 0.000170903 0.00184574 0.0221545 0.00419683 -0.00122908 0.0218116 -0.00427967 0.00555694 -0.00316021 0.00230867 0.00998657 0.0114544 -0.0157562 -0.0224958 -0.00280898 -0.0032813 0.00313042 -0.00455138 -0.0183583 0.00894669 0.0067429 0.00434771 0.00927381 0.0133487 0.00650679 0.0126271 0.00467617 -0.00524819 -0.0270175 -0.0117913 -0.0267944 0.0336552 -0.0235205 -0.0152495 0.0152931 0.0215216 -0.00132914 0.00211041 0.0182131 -0.00440781 0.00465745 -0.00463724 0.0252737
internal_weight=0 986.447 976.602 969.72 937.121 81.9021 57.2027 51.8364 855.219 848.253 14.2907 833.962 809.863 24.0992 18.1499 801.187 795.497 333.345 211.27 188.641 180.739 23.7663 14.3221 156.973 18.3533 138.62 74.6427 462.152 69.566 122.075 117.115 63.9769 42.075 21.9019 53.8875 37.8088 30.8936 16.0788 105.229 95.6193 87.3945 66.9572 57.2962 50.8077 45.0649 36.8428 25.6533 10.4793 20.4373 14.3997 11.8863 22.6293 17.1818 32.599 15.6785 46.9924 42.0487 12.1164 29.9323 22.3017 16.5823 19.4854
internal_count=4007 3977 3936 3908 3776 334 232 210 3442 3414 58 3356 3259 97 73 3224 3201 1343 852 761 729 96 58 633 74 559 302 1858 281 491 471 257 169 88 217 152 124 65 423 384 351 269 230 204 181 148 103 42 82 58 48 91 69 132 64 190 170 49 121 90 67 79
is_linear=0
shrinkage=0.05


Tree=12
num_leaves=63
num_cat=0
split_feature=1 0 1 1 0 2 1 1 1 1 0 0 2 2 3 1 1 3 2 1 0 3 3 1 0 0 1 0 3 0 2 3 3 1 0 2 2 2 1 1 3 1 0 0 3 0 2 0 2 1 0 2 3 3 0 1 1 3 3 1 1 3
split_gain=3.48124 3.23997 2.90423 5.70819 2.8721 6.00698 2.64726 2.56098 2.33118 2.34753 3.21344 2.3383 4.30302 3.81487 3.82126 3.99195 6.0041 2.07321 3.52006 3.55694 2.56245 2.01359 4.72101 3.98801 3.91668 10.606 3.67412 5.12512 4.73371 4.30803 3.63131 4.61768 3.49096 4.3923 3.2825 4.7119 3.77809 2.72842 2.43563 3.57577 2.10568 6.31092 6.52443 4.11148 3.92641 4.20594 3.86019 4.29739 3.52063 3.60468 3.00319 9.3448 3.46663 3.30555 3.27243 3.06289 2.33454 2.38479 2.16406 2.08198 1.94341 3.1226
threshold=92948800.000000015 18.940000000000005 90098600.000000015 86199300.000000015 137.06500000000003 132.72500000000002 17944560.000000004 72167300.000000015 83617393.000000015 80989550.000000015 27.075000000000003 25.325000000000003 25.315000000000001 21.920000000000005 42036350.000000007 52840200.000000007 50918050.000000007 81731450.000000015 25.005000000000006 100130500.00000001 27.402500000000003 63407648.000000007 58062700.000000007 64325550.000000007 64.945000000000007 37.430000000000007 56245958.500000007 30.774950000000004 75687350.000000015 28.286250000000003 26.695000000000004 73540850.000000015 96136750.000000015 74529800.000000015 26.165000000000003 26.955000000000002 28.093750000000004 29.752500000000001 56245958.500000007 43404300.000000007 50488300.000000007 49200050.000000007 46.687500000000007 55.620000000000012 56200200.000000007 27.247500000000006 26.905000000000005 27.365000000000006 28.025000000000002 55614450.000000007 27.075000000000003 27.265000000000004 46517400.000000007 39821550.000000007 28.775000000000002 44389850.000000007 48644100.000000007 45166750.000000007 43761050.000000007 44186200.000000007 18395737.000000004 15216130.000000002
decision_type=2 2 2 2 2 2 2 2 2 2 2 2 2 2 2 2 2 2 2 2 2 2 2 2 2 2 2 2 2 2 2 2 2 2 2 2 2 2 2 2 2 2 2 2 2 2 2 2 2 2 2 2 2 2 2 2 2 2 2 2 2 2
left_child=1 7 3 4 5 6 -3 -1 9 11 -11 13 -13 -8 -15 16 -16 18 -2 -20 -21 22 40 24 25 26 27 29 -28 -23 31 -25 33 37 -24 -36 -37 -32 39 -38 50 42 44 -44 45 -42 -43 -48 -49 -50 52 -52 53 55 56 -14 59 -58 -55 -53 -56 -62
right_child=17 2 -4 -5 -6 -7 8 -9 -10 10 -12 12 21 14 15 -17 -18 -19 19 20 -22 23 34 30 -26 -27 28 -29 -30 -31 32 -33 -34 -35 35 36 38 -39 -40 -41 41 46 43 -45 -46 -47 47 48 49 -51 51 54 -54 58 60 -57 57 -59 -60 -61 61 -63
leaf_value=0.0040428851950098143 0.032452777496911923 0.014553432863186493 0.033219364848976744 -0.037053801225279737 -0.026295732968898436 0.047555689393372264 -0.015638784065508157 0.055192057243616727 0.023496872258312762 -0.051489442054729932 0.0039031893876756742 -0.038810772803992852 -0.0013719970640962322 0.052432754102670814 0.0059268816539404523 0.018338798899593771 -0.055089231837737423 -0.020196203693673084 -0.042202105936779338 -0.025169670890525565 0.018967214929531809 -0.014706462685302993 0.04761854923836558 -0.0087522868146820854 -0.057661196654386293 0.037532043786538044 -0.056356631219643939 -0.051962448461482041 -0.0067629727064810298 0.028955717177399962 -0.026833474096922313 0.053773705965892538 -0.041391261554493686 0.033255940550489603 -0.033334421795442166 0.048952731775127739 0.022884387813390288 0.018268858320299741 0.027284587219988939 -0.030519793839514225 0.001645282290005596 -0.042683292594301731 -0.057311101781730205 0.0024356706009864659 -0.018223151660389555 0.047913585028252763 0.029020440100521839 -0.057359700982864074 -0.034535647123555238 0.011067111817491457 -0.053387007066380769 0.014111446638874784 0.037287643199661033 -0.038471803458207984 -0.027035291804367013 0.049481345636348227 0.048839434462900545 0.0080115409577024201 0.0032994231126896797 -0.021243419374406932 0.036409679788356034 -0.0007862771621392243
leaf_weight=4.9441650807857496 5.9613957554101971 32.546794101595879 6.7096605449914923 10.16638897359371 9.8030001968145353 6.8509149253368369 14.455494776368139 4.8455972671508789 10.450040251016615 5.2357649356126768 5.2371088862419128 7.3985510468482962 6.1721252202987689 5.5321276932954779 18.783035308122638 42.751655206084251 5.1337642967700949 32.645330876111984 6.3754968345165279 5.1940466165542594 8.9633289426565153 16.106089293956764 7.1683935672044745 4.9980765879154188 4.878378599882125 9.4558586329221708 12.163398355245592 5.7015530616044989 7.9606841206550589 8.7017473429441434 10.238429561257368 7.2161401659250259 5.2099814862012854 8.2408346086740476 5.2191245853900901 7.4608335494995144 5.6996542811393756 4.9861490130424491 9.2325017303228361 6.9643856137990952 7.9207049757242265 14.17165571451187 5.2250696718692762 6.414217621088028 5.2010943889617911 12.929575651884077 5.4870303720235851 4.9939770102500942 7.9738950580358532 9.4914056062698346 8.1931030601263029 15.191654905676844 11.416682526469229 5.1982060819864255 6.9015765935182563 5.6912087947130203 7.9815870523452741 6.4807390123605728 7.6841959804296494 5.7364384680986396 5.718699946999549 422.94814290106297
leaf_count=20 24 132 27 41 41 28 59 20 42 21 21 30 25 23 77 174 21 133 26 21 36 65 29 20 20 38 49 23 32 35 41 29 21 33 21 30 23 20 37 28 32 57 21 26 21 52 22 20 32 38 33 61 46 21 28 23 32 26 31 23 23 1703
internal_value=0 0.000746862 0.000443634 0.000203833 0.000621491 0.000915627 0.000556709 0.02936 2.55824e-05 -0.000263913 -0.0237896 3.05266e-05 -0.000867827 0.00780698 0.0125011 0.00918761 -0.00717029 -0.0117625 -0.00137081 -0.011191 0.00277431 -0.000489864 0.000571532 -0.00687553 -0.0145747 -0.0110767 -0.0201545 -0.00921568 -0.0367384 0.000608749 0.00535739 0.028188 -0.00436724 0.00385313 0.0168257 0.0104417 0.0182242 -0.0120622 0.00775403 -0.00648439 -0.000568616 -0.00812605 0.00673701 -0.0243856 0.0206421 0.030337 -0.0214268 -0.0106475 -0.0203388 -0.00975312 0.000601832 -0.000446786 0.014496 0.00398087 0.000474196 0.0230239 0.0150959 0.030544 -0.0135558 0.0044206 -0.000713836 -0.000290058
internal_weight=0 933.569 923.78 917.07 906.903 897.1 890.25 9.78976 857.703 847.253 10.4729 836.78 750.124 86.6561 72.2006 66.6685 23.9168 59.1396 26.4943 20.5329 14.1574 742.725 636.868 105.857 64.9677 60.0893 50.6335 30.5094 20.1241 24.8078 40.8896 12.2142 28.6754 23.4654 41.7449 34.5765 29.3574 15.2246 21.8965 12.664 595.123 79.8086 37.6907 11.6393 26.0514 20.8503 42.118 27.9463 22.4593 17.4653 515.314 479.152 36.1624 24.7457 470.959 11.8633 35.3904 14.4623 12.8824 20.9281 435.568 428.667
internal_count=4007 3767 3727 3700 3659 3618 3590 40 3458 3416 42 3374 3020 354 295 272 98 240 107 83 57 2990 2564 426 262 242 204 123 81 100 164 49 115 94 168 139 118 61 88 51 2396 321 152 47 105 84 169 112 90 70 2075 1929 146 100 1896 48 142 58 52 84 1754 1726
is_linear=0
shrinkage=0.05


end of trees

feature_importances:
Column_1=235
Column_3=228
Column_0=192
Column_2=151

parameters:
[boosting: gbdt]
[objective: binary]
[metric: binary_logloss]
[tree_learner: serial]
[device_type: cpu]
[data_sample_strategy: bagging]
[data: ]
[valid: ]
[num_iterations: 10000]
[learning_rate: 0.05]
[num_leaves: 63]
[num_threads: 0]
[seed: 1237]
[deterministic: 0]
[force_col_wise: 0]
[force_row_wise: 0]
[histogram_pool_size: -1]
[max_depth: -1]
[min_data_in_leaf: 20]
[min_sum_hessian_in_leaf: 0.001]
[bagging_fraction: 1]
[pos_bagging_fraction: 1]
[neg_bagging_fraction: 1]
[bagging_freq: 0]
[bagging_seed: 32458]
[feature_fraction: 1]
[feature_fraction_bynode: 1]
[feature_fraction_seed: 15412]
[extra_trees: 0]
[extra_seed: 19498]
[early_stopping_round: 0]
[early_stopping_min_delta: 0]
[first_metric_only: 0]
[max_delta_step: 0]
[lambda_l1: 0]
[lambda_l2: 0]
[linear_lambda: 0]
[min_gain_to_split: 0]
[drop_rate: 0.1]
[max_drop: 50]
[skip_drop: 0.5]
[xgboost_dart_mode: 0]
[uniform_drop: 0]
[drop_seed: 818]
[top_rate: 0.2]
[other_rate: 0.1]
[min_data_per_group: 100]
[max_cat_threshold: 32]
[cat_l2: 10]
[cat_smooth: 10]
[max_cat_to_onehot: 4]
[top_k: 20]
[monotone_constraints: ]
[monotone_constraints_method: basic]
[monotone_penalty: 0]
[feature_contri: ]
[forcedsplits_filename: ]
[refit_decay_rate: 0.9]
[cegb_tradeoff: 1]
[cegb_penalty_split: 0]
[cegb_penalty_feature_lazy: ]
[cegb_penalty_feature_coupled: ]
[path_smooth: 0]
[interaction_constraints: ]
[verbosity: -1]
[saved_feature_importance_type: 0]
[use_quantized_grad: 0]
[num_grad_quant_bins: 4]
[quant_train_renew_leaf: 0]
[stochastic_rounding: 1]
[linear_tree: 0]
[max_bin: 255]
[max_bin_by_feature: ]
[min_data_in_bin: 3]
[bin_construct_sample_cnt: 200000]
[data_random_seed: 4078]
[is_enable_sparse: 1]
[enable_bundle: 1]
[use_missing: 1]
[zero_as_missing: 0]
[feature_pre_filter: 1]
[pre_partition: 0]
[two_round: 0]
[header: 0]
[label_column: ]
[weight_column: ]
[group_column: ]
[ignore_column: ]
[categorical_feature: ]
[forcedbins_filename: ]
[precise_float_parser: 0]
[parser_config_file: ]
[objective_seed: 21231]
[num_class: 1]
[is_unbalance: 0]
[scale_pos_weight: 1]
[sigmoid: 1]
[boost_from_average: 1]
[reg_sqrt: 0]
[alpha: 0.9]
[fair_c: 1]
[poisson_max_delta_step: 0.7]
[tweedie_variance_power: 1.5]
[lambdarank_truncation_level: 30]
[lambdarank_norm: 1]
[label_gain: ]
[lambdarank_position_bias_regularization: 0]
[eval_at: ]
[multi_error_top_k: 1]
[auc_mu_weights: ]
[num_machines: 1]
[local_listen_port: 12400]
[time_out: 120]
[machine_list_filename: ]
[machines: ]
[gpu_platform_id: -1]
[gpu_device_id: -1]
[gpu_use_dp: 0]
[num_gpu: 1]

end of parameters

pandas_categorical:null
