tree
version=v4
num_class=1
num_tree_per_iteration=1
label_index=0
max_feature_idx=3
objective=binary sigmoid:1
feature_names=Column_0 Column_1 Column_2 Column_3
feature_infos=[15.15:141.56999999999999] [6258800:591052200] [15.15:141.06999999999999] [5850800:319317900]
tree_sizes=6644 6677 6688 6698 6700 6689 6711 6686 6700 6702 6703 6715 6707

Tree=0
num_leaves=63
num_cat=0
split_feature=3 0 2 1 1 2 0 0 0 0 3 3 1 1 0 1 1 1 3 3 0 3 2 3 1 3 3 2 0 3 0 1 2 1 2 2 3 0 0 0 3 0 3 1 2 2 2 3 3 3 0 2 1 1 1 1 2 2 3 3 0 0
split_gain=11.6716 9.60406 9.43554 7.76606 6.3113 5.19463 7.53307 8.11118 5.9804 5.68908 6.61851 5.10107 5.32667 6.7342 6.15479 5.97404 9.0003 4.98159 4.70068 4.35728 4.22119 4.89998 4.77445 4.67216 4.16545 3.48881 4.36995 3.91554 6.35485 3.80222 6.75515 10.1337 6.33255 11.9392 9.50045 4.18323 3.86618 3.27385 3.22268 3.18192 3.13887 3.13486 3.19624 3.08069 3.62835 3.81127 2.74073 2.72751 6.07666 5.97604 7.39163 5.07743 6.00191 6.23521 4.71159 5.60705 4.69519 4.51768 5.18798 4.97679 5.76315 6.63069
threshold=60324250.000000007 60.645000000000003 24.645000000000003 41527550.000000007 47695500.000000007 75.050000000000011 137.35000000000002 131.00000000000003 70.110000000000014 78.90000000000002 17818251.500000004 24155001.500000004 30915492.000000004 39438400.000000007 106.21500000000002 28946550.000000004 26966119.000000004 17964513.500000004 75623250.000000015 26149536.000000004 66.030000000000015 27081532.000000004 69.020000000000024 38696550.000000007 51627996.500000007 61990647.000000007 62889050.000000007 38.120000000000012 33.95000000000001 73789250.000000015 28.525000000000002 70810650.000000015 28.065000000000001 66538250.000000007 26.510000000000002 25.675000000000004 68208893.000000015 30.505000000000006 25.492500000000003 27.165000000000003 58064250.000000007 24.205000000000002 66746800.000000007 110583350.00000001 26.660350000000005 26.085000000000004 95.500000000000014 42252123.000000007 44338400.000000007 38207450.000000007 43.955000000000005 50.895000000000003 39438400.000000007 32855702.000000004 62764750.000000007 52499323.000000007 29.995000000000001 30.285000000000004 28656741.500000004 31701200.000000004 27.355000000000004 28.745000000000001
decision_type=2 2 2 2 2 2 2 2 2 2 2 2 2 2 2 2 2 2 2 2 2 2 2 2 2 2 2 2 2 2 2 2 2 2 2 2 2 2 2 2 2 2 2 2 2 2 2 2 2 2 2 2 2 2 2 2 2 2 2 2 2 2
left_child=2 3 -1 18 39 8 7 9 20 -7 -11 -12 15 14 -14 16 19 -10 -2 -13 40 22 -22 -23 -15 38 -27 28 29 32 35 -32 34 -34 41 -31 -36 -33 -6 -5 47 -28 -43 44 45 -37 -21 49 -49 57 -51 52 53 -50 55 -54 -55 58 -4 -60 -61 -62
right_child=1 -3 5 4 25 6 -8 -9 17 10 11 12 13 24 -16 -17 -18 -19 -20 46 21 23 -24 -25 -26 26 27 -29 -30 30 31 37 33 -35 36 43 -38 -39 -40 -41 -42 42 -44 -45 -46 -47 -48 48 51 50 -52 -53 54 56 -56 -57 -58 -59 59 60 61 -63
leaf_value=0.04113957926571675 0.059625579167986574 -0.049095953160459713 0.069241280730054353 0.00090569496229270414 -0.047429231556367933 0.066463411389901431 -0.019094964286808264 0.068050765298560245 0.026291147086151618 -0.020673963701210975 0.040731569081116567 0.032645871596735508 0.071777596214541772 -0.018506709603011179 0.010906024586843189 -0.045617577638876937 0.070908002334146097 -0.024095129099083505 0.0018148158372518399 0.010906024586843189 0.078650193011217451 -0.0064858530210706901 0.019239632607301924 0.044240456668678138 0.0359068486482194 0.046907211235224934 -0.02242840749499176 0.044240456668678138 -0.047429231556367968 0.0060930317194124745 0.026696018730870262 -0.059684537468807281 -0.016367601661930853 0.059625579167986574 -0.022428407494991746 0.02942515352119594 -0.069741794965983303 -0.010833822423049169 -0.0012894993455354505 -0.049095953160459713 0.030906683835944158 0.030055591953003686 -0.005458151162421241 -0.0044790979124652505 0.022227152463692793 0.084821504420477201 -0.035041435850280661 -0.01570035698306177 -0.012904284043038901 0.014722944290870092 0.053764580120630984 -0.014094799474533026 0.011725723736396508 0.028297902194757068 0.023324734578115035 -0.013380490215636559 0.078650193011217451 0.0076252360101376846 -0.022428407494991739 -0.0026079343652520553 0.086908529733426873 0.019477735693600749
leaf_weight=32.248936995863914 9.7496786266565305 8.7497115880250913 5.9998022317886344 4.9998351931571952 5.9998022317886379 6.7497775107622138 9.9996703863143903 10.49965390563011 6.4997857511043575 9.4996868669986707 28.499060600996017 5.7498104721307852 11.499620944261553 8.4997198283672315 6.499785751104354 5.7498104721307746 4.9998351931571952 19.999340772628784 5.4998187124729148 4.9998351931571952 7.7497445493936521 11.499620944261553 5.9998022317886353 7.4997527897357932 5.9998022317886344 6.2497939914464942 9.7496786266565305 5.9998022317886344 5.9998022317886344 46.748459056019783 9.4996868669986743 8.4997198283672315 10.999637424945833 9.7496786266565305 9.7496786266565341 6.7497775107622129 7.749744549393653 5.7498104721307746 10.24966214597225 8.7497115880250913 19.999340772628784 11.749612703919412 13.749546781182287 6.499785751104354 26.499126523733139 5.7498104721307755 9.2496951073408109 27.249101802706718 5.2498269528150585 32.748920515179634 19.249365493655205 19.999340772628784 60.997989356517792 11.499620944261553 38.24873922765255 34.998846352100372 7.749744549393653 205.74321819841862 5.9998022317886379 9.2496951073408145 6.2497939914464942 8.7497115880250913
leaf_count=129 39 35 24 20 24 27 40 42 26 38 114 23 46 34 26 23 20 80 22 20 31 46 24 30 24 25 39 24 24 187 38 34 44 39 39 27 31 23 41 35 80 47 55 26 106 23 37 109 21 131 77 80 244 46 153 140 31 823 24 37 25 35
internal_value=0.01148 0.00240527 0.0146899 0.00418644 0.00196777 0.0134847 0.0225796 0.0260964 0.0114671 0.0220175 0.0190544 0.023168 0.015254 0.0293682 0.0497962 0.000336571 0.010906 -0.0117362 0.0387758 -0.00409447 0.0125795 0.0299906 0.0527256 0.0135377 0.00400925 0.00398615 0.00573137 0.0044542 0.00323314 0.00483722 0.010475 -0.0133053 -0.00406046 0.01934 -0.0132654 0.0165973 -0.0433815 -0.0399728 -0.0183257 -0.0309135 0.011483 0.00168586 0.010906 0.0273901 0.0327016 0.0549075 -0.0189195 0.010706 0.00629422 0.0137973 0.0291759 0.00964724 0.0126384 0.0353966 0.00848509 0.00257242 0.0485696 0.0104928 0.0267686 0.0183443 0.0284324 0.0475739
internal_weight=0 261.741 739.976 252.992 237.742 707.727 128.496 118.496 579.231 107.996 101.247 91.747 63.2479 32.4989 17.9994 30.749 24.9992 26.4991 15.2495 19.9993 552.732 32.7489 13.7495 18.9994 14.4995 223.993 207.743 201.493 195.494 189.494 115.996 23.7492 73.4976 20.7493 52.7483 92.247 17.4994 14.2495 16.2495 13.7495 519.983 35.2488 25.4992 45.4985 38.9987 12.4996 14.2495 499.984 205.993 293.99 51.9983 178.744 158.745 24.4992 134.246 95.9968 19.2494 241.992 36.2488 30.249 24.2492 14.9995
internal_count=4007 1047 2960 1012 951 2831 514 474 2317 432 405 367 253 130 72 123 100 106 61 80 2211 131 55 76 58 896 831 806 782 758 464 95 294 83 211 369 70 57 65 55 2080 141 102 182 156 50 57 2000 824 1176 208 715 635 98 537 384 77 968 145 121 97 60
is_linear=0
shrinkage=1


Tree=1
num_leaves=63
num_cat=0
split_feature=3 0 2 1 1 2 0 0 0 0 3 1 0 1 3 0 3 2 3 3 1 1 1 1 3 3 3 2 0 3 0 1 2 1 2 2 3 3 0 0 0 3 0 3 2 1 2 2 1 0 2 3 2 3 0 3 0 0 0 0 2 3
split_gain=10.5366 8.67356 8.51927 7.01191 5.69834 4.69088 6.80085 7.33158 5.39801 5.1414 5.97469 4.67979 5.78334 4.49638 4.24727 3.81166 4.428 4.32093 4.21796 3.32937 5.51101 4.83344 9.98225 6.01122 3.73205 3.14912 3.94566 3.53514 5.73888 3.43276 6.09872 9.15092 5.71649 10.7822 8.58259 3.7766 3.5007 3.32933 2.91157 2.89817 2.8752 2.8334 2.82949 2.88486 2.82614 2.78136 3.28044 3.45209 2.73872 2.50006 2.5512 2.46183 5.5442 5.39497 6.67815 4.96023 5.1911 4.1803 4.40072 5.54387 4.07911 4.85432
threshold=60324250.000000007 60.645000000000003 24.645000000000003 41527550.000000007 47695500.000000007 75.050000000000011 137.35000000000002 131.00000000000003 70.110000000000014 78.90000000000002 17818251.500000004 20541372.500000004 85.375000000000014 17964513.500000004 75623250.000000015 66.030000000000015 27081532.000000004 69.020000000000024 38696550.000000007 21489697.500000004 26966119.000000004 28946550.000000004 30915492.000000004 34432047.500000007 26839696.000000004 61990647.000000007 62889050.000000007 38.120000000000012 33.95000000000001 73789250.000000015 28.525000000000002 70810650.000000015 28.065000000000001 66538250.000000007 26.510000000000002 25.675000000000004 68208893.000000015 94065300.000000015 25.492500000000003 97.385000000000019 27.165000000000003 58064250.000000007 24.205000000000002 66746800.000000007 105.34000000000002 110583350.00000001 26.660350000000005 26.085000000000004 32353709.000000004 29.885000000000002 27.670000000000005 42252123.000000007 50.295000000000009 38207450.000000007 43.955000000000005 43752100.000000007 41.537500000000009 34.970000000000006 31.222500000000004 29.965000000000003 30.285000000000004 37630350.000000007
decision_type=2 2 2 2 2 2 2 2 2 2 2 2 2 2 2 2 2 2 2 2 2 2 2 2 2 2 2 2 2 2 2 2 2 2 2 2 2 2 2 2 2 2 2 2 2 2 2 2 2 2 2 2 2 2 2 2 2 2 2 2 2 2
left_child=2 3 -1 14 40 8 7 9 15 -7 -11 39 -13 -10 -2 41 17 -17 -18 -14 24 -22 -23 48 44 38 -27 28 29 32 35 -32 34 -34 42 -31 -36 -33 -6 -12 -5 51 -28 -44 -21 46 47 -37 -24 50 -43 53 55 60 -55 -53 57 58 59 -57 61 -4
right_child=1 -3 5 4 25 6 -8 -9 13 10 11 12 19 -15 -16 16 18 -19 -20 20 21 22 23 -25 -26 26 27 -29 -30 30 31 37 33 -35 36 45 -38 -39 -40 -41 -42 49 43 -45 -46 -47 -48 -49 -50 -51 -52 52 -54 54 -56 56 -58 -59 -60 -61 -62 -63
leaf_value=0.028187791825198972 0.045778218261222248 -0.057580379683797624 0.021854112318677826 -0.010045289405338062 -0.055993794658057754 0.052291314420147554 -0.029047927813626945 0.053803873309171982 0.014072565403224642 -0.03054854837655251 0.068251116411843657 -0.044370343417490507 0.044135850624241774 -0.033800208330588638 -0.0091816588638883572 0.06391018461859807 -0.017067189937013293 0.007372064626870606 0.031136900747271309 -0.019634435202625731 0.060300627929403078 -0.05229216348252641 0.028378260379853956 0.005498608765595824 -0.037307467296468881 0.033673585344839461 -0.032216011034445928 0.031136900747271309 -0.055993794658057774 -0.0051175330694584612 0.014457326016933751 -0.019511154022538887 -0.026456139866402512 0.045778218261222248 -0.032216011034445914 0.017051058863396539 -0.077253343013916995 -0.068787267383314338 -0.012130650051478301 0.020764925164611144 -0.057580379683797624 0.022784553785793256 0.01765025242889362 -0.016090850423245713 0.031661586399297809 -0.01516073623769087 0.010210702383847714 0.069799908082586001 0.077618388854925197 0.046291930120554825 -0.021550357981567035 -0.031292399129841816 -0.026750848808503275 0.0030808284364444534 0.040198596768459945 0.00057912895729429488 0.032181493865902022 -0.042888491834372516 0.02940569085887897 -0.032619213510784999 -0.0036619917280244427 -0.031218904142099338
leaf_weight=32.236357793211937 9.7413391917943937 8.7447293102741224 31.231506019830704 4.9999991059303275 5.9966268539428738 6.7425512373447409 9.9990886449813825 10.48785352706909 6.4988768398761776 9.4989847242832166 4.9982894957065573 5.2478262186050406 6.4973046481609336 19.997097253799438 5.4999954104423514 7.7380270808935148 11.499879360198976 5.9994449615478516 7.4963316321372977 5.4981881082057971 5.4935130178928366 5.4971397221088401 6.4950216114521009 22.99091525375843 9.7477005869150144 6.246563419699668 9.7487737834453565 5.997065305709838 5.9966268539428702 46.749565303325653 9.4983074963092822 5.746388614177703 10.999263048171999 9.7413391917943937 9.7487737834453601 6.748539134860037 7.740583896636962 8.4958776235580427 10.249995723366736 8.9965509772300702 8.7447293102741224 9.2477913200855273 11.747347056865694 13.749897554516791 5.2481835931539536 6.4999674558639517 26.496727228164673 5.7396698743104935 4.9961053431034088 5.7486270368099204 4.998806118965148 13.249183386564253 25.498654425144196 32.748225584626198 19.236095935106277 123.74002832174301 11.994526535272596 5.9974088668823233 11.496240034699438 13.99792557954788 205.74700766801834 4.9979209899902335
leaf_count=129 39 35 125 20 24 27 40 42 26 38 20 21 26 80 22 31 46 24 30 22 22 22 26 92 39 25 39 24 24 187 38 23 44 39 39 27 31 34 41 36 35 37 47 55 21 26 106 23 20 23 20 53 102 131 77 495 48 24 46 56 823 20
internal_value=0 -0.00862339 0.00305017 -0.00693073 -0.0090389 0.00190496 0.0105499 0.013893 -1.21534e-05 0.0100154 0.00719888 0.0111088 0.00631559 -0.0220581 0.0259454 0.00104478 0.0175938 0.0392188 0.00195523 0.00998625 0.00662273 0.0163247 0.010282 0.0202576 -0.0149043 -0.00712089 -0.00546255 -0.00667612 -0.00783636 -0.00631205 -0.000954905 -0.0235549 -0.0147678 0.00747052 -0.0235141 0.00486219 -0.052149 -0.0489056 -0.0283205 0.0377247 -0.0402883 2.88973e-06 -0.00930518 -0.00054531 0.0054169 0.0151194 0.020168 0.0412948 0.0497869 0.0184592 0.00722844 -0.000735283 -0.0049269 0.00220172 0.0168158 -0.00184348 0.000489738 -0.00195904 -0.000314171 -0.00279473 -0.000937846 0.0145326
internal_weight=0 261.669 739.831 252.924 237.683 707.595 128.435 118.436 579.16 107.948 101.206 91.7067 77.7119 26.496 15.2413 552.664 32.7337 13.7375 18.9962 72.4641 65.9668 45.4727 39.9792 34.482 20.4941 223.938 207.691 201.445 195.448 189.451 115.975 23.7406 73.476 20.7406 52.7354 92.2345 17.4894 14.2423 16.2466 13.9948 13.7447 519.93 35.246 25.4972 10.7464 45.4849 38.9849 12.4882 11.4911 19.9952 14.2466 499.935 205.974 293.961 51.9843 180.475 167.226 155.232 149.234 137.738 241.976 36.2294
internal_count=4007 1047 2960 1012 951 2831 514 474 2317 432 405 367 311 106 61 2211 131 55 76 290 264 182 160 138 82 896 831 806 782 758 464 95 294 83 211 369 70 57 65 56 55 2080 141 102 43 182 156 50 46 80 57 2000 824 1176 208 722 669 621 597 551 968 145
is_linear=0
shrinkage=0.05


Tree=2
num_leaves=63
num_cat=0
split_feature=3 0 2 1 1 2 2 0 0 0 3 1 0 1 3 0 3 1 3 2 3 1 1 1 1 3 3 3 3 2 0 3 0 1 2 1 2 2 3 2 2 0 0 0 3 2 1 2 2 1 0 2 3 1 1 2 2 1 1 3 1 0
split_gain=9.51737 7.84974 7.74682 6.33529 5.15236 4.15801 6.24231 6.42417 4.9212 4.65454 5.39632 4.22891 5.22042 4.0612 3.84289 3.39899 4.00828 3.93567 4.30115 3.92529 3.00965 4.97881 4.38064 9.02224 5.44263 3.37133 2.85162 2.84468 3.56461 3.19335 5.19292 3.10228 5.51027 8.27485 5.16454 9.74613 7.77517 3.41093 3.19479 3.06752 2.64574 2.63859 2.60714 2.5556 2.60421 2.55195 2.51225 2.97307 3.14267 2.49054 2.42466 5.16289 2.29213 2.14257 7.9367 9.47674 6.94971 6.08506 6.02387 5.85149 4.00544 3.314
threshold=60324250.000000007 60.645000000000003 24.465000000000003 41527550.000000007 47695500.000000007 75.050000000000011 137.40000000000001 131.00000000000003 70.110000000000014 78.90000000000002 17818251.500000004 20541372.500000004 85.375000000000014 17964513.500000004 75623250.000000015 66.030000000000015 27081532.000000004 32174600.000000004 38696550.000000007 69.020000000000024 21489697.500000004 26966119.000000004 28946550.000000004 30915492.000000004 34432047.500000007 26839696.000000004 58064250.000000007 61990647.000000007 62889050.000000007 38.120000000000012 33.95000000000001 73789250.000000015 28.525000000000002 70810650.000000015 28.065000000000001 66538250.000000007 26.510000000000002 25.675000000000004 68208893.000000015 30.965000000000003 97.13000000000001 25.492500000000003 27.165000000000003 24.205000000000002 66746800.000000007 105.34000000000002 110583350.00000001 26.660350000000005 26.085000000000004 32353709.000000004 64.305000000000021 64.850000000000009 43087400.000000007 50302900.000000007 62764750.000000007 27.247500000000006 29.635000000000002 51627996.500000007 58662500.000000007 43087400.000000007 65135050.000000007 47.815000000000005
decision_type=2 2 2 2 2 2 2 2 2 2 2 2 2 2 2 2 2 2 2 2 2 2 2 2 2 2 2 2 2 2 2 2 2 2 2 2 2 2 2 2 2 2 2 2 2 2 2 2 2 2 2 2 2 2 2 2 2 2 2 2 2 2
left_child=2 3 52 14 42 8 7 9 15 -7 -11 40 -13 -10 -2 26 19 -18 -19 -17 -14 25 -23 -24 49 45 50 41 -29 30 31 34 37 -34 36 -36 43 -33 -38 -35 -12 -6 -5 -30 -45 -22 47 48 -39 -25 53 -52 -1 -4 55 -55 -56 -57 59 -59 -58 -62
right_child=1 -3 5 4 27 6 -8 -9 13 10 11 12 20 -15 -16 16 17 18 -20 -21 21 22 23 24 -26 -27 -28 28 29 -31 -32 32 33 39 35 -37 38 46 -40 -41 -42 -43 -44 44 -46 -47 -48 -49 -50 -51 51 -53 -54 54 56 57 60 58 -60 -61 61 -63
leaf_value=0.05851002993524837 0.043573433794353369 -0.054826922092944853 0.0020199873680386287 -0.0095432221965651987 -0.053309085861915718 0.049799951929977382 -0.02845516771326901 0.050108711453628857 0.013372148966709586 -0.029037417927374406 0.06508938684851627 -0.04214423586551936 0.041988533323579762 -0.032132951026849647 -0.0087226860983628304 0.060934518329839676 -0.026322451299840399 -0.013109935587991929 0.048301457948138067 0.0070040664321563738 -0.018649108346228904 0.057459513715973624 -0.049772970771383762 0.026983812292261086 0.005224019975224029 -0.035470424966780843 0.018522192507309007 0.0320250681626418 -0.030624641533457189 0.029608264380198548 -0.053309085861915753 -0.0048616129881833697 0.013737911316146543 -0.065654653417591788 -0.025143390909431892 0.043573433794353369 -0.030624641533457175 0.016203873420208261 -0.073705327081477645 -0.018323116389944782 0.019681201551116582 -0.011524643905790992 -0.054826922092944853 0.016773634691244134 -0.015288001360097496 0.030102629372646569 -0.014404041834134044 0.0097015562341866146 0.066593787069145802 0.073994088960057589 -0.053874778907364487 0.0061220187252499407 0.021835960726081932 -0.037656632579875664 0.020910979605545766 -0.046367824259541814 0.022978262826617704 0.045336129193336849 -0.029288247058065105 -0.00052211498389421204 -0.043683627412463094 0.0049806976860778543
leaf_weight=5.2436967641115215 9.7229697704315168 8.7251538038253766 354.14968621730804 4.9998956918716422 5.9839839935302761 6.726257622241973 9.7349811494350416 10.720344990491865 6.4973530769348171 9.4937713146209699 4.9868421554565421 5.2487249672412863 6.488310068845748 19.98324990272522 5.4999252557754508 7.7107562273740751 7.497359290719035 5.2492718249559385 6.2411308288574219 5.9989378452301025 5.4992196559906024 5.4772682487964621 5.4868397712707511 6.4892727732658368 22.989446118474007 9.7400855869054777 20.234368920326233 6.2398653477430335 9.7427252233028394 5.9914855957031241 5.9839839935302725 46.749988853931427 9.4959791004657763 8.4764832854270917 10.994958698749544 9.7229697704315168 9.742725223302843 6.7463560849428159 7.7082857936620703 5.7419984340667716 8.9924467504024488 10.249538734555243 8.7251538038253766 11.743317216634752 13.748403489589689 5.2440748959779739 6.4993731379508963 26.493029564619064 5.7157691419124603 4.9791574776172638 6.4989946633577329 7.9991087168455124 22.722685977816582 30.495170518755913 38.491103455424309 6.4978512078523627 5.2474277317523983 11.242291674017908 9.248644292354582 18.245849773287773 10.495876863598822 5.2474556118249884
leaf_count=21 39 35 1417 20 24 27 39 43 26 38 20 21 26 80 22 31 30 21 25 24 22 22 22 26 92 39 81 25 39 24 24 187 38 34 44 39 39 27 31 23 36 41 35 47 55 21 26 106 23 20 26 32 91 122 154 26 21 45 37 73 42 21
internal_value=0 -0.00819959 0.0028991 -0.00658978 -0.00859404 0.00188458 0.0100341 0.0131944 9.20078e-05 0.00952481 0.00684569 0.0105639 0.00600583 -0.0209677 0.0246792 0.00109359 0.0167339 0.00185852 0.0202463 0.0373362 0.00949683 0.00629806 0.0155267 0.00977688 0.0192592 -0.0141666 0.000117814 -0.00677015 -0.00519347 -0.00634718 -0.0074502 -0.00600072 -0.000907523 -0.0224031 -0.0140439 0.00710557 -0.0223607 0.00462101 -0.0496538 -0.0465403 0.0358797 -0.0269272 -0.0383305 -0.00884291 -0.000518109 0.00514785 0.0143739 0.0191753 0.0393153 0.0473939 -0.000621283 -0.0207725 0.0287123 -2.42731e-05 -0.00537865 -0.0161146 0.00828995 -0.00159197 0.0059189 0.0169612 -0.0148535 -0.0274632
internal_weight=0 261.444 739.535 252.719 237.496 711.569 128.297 118.562 583.272 107.842 101.115 91.6217 77.6424 26.4806 15.2229 556.791 32.6975 18.9878 11.4904 13.7097 72.3937 65.9054 45.422 39.9447 34.4579 20.4834 524.094 223.771 207.538 201.298 195.306 189.322 115.919 23.7145 73.4034 20.7179 52.6855 92.2045 17.451 14.2185 13.9793 16.2335 13.725 35.2344 25.4917 10.7433 45.4545 38.9552 12.4621 11.4684 503.859 14.4981 27.9664 489.361 135.212 75.7298 59.4819 45.2346 38.7368 29.4881 20.9908 15.7433
internal_count=4007 1047 2960 1012 951 2848 514 475 2334 432 405 367 311 106 61 2228 131 76 46 55 290 264 182 160 138 82 2097 896 831 806 782 758 464 95 294 83 211 369 70 57 56 65 55 141 102 43 182 156 50 46 2016 58 112 1958 541 303 238 181 155 118 84 63
is_linear=0
shrinkage=0.05


Tree=3
num_leaves=63
num_cat=0
split_feature=3 2 0 1 1 2 0 0 0 0 3 1 0 3 3 0 2 3 1 2 3 3 1 1 1 1 0 1 3 0 3 3 3 2 2 3 0 3 0 2 1 3 1 1 1 0 2 0 1 0 3 0 1 1 2 1 1 2 2 0 2 3
split_gain=8.61281 7.60905 7.13713 6.113 4.28175 3.77598 5.94109 6.37091 4.43618 4.21967 4.87669 3.82528 4.71648 3.70433 3.45009 3.08381 3.69049 3.97438 4.68675 2.9356 2.91539 2.72328 4.50102 3.97881 8.16221 5.10048 5.56279 3.98671 3.04764 2.68064 6.18209 5.28619 5.07535 4.30096 4.93114 5.26343 3.6731 4.18829 4.07678 3.50718 3.45075 3.66385 3.32358 6.38439 2.69866 2.626 2.61224 2.59244 3.29557 2.4602 2.43181 2.41242 2.36017 2.30864 2.30524 2.24647 8.2113 6.51931 4.09696 3.25486 3.56908 4.52216
threshold=59948800.000000007 24.465000000000003 60.645000000000003 41527550.000000007 44519450.000000007 75.050000000000011 137.35000000000002 131.00000000000003 70.110000000000014 78.90000000000002 17818251.500000004 20541372.500000004 85.375000000000014 21489697.500000004 75623250.000000015 66.030000000000015 69.020000000000024 27081532.000000004 33566878.500000007 69.695000000000007 58508450.000000007 21489697.500000004 26966119.000000004 28946550.000000004 30915492.000000004 38883850.000000007 106.21500000000002 51627996.500000007 26839696.000000004 28.525000000000002 73789250.000000015 94065300.000000015 68208893.000000015 28.932500000000001 29.499850000000006 67253400.000000015 27.492500000000003 65728692.500000007 26.715000000000003 25.605000000000004 57674000.000000007 61990647.000000007 76193150.000000015 57999700.000000007 60183150.000000007 30.505000000000006 23.992500000000003 25.735000000000003 110583350.00000001 25.225000000000005 113387100.00000001 97.385000000000019 24657202.500000004 63599100.000000007 105.34000000000002 62764750.000000007 57999700.000000007 29.635000000000002 24.795000000000005 25.265000000000004 25.985000000000003 51757600.000000007
decision_type=2 2 2 2 2 2 2 2 2 2 2 2 2 2 2 2 2 2 2 2 2 2 2 2 2 2 2 2 2 2 2 2 2 2 2 2 2 2 2 2 2 2 2 2 2 2 2 2 2 2 2 2 2 2 2 2 2 2 2 2 2 2
left_child=1 46 3 14 -5 8 7 9 15 -7 -11 51 -13 -10 -2 20 17 -17 -19 -18 55 -14 28 -24 -25 26 -26 -27 54 30 32 33 36 -31 -35 -36 37 38 40 49 -6 -42 43 -34 -38 -37 -1 -41 50 53 -49 -12 -9 -32 -23 56 58 -57 -3 -60 -61 -62
right_child=2 5 -4 4 29 6 -8 52 13 10 11 12 21 -15 -16 16 19 18 -20 -21 -22 22 23 24 25 27 -28 -29 -30 31 39 -33 42 34 35 45 44 -39 -40 47 41 -43 -44 -45 -46 -47 -48 48 -50 -51 -52 -53 -54 -55 -56 57 -58 -59 59 60 61 -63
leaf_value=0.017861924183284927 0.040642646009188467 -0.044117617239591803 -0.052281788490708317 -0.054104556346441304 -0.037651985993823418 0.047483385223401425 -0.027475206732296743 0.026207334393106508 0.0036131177838384394 -0.027612522567761717 0.062125715672807238 -0.040067625111220334 0.039979954766566295 -0.034802425017765586 -0.0082869854641413401 0.058200549342019493 -0.028871812413246635 -0.022719716898416419 0.043372987417900327 0.016886996596213864 0.023481142247362623 -0.017716643395964508 0.054839177767746695 -0.047432398411349774 0.054688154119282156 -0.025495630685563816 -0.00025270521680144207 0.028108663804924074 -0.033744833979979329 -0.046768915539749205 0.026175295351511831 -0.040782887721144578 -0.011125393636283535 0.038579789739775404 -0.034975710702935245 -0.021329522687769199 -0.0085459581457821478 0.013630336102513813 -0.057819255347509868 0.045632381900563034 -0.024213373896714466 0.023062021593696413 -0.0056592373145792074 -0.070342919191596118 0.039978528305329657 0.019082537329607952 0.050673975464235424 0.0098976104820900756 -0.028306169091569484 -0.033111852656838942 0.047396538286270468 0.018700509643644073 0.07375805996416171 -0.0059595605542113878 0.02863294153429298 0.020551626662362946 -0.03171721508083352 -0.013674002359139509 0.040445891797800497 -0.020357684319840679 -0.00091815665903482817 0.016535699257380247
leaf_weight=18.705097764730457 10.44487804174423 5.2470229268074027 8.6931901425123197 4.9755170941352835 8.9832293540239387 6.7022830992937079 9.9901055842637998 5.2204409539699537 10.235443457961084 9.4847176373004896 4.9652271419763556 5.2447990775108329 6.4739197492599478 16.219396337866783 5.4996439814567557 7.6703183501958874 6.2451795786619169 5.2460299879312497 5.48858642578125 7.9882684648036957 12.982297316193579 5.4992184937000292 5.4526411294937125 5.4701196849346152 12.68781039118767 8.749544292688368 7.2341432869434348 5.7468461394309989 9.7265791743993741 5.9750627875328055 6.7499329000711432 16.176928803324699 8.2250253856182152 6.4819471687078467 12.215594202280046 5.7320725768804577 4.9882059246301633 11.486050128936766 6.2428386658430091 5.7379857003688803 7.721684709191325 8.7339035570621473 8.2201819568872434 10.191043838858603 6.7324475795030594 13.45766521990299 8.9768271893262845 32.175532191991806 4.9985516071319571 6.7499537765979758 4.9945892542600623 8.9869610220193845 5.2178515195846558 32.499877959489822 5.2377392947673798 39.47619853913784 21.737147256731987 21.48664590716362 4.9985623210668555 20.744323030114174 352.12482661008835 41.482966721057892
leaf_count=75 42 21 35 20 36 27 40 21 41 38 20 21 26 65 22 31 25 21 22 32 52 22 22 22 51 35 29 23 39 24 27 65 33 26 49 23 20 46 25 23 31 35 33 41 27 54 36 129 20 27 20 36 21 130 21 158 87 86 20 83 1409 166
internal_value=0 0.00278643 -0.00772627 -0.00621556 -0.00820369 0.0017802 0.00954898 0.0126808 6.2641e-05 0.00906485 0.00651443 0.0100529 0.00571526 -0.0199394 0.0237657 0.00101965 0.0159283 0.0307138 0.0110733 -0.0031905 8.44006e-05 0.00903743 0.00599328 0.0147783 0.00930206 0.0183189 0.0347378 -0.00424512 -0.0134717 -0.0072338 -0.00411285 -0.016353 -0.0141865 -0.00734298 -0.00112526 -0.00932023 -0.00549581 -0.0122355 -0.0216131 0.00463257 -0.0127279 0.00087833 -0.0320951 -0.0438951 0.0193269 0.00701125 0.0285024 0.0141011 0.00981054 -0.00522844 0.0149364 0.0341544 0.0499768 -0.000433212 0.00489377 -0.000514347 -0.00174402 0.00848864 -0.000209556 0.000339833 -0.000143989 0.000921334
internal_weight=0 735.146 265.084 256.39 240.446 707.464 128.091 118.101 579.373 107.663 100.96 91.4755 77.5234 26.4548 15.9445 552.918 32.6384 18.4049 10.7346 14.2334 520.28 72.2786 65.8046 45.3411 39.8885 34.4183 19.922 14.4964 20.4635 235.47 175.431 60.0393 81.5246 43.8623 37.8873 31.4053 54.8884 43.1677 31.6817 93.9064 25.4388 16.4556 26.6363 18.4161 11.7207 19.1897 27.6819 47.9067 42.1687 45.9998 37.1701 13.9522 10.4383 39.2498 10.737 507.298 446.335 60.9628 424.598 419.351 414.352 393.608
internal_count=4007 2944 1063 1028 964 2833 514 474 2319 432 405 367 311 106 64 2213 131 74 43 57 2082 290 264 182 160 138 80 58 82 944 703 241 327 176 152 126 220 173 127 376 102 66 107 74 47 77 111 192 169 184 149 56 42 157 43 2030 1786 244 1699 1678 1658 1575
is_linear=0
shrinkage=0.05


Tree=4
num_leaves=63
num_cat=0
split_feature=3 0 0 1 1 2 2 0 0 0 3 1 0 0 1 0 3 1 1 1 1 0 3 1 3 2 3 0 3 3 3 2 2 3 0 2 3 2 1 1 1 0 0 1 3 3 2 3 3 0 0 0 0 0 0 1 3 1 3 2 1 1
split_gain=7.78245 7.02703 6.48218 5.52688 3.88491 3.51921 5.43154 5.56548 3.95087 3.82987 4.43239 3.52881 3.3972 6.65525 3.28251 5.74749 2.96401 4.07187 3.62012 7.39074 4.67082 2.84593 3.41118 3.28807 3.87628 3.17386 2.75668 2.42168 5.5871 4.78646 4.59641 3.89176 4.4518 4.75145 3.3175 3.78688 3.17666 3.16748 3.01816 5.81902 2.43773 2.37014 2.34506 2.97616 2.32915 2.34217 4.94729 4.43309 4.35125 4.74267 3.65459 4.21802 4.91263 3.14 5.89155 3.80446 2.83769 2.73345 2.71763 4.04102 2.58748 7.38832
threshold=59948800.000000007 24.645000000000003 60.645000000000003 41527550.000000007 44519450.000000007 75.050000000000011 137.40000000000001 131.00000000000003 70.110000000000014 78.90000000000002 16925453.000000004 17964513.500000004 27.015000000000004 35.522500000000008 20541372.500000004 85.375000000000014 21489697.500000004 26966119.000000004 28946550.000000004 30915492.000000004 34432047.500000007 66.030000000000015 27081532.000000004 32174600.000000004 38696550.000000007 69.020000000000024 26839696.000000004 28.525000000000002 73789250.000000015 94065300.000000015 68208893.000000015 28.932500000000001 29.499850000000006 67253400.000000015 27.492500000000003 26.835000000000004 61024750.000000007 25.605000000000004 76193150.000000015 57999700.000000007 60183150.000000007 30.505000000000006 25.735000000000003 110583350.00000001 58064250.000000007 42252123.000000007 50.295000000000009 41601300.000000007 43752100.000000007 41.537500000000009 34.970000000000006 31.222500000000004 30.595000000000002 28.745000000000001 27.750500000000006 53287750.000000007 45118100.000000007 41996550.000000007 39504750.000000007 32.155000000000008 61346500.000000007 50848550.000000007
decision_type=2 2 2 2 2 2 2 2 2 2 2 2 2 2 2 2 2 2 2 2 2 2 2 2 2 2 2 2 2 2 2 2 2 2 2 2 2 2 2 2 2 2 2 2 2 2 2 2 2 2 2 2 2 2 2 2 2 2 2 2 2 2
left_child=1 -1 3 12 -5 8 7 9 21 -7 -11 -10 -2 -14 -12 -16 -17 26 -19 -20 -21 44 25 -24 -25 -23 -18 28 30 31 34 -29 -33 -34 35 36 -6 -30 39 -32 -36 -35 -39 -44 45 47 48 53 -47 50 51 52 60 54 55 57 -48 -3 -55 -60 61 -50
right_child=2 5 -4 4 27 6 -8 -9 11 10 14 -13 13 -15 15 16 17 18 19 20 -22 22 23 24 -26 -27 -28 29 37 -31 38 32 33 41 40 -37 -38 42 -40 -41 -42 -43 43 -45 -46 46 56 -49 49 -51 -52 -53 -54 58 -56 -57 -58 -59 59 -61 -62 -63
leaf_value=0.025238436472370021 0.055706978491973751 -0.0011668641300303579 -0.049917312203494671 -0.051613287586609193 -0.040688575379051399 0.045320185574585121 -0.026838324395221099 0.046518431736478093 0.013043029689953276 -0.030183107556053485 0.030722269256506358 -0.029391151618595925 -0.032033041505432319 0.046883367704652228 -0.043058261223163599 0.040608680269936644 0.0046535197852142027 0.052409357871478025 -0.045248465464519855 0.043609451695812838 0.0044507473035036481 0.055673754372369037 -0.024307220855404297 -0.013356171440799591 0.044999333528641106 0.0070498211582391227 -0.03212016551858618 -0.044527968015300443 -0.0049674519307871473 -0.038824922814153388 -0.010574334150217489 0.036664342821454837 -0.033234987078996331 -0.020267479608194382 -0.0081198590098922972 -0.04768840032026879 0.00057809112608194532 0.043419841736900194 -0.0053773935239855384 -0.067182329847239569 0.038008300665209473 0.018128305584076392 0.014197657318885927 -0.026909643867422325 0.018574930495501147 -0.029443636608020601 -0.053209848527674963 0.034495666762530484 0.0048650487955615614 0.030640758565882349 -0.040283999870847652 0.028629912104925239 -0.050359560183931645 -0.0024473320258526525 0.048668302333567143 -0.024845937536204461 -0.015391670995622492 0.038779550610593037 -0.020688121029018954 0.032084478592300257 0.010410239259249431 -0.024356434275383126
leaf_weight=32.88703964650631 5.2169519662857047 9.9947110414505058 8.6507789790630323 4.9553877413272849 5.4762253910303107 6.6718487441539756 9.7168199419975263 10.65555579960346 6.4959398210048702 7.7274981737136832 14.912265300750731 19.933404237031937 5.4728226661682111 5.2195416390895844 5.7353096753358832 6.7042524218559256 10.727858304977419 5.4209608435630789 5.4479842483997336 11.392916068434713 22.965302541851997 7.6188111007213575 7.49266189336777 5.2483098208904249 6.2162759006023407 5.9982290714979172 9.7080922126770002 5.9622870981693259 45.996036782860756 16.143913939595222 8.2210741341114097 6.4795940965414038 12.212675034999849 5.7308452427387264 4.9874874502420408 6.2309208363294593 31.423208713531494 5.7290650755166999 8.2185173779726011 10.138232007622717 6.7274715453386307 13.457732379436491 37.149795651435852 4.9951437115669242 16.213713333010674 13.237634316086767 6.7456030398607281 10.240759581327437 61.987269744277 11.984441757202147 5.9954303652048102 11.490512207150458 5.2460402995347968 230.21786670386791 9.4799066483974439 8.4892968982458097 18.741410478949547 7.4930938929319373 4.9985196143388775 13.226029634475706 35.960426941514015 33.225765779614449
leaf_count=132 21 40 35 20 22 27 39 43 26 31 60 80 22 21 23 27 43 22 22 46 92 31 30 21 25 24 39 24 184 65 33 26 49 23 20 25 126 23 33 41 27 54 149 20 65 53 27 41 248 48 24 46 21 921 38 34 75 30 20 53 144 133
internal_value=0 0.00264936 -0.00734862 -0.00591094 -0.007801 0.00159076 0.00909491 0.0120521 -7.99355e-05 0.00863303 0.00620336 -0.0189615 0.0226295 0.00649048 0.00922628 0.00512201 0.00894043 0.00570708 0.0140767 0.00885637 0.0174355 0.000831457 0.0151641 0.0014509 0.0182851 0.0342552 -0.0128158 -0.00687824 -0.0039108 -0.0155496 -0.0134953 -0.00697921 -0.00106919 -0.00885544 -0.00522551 -0.0116344 -0.00554627 0.00440284 -0.0305607 -0.041834 0.0183699 0.00666105 0.0134056 0.0093255 -7.51526e-05 -0.000681437 -0.00478957 0.00217633 -0.00185689 0.000344464 -0.00201467 -0.000463453 -0.00291397 0.00101051 0.0149297 0.00261737 -0.0254009 0.0159492 -0.000975998 0.0176103 -0.00101647 -0.00533215
internal_weight=0 734.646 264.796 256.145 240.236 701.759 127.787 118.07 573.972 107.414 100.742 26.4293 15.9093 10.6924 93.0149 78.1027 72.3674 65.6631 45.2272 39.8062 34.3582 547.543 32.5743 18.9572 11.4646 13.617 20.436 235.28 175.293 59.987 81.4231 43.8431 37.8808 31.4013 54.8453 43.1304 36.8994 93.87 26.5778 18.3593 11.715 19.1886 47.874 42.1449 514.968 498.755 204.615 294.14 179.128 165.89 153.905 147.91 136.42 283.899 35.457 25.9771 25.487 17.4878 248.442 18.2245 131.173 95.213
internal_count=4007 2944 1063 1028 964 2812 514 475 2298 432 405 106 64 43 374 314 291 264 182 160 138 2192 131 76 46 55 82 944 703 241 327 176 152 126 220 173 148 376 107 74 47 77 192 169 2061 1996 819 1177 717 664 616 592 546 1136 142 104 102 70 994 73 525 381
is_linear=0
shrinkage=0.05


Tree=5
num_leaves=63
num_cat=0
split_feature=3 2 0 1 1 0 2 1 1 3 3 1 1 1 3 3 3 3 3 2 0 3 3 3 2 2 2 2 1 3 0 0 3 3 2 3 1 0 1 1 3 3 3 1 1 1 1 3 1 3 1 1 2 1 0 0 1 3 3 2 0 0
split_gain=7.03429 5.92275 5.87722 4.71501 4.18919 3.26396 5.62049 4.32819 7.6529 3.08979 2.56628 3.80337 8.54576 4.056 3.96018 3.88128 3.64733 4.60185 3.26725 3.12331 5.55419 7.22816 4.82757 3.89377 3.26879 3.71478 3.25268 7.43147 4.23173 3.22995 4.42128 4.18355 2.93515 2.92727 6.25402 4.40112 3.73144 3.59806 3.78216 4.03233 4.15889 3.02274 4.1146 2.63207 2.59583 2.57124 2.62769 2.42846 2.94829 6.29995 2.62072 5.42779 6.69881 2.92599 2.39583 2.23249 2.21303 2.13834 3.19313 2.98203 4.58517 2.45005
threshold=60324250.000000007 24.645000000000003 60.645000000000003 41527550.000000007 47695500.000000007 138.26000000000002 118.48 27101440.000000004 22522581.500000004 75623250.000000015 21489697.500000004 30380254.000000004 29911604.000000004 38653150.000000007 46828500.000000007 28656741.500000004 31701200.000000004 33011278.500000004 30915492.000000004 45.915000000000006 53.010000000000012 28171180.500000004 34130350.000000007 25326110.000000004 64.490000000000023 69.020000000000024 69.020000000000024 79.030000000000015 22793902.500000004 31559650.000000004 39.315000000000005 36.985000000000007 29567591.500000004 34432047.500000007 48.855000000000011 32801700.000000004 33235450.000000004 103.74000000000002 32353709.000000004 33806550.000000007 28873550.000000004 36161830.000000007 38034596.000000007 25336337.000000004 46101850.000000007 76716050.000000015 84879950.000000015 18198804.500000004 14540392.500000002 13869449.500000002 24240741.500000004 19278078.500000004 64.850000000000009 28794600.000000004 65.020000000000024 27.165000000000003 24474743.000000004 61990647.000000007 62889050.000000007 38.120000000000012 33.95000000000001 25.492500000000003
decision_type=2 2 2 2 2 2 2 2 2 2 2 2 2 2 2 2 2 2 2 2 2 2 2 2 2 2 2 2 2 2 2 2 2 2 2 2 2 2 2 2 2 2 2 2 2 2 2 2 2 2 2 2 2 2 2 2 2 2 2 2 2 2
left_child=1 -1 3 9 55 6 10 8 -8 -2 47 12 14 33 19 44 18 -18 -17 29 21 -21 23 26 56 -26 -22 -28 -29 31 -31 -12 -27 34 35 36 -13 38 -36 -40 -41 -35 -43 -33 -15 -19 -47 48 -3 -50 51 54 -53 -52 -49 -5 -25 61 -59 60 -60 -6
right_child=2 5 -4 4 57 -7 7 -9 -10 -11 11 13 -14 15 -16 16 17 45 -20 20 22 -23 -24 24 25 32 27 28 -30 30 -32 43 -34 41 37 -37 -38 -39 39 40 -42 42 -44 -45 -46 46 -48 50 49 -51 53 52 -54 -55 -56 -57 -58 58 59 -61 -62 -63
leaf_value=0.023504442959908209 0.038450063308325504 -0.033015035614163073 -0.047710679963049077 -0.0077036783261933382 -0.048817658732062348 -0.033787960368381879 0.043630999212093624 0.055956081290600292 -0.025320697431757262 -0.0085271624246766823 -0.041374551117738106 -0.035953783266168278 -0.06189493665889121 -0.00021089992109582728 -0.043336739492169152 -0.0087722659663170936 0.044485022672607205 -0.0031009298464791534 -0.059452306332425209 -0.00013088904594077657 0.026852904052476697 -0.058458679792027173 0.025294117386315325 -0.013278597817519271 0.032749699709998602 -0.00025763056480262037 -0.05811218026410242 0.041350297597877755 -0.015932245800820737 0.05427619985718514 -0.0051588208320619972 0.031119165902186108 -0.036958548658465006 0.041933608441136638 0.047853354301301478 -0.06066083171412389 0.010958318757217865 -0.025458763489587477 -0.022149659368509142 -0.0065110823181324905 0.045182090832311117 -0.015516608923534028 0.018195079188622558 -0.010475734821872433 0.04504533539042993 0.040207025706985117 0.0024224074475260077 0.056441501550269751 0.057645638819802759 -0.003879616723340383 0.054453541300483868 -0.041109750778455995 0.025081558705645365 0.0072833206638803346 0.014324608997422831 -0.049700140138772698 -0.050054346442031029 0.030861981113375937 -0.0051942329908196451 0.029274835844490917 -0.049784462625895434 -0.0084420833231191716
leaf_weight=32.083294481039047 9.6342874318361265 5.7173226773738852 8.5996294021606428 4.9942468255758277 5.9391071796417263 6.4784730970859519 8.4466719925403648 7.8977660834789267 7.6858860403299323 5.4974841177463523 4.9959494620561626 6.9996687024831834 6.7299925833940497 5.4945173263549787 6.2310868650674811 8.7456851601600629 5.4955827295780173 253.63633735477924 4.9973103255033484 10.499981850385668 12.693547993898393 10.748897984623907 14.421651259064673 7.4996332526206997 5.2193637937307384 14.638954728841783 4.9821154028177288 6.6973836719989759 6.2170143127441406 7.7484024912118894 5.248412549495697 7.9999861717224103 8.6766815185546857 9.9641507565975171 8.9511902034282702 4.99830637872219 10.746927559375761 4.9677768200635901 6.9851922243833569 6.7241556346416465 9.2343061566352826 10.975999683141707 51.614281639456749 7.249987468123436 7.4848560243844986 6.9870743006467846 13.475880041718481 5.7491171360015896 4.9661847352981594 25.654004842042923 8.2085961550474149 8.4978651702404004 6.9473655819892874 5.4839307218790045 8.1823861449956876 8.6373900771141034 8.9998075515031797 6.2292196303606024 188.75750453770161 5.9852683246135703 5.9468518346548072 10.227913647890089
leaf_count=129 39 23 35 20 24 26 34 32 31 22 20 28 27 22 25 35 22 1016 20 42 51 43 58 30 21 59 20 27 25 31 21 32 35 40 36 20 43 20 28 27 37 44 207 29 30 28 54 23 20 103 33 34 28 22 33 35 36 25 758 24 24 41
internal_value=0 0.00249374 -0.00706401 -0.00567609 -0.00740579 0.00153879 0.00186601 0.0256282 0.010781 0.0213829 0.00102055 -0.000104473 -0.00676909 0.00228941 -0.00430839 -0.000869314 -0.00205321 -0.000817124 -0.0272008 -0.00262586 -0.00664283 -0.0296364 -0.00121685 -0.00627251 -0.0156232 -0.00537993 0.00749344 -0.00623774 0.0137744 0.0108227 0.030275 -0.00166459 -0.0139155 0.00961053 0.00140079 -0.0192174 -0.0075449 0.0141226 0.0202876 0.0095331 0.023401 0.0163553 0.0122833 0.0113445 0.0258872 -0.00172541 0.015324 0.00946425 -5.52164e-05 0.00609896 0.0174958 0.00907534 -0.0113365 0.0355616 0.031705 -0.0343138 -0.0333383 -0.00576157 -0.00439326 -0.00548755 -0.00655615 -0.0232744
internal_weight=0 737.977 260.449 251.849 236.718 705.894 699.415 24.0303 16.1326 15.1318 675.385 595.978 157.499 438.479 150.769 306.317 293.338 279.595 13.743 144.538 111.295 21.2489 90.0462 75.6245 45.0344 28.535 30.5901 17.8965 12.9144 33.2427 12.9968 20.2459 23.3156 132.162 59.6075 22.7449 17.7466 36.8626 31.8948 22.9437 15.9585 72.5544 62.5903 15.25 12.9794 274.099 20.463 79.4068 36.3375 30.6202 43.0693 29.3767 15.4452 13.6925 13.9315 13.6316 16.4994 223.086 206.919 200.69 194.704 16.167
internal_count=4007 2960 1047 1012 951 2831 2805 97 65 61 2708 2389 632 1757 605 1227 1175 1120 55 580 447 85 362 304 181 115 123 72 52 133 52 81 94 530 239 91 71 148 128 92 64 291 251 61 52 1098 82 319 146 123 173 118 62 55 56 55 66 896 831 806 782 65
is_linear=0
shrinkage=0.05


Tree=6
num_leaves=63
num_cat=0
split_feature=3 2 0 1 1 3 1 2 0 3 3 3 2 3 3 1 0 1 1 3 0 2 2 1 3 3 1 1 0 1 2 1 3 1 2 1 3 2 3 3 2 1 0 0 3 1 3 2 1 1 1 3 1 3 1 2 2 2 3 0 3 3
split_gain=6.35499 5.35629 5.35223 4.2642 3.86048 3.49452 2.97534 3.40556 7.67475 3.29747 2.80499 2.18049 5.37786 5.30541 3.40984 5.28068 6.06424 5.85579 12.2827 3.517 3.33783 6.86006 5.97421 4.36824 3.10047 3.56984 3.24995 2.78851 6.80186 3.84036 3.47645 2.92208 2.56067 2.46718 2.35885 2.25087 2.66551 2.24055 2.21061 2.34724 2.42047 2.26051 2.22542 5.2181 2.25746 4.10108 2.15721 3.38821 4.00788 10.6037 3.28612 2.1368 8.60228 4.74598 2.04396 1.97026 1.94932 5.06978 7.20201 5.82498 2.61971 4.23831
threshold=60324250.000000007 24.645000000000003 60.645000000000003 41527550.000000007 49208700.000000007 66378550.000000007 16447188.000000002 137.40000000000001 131.00000000000003 15418837.000000002 75623250.000000015 51940600.000000007 27.247500000000006 52756650.000000007 42252123.000000007 66169900.000000007 71.740000000000023 32855702.000000004 35104950.000000007 39187450.000000007 29.492500000000003 31.391500000000004 50.295000000000009 39938439.500000007 39997850.000000007 40795246.500000007 50302900.000000007 46650778.500000007 54.875000000000007 49831893.500000007 30.060000000000006 66169900.000000007 43752100.000000007 53826400.000000007 25.445000000000004 42790150.000000007 45493900.000000007 30.640000000000004 15418837.000000002 16925453.000000004 113.47000000000001 26966119.000000004 28.745000000000001 27.750500000000006 31559650.000000004 44519450.000000007 58064250.000000007 26.915000000000003 50848550.000000007 61346500.000000007 45221300.000000007 37137168.000000007 39146865.000000007 38207450.000000007 34262885.500000007 29.925000000000004 30.285000000000004 32.605000000000011 31701200.000000004 34.970000000000006 29567591.500000004 32126564.000000004
decision_type=2 2 2 2 2 2 2 2 2 2 2 2 2 2 2 2 2 2 2 2 2 2 2 2 2 2 2 2 2 2 2 2 2 2 2 2 2 2 2 2 2 2 2 2 2 2 2 2 2 2 2 2 2 2 2 2 2 2 2 2 2 2
left_child=1 -1 3 10 5 -5 9 8 11 -3 -2 14 46 -14 19 16 17 -16 -19 38 23 55 35 -20 -21 -26 -27 28 30 -29 -15 33 -25 -31 -34 -23 -37 -17 -8 -40 42 -42 43 44 -41 -46 47 48 50 -50 -13 56 54 -54 -53 -22 -44 58 -58 -59 -61 -62
right_child=2 6 -4 4 -6 -7 7 -9 -10 -11 -12 12 13 27 15 37 -18 18 20 24 21 22 -24 32 25 26 -28 29 -30 31 -32 -33 34 -35 -36 36 -38 -39 39 40 41 -43 51 -45 45 -47 -48 -49 49 -51 -52 52 53 -55 -56 -57 57 59 -60 60 61 -63
leaf_value=0.022369242910874589 0.036695964294662653 -0.011726678595596961 -0.045642920236776748 -0.053932059121177094 -0.0051102822915367035 -0.011041524601601675 0.024963159852559407 -0.028961707806489406 0.045104898218959744 0.030155324640208526 -0.0081013554351460539 -0.0097585292542811605 0.052921303420246125 0.017904259847792644 -0.050622678747542477 0.031503611751786807 0.033791651997306611 0.054038599422229397 -0.045722772065182049 0.036956689358013932 -0.078404420630501653 0.033313492296022713 -0.033693715365813781 -0.035342438379377193 -0.016339864858920968 0.028584229953601006 -0.016245992182943644 -0.032038968659711071 -0.018456537842073566 -0.0018070378905478603 0.073405530603111613 -0.0090840208709905678 -0.024822996693734625 0.038249128779641421 0.0072682053513861578 0.020855853356900815 -0.030801883238900513 -0.0086371335549825772 -0.031589292028685802 0.027612194895052983 0.0015013567850468378 0.047099226572090515 0.021354841055348042 0.047862662103255016 -0.042578195967970453 0.012911081787847698 0.015388777594574793 -0.05048434450580052 -0.06368770736963611 0.01783547326431625 0.044904708920217057 -0.0045127827418180774 -0.076237100005542666 -0.011408399686139742 0.0336596095094795 -0.039604683153025226 -0.079045052670919172 0.052175986926096624 -0.00046254552621725702 0.0027968004889547052 -0.020885077379168455 0.00044768330551862878
leaf_weight=32.027324825525284 9.591173976659773 6.4411350339651134 8.5412429273128492 7.9085975438356426 216.77296279370785 11.887105315923689 8.7166994810104352 9.4433962404727918 9.8412774801254255 17.382478639483452 5.4971183389425269 5.498365864157682 8.7340552359819394 4.9959498494863528 9.7290637642145139 11.483759284019472 7.2036848813295355 6.978400081396102 6.2466751188039771 11.717862412333487 4.9946368336677542 6.2366060167551103 15.45440751314163 4.9876211881637564 10.96798963844776 17.694897890090946 5.2398906499147406 6.493584230542182 5.4809996485710135 5.9908833503723207 6.4822461158037186 11.226311877369879 6.7430725246667853 10.72794823348522 37.973080322146416 4.9949164986610395 4.9938019961118698 4.9855898916721335 5.9777184128761283 4.9897317737340989 5.7101466059684736 5.1871682852506638 9.7412351071834546 7.7041098922491065 5.9939119368791562 7.4917035549879074 8.7267886549234372 4.9952360093593589 7.7350120097398749 8.2355733811855298 5.4990877658128738 9.7191881388425845 6.4963834881782514 4.9928961843252182 5.4863782227039328 9.4864228069782239 4.9982593208551389 5.2476911544799796 6.9978147000074387 168.08535818755627 36.89731040596962 63.101261839270592
leaf_count=129 39 26 35 32 871 48 35 38 40 70 22 22 35 20 39 46 29 28 25 47 20 25 62 20 44 71 21 26 22 24 26 45 27 43 152 20 20 20 24 20 23 21 39 31 24 30 35 20 31 33 22 39 26 20 22 38 20 21 28 675 148 253
internal_value=0 0.00237051 -0.00671785 -0.00539674 -0.00704045 -0.0281768 0.00146274 0.000855785 0.00127461 0.0188318 0.020375 0.000623488 0.00739394 0.0168932 -0.000591885 -0.00727375 -0.0107534 -0.013454 -0.0101392 0.00167961 -0.0145252 -0.0244776 -0.0114458 -0.00631411 0.0147851 0.0071219 0.0183419 0.0107709 0.0273669 0.00259827 0.0492483 0.0106469 -0.0013613 0.0238957 0.00242894 0.00974513 -0.00497013 0.0193522 7.90101e-05 -0.000515553 2.08608e-06 0.0232061 -0.000724647 0.0132941 -0.00112076 -0.0117521 -0.00664407 -0.0126596 -0.00565339 -0.0216485 0.0175749 -0.00186525 -0.0154119 -0.0480645 0.00926034 -0.052987 -0.000639685 -0.00139059 -0.0332046 5.67397e-06 -0.00101555 -0.00742364
internal_weight=0 737.605 260.198 251.657 236.569 19.7957 705.578 681.754 672.311 23.8236 15.0883 662.469 100.822 60.132 561.647 142.492 126.022 118.819 109.09 419.156 102.111 46.1608 31.6797 55.9504 45.6206 33.9028 22.9348 51.3979 16.9592 34.4387 11.4782 27.9451 49.7038 16.7188 44.7162 16.2253 9.98872 16.4693 373.535 364.818 358.841 10.8973 347.943 26.1795 18.4753 13.4856 40.6901 31.9633 26.968 15.9706 10.9975 321.764 26.6948 11.4893 15.2056 14.4811 295.069 285.328 11.9961 273.332 268.084 99.9986
internal_count=4007 2960 1047 1012 951 80 2831 2735 2697 96 61 2657 404 241 2253 571 505 476 437 1682 409 185 127 224 183 136 92 206 68 138 46 112 199 67 179 65 40 66 1499 1464 1440 44 1396 105 74 54 163 128 108 64 44 1291 107 46 61 58 1184 1145 48 1097 1076 401
is_linear=0
shrinkage=0.05


Tree=7
num_leaves=63
num_cat=0
split_feature=3 0 0 1 1 0 0 0 2 1 1 3 1 1 3 1 3 3 0 0 0 0 0 0 3 3 3 3 0 2 3 0 2 3 2 2 2 3 3 2 3 0 3 0 0 3 2 2 0 1 2 0 1 1 0 0 0 2 2 0 3 2
split_gain=5.75739 5.36038 4.89172 4.15605 3.18422 3.07608 4.80876 2.85018 4.7189 3.82684 6.87005 2.22906 3.44645 7.55154 4.34498 3.33825 3.16587 3.56442 2.9321 6.75313 3.47849 2.84971 7.79802 3.92814 2.78411 4.10604 3.14331 2.48732 2.42548 3.88053 2.5419 4.74127 5.96338 5.08154 3.33426 2.96555 2.4568 2.27918 2.86461 6.80351 4.8386 3.96762 3.24086 2.69702 5.17126 3.81511 3.32776 3.36139 2.53019 2.26823 3.56145 4.20509 3.33259 5.6156 4.19427 5.25915 4.98985 4.66014 5.06587 4.89559 5.96661 6.24622
threshold=59948800.000000007 24.645000000000003 60.645000000000003 41996550.000000007 47695500.000000007 27.015000000000004 35.935000000000009 138.26000000000002 118.48 27101440.000000004 22522581.500000004 21489697.500000004 30380254.000000004 29911604.000000004 47317650.000000007 38653150.000000007 28656741.500000004 26839696.000000004 39.840000000000011 33.95000000000001 106.21500000000002 83.88000000000001 106.21500000000002 68.820000000000007 31701200.000000004 33011278.500000004 30915492.000000004 58508450.000000007 109.52500000000002 98.375000000000014 13869449.500000002 57.955000000000005 64.00500000000001 18039230.000000004 71.280000000000015 53.535000000000004 73.280000000000015 25727322.000000004 30348893.000000004 48.855000000000011 34595800.000000007 52.310000000000009 32801700.000000004 52.105000000000011 43.955000000000005 42252123.000000007 36.042500000000011 32.155000000000008 29.635000000000002 66538250.000000007 29.635000000000002 47.815000000000005 65135050.000000007 63859800.000000007 26.165000000000003 25.545000000000005 26.595000000000002 27.075000000000003 26.915000000000003 29.075000000000003 48584300.000000007 30.815000000000001
decision_type=2 2 2 2 2 2 2 2 2 2 2 2 2 2 2 2 2 2 2 2 2 2 2 2 2 2 2 2 2 2 2 2 2 2 2 2 2 2 2 2 2 2 2 2 2 2 2 2 2 2 2 2 2 2 2 2 2 2 2 2 2 2
left_child=1 -1 3 5 -5 -2 -7 8 11 10 -10 28 13 14 18 21 17 -17 19 -13 -20 23 -23 37 26 -26 -18 49 29 30 -3 35 -33 34 -34 -32 -35 -14 39 -39 41 42 -40 44 46 -45 47 48 -42 52 -51 -52 53 54 55 -27 -56 58 -58 -59 61 -61
right_child=2 7 -4 4 -6 6 -8 -9 9 -11 -12 12 15 -15 -16 16 24 -19 20 -21 -22 22 -24 -25 25 27 -28 -29 -30 -31 31 32 33 36 -36 -37 -38 38 40 -41 43 -43 -44 45 -46 -47 -48 -49 -50 50 51 -53 -54 -55 56 -57 57 59 -60 60 -62 -63
leaf_value=0.022059781876508311 0.051269457422918899 0.038603074106100817 -0.043698172638033467 -0.030532231673987283 -0.0053547565113736774 -0.024724259163906838 0.041495362240475495 -0.031716505577588781 0.040741517456829225 0.052159202433344334 -0.024677868144323559 -0.0084199161708565454 -0.018064241901234974 -0.058401811884727622 -0.049015603565748418 0.0031825547622065472 -0.0055645194973210979 0.056459162958688629 -0.0076684575242802052 0.058206889232610318 0.021003913626355279 0.048319693863662576 -0.020639459306570754 -0.031312714101248799 0.042029323828384202 -0.00032313852064786092 -0.055579420909218941 0.019942605694052443 -0.023439882420065963 0.053839236079801546 0.0082505800912184256 -0.04812654898099189 0.0077918013344890668 0.005219237923262704 -0.039744014879437711 0.04515667887134172 0.041991687147323459 -0.00021356648835656571 -0.0084282185165047204 0.068673023434272257 0.022475256336219766 0.008680672246728997 -0.061585970497727439 0.015703448345483453 0.050618307007641465 -0.036792326323230255 -0.021019698716098392 0.055369850187741924 -0.010408353200705179 0.020291395358484971 -0.035319443979040868 0.019487067577783582 -0.038667345900728699 0.045215280465880719 0.040309059425087689 -0.040948187413595245 -0.0090508556499610468 0.012442476527839821 -0.069757220147819918 -0.042060157957170968 0.011589777214539706 -0.0069477103881105092
leaf_weight=32.725544065237045 5.1583188176155117 6.1971712857484809 8.476938530802725 13.296964839100836 225.95767965912819 6.2014965713024122 4.913930356502533 6.4542667716741553 8.41304256021977 7.8286052346229544 7.6736062616109839 9.7312669306993467 7.7194150537252417 6.7132587432861319 5.2208459973335257 8.4689368456602079 8.4925681948661786 4.9888409227132788 117.54253517091274 6.2431265562772742 11.624068707227705 13.054247036576273 5.9764463752508155 6.7242141664028159 5.4868506491184226 15.219843834638597 4.9856631010770789 12.694151431322096 5.4484394043683997 4.9610741883516303 13.235435619950296 6.7464235872030249 6.707636520266532 10.694309696555139 8.1967495381832105 9.245318874716757 7.8957190662622443 7.9929295331239683 5.9972484111785906 6.4983893185853958 15.964246615767484 10.495885059237478 5.4938339293003082 8.7191955596208555 10.434565067291258 5.7390039563179007 6.736805483698844 4.9829324781894675 9.2328480333089811 23.936108306050301 7.9870868772268278 6.2296175509691238 6.9878378212451926 5.7382009774446479 6.738962158560752 16.716276943683624 9.983255133032797 47.177753001451492 5.2405423521995536 16.215412154793739 30.672846406698227 57.861787706613541
leaf_count=132 21 25 35 54 908 25 20 26 34 32 31 39 31 27 21 34 34 20 472 25 47 53 24 27 22 61 20 51 22 20 53 27 27 43 33 37 32 32 24 26 64 42 22 35 42 23 27 20 37 96 32 25 28 23 27 67 40 189 21 65 123 232
internal_value=0 0.00228063 -0.00633063 -0.00509099 -0.00675404 0.0193589 0.00455024 0.00135641 0.00166404 0.0234882 0.00953535 0.000885024 -0.000171898 -0.00651747 -0.00420097 0.00212692 -0.00077184 0.0229324 -0.00258895 0.0176192 -0.00508815 0.00876699 0.0266636 0.00574578 -0.0018781 -0.000790217 -0.0240653 -0.00166232 0.00875462 0.0111289 0.0080544 0.00503605 -0.00523892 0.00339948 -0.0183508 0.0234284 0.0208376 0.00809646 0.0101511 0.0306775 0.00660138 -0.0135434 -0.0338427 0.0137673 0.0195386 -0.0051341 0.0107539 0.0178464 0.0104259 -0.00273069 0.00851823 -0.0113038 -0.00469442 -0.00357232 -0.00493246 -0.0215874 -0.00187366 -0.00357432 -0.029948 -0.000931562 -0.00695502 -0.0146338
internal_weight=0 733.083 264.005 255.528 239.255 16.2737 11.1154 700.358 693.903 23.9153 16.0866 669.988 590.66 157.075 150.362 433.585 301.823 13.4578 145.141 15.9744 129.167 131.762 19.0307 112.732 288.365 274.887 13.4782 269.4 79.3283 73.8798 68.9188 62.7216 40.2408 33.4944 14.9044 22.4808 18.59 106.007 98.2879 14.4913 83.7966 21.987 11.4911 61.8096 47.3514 14.4582 36.9168 30.18 25.1971 256.706 38.1528 14.2167 218.553 211.565 205.827 31.9361 173.891 167.152 15.2238 151.928 104.75 74.0772
internal_count=4007 2944 1063 1028 962 66 45 2812 2786 97 65 2689 2370 631 604 1739 1210 54 583 64 519 529 77 452 1156 1102 54 1080 319 297 277 252 162 135 60 90 75 425 394 58 336 88 46 248 190 58 148 121 101 1029 153 57 876 848 825 128 697 670 61 609 420 297
is_linear=0
shrinkage=0.05


Tree=8
num_leaves=63
num_cat=0
split_feature=3 0 2 1 1 0 0 0 0 0 1 3 3 0 2 3 2 0 3 2 1 2 0 1 3 3 2 2 3 2 0 0 1 0 2 2 0 3 2 3 0 1 1 3 1 1 1 0 3 0 3 0 1 2 3 1 1 0 1 0 2 0
split_gain=5.2007 4.84862 4.48501 3.79762 3.48779 2.80245 4.3519 2.65205 7.12906 2.21256 2.19802 2.82092 2.08387 3.32513 3.92136 2.87709 2.38956 4.17606 2.37443 4.23794 8.61276 6.66702 3.96267 7.13555 2.83452 2.62005 2.56444 3.54023 2.71327 4.53873 5.93508 2.2282 2.14387 2.04877 2.26686 2.2333 3.17623 2.04791 4.38409 4.7289 3.69168 3.93689 5.49177 3.40748 4.46305 4.71852 3.69111 5.58306 3.83142 4.78672 4.28033 4.63378 4.85088 3.16696 2.76843 2.39895 2.27948 2.86072 4.94635 3.597 2.03162 3.3907
threshold=59948800.000000007 24.645000000000003 66.290000000000006 41996550.000000007 47695500.000000007 27.015000000000004 35.935000000000009 137.35000000000002 131.00000000000003 27.165000000000003 16447188.000000002 15418837.000000002 61990647.000000007 25.492500000000003 28.200000000000006 62889050.000000007 38.120000000000012 33.95000000000001 73789250.000000015 28.065000000000001 66538250.000000007 26.510000000000002 28.525000000000002 70810650.000000015 94065300.000000015 68208893.000000015 25.985000000000003 26.660350000000005 113387100.00000001 27.247500000000006 27.913000000000004 24.205000000000002 59466850.000000007 25.605000000000004 24.225000000000005 21.720000000000002 19.140000000000004 51940600.000000007 27.247500000000006 52756650.000000007 25.225000000000005 53287750.000000007 61346500.000000007 49997350.000000007 57401390.000000007 44743950.000000007 66169900.000000007 28.312500000000004 42252123.000000007 71.740000000000023 47809081.000000007 27.402500000000003 42554500.000000007 52.340000000000011 41601300.000000007 60516050.000000007 58662500.000000007 28.745000000000001 52679650.000000007 27.750500000000006 26.835000000000004 25.815000000000001
decision_type=2 2 2 2 2 2 2 2 2 2 2 2 2 2 2 2 2 2 2 2 2 2 2 2 2 2 2 2 2 2 2 2 2 2 2 2 2 2 2 2 2 2 2 2 2 2 2 2 2 2 2 2 2 2 2 2 2 2 2 2 2 2
left_child=1 -1 3 5 9 -2 -7 8 10 -5 11 -3 13 -6 -15 -14 17 18 19 21 -21 31 26 -24 -25 -23 32 -28 29 -29 -31 -17 -20 34 35 36 -34 43 40 -40 -39 60 -43 46 45 -45 48 -48 54 50 55 -52 -53 -49 56 -50 57 59 -59 -12 61 -42
right_child=2 7 -4 4 12 6 -8 -9 -10 -11 37 -13 15 14 -16 16 -18 -19 22 20 -22 25 23 24 -26 -27 27 28 -30 30 -32 -33 33 -35 -36 -37 -38 38 39 -41 41 42 -44 44 -46 -47 47 53 49 -51 51 52 -54 -55 -56 -57 -58 58 -60 -61 -62 -63
leaf_value=0.020999330910073971 0.049032375628862271 -0.011749441719244734 -0.04632318949762837 -0.0044014758986460501 -0.050278367151691095 -0.023464915118697242 0.039591514483464006 -0.024374694622707856 0.043107991620316644 -0.046149742016841404 0.0051236001656688422 0.027334383359878641 0.02987768610437044 0.017152463020501399 -0.039270073008494194 -0.026905906302821938 0.023680906401637832 -0.04707687449675145 -0.028301081602557426 -0.022625133929835301 0.042071319949666772 -0.027277958272997255 0.015267031592707378 -0.013631447445745152 -0.059352028301691478 -0.066556201420225045 0.042066995326920188 -0.029254190330916498 0.037337538359403816 0.046685541170874457 -0.013837698715444739 0.0012567573029377368 0.018127260434692535 0.0293471744007348 -0.018569450816975582 0.021399544476488758 -0.031876460673415978 0.032125446610469739 0.049888651376783791 0.0099193144573744702 -0.0084500152958665187 -0.058296411383181292 -0.0020274975821544753 -0.031387150247842222 -0.049635573769211211 0.022584887306777601 0.046801528668816872 -0.018958233096384416 -0.016225766220985038 0.032405112869417739 0.033818895508433054 0.021655022044299661 -0.02900283004914548 0.028409486064194467 0.026237351612886296 -0.051440467927641315 -0.023154988645577711 -0.0007772204118343339 0.037896314793760474 0.044029965402892252 -0.020098824100581825 0.048488838031819963
leaf_weight=32.660915195941925 5.1248293220996883 6.4324829131364849 6.7262988090515128 4.9790944606065741 6.3932507932186153 6.2074453085660917 4.8932413458824158 9.9230436533689481 10.220370694994925 8.7523525059223157 20.200744152069095 16.355498403310776 6.2219278216361991 7.4807432442903501 5.2340239733457565 9.7003949731588346 7.1815707534551612 5.9094784855842581 6.9965690970420829 10.963139787316324 9.6920551210641843 9.7015641480684298 9.4914998114109057 5.6973321437835684 8.370527654886244 7.5495451092720023 8.9105030447244626 8.9916125237941795 5.7377111762762061 7.743591487407687 8.4935481995344144 25.450111776590347 5.9986652433872241 5.7417871057987204 14.23972713947296 12.497330129146574 6.7484911680221558 5.4829173833131781 8.7139013260602933 49.088119089603424 5.491441458463667 8.1899692565202731 9.2154748290777189 7.9635324329137864 7.9736164212226859 8.2394129782915098 10.457890555262567 9.2217740118503553 63.027380719780922 6.4427516758441916 8.991809234023096 7.7036617696285274 12.224921494722365 5.7159261107444754 10.949660584330557 5.2382420152425757 9.7266815900802595 349.71240247786045 8.4681467115879041 8.4156131446361524 4.9905178099870673 4.9910014420747757
leaf_count=132 21 26 28 20 26 25 20 40 42 36 81 66 25 30 21 39 29 24 28 44 39 39 38 23 34 31 36 36 23 31 34 102 24 23 57 50 27 22 35 197 22 33 37 32 32 33 42 37 253 26 36 31 49 23 44 21 39 1405 34 34 20 20
internal_value=0 0.00216895 -0.00601849 -0.00496401 -0.00654122 0.0184497 0.00433069 0.00129006 0.00165924 -0.0310116 0.00103592 0.016302 -0.00506187 -0.020864 -0.00607383 -0.0036104 -0.00464288 -0.00568801 -0.00439195 -0.0114487 0.00773244 -0.0190094 6.55036e-05 -0.0182332 -0.0408357 -0.0444672 0.00474638 0.0142942 0.0063027 -0.000755477 0.0150262 -0.00651522 -0.00254431 0.00144032 -0.00261789 0.00637995 -0.00834528 0.000506286 0.00724765 0.0159449 -0.00585714 -0.0121912 -0.0285043 -0.00064995 -0.0190119 -0.00394165 0.000177506 0.0187829 -0.000746958 -0.00933127 -0.0120981 0.00402341 -0.00942036 -0.000832927 0.00143621 -0.0189279 0.000751346 0.00135251 0.000137104 0.0165653 0.00615923 0.0186603
internal_weight=0 732.43 263.82 257.094 240.868 16.2255 11.1007 699.769 689.846 13.7314 679.625 22.788 227.137 19.108 12.7148 208.029 201.807 194.625 188.716 73.0568 20.6552 52.4016 115.659 23.5594 14.0679 17.2511 92.0995 39.877 30.9665 25.2288 16.2371 35.1505 52.2226 45.226 39.4842 25.2445 12.7472 656.838 96.1633 57.802 38.3613 32.8784 17.4054 560.674 24.1766 16.2029 536.498 25.3956 511.102 103.629 97.186 28.9204 19.9286 14.9377 407.473 68.2656 396.524 386.797 358.181 28.6164 15.473 10.4824
internal_count=4007 2944 1063 1035 969 66 45 2812 2772 56 2730 92 913 77 51 836 811 782 758 294 83 211 464 95 57 70 369 160 124 101 65 141 209 181 158 101 51 2638 386 232 154 132 70 2252 97 65 2155 102 2053 416 390 116 80 60 1637 274 1593 1554 1439 115 62 42
is_linear=0
shrinkage=0.05


Tree=9
num_leaves=63
num_cat=0
split_feature=3 2 0 1 1 0 0 2 0 2 1 3 3 0 2 3 2 0 3 2 1 2 0 1 2 3 2 2 3 2 0 0 3 1 0 2 2 0 1 0 1 1 2 0 3 3 0 2 1 3 3 3 3 0 1 0 0 0 1 0 0 0
split_gain=4.7042 4.41509 4.1341 3.40072 2.61138 2.55619 3.94054 2.47914 6.28721 2.4365 1.97162 1.92998 1.88306 3.03362 3.54405 2.60457 2.48613 3.79743 2.14941 3.83518 7.79615 6.07941 3.58737 6.47729 2.72639 2.43688 2.3179 3.21481 2.45162 4.0964 5.36409 2.01579 2.02765 1.9354 1.85006 2.04623 2.01527 2.86816 1.89499 1.77372 1.70729 7.0287 4.41003 3.86086 2.94463 3.38856 2.13199 3.31419 4.01143 3.94564 5.88162 3.29483 5.06723 4.26488 4.17671 3.58007 3.57453 3.49015 3.42986 2.66855 2.65851 2.67054
threshold=59948800.000000007 24.465000000000003 60.645000000000003 41996550.000000007 47695500.000000007 27.015000000000004 35.935000000000009 137.40000000000001 131.00000000000003 23.992500000000003 16838070.500000004 58508450.000000007 61990647.000000007 25.492500000000003 28.200000000000006 62889050.000000007 38.120000000000012 33.95000000000001 73789250.000000015 28.065000000000001 66538250.000000007 26.510000000000002 28.525000000000002 70810650.000000015 30.965000000000003 68208893.000000015 25.985000000000003 26.660350000000005 113387100.00000001 27.247500000000006 27.913000000000004 24.205000000000002 66746800.000000007 59466850.000000007 25.605000000000004 24.225000000000005 21.720000000000002 19.140000000000004 75624500.000000015 27.165000000000003 62764750.000000007 58662500.000000007 24.795000000000005 25.315000000000001 44338400.000000007 49997350.000000007 25.265000000000004 25.985000000000003 51627996.500000007 51757600.000000007 56200200.000000007 42252123.000000007 38939094.500000007 71.740000000000023 29911604.000000004 69.195000000000007 43.955000000000005 32.825500000000012 35104950.000000007 25.605000000000004 27.165000000000003 46.770000000000003
decision_type=2 2 2 2 2 2 2 2 2 2 2 2 2 2 2 2 2 2 2 2 2 2 2 2 2 2 2 2 2 2 2 2 2 2 2 2 2 2 2 2 2 2 2 2 2 2 2 2 2 2 2 2 2 2 2 2 2 2 2 2 2 2
left_child=1 9 3 5 39 -2 -7 8 10 -1 -3 40 13 -6 -15 -14 17 18 19 21 -21 31 26 -24 -25 -23 33 -28 29 -29 -31 -17 -33 -20 35 36 37 -35 -37 -5 41 42 -12 -42 -43 -46 -44 48 59 51 60 52 -49 54 -53 56 57 -54 -56 -48 -51 -62
right_child=2 7 -4 4 12 6 -8 -9 -10 -11 11 -13 15 14 -16 16 -18 -19 22 20 -22 25 23 24 -26 -27 27 28 -30 30 -32 32 -34 34 -36 38 -38 -39 -40 -41 43 44 46 -45 45 -47 47 49 -50 50 -52 53 55 -55 58 -57 -58 -59 -60 -61 61 -63
leaf_value=0.011452513847953868 0.046936546933405238 0.014637478139447879 -0.040363944945971342 -0.0041824800943009348 -0.048092849869784224 -0.022277179311408754 0.037797444113457021 -0.02389941741624596 0.040177502774187739 0.04335179052628927 -0.045360474812114124 0.019294764102641398 0.028444665005284517 0.016285241533100663 -0.037376785911042369 -0.025611578943222503 0.02733673857811806 -0.045006843274495091 -0.026893717653825505 -0.021520198296816326 0.040104573307646448 -0.025963791125058196 0.014505752450494814 -0.057254909229454122 -0.012316174279380091 -0.063983483687279616 0.040125227462290539 -0.027785412797463317 0.035508660545239511 0.044412850045355487 -0.013142606449224034 0.016446080797834228 -0.011864934895327424 0.017217670472302823 0.027895364653482458 0.0062378349307224829 0.020325704521558175 -0.030304974600346792 -0.031578424830854261 -0.042012645529423465 0.0452719939863159 -0.060209884061622976 0.032483617017955241 0.0038596317734874378 0.01549601124868176 -0.035717787812385729 0.024584861419323929 -5.1830542896991655e-05 -0.050096795229057703 0.00050020962710449425 -0.014973596196344847 -0.054701274555377634 0.02263083957865775 0.030916776608227309 0.01903143639143344 -0.017479154124547373 0.043675903089109701 -0.025213249416266334 -0.012270498290184978 -0.020300273717959255 0.044053526239350146 0.009314867669487718
leaf_weight=18.506826624274257 5.0869466960430172 25.729296296834946 8.3439865857362729 4.9778423607349387 6.350674211978915 6.2113723903894407 4.8698235303163528 9.6291988641023618 10.427998706698416 8.8480556011199933 5.236553728580474 13.421840310096739 6.2089436501264563 7.4850357919931394 5.2244260758161545 9.6815703660249692 5.9726299792528144 5.8731366842985144 6.9946076869964591 10.950063034892084 9.6597993373870832 9.683442488312723 9.4901746809482592 8.3111576288938505 5.682860702276229 7.4626446068286887 8.8755056560039503 8.9935101419687324 5.7317114770412436 7.7330927699804333 8.4955673813819867 11.739384904503824 13.711115911602972 5.9997565150260943 5.7386582046747199 5.2454483509063712 12.499630540609358 6.7436301708221436 8.9910842180252057 8.2068600952625257 6.2132433652877799 5.7220771610736874 5.2396266609430304 59.763993561267853 4.9812113791704169 9.1862289160490018 5.2458627223968533 344.70659287273884 6.9487862735986701 7.9723699688911429 11.961044594645498 5.2112983167171469 16.213142260909084 6.4235779345035544 9.9244176149368268 5.9451259821653357 14.383940458297728 4.9834004193544379 74.036463528871536 8.9797314107418043 18.184059083461765 7.9516214877367011
leaf_count=75 21 104 35 20 26 25 20 39 43 36 21 54 25 30 21 39 24 24 28 44 39 39 38 34 23 31 36 36 23 31 34 47 55 24 23 21 50 27 36 34 25 23 21 240 20 37 21 1385 28 32 48 21 65 26 40 24 58 20 297 36 73 32
internal_value=0 0.00206206 -0.00573186 -0.00459812 -0.00610118 0.0175938 0.00412365 0.00129694 0.00164604 0.0217705 0.00105909 0.000528813 -0.00483673 -0.0198739 -0.00577339 -0.00344858 -0.00443741 -0.00541419 -0.00418003 -0.0109034 0.0073632 -0.0181047 6.18641e-05 -0.0173812 -0.0390056 -0.0425114 0.00451239 0.0135971 0.00599058 -0.000717369 0.0142831 -0.00619306 0.0011939 -0.00241766 0.00136843 -0.00248746 0.00606109 -0.00793068 -0.017645 -0.02773 0.000138562 -0.000729195 0.000309045 0.00775954 -0.0299378 -0.0177112 0.000740484 0.000437568 -0.0189585 0.00121556 0.0151952 -0.000121076 0.00193593 -0.00843193 -0.0112664 0.0184365 0.0244376 0.0113825 -0.00857052 -0.00374833 0.0257748 0.0334845
internal_weight=0 731.978 263.226 254.882 238.714 16.1681 11.0812 704.623 694.994 27.3549 684.566 658.836 225.529 19.0601 12.7095 206.469 200.26 194.288 188.414 72.888 20.6099 52.2782 115.526 23.4842 13.994 17.1461 92.0422 39.8294 30.9539 25.2222 16.2287 35.1321 25.4505 52.2128 45.2182 39.4795 25.243 12.7434 14.2365 13.1847 645.414 579.437 559.548 65.9772 19.8895 14.1674 554.311 549.071 21.1744 527.897 46.0691 481.828 386.232 95.5958 89.1722 41.5256 35.5805 21.1965 83.9609 14.2256 34.1081 26.1357
internal_count=4007 2944 1063 1028 962 66 45 2833 2794 111 2751 2647 908 77 51 831 806 782 758 294 83 211 464 95 57 70 369 160 124 101 65 141 102 209 181 158 101 51 57 54 2593 2328 2248 265 80 57 2227 2206 85 2121 185 1936 1552 384 358 167 143 85 337 57 137 105
is_linear=0
shrinkage=0.05


Tree=10
num_leaves=63
num_cat=0
split_feature=3 2 2 1 1 0 0 3 1 2 0 0 1 2 3 1 3 3 0 1 2 0 2 1 1 1 2 2 3 3 0 0 3 3 3 3 2 3 2 1 1 0 3 2 3 3 1 1 1 1 3 1 3 0 2 1 1 3 0 0 3 3
split_gain=4.26766 3.77058 3.67702 2.89648 4.23896 2.36643 6.18716 2.36417 2.00252 1.97291 2.65162 4.03514 3.22071 2.63538 2.61149 4.20574 3.19638 4.49622 4.65203 4.81103 4.27826 3.80423 6.35291 3.28178 3.76266 4.11785 2.76855 5.44683 2.57285 2.33072 3.24003 5.24801 2.73523 2.67547 2.60971 2.46918 2.31011 3.59799 2.99162 6.65341 2.30684 5.94806 2.00158 2.75758 1.94021 2.00751 2.07207 3.37361 5.01077 1.87988 1.87674 4.6868 2.78256 1.82547 2.01576 1.82009 1.79963 2.89346 6.19572 2.94371 2.70967 1.90495
threshold=60324250.000000007 66.290000000000006 24.645000000000003 41527550.000000007 44519450.000000007 137.35000000000002 131.00000000000003 75623250.000000015 24657202.500000004 24.795000000000005 25.225000000000005 25.855000000000004 42311300.000000007 25.815000000000001 51940600.000000007 38354250.000000007 42252123.000000007 42865800.000000007 71.740000000000023 66169900.000000007 29.330000000000002 29.492500000000003 29.925000000000004 49432906.000000007 32855702.000000004 36400000.000000007 33.620000000000012 50.895000000000003 44811000.000000007 39504750.000000007 43.955000000000005 62.305000000000007 29567591.500000004 29919932.000000004 29088150.000000004 28656741.500000004 27.247500000000006 52756650.000000007 26.915000000000003 53826400.000000007 45688650.000000007 55.565000000000005 32516577.000000004 27.275000000000002 53641200.000000007 55989200.000000007 46650778.500000007 54389400.000000007 66169900.000000007 41527550.000000007 65728692.500000007 52679650.000000007 66746800.000000007 48.670000000000009 31.391500000000004 46101850.000000007 19278078.500000004 18598519.000000004 69.825000000000017 78.90000000000002 20282654.500000004 26002759.500000004
decision_type=2 2 2 2 2 2 2 2 2 2 2 2 2 2 2 2 2 2 2 2 2 2 2 2 2 2 2 2 2 2 2 2 2 2 2 2 2 2 2 2 2 2 2 2 2 2 2 2 2 2 2 2 2 2 2 2 2 2 2 2 2 2
left_child=2 3 -1 7 -5 6 9 -2 -8 -4 -11 12 -12 28 16 -16 20 -18 19 21 42 49 -23 24 -24 -26 -27 -28 -14 32 -31 -32 34 -34 35 55 38 -38 39 -17 -35 -42 -13 -44 -39 -46 -47 -48 -49 -19 51 -6 -52 54 -25 56 57 58 -22 -60 -59 -62
right_child=1 -3 5 4 50 -7 8 -9 -10 10 11 14 13 -15 15 36 17 18 -20 -21 29 22 23 53 25 26 27 -29 -30 30 31 -33 33 40 -36 -37 37 44 -40 -41 41 -43 43 -45 45 46 47 48 -50 -51 52 -53 -54 -55 -56 -57 -58 60 59 -61 61 -63
leaf_value=0.018587098978977906 0.03206757821043181 -0.042831754261239662 -0.030397264372326451 -0.052439302483120169 -0.042207593376994368 -0.023098365376071857 0.018342321202274466 -0.009269236157667806 0.062881960173782794 0.025906777511795528 0.013147041441857996 -0.005304083128160126 -0.0069714465280898939 0.0050169107494836057 0.041445911014030778 0.045441767522343773 -0.045676502442556534 -0.019308074276494343 0.033386704199032176 0.022705976379948471 -0.039201911937475423 -0.067987772727690701 -0.038629436950939879 -0.042730781838861365 0.035061909343106649 -0.035422633288283455 0.040298167527750242 -0.022427863857275212 -0.048239585891194162 -0.0077581553189460979 0.047715657470359781 -0.0066854385644445433 -0.034063352136805954 -0.0010478469006469401 0.034068779637253008 -0.026824641249024835 0.044251520546508966 -0.016211651900212693 -0.03655818820276293 -0.026229634673742341 -0.0018878422830086777 -0.059020518420017702 0.0059888040314001467 0.037093046797761757 0.027550410632948143 0.030622302036666521 -0.030393438649155814 0.044072997784240391 -0.022178806818140214 0.0061731952454846034 0.023515803198197752 -0.0054575258426932845 -0.0040114177519900282 -0.056682798784595027 0.002265535441901501 0.026858180514405694 -0.00031981958465853751 0.044793583013861125 0.0405831056025239 -0.0058749621929182969 0.001848138348892114 0.035730890369863377
leaf_weight=31.749739572405815 9.399626210331915 6.600129783153533 4.9782796502113333 4.7920547425746909 11.053548216819761 9.8861211985349637 5.0969384759664518 5.4729310274124137 4.9985119998455048 10.683837175369261 6.7320841401815441 6.956241860985755 5.4765666127204957 5.2178584188222876 9.4151023328304273 5.7337196618318576 6.9566283524036399 9.2379530817270261 7.6530102491378775 12.19469131529331 7.7104496210813549 5.9537849724292746 6.6736509352922431 4.9675932228565198 7.429295718669894 6.4787553846836117 5.9846352189779273 8.2069491893053037 12.168778657913206 10.472521185874941 11.614140719175341 7.1701181679964057 7.7199383080005637 117.55809059739113 6.7240494787693015 6.9758552908897391 7.1910750418901435 7.9735916554927817 6.4671611934900275 7.4396696835756302 15.468675419688227 6.4573177546262732 11.970606446266176 17.606062173843384 12.217521786689757 5.2284773290157345 7.7342942953109768 5.9623821526765806 5.4743100255727768 33.436292186379433 9.7006040513515455 40.327408477663994 171.18470311164856 5.2235553115606299 4.9884426593780518 7.9642221033573142 147.03384636342525 8.4078510254621524 6.6801542341709119 6.9644460529088974 15.092919066548349 5.7205569446086875
leaf_count=129 39 28 20 20 45 40 21 22 21 43 27 28 22 21 38 23 28 37 31 49 31 24 27 20 30 26 24 33 49 42 47 29 31 472 27 28 29 32 26 30 62 26 48 71 49 21 31 24 22 134 39 163 691 21 20 32 591 34 27 28 61 23
internal_value=0 -0.00552545 0.00194279 -0.0045481 -0.00589095 0.00119186 0.00153796 0.0168561 0.040395 0.000964239 0.00119425 0.000799057 -0.0172498 -0.0262001 0.00163566 0.0100344 0.000418179 -0.00661045 -0.00431567 -0.00692036 0.00245693 -0.0105852 -0.0191666 -0.0133477 -0.00488027 0.00313514 -0.00833992 0.0040239 -0.0354312 0.000945572 0.0145263 0.0269503 -0.00013861 -0.00541063 0.00340062 0.00243043 0.0058936 0.0114317 -0.00870735 0.00496535 -0.00382481 -0.0187137 0.0188284 0.0245042 0.00613886 0.0110058 0.00272148 -0.00488788 0.0123608 0.00065711 -0.00493058 -0.0133635 -0.00253517 -0.0327448 -0.0201855 0.00342316 0.00247866 0.0106143 -0.00337526 0.0168701 0.0208379 0.0111608
internal_weight=0 258.531 735.479 251.931 237.058 703.73 693.843 14.8726 10.0955 683.748 678.77 668.086 29.5953 22.8632 638.491 80.8373 557.653 125.385 118.429 110.776 432.268 98.5809 55.9067 49.9529 34.7733 28.0996 20.6703 14.1916 17.6453 395.735 29.2568 18.7843 366.478 147.204 219.274 212.55 71.4222 51.7817 19.6406 13.1734 139.484 21.926 36.5329 29.5767 44.5906 36.617 24.3995 19.171 11.4367 42.6742 232.266 51.381 180.885 15.1796 9.95604 205.574 197.61 50.5764 21.355 13.6446 29.2213 20.8135
internal_count=4007 1047 2960 1019 958 2831 2791 61 42 2749 2729 2686 119 92 2567 325 2242 504 476 445 1738 396 225 201 140 113 83 57 71 1591 118 76 1473 591 882 855 287 208 79 53 560 88 147 119 179 147 98 77 46 171 938 208 730 61 40 827 795 204 86 55 118 84
is_linear=0
shrinkage=0.05


Tree=11
num_leaves=63
num_cat=0
split_feature=3 0 2 1 1 3 2 0 3 2 0 2 3 1 0 1 0 3 0 2 2 1 1 1 1 1 3 3 0 2 0 1 2 3 0 1 3 3 3 3 0 3 2 1 3 1 1 3 3 1 0 0 0 3 1 2 0 3 3 0 1 1
split_gain=3.85638 3.46083 3.32726 2.59197 2.4753 3.0054 2.18569 5.45724 2.14916 1.78092 2.39648 3.64534 1.96991 2.77898 1.94742 2.85493 2.35262 1.70852 1.68493 4.27364 2.60187 3.07051 3.02354 2.46124 2.01812 2.01782 2.40312 4.13335 2.16568 3.6552 3.07865 1.89272 2.25327 4.75312 4.40937 4.40298 3.63406 3.62882 6.36056 1.66916 1.93078 4.94129 4.93503 1.62447 2.53303 1.9663 5.55664 5.27025 3.6375 3.52816 3.86406 4.83248 3.31787 2.59968 6.29976 3.89402 6.61488 5.39902 3.22842 3.04773 2.91282 2.68637
threshold=60324250.000000007 60.645000000000003 24.645000000000003 41527550.000000007 49208700.000000007 67253400.000000015 137.40000000000001 131.00000000000003 75623250.000000015 24.795000000000005 25.225000000000005 25.315000000000001 58508450.000000007 59860150.000000007 25.855000000000004 47818050.000000007 25.705000000000002 43087400.000000007 19.400000000000002 21.720000000000002 24.135000000000002 110583350.00000001 104917100.00000001 81071550.000000015 133588042.50000001 94065300.000000015 119658550.00000001 79297450.000000015 25.155000000000005 25.725000000000005 27.750500000000006 85928750.000000015 28.525000000000002 68208893.000000015 27.492500000000003 62764750.000000007 67253400.000000015 72886550.000000015 75623250.000000015 66378550.000000007 26.035000000000004 61990647.000000007 27.205000000000002 16447188.000000002 15418837.000000002 30915492.000000004 29911604.000000004 30206589.000000004 46557850.000000007 38653150.000000007 83.88000000000001 106.21500000000002 68.820000000000007 25326110.000000004 28625000.000000004 45.915000000000006 57.955000000000005 34432047.500000007 29567591.500000004 106.21500000000002 26966119.000000004 24657202.500000004
decision_type=2 2 2 2 2 2 2 2 2 2 2 2 2 2 2 2 2 2 2 2 2 2 2 2 2 2 2 2 2 2 2 2 2 2 2 2 2 2 2 2 2 2 2 2 2 2 2 2 2 2 2 2 2 2 2 2 2 2 2 2 2 2
left_child=2 3 17 8 5 -5 7 9 -2 -4 -11 -12 14 -14 15 16 -13 -1 -6 -20 23 22 25 -21 -23 26 27 31 -29 -30 -31 32 33 39 37 36 -34 -35 -39 40 41 -22 -42 44 -16 46 48 -48 53 50 52 -52 -47 54 -45 -55 -57 58 59 61 -60 -58
right_child=1 -3 6 4 18 -7 -8 -9 -10 10 11 12 13 -15 43 -17 -18 -19 19 20 21 24 -24 -25 -26 -27 -28 28 29 30 -32 -33 35 34 -36 -37 -38 38 -40 -41 42 -43 -44 45 -46 49 47 -49 -50 -51 51 -53 -54 55 -56 56 57 -59 60 -61 -62 -63
leaf_value=0.042706599756138053 0.030649505829836478 -0.037229306308979117 -0.028881717609355824 -0.044994246717079134 0.014504376516043469 -0.0053377327014436371 -0.022579142918910319 0.037595299206824646 -0.0088058528058317324 0.024644812157243672 -0.040852550499074151 0.031008305912941465 0.036147809225787954 -0.0076914349866651945 -0.012265270350329684 -0.028600367246900689 -0.017555744457959564 0.012307402287017521 -0.041545007901066654 0.032636914169746643 -0.030977795643137757 -0.042590428014495862 0.034468274436488998 -0.0059615020057397902 -0.0098210154322432922 -0.025096915904085932 -0.028708386741809467 0.042702865998682366 -0.031077590373510627 0.031996156177890825 0.0007142434447659266 0.018580280283564461 -0.037016549452531945 -0.041635745880748892 -0.071216162316067255 0.029635600762601289 0.01438716523872352 0.038942452927889337 -0.03261755910033963 0.024435516760694023 -0.045964514303052963 0.031158228182631781 0.0093610991179474811 0.0027277405876710709 0.02481924120081011 0.0082126397113364592 -0.066799012017999496 -0.0040225973956035891 -0.043573719829384558 -0.0005372766109124073 0.048520589017830192 -0.0016619444805502153 -0.026891788722926576 0.011337465407043961 0.05912141470581686 -0.031997939049855532 0.0077305430686431869 0.032274275389556899 -0.042983571329295416 0.037529753714415193 0.0025596825429693806 -0.031987637853751291
leaf_weight=5.6186576932668713 9.3442269116640073 8.1943358033895475 4.9775451123714438 8.4497317373752612 11.703888848423956 10.993659690022467 9.5851912200450879 10.294110387563704 5.4728818684816352 10.669724553823469 5.2218063771724692 4.9905904084444064 9.1933462172746641 5.9574838429689398 6.4204759150743511 13.378446429967878 4.9846252202987671 26.058178320527077 7.6994278430938712 9.2006796300411242 5.1426111459732082 8.4198983162641543 5.1897516399621955 7.4939645379781714 10.630085393786429 10.876200973987578 8.4073921591043455 4.9955547153949729 5.239160254597663 13.636449530720709 18.584485724568367 6.7009693086147299 7.6833279877901095 10.502027615904813 5.10914222896099 9.8837167769670469 6.2231713086366653 5.441890671849249 7.2318644970655441 5.2332947105169287 7.9434625804424313 8.4683402478694898 8.1827777028083784 96.190419092774391 16.281050845980644 100.26769968867302 6.4542327970266324 6.9364142715930939 4.9065029770135871 254.23324133455753 12.712980270385744 7.7049251943826667 7.2153051048517218 24.956816792488098 5.2210563868284217 25.714227735996246 11.702279597520834 9.9172528237104398 9.9275014996528608 4.935762792825698 5.4316625297069541 6.6916053742170325
leaf_count=23 39 35 20 35 47 45 39 43 22 43 21 20 37 24 26 54 20 106 31 37 21 34 21 30 43 44 34 20 21 55 75 27 31 43 21 40 25 22 29 21 32 34 33 387 66 403 26 28 20 1022 52 31 29 100 21 103 47 40 40 20 22 27
internal_value=0 -0.0052549 0.00184786 -0.00420721 -0.00548466 -0.0225717 0.00113367 0.00146142 0.0160762 0.000916966 0.00113566 0.000759906 0.00108798 0.0189097 0.000670761 -0.0135048 0.0067408 0.0176994 -0.0039453 -0.00500318 -0.00357078 -0.00532467 -0.00307436 0.0153107 -0.0243048 -0.00432745 -0.00276536 -0.00116397 0.0117792 0.00765528 0.0139533 -0.00702561 -0.00899681 -0.0139303 -0.0291703 0.00412074 -0.0140133 -0.0199012 -0.00189093 -0.00160386 -0.00618639 0.00768144 -0.0178912 0.00120145 0.014331 0.000705605 -0.00307198 -0.0342806 -0.00103933 0.00287039 0.00964392 0.0295836 0.00585609 5.67078e-07 0.00563111 -0.00575102 -0.0114894 -0.000639626 -0.00907657 0.00264274 -0.0268775 -0.00671874
internal_weight=0 258.278 734.751 250.084 235.267 19.4434 703.074 693.489 14.8171 683.195 678.217 667.548 662.326 15.1508 647.175 23.3537 9.97522 31.6768 215.824 204.12 196.42 179.726 160.676 16.6946 19.05 155.486 144.61 136.202 42.4557 37.4601 32.2209 93.7466 87.0456 63.2554 28.2849 23.7902 13.9065 23.1758 12.6738 34.9705 29.7372 13.611 16.1262 623.821 22.7015 601.12 218.986 13.3906 205.595 382.134 127.901 20.4179 107.483 200.689 101.411 99.2771 74.3203 48.6061 38.6888 23.3296 15.3592 18.3939
internal_count=4007 1047 2960 1012 951 80 2831 2792 61 2749 2729 2686 2665 61 2604 94 40 129 871 824 793 726 649 67 77 628 584 550 171 151 130 379 352 256 115 96 56 94 51 141 120 55 65 2510 92 2418 881 54 827 1537 515 83 432 807 408 399 299 196 156 94 62 74
is_linear=0
shrinkage=0.05


Tree=12
num_leaves=63
num_cat=0
split_feature=3 0 2 1 1 0 0 0 0 2 1 3 3 0 1 0 3 1 3 2 1 3 0 0 3 2 1 2 2 3 1 0 1 0 1 3 0 2 2 0 1 3 1 3 3 2 0 1 1 3 0 2 0 3 3 3 3 3 3 3 3 1
split_gain=3.51503 3.48447 3.19434 2.55258 2.46621 2.28311 3.58634 2.10131 5.4063 1.93746 1.85561 1.6517 1.60276 3.36516 6.05913 2.85008 2.53065 3.53627 2.71289 4.68729 3.93099 3.52451 2.4515 5.29711 3.81922 3.47699 3.32345 2.1045 2.82871 2.26943 3.94285 2.05283 1.97687 1.91277 1.78914 1.74425 1.69235 1.83574 1.72337 2.362 1.6724 1.59468 3.27199 1.57196 3.55397 3.02012 2.70356 2.64445 6.48717 3.77611 4.02818 3.56789 3.81385 6.77855 5.05535 4.13243 2.88815 4.30839 3.75145 3.81429 5.02888 3.71306
threshold=59948800.000000007 24.645000000000003 66.290000000000006 41996550.000000007 47695500.000000007 27.015000000000004 35.935000000000009 137.35000000000002 131.00000000000003 29.499850000000006 24657202.500000004 54257000.000000007 73789250.000000015 28.525000000000002 70810650.000000015 30.505000000000006 70009300.000000015 58319700.000000007 65728692.500000007 28.065000000000001 55443550.000000007 66746800.000000007 27.492500000000003 25.815000000000001 61990647.000000007 29.635000000000002 70009300.000000015 25.985000000000003 26.660350000000005 113387100.00000001 80466400.000000015 27.492500000000003 72946750.000000015 28.225000000000005 59466850.000000007 88952900.000000015 25.605000000000004 24.225000000000005 21.720000000000002 19.140000000000004 75624500.000000015 49809250.000000007 51627996.500000007 21489697.500000004 21915850.000000004 113.47000000000001 110.93000000000002 30380254.000000004 29911604.000000004 47317650.000000007 106.21500000000002 45.915000000000006 53.010000000000012 28171180.500000004 34130350.000000007 24360771.500000004 30348893.000000004 31701200.000000004 32801700.000000004 34284900.000000007 36161830.000000007 33393400.500000004
decision_type=2 2 2 2 2 2 2 2 2 2 2 2 2 2 2 2 2 2 2 2 2 2 2 2 2 2 2 2 2 2 2 2 2 2 2 2 2 2 2 2 2 2 2 2 2 2 2 2 2 2 2 2 2 2 2 2 2 2 2 2 2 2
left_child=1 11 3 5 9 -2 -7 8 43 -5 -10 41 16 27 -15 -16 18 -18 20 21 -6 -20 23 24 -22 -24 -25 34 -29 30 35 -32 -23 -19 -14 -30 37 38 39 -36 -39 42 -1 -3 -45 46 47 48 49 50 51 -46 53 -53 55 -54 -49 -58 -59 -60 61 -61
right_child=2 7 -4 4 12 6 -8 -9 10 -11 -12 -13 13 14 15 -17 17 33 19 -21 22 32 25 26 -26 -27 -28 28 29 -31 31 -33 -34 -35 36 -37 -38 40 -40 -41 -42 -43 -44 44 45 -47 -48 56 -50 -51 -52 52 54 -55 -56 -57 57 58 59 60 -62 -63
leaf_value=0.03515704059846237 0.043297257651073395 0.0072716264042853307 -0.03967916540537491 -0.011694007207898718 -0.03296338009362805 -0.022629396076038095 0.03496275709626781 -0.021898841205488948 0.016713193233879556 -0.051024936726431193 0.059900382658083839 -0.0025475216090150425 -0.025620106848191011 0.012381680797944394 -0.054432972781432588 -0.015321287275711205 0.0054160993377359128 -0.049241731700045505 0.025849037998656961 0.039063797578892473 -0.021425806506515693 -0.033705071181931084 0.033310955060505486 -0.0097867374531451553 0.035236158565907151 -0.019216905690584811 -0.065641875290114643 0.038175275016088382 0.029101906825555864 0.03449142111032559 -0.044959456300567122 -0.00063448191247225975 0.0057065734101195567 -0.01141888733183815 0.015832744760721017 -0.0068372645445276313 0.026956033482692227 0.005948460283847587 0.019167849166453612 -0.027323717075555472 -0.029589250709239456 0.043126798617196323 -0.0088091653870951067 -0.033278282307517545 0.011042098204722173 0.027145639814289624 -0.035935612136357695 0.013281839324868866 -0.053822762589558565 -0.045234033917991578 0.041572924752443764 0.0030890974094590941 0.012302377337638008 -0.054216326990837282 0.024506931133389087 -0.017075253431965361 -0.027126386814684458 0.030180300946109108 -0.020731733034093543 0.062734751128136701 0.00033686220097468254 0.014096338716876086
leaf_weight=9.5261079072952324 4.9915543347597113 83.095757469534874 6.4653244614601126 8.5040062814950925 15.029713794589041 6.1904991567134839 4.7983319461345673 9.8440818786621076 5.0575340986251813 4.9559109658002845 4.8941015154123306 7.6124458760023108 6.9865050464868537 12.683985874056818 8.2153478413820284 10.756317406892775 7.1690397411584881 10.428609699010847 6.2247903048992219 8.4306483715772611 5.3458989709615725 8.8128902465105039 8.6661579012870771 5.2177330702543241 6.7026162594556808 4.9497701525688163 5.4396636784076691 8.8206354379653913 9.4774327129125648 5.7249889373779288 5.4813352376222593 4.9902299642562866 4.979585960507392 4.9195410460233679 5.9995197355747241 5.24416759610176 5.7314924150705329 5.2444564253091803 12.497025430202482 6.7237363010644913 8.977833613753317 7.612891197204589 7.6139665991067877 7.949104815721511 31.938640967011452 10.353165552020071 5.2157831192016593 51.696474030613899 6.6602510064840308 5.1656554490327826 5.1775099635124198 9.7477249801158923 16.382618054747581 10.96556596457958 13.649522379040716 44.447356104850769 13.435416176915167 11.210871532559393 19.432035952806473 4.934721156954768 307.48803938925266 19.15504078567028
leaf_count=39 21 335 28 35 61 25 20 40 21 21 21 31 28 51 34 44 29 43 25 34 22 36 35 21 27 20 22 36 38 23 22 20 20 20 24 21 23 21 50 27 36 31 31 32 128 42 21 208 27 21 21 39 66 44 55 179 54 45 78 20 1238 77
internal_value=0 0.00178225 -0.0049707 -0.00409177 -0.00538364 0.015256 0.00251853 0.00103847 0.00136664 -0.0261756 0.0379522 0.0178204 -0.00414463 -0.000311827 -0.0143714 -0.0322579 -0.00877302 -0.0235762 -0.00459597 0.00779021 -0.0114577 -0.00538125 -0.00255883 -0.0126179 0.0100954 0.0142156 -0.0382959 0.00453115 0.0131998 0.00607457 -0.000382979 -0.0238364 -0.019476 -0.0371184 -0.00207312 0.0162996 0.0015686 -0.00212051 0.00597981 -0.00697373 -0.0164848 0.0240843 0.0156264 0.000829717 -6.99304e-05 0.000379731 -0.000100779 0.000226274 -0.00563029 -0.0032955 -0.00165812 -0.00341873 -0.00827056 -0.0272483 -0.00299273 -0.00916332 0.00220154 0.000676707 0.00170797 0.000798598 0.00206038 0.0240598
internal_weight=0 730.262 261.777 255.312 239.332 15.9804 10.9888 697.897 688.053 13.4599 9.95164 32.3654 225.872 123.555 31.6557 18.9717 102.317 22.5172 79.7995 28.4479 51.3516 20.0173 36.3218 22.7059 12.0485 13.6159 10.6574 91.8994 39.7388 30.9182 25.1932 10.4716 13.7925 15.3482 52.1606 14.7216 45.1741 39.4426 25.2203 12.7233 14.2223 24.753 17.1401 678.101 595.005 587.056 576.703 571.487 144.135 137.475 132.309 127.131 95.1928 20.7133 74.4795 60.83 427.353 375.656 362.221 351.01 331.578 24.0898
internal_count=4007 2944 1063 1035 969 66 45 2812 2772 56 42 132 913 498 129 78 415 92 323 115 208 81 147 92 49 55 43 369 160 124 101 42 56 63 209 59 181 158 101 51 57 101 70 2730 2395 2363 2321 2300 580 553 532 511 383 83 300 245 1720 1512 1458 1413 1335 97
is_linear=0
shrinkage=0.05


end of trees

feature_importances:
Column_3=232
Column_1=208
Column_0=207
Column_2=159

parameters:
[boosting: gbdt]
[objective: binary]
[metric: binary_logloss]
[tree_learner: serial]
[device_type: cpu]
[data_sample_strategy: bagging]
[data: ]
[valid: ]
[num_iterations: 10000]
[learning_rate: 0.05]
[num_leaves: 63]
[num_threads: 0]
[seed: 1237]
[deterministic: 0]
[force_col_wise: 0]
[force_row_wise: 0]
[histogram_pool_size: -1]
[max_depth: -1]
[min_data_in_leaf: 20]
[min_sum_hessian_in_leaf: 0.001]
[bagging_fraction: 1]
[pos_bagging_fraction: 1]
[neg_bagging_fraction: 1]
[bagging_freq: 0]
[bagging_seed: 32458]
[feature_fraction: 1]
[feature_fraction_bynode: 1]
[feature_fraction_seed: 15412]
[extra_trees: 0]
[extra_seed: 19498]
[early_stopping_round: 0]
[early_stopping_min_delta: 0]
[first_metric_only: 0]
[max_delta_step: 0]
[lambda_l1: 0]
[lambda_l2: 0]
[linear_lambda: 0]
[min_gain_to_split: 0]
[drop_rate: 0.1]
[max_drop: 50]
[skip_drop: 0.5]
[xgboost_dart_mode: 0]
[uniform_drop: 0]
[drop_seed: 818]
[top_rate: 0.2]
[other_rate: 0.1]
[min_data_per_group: 100]
[max_cat_threshold: 32]
[cat_l2: 10]
[cat_smooth: 10]
[max_cat_to_onehot: 4]
[top_k: 20]
[monotone_constraints: ]
[monotone_constraints_method: basic]
[monotone_penalty: 0]
[feature_contri: ]
[forcedsplits_filename: ]
[refit_decay_rate: 0.9]
[cegb_tradeoff: 1]
[cegb_penalty_split: 0]
[cegb_penalty_feature_lazy: ]
[cegb_penalty_feature_coupled: ]
[path_smooth: 0]
[interaction_constraints: ]
[verbosity: -1]
[saved_feature_importance_type: 0]
[use_quantized_grad: 0]
[num_grad_quant_bins: 4]
[quant_train_renew_leaf: 0]
[stochastic_rounding: 1]
[linear_tree: 0]
[max_bin: 255]
[max_bin_by_feature: ]
[min_data_in_bin: 3]
[bin_construct_sample_cnt: 200000]
[data_random_seed: 4078]
[is_enable_sparse: 1]
[enable_bundle: 1]
[use_missing: 1]
[zero_as_missing: 0]
[feature_pre_filter: 1]
[pre_partition: 0]
[two_round: 0]
[header: 0]
[label_column: ]
[weight_column: ]
[group_column: ]
[ignore_column: ]
[categorical_feature: ]
[forcedbins_filename: ]
[precise_float_parser: 0]
[parser_config_file: ]
[objective_seed: 21231]
[num_class: 1]
[is_unbalance: 0]
[scale_pos_weight: 1]
[sigmoid: 1]
[boost_from_average: 1]
[reg_sqrt: 0]
[alpha: 0.9]
[fair_c: 1]
[poisson_max_delta_step: 0.7]
[tweedie_variance_power: 1.5]
[lambdarank_truncation_level: 30]
[lambdarank_norm: 1]
[label_gain: ]
[lambdarank_position_bias_regularization: 0]
[eval_at: ]
[multi_error_top_k: 1]
[auc_mu_weights: ]
[num_machines: 1]
[local_listen_port: 12400]
[time_out: 120]
[machine_list_filename: ]
[machines: ]
[gpu_platform_id: -1]
[gpu_device_id: -1]
[gpu_use_dp: 0]
[num_gpu: 1]

end of parameters

pandas_categorical:null
