{"learner":{"attributes":{"best_iteration":"0","best_score":"0.6926228809547234"},"feature_names":[],"feature_types":[],"gradient_booster":{"model":{"gbtree_model_param":{"num_parallel_tree":"1","num_trees":"51"},"iteration_indptr":[0,1,2,3,4,5,6,7,8,9,10,11,12,13,14,15,16,17,18,19,20,21,22,23,24,25,26,27,28,29,30,31,32,33,34,35,36,37,38,39,40,41,42,43,44,45,46,47,48,49,50,51],"tree_info":[0,0,0,0,0,0,0,0,0,0,0,0,0,0,0,0,0,0,0,0,0,0,0,0,0,0,0,0,0,0,0,0,0,0,0,0,0,0,0,0,0,0,0,0,0,0,0,0,0,0,0],"trees":[{"base_weights":[3.167594E-5,-1.7751878E-1,5.2215546E-2,6.0192716E-1,-2.1416594E-1,1.8387057E-1,-1.0312884E-1,8.094075E-2,1.2783685E-1,-1.7799488E-1,-8.4967476E-1,2.3174858E-1,-2.1310967E-1,3.6708707E-1,-1.2666608E-1,-8.050462E-1,9.466727E-1,-5.1267445E-1,-1.0137475E-1,6.269325E-2,-1.0909623E0,5.969769E-1,1.8976052E-1,9.87113E-2,-6.1949456E-1,-6.552956E-2,9.057668E-1,-7.875581E-1,-8.62153E-2,-9.559224E-2,-2.6260292E-2,3.5687514E-2,1.15750365E-1,-1.1513302E0,-3.9424402E-1,2.1958849E-1,-1.866518E-1,-1.492252E0,-1.7314039E-1,7.965004E-1,-6.6917944E-1,-5.775601E-2,3.0336532E-1,-1.1280276E-1,2.5746474E-1,-1.1108563E0,4.0583897E-2,-3.670253E-1,7.198001E-2,1.1708533E0,-2.6260292E-2,-2.3577584E-1,-1.131369E0,3.6215076E-1,-1.1515739E-1,-2.6260292E-2,-1.3507892E-1,9.7755276E-2,-5.5566794E-1,1.3781868E-1,9.288266E-2,-2.7072948E-1,2.3544608E-1,-1.7137867E-1,-2.6260292E-2,4.998351E-2,-8.4406756E-2,1.7166139E-1,9.7012264E-1,-9.8733115E-1,-4.826989E-3,-9.564135E-2,1.0922052E-1,3.2398018E-1,-4.3247676E-1,7.7389234E-1,8.5320204E-2,-1.2665989E0,-4.343911E-3,7.571894E-2,-1.8851478E-1,3.4728262E-1,-7.8730416E-1,5.202421E-1,1.4471637E-1,-5.9670603E-1,1.0717002E-1,-4.0867016E-1,-1.3595179E0,-8.4406756E-2,5.0759244E-1,-5.0401516E-2,-3.1666407E-1,-6.5856266E-1,7.994272E-1,-1.16340674E-1,-7.7492285E-1,-5.2841213E-2,8.5081303E-1,-7.660095E-1,-2.2061467E-1,-4.6127394E-1,4.6752238E-1,6.0571736E-1,-9.559224E-2,2.8535444E-2,1.0152788E0,-2.6260292E-2,-1.2443818E-1,-6.3763535E-1,-3.488194E-2,2.9941633E-1,1.1404864E0,4.118288E-2,-9.461174E-1,1.2400382E-1,-2.2804366E-2,-2.792852E-1,5.651523E-1,-2.6260292E-2,-1.3799588E-1,6.1897874E-2,-5.608963E-1,-4.343911E-3,6.269325E-2,-4.343911E-3,-1.0552918E0,1.0717002E-1,-2.6260292E-2,-5.7933982E-2,-1.1956471E-1,-8.4406756E-2,1.3589571E-2,-1.6596104E-1,-7.236688E-1,1.1433233E0,2.488271E-1,-1.0884884E-1,8.9706665E-1,-5.8464426E-1,-4.380168E-2,-1.865629E-2,-1.15213834E-1,1.14805095E-1,-4.343911E-3,3.0909047E-2,-8.050462E-2,-8.685795E-2,-4.826989E-3,3.0197669E-2,-7.6600954E-2,1.0922052E-1,2.8535444E-2,-1.1611046E-1,4.118288E-2,2.5521854E-2,-3.0033646E-2,4.4618156E-2,-1.4359988E-1,8.625638E-2,-6.390467E-3,-2.0411374E-2,1.0559199E-1,2.8535444E-2,1.06864475E-1,6.110227E-2,-1.3492344E-1,5.110466E-2,-1.6871048E-2,3.4261107E-2,-6.9414475E-3,1.343533E-1,1.8216481E-2,-1.4359988E-1,1.8216481E-2,4.05839E-3,-1.1280276E-1,8.628199E-2,-2.0411374E-2,-1.1956471E-1,2.3426058E-2,-1.3198619E-1,-2.6260292E-2,8.637744E-2,-8.200563E-2,1.8216481E-2,-1.1280276E-1,1.8216481E-2,1.4149737E-1,-8.4406756E-2,4.4367105E-2,-3.320548E-3,-3.5431147E-2,-4.826989E-3,1.0656567E-1,-7.875845E-2,-6.6130096E-3,1.0277712E-1,-1.4139116E-2],"categories":[],"categories_nodes":[],"categories_segments":[],"categories_sizes":[],"default_left":[0,0,0,0,0,0,0,0,0,0,0,0,0,0,0,0,0,0,0,0,0,0,0,0,0,0,0,0,0,0,0,0,0,0,0,0,0,0,0,0,0,0,0,0,0,0,0,0,0,0,0,0,0,0,0,0,0,0,0,0,0,0,0,0,0,0,0,0,0,0,0,0,0,0,0,0,0,0,0,0,0,0,0,0,0,0,0,0,0,0,0,0,0,0,0,0,0,0,0,0,0,0,0,0,0,0,0,0,0,0,0,0,0,0,0,0,0,0,0,0,0,0,0,0,0,0,0,0,0,0,0,0,0,0,0,0,0,0,0,0,0,0,0,0,0,0,0,0,0,0,0,0,0,0,0,0,0,0,0,0,0,0,0,0,0,0,0,0,0,0,0,0,0,0,0,0,0,0,0,0,0,0,0,0,0,0,0,0,0,0,0,0,0,0,0,0,0,0,0],"id":0,"left_children":[1,3,5,7,9,11,13,15,-1,17,19,21,23,25,27,29,31,33,35,-1,37,39,41,43,45,47,49,51,53,-1,-1,-1,-1,55,57,59,61,63,65,67,69,71,73,-1,75,77,79,81,-1,83,-1,85,87,89,91,-1,-1,93,95,-1,97,99,101,-1,-1,-1,-1,103,105,107,-1,109,-1,111,113,115,117,119,-1,-1,121,123,125,127,-1,129,-1,131,133,-1,135,137,139,141,143,145,147,149,151,153,155,157,159,161,-1,-1,163,-1,-1,165,167,169,171,-1,173,-1,-1,175,177,-1,-1,-1,179,-1,-1,-1,181,-1,-1,183,-1,-1,-1,-1,185,187,189,191,193,195,197,-1,-1,-1,-1,-1,-1,-1,-1,-1,-1,-1,-1,-1,-1,-1,-1,-1,-1,-1,-1,-1,-1,-1,-1,-1,-1,-1,-1,-1,-1,-1,-1,-1,-1,-1,-1,-1,-1,-1,-1,-1,-1,-1,-1,-1,-1,-1,-1,-1,-1,-1,-1,-1,-1,-1,-1,-1,-1],"loss_changes":[9.287875E0,6.6331315E0,1.58637705E1,3.5925226E0,4.864889E0,8.026495E0,3.986944E0,6.1252847E0,0E0,5.274866E0,4.7763643E0,5.637583E0,5.851142E0,4.0743713E0,9.016342E0,7.601786E-2,8.381796E-2,2.45438E0,4.7016377E0,0E0,3.5123758E0,1.0183707E1,9.516388E0,5.4934025E0,6.5237675E0,2.7473638E0,2.7050557E0,3.4279785E0,4.2114954E0,0E0,0E0,0E0,0E0,6.191907E-1,2.751186E0,5.186762E0,4.857397E0,1.4546862E0,2.3389242E0,3.4631329E0,1.0869889E0,4.77093E0,3.6548004E0,0E0,2.109293E0,1.8544817E0,1.7005626E0,2.74729E0,0E0,4.1434002E-1,0E0,4.763897E0,1.3794622E0,3.8889678E0,3.932652E0,0E0,0E0,5.4296002E0,2.3870864E0,0E0,3.767864E0,2.6383247E0,3.9299226E0,0E0,0E0,0E0,0E0,4.7344093E0,5.13237E-1,3.7114573E-1,0E0,3.422835E0,0E0,4.1903954E0,3.3136458E0,3.0820172E0,3.5651166E0,7.7440834E-1,0E0,0E0,2.7499943E0,4.3658516E-1,1.0493913E0,1.7909914E0,0E0,2.3481827E0,0E0,1.121383E0,4.1903305E-1,0E0,2.714016E0,1.284541E1,5.3419013E0,9.486723E-1,1.5909133E0,3.1021965E0,1.1135988E0,7.6235275E0,4.3826604E-1,5.1262774E0,4.026174E0,6.1628866E0,3.7768793E0,2.6737537E0,0E0,0E0,6.287575E-1,0E0,0E0,1.0143082E1,7.0362515E0,3.5400696E0,9.7006893E-1,0E0,2.7463174E0,0E0,0E0,3.231927E0,2.1774156E0,0E0,0E0,0E0,3.3051505E0,0E0,0E0,0E0,4.914646E-1,0E0,0E0,4.2169404E0,0E0,0E0,0E0,0E0,1.8520772E0,1.046371E0,3.4052474E0,4.0307045E0,2.200387E0,3.8363733E0,4.061858E0,0E0,0E0,0E0,0E0,0E0,0E0,0E0,0E0,0E0,0E0,0E0,0E0,0E0,0E0,0E0,0E0,0E0,0E0,0E0,0E0,0E0,0E0,0E0,0E0,0E0,0E0,0E0,0E0,0E0,0E0,0E0,0E0,0E0,0E0,0E0,0E0,0E0,0E0,0E0,0E0,0E0,0E0,0E0,0E0,0E0,0E0,0E0,0E0,0E0,0E0,0E0,0E0,0E0,0E0,0E0,0E0,0E0,0E0],"parents":[2147483647,0,0,1,1,2,2,3,3,4,4,5,5,6,6,7,7,9,9,10,10,11,11,12,12,13,13,14,14,15,15,16,16,17,17,18,18,20,20,21,21,22,22,23,23,24,24,25,25,26,26,27,27,28,28,33,33,34,34,35,35,36,36,37,37,38,38,39,39,40,40,41,41,42,42,44,44,45,45,46,46,47,47,49,49,51,51,52,52,53,53,54,54,57,57,58,58,60,60,61,61,62,62,67,67,68,68,69,69,71,71,73,73,74,74,75,75,76,76,77,77,80,80,81,81,82,82,83,83,85,85,87,87,88,88,90,90,91,91,92,92,93,93,94,94,95,95,96,96,97,97,98,98,99,99,100,100,101,101,102,102,103,103,106,106,109,109,110,110,111,111,112,112,114,114,117,117,118,118,122,122,126,126,129,129,134,134,135,135,136,136,137,137,138,138,139,139,140,140],"right_children":[2,4,6,8,10,12,14,16,-1,18,20,22,24,26,28,30,32,34,36,-1,38,40,42,44,46,48,50,52,54,-1,-1,-1,-1,56,58,60,62,64,66,68,70,72,74,-1,76,78,80,82,-1,84,-1,86,88,90,92,-1,-1,94,96,-1,98,100,102,-1,-1,-1,-1,104,106,108,-1,110,-1,112,114,116,118,120,-1,-1,122,124,126,128,-1,130,-1,132,134,-1,136,138,140,142,144,146,148,150,152,154,156,158,160,162,-1,-1,164,-1,-1,166,168,170,172,-1,174,-1,-1,176,178,-1,-1,-1,180,-1,-1,-1,182,-1,-1,184,-1,-1,-1,-1,186,188,190,192,194,196,198,-1,-1,-1,-1,-1,-1,-1,-1,-1,-1,-1,-1,-1,-1,-1,-1,-1,-1,-1,-1,-1,-1,-1,-1,-1,-1,-1,-1,-1,-1,-1,-1,-1,-1,-1,-1,-1,-1,-1,-1,-1,-1,-1,-1,-1,-1,-1,-1,-1,-1,-1,-1,-1,-1,-1,-1,-1,-1],"split_conditions":[8.3108E6,1.412E1,2.5640394E7,1.45735E1,1.02866E7,5.4299E2,1.9183064E7,5.4385E6,1.2783685E-1,1.76475E1,1.8018E1,9.3535E6,1.58041E7,1.97243E2,2.2481006E7,4.5832E6,5.4886E6,2.8931E6,2.108E1,6.269325E-2,3.3E1,1.53346E7,1.52877E7,5.34873E2,2.1257668E7,1.852486E7,5.346155E2,1.16929E2,2.45601E7,-9.559224E-2,-2.6260292E-2,3.5687514E-2,1.15750365E-1,1.4424E1,3.6568E6,2.4772E6,7.3036E6,1.54465E7,4.5838E2,2.094E1,1.852486E7,5.3198E2,4.616471E7,-1.1280276E-1,1.04984E7,6.462E2,5.7133E2,8.43E1,7.198001E-2,2.93975E2,-2.6260292E-2,1.0877E2,2.6404076E7,2.69371E7,1.698058E2,-2.6260292E-2,-1.3507892E-1,3.6778E6,1.50455E1,1.3781868E-1,2.0404E1,2.1080244E1,2.46E1,-1.7137867E-1,-2.6260292E-2,4.998351E-2,-8.4406756E-2,1.987E1,4.076E6,1.62738E7,-4.826989E-3,3.6582E1,1.0922052E-1,3.8889796E7,7.9586E1,1.2365E7,1.32947E7,1.26884E7,-4.343911E-3,7.571894E-2,2.18538E7,1.45238E7,2.69371E7,2.1779E2,1.4471637E-1,2.15154E7,1.0717002E-1,2.10123E7,2.141E2,-8.4406756E-2,2.9017718E7,1.6232E2,1.9166E2,3.3089E6,5.1482E6,4.6699E6,1.829E1,1.873E1,2.058E1,5.25E6,2.2678E1,2.2826E1,7.1832E6,1.6025E1,-9.559224E-2,2.8535444E-2,8.4714E6,-2.6260292E-2,-1.2443818E-1,1.981E1,1.0814E2,3.806015E2,1.762265E2,4.118288E-2,1.5929E2,1.2400382E-1,-2.2804366E-2,1.2365E7,1.8413E7,-2.6260292E-2,-1.3799588E-1,6.1897874E-2,6.2613E2,-4.343911E-3,6.269325E-2,-4.343911E-3,1.691E2,1.0717002E-1,-2.6260292E-2,6.827975E1,-1.1956471E-1,-8.4406756E-2,1.3589571E-2,-1.6596104E-1,3.2955E2,2.7733688E7,2.9748556E7,1.2595E2,2.96101E7,4.2291424E7,1.9346E2,-1.865629E-2,-1.15213834E-1,1.14805095E-1,-4.343911E-3,3.0909047E-2,-8.050462E-2,-8.685795E-2,-4.826989E-3,3.0197669E-2,-7.6600954E-2,1.0922052E-1,2.8535444E-2,-1.1611046E-1,4.118288E-2,2.5521854E-2,-3.0033646E-2,4.4618156E-2,-1.4359988E-1,8.625638E-2,-6.390467E-3,-2.0411374E-2,1.0559199E-1,2.8535444E-2,1.06864475E-1,6.110227E-2,-1.3492344E-1,5.110466E-2,-1.6871048E-2,3.4261107E-2,-6.9414475E-3,1.343533E-1,1.8216481E-2,-1.4359988E-1,1.8216481E-2,4.05839E-3,-1.1280276E-1,8.628199E-2,-2.0411374E-2,-1.1956471E-1,2.3426058E-2,-1.3198619E-1,-2.6260292E-2,8.637744E-2,-8.200563E-2,1.8216481E-2,-1.1280276E-1,1.8216481E-2,1.4149737E-1,-8.4406756E-2,4.4367105E-2,-3.320548E-3,-3.5431147E-2,-4.826989E-3,1.0656567E-1,-7.875845E-2,-6.6130096E-3,1.0277712E-1,-1.4139116E-2],"split_indices":[4,2,10,8,10,1,4,10,0,8,6,10,4,7,4,4,4,10,1,0,0,4,10,7,4,4,8,8,4,0,0,0,0,6,10,4,10,10,0,9,4,1,4,0,10,0,0,0,0,0,0,0,10,10,7,0,0,4,8,0,6,8,1,0,0,0,0,2,10,4,0,7,0,4,6,4,4,10,0,0,4,4,10,0,0,4,0,4,0,0,10,9,0,4,4,4,7,2,0,10,6,6,4,7,0,0,4,0,0,3,0,8,8,0,0,0,0,4,10,0,0,0,0,0,0,0,8,0,0,8,0,0,0,0,0,10,10,7,4,10,3,0,0,0,0,0,0,0,0,0,0,0,0,0,0,0,0,0,0,0,0,0,0,0,0,0,0,0,0,0,0,0,0,0,0,0,0,0,0,0,0,0,0,0,0,0,0,0,0,0,0,0,0,0,0,0,0,0,0],"split_type":[0,0,0,0,0,0,0,0,0,0,0,0,0,0,0,0,0,0,0,0,0,0,0,0,0,0,0,0,0,0,0,0,0,0,0,0,0,0,0,0,0,0,0,0,0,0,0,0,0,0,0,0,0,0,0,0,0,0,0,0,0,0,0,0,0,0,0,0,0,0,0,0,0,0,0,0,0,0,0,0,0,0,0,0,0,0,0,0,0,0,0,0,0,0,0,0,0,0,0,0,0,0,0,0,0,0,0,0,0,0,0,0,0,0,0,0,0,0,0,0,0,0,0,0,0,0,0,0,0,0,0,0,0,0,0,0,0,0,0,0,0,0,0,0,0,0,0,0,0,0,0,0,0,0,0,0,0,0,0,0,0,0,0,0,0,0,0,0,0,0,0,0,0,0,0,0,0,0,0,0,0,0,0,0,0,0,0,0,0,0,0,0,0,0,0,0,0,0,0],"sum_hessian":[1.0004394E3,2.2670302E2,7.737364E2,9.487571E0,2.1721544E2,4.1870148E2,3.5503488E2,5.9921503E0,3.495421E0,2.0672917E2,1.0486262E1,3.7401004E2,4.4691452E1,1.622874E1,3.3880615E2,2.9960752E0,2.9960752E0,3.745094E1,1.6927824E2,1.2483646E0,9.237898E0,3.7201263E1,3.3680878E2,2.571631E1,1.8975142E1,9.487571E0,6.741169E0,1.8475796E1,3.2033035E2,1.7477105E0,1.2483646E0,1.4980376E0,1.4980376E0,4.4941125E0,3.2956825E1,3.520388E1,1.3407436E2,5.9921503E0,3.245748E0,3.245748E1,4.7437854E0,1.0611099E2,2.3069778E2,2.2470562E0,2.3469254E1,1.0486262E1,8.488879E0,7.2405148E0,2.2470562E0,5.492804E0,1.2483646E0,7.7398605E0,1.0735935E1,1.872547E1,3.016049E2,1.2483646E0,3.245748E0,8.239206E0,2.4717619E1,2.4967291E0,3.2707153E1,1.1210314E2,2.1971216E1,4.7437854E0,1.2483646E0,1.7477105E0,1.4980376E0,7.4901876E0,2.4967293E1,2.746402E0,1.9973834E0,1.0361426E2,2.4967291E0,2.249553E2,5.742477E0,4.9934583E0,1.8475796E1,8.988225E0,1.4980376E0,1.4980376E0,6.990842E0,2.746402E0,4.4941125E0,2.4967291E0,2.9960752E0,6.491496E0,1.2483646E0,3.245748E0,7.4901876E0,1.4980376E0,1.7227432E1,2.2919974E2,7.240514E1,3.9947667E0,4.2444396E0,8.738552E0,1.5979067E1,2.821304E1,4.4941125E0,8.988225E0,1.03114914E2,5.243131E0,1.6728086E1,5.742477E0,1.7477105E0,1.9973834E0,2.2969908E1,1.2483646E0,1.4980376E0,9.487571E0,9.412669E1,2.1971217E2,5.243131E0,2.2470562E0,3.495421E0,3.245748E0,1.7477105E0,1.0735935E1,7.7398605E0,1.2483646E0,7.7398605E0,1.9973834E0,4.9934583E0,1.4980376E0,1.2483646E0,1.4980376E0,2.9960752E0,1.2483646E0,1.2483646E0,3.9947667E0,2.4967291E0,1.4980376E0,1.7477105E0,3.9947667E0,3.495421E0,3.9947667E0,1.3232665E1,2.167161E2,1.2483646E1,3.59529E1,3.6452248E1,2.746402E0,1.2483646E0,2.746402E0,1.4980376E0,5.742477E0,2.9960752E0,1.3981684E1,1.9973834E0,1.9224815E1,8.988225E0,2.4967291E0,1.9973834E0,6.741169E0,2.2470562E0,1.44810295E1,8.863389E1,2.9960752E0,2.2470562E0,9.237898E0,7.4901876E0,2.2470562E0,3.495421E0,1.9973834E0,2.0972525E1,3.495421E0,5.9921503E0,1.797645E1,7.615024E1,1.9674226E2,2.2969908E1,3.9947667E0,1.2483646E0,2.2470562E0,1.2483646E0,8.488879E0,2.2470562E0,5.492804E0,2.2470562E0,2.4967291E0,2.4967291E0,1.7477105E0,1.2483646E0,1.7477105E0,2.2470562E0,1.2483646E0,2.2470562E0,1.2483646E0,2.746402E0,1.4980376E0,1.1734627E1,1.6653183E2,5.0184258E1,1.9973834E0,1.0486262E1,2.5466639E1,1.0486262E1,2.2470562E0,3.420519E1],"tree_param":{"num_deleted":"0","num_feature":"11","num_nodes":"199","size_leaf_vector":"1"}},{"base_weights":[-2.1642305E-4,-1.6068591E-1,4.6967544E-2,5.591535E-1,-1.9441964E-1,1.657283E-1,-9.299485E-2,7.730545E-2,1.18732505E-1,-1.6112114E-1,-7.801113E-1,2.0932919E-1,-2.0021695E-1,3.412019E-1,-1.1467582E-1,-7.544196E-1,8.930991E-1,-4.698237E-1,-9.044955E-2,6.1913937E-2,-1.010888E0,5.576852E-1,1.6978344E-1,1.0016874E-1,-6.104359E-1,-6.2055968E-2,8.453454E-1,-7.266374E-1,-7.725262E-2,-8.943926E-2,-2.4790911E-2,3.3581365E-2,1.0932269E-1,-1.0650932E0,-3.5962823E-1,6.8403584E-1,-1.20389566E-1,-1.380553E0,-1.6397357E-1,7.4716735E-1,-6.2905794E-1,-5.99468E-2,2.7504015E-1,-8.609439E-1,2.3364447E-1,-8.332076E-1,2.4534738E-1,-3.4300914E-1,6.7188196E-2,1.0953747E0,-2.4790911E-2,-2.1328199E-1,-1.0465236E0,3.286657E-1,-1.0338814E-1,-2.4790911E-2,-1.24711886E-1,8.5733E-2,-5.052617E-1,9.199476E-1,-6.1585554E-3,-8.452551E-1,-9.010578E-2,-1.5839641E-1,-2.4790911E-2,5.0498903E-2,-8.3399445E-2,1.537662E-1,9.144987E-1,-9.2829627E-1,-4.5047975E-3,-2.0832494E-2,-1.2138077E-1,2.3592682E-1,6.8504614E-1,-2.2462325E-2,-1.11419834E-1,7.612632E-1,5.0676096E-2,-1.197891E0,-2.521898E-1,5.1164496E-1,-2.7818365E-2,3.284947E-1,-7.3786545E-1,4.925152E-1,1.3496523E-1,-5.5259573E-1,1.0161572E-1,-1.5300737E-1,-6.556272E-1,-7.927971E-2,4.648287E-1,-4.5069773E-2,-2.8477433E-1,-6.191452E-1,7.435903E-1,-3.6716202E-1,-1.217201E-1,1.267231E-1,2.6547743E-2,-1.2355752E-1,1.3616726E-2,6.665702E-1,-1.4240307E-1,6.185883E-1,-7.850443E-2,2.6656954E-2,9.580115E-1,-2.4790911E-2,-1.1692434E-1,-1.3433415E-1,3.9429918E-1,3.3942E-1,5.2936126E-2,8.014939E-1,-8.66233E-2,1.1906786E-1,-2.134389E-2,-3.0811226E-1,5.178249E-1,-6.8938875E-1,-1.534297E-1,1.1810368E-1,-1.1265109E-1,6.23284E-2,1.72319E-2,-4.083023E-3,5.9324216E-2,-4.083023E-3,-9.8888314E-1,1.0301359E-1,-2.6290527E-2,-5.1224895E-2,-1.1095964E-1,-9.794652E-2,-1.098503E0,1.0673946E0,2.2152755E-1,-9.810667E-2,8.19368E-1,-5.279335E-1,-3.7033416E-2,-1.7280767E-2,-1.0875916E-1,1.069968E-1,-4.083023E-3,-1.2155169E-1,-2.5141004E-2,1.3510709E-1,2.8357336E-2,-1.5960302E-2,8.3779536E-2,-1.899004E-2,1.1235142E-1,2.6656954E-2,1.0095676E-1,-6.2426394E-3,-8.494222E-2,-5.843747E-3,7.232831E-2,-4.2760354E-2,3.7953004E-2,-1.17214404E-1,8.797365E-3,-7.115695E-3,9.205918E-2,-3.0451557E-2,1.700283E-2,-1.4099767E-3,-1.04923405E-1,7.933176E-2,-1.899004E-2,-1.2645851E-1,7.0353106E-2,1.0485579E-1,-3.473801E-2,-1.24507524E-1,-2.3617057E-2,8.115195E-2,-7.625746E-2,-9.672229E-2,8.8574745E-2,-2.7022704E-2,-1.3335955E-1,1.721248E-2,1.3214207E-1,-7.927971E-2,4.0360615E-2,-2.9901068E-3,-3.192506E-2,1.3264345E-1,4.178947E-2,-7.10844E-2,-6.0079577E-3,-3.385341E-2,2.8261501E-2],"categories":[],"categories_nodes":[],"categories_segments":[],"categories_sizes":[],"default_left":[0,0,0,0,0,0,0,0,0,0,0,0,0,0,0,0,0,0,0,0,0,0,0,0,0,0,0,0,0,0,0,0,0,0,0,0,0,0,0,0,0,0,0,0,0,0,0,0,0,0,0,0,0,0,0,0,0,0,0,0,0,0,0,0,0,0,0,0,0,0,0,0,0,0,0,0,0,0,0,0,0,0,0,0,0,0,0,0,0,0,0,0,0,0,0,0,0,0,0,0,0,0,0,0,0,0,0,0,0,0,0,0,0,0,0,0,0,0,0,0,0,0,0,0,0,0,0,0,0,0,0,0,0,0,0,0,0,0,0,0,0,0,0,0,0,0,0,0,0,0,0,0,0,0,0,0,0,0,0,0,0,0,0,0,0,0,0,0,0,0,0,0,0,0,0,0,0,0,0,0,0,0,0,0,0,0,0,0,0,0,0,0,0,0,0,0,0],"id":1,"left_children":[1,3,5,7,9,11,13,15,-1,17,19,21,23,25,27,29,31,33,35,-1,37,39,41,43,45,47,49,51,53,-1,-1,-1,-1,55,57,59,61,63,65,67,69,71,73,75,77,79,81,83,-1,85,-1,87,89,91,93,-1,-1,95,97,99,-1,101,103,-1,-1,-1,-1,105,107,109,-1,111,-1,113,115,-1,-1,117,119,121,123,125,-1,127,129,131,-1,133,-1,-1,135,-1,137,139,141,143,145,147,-1,-1,-1,-1,-1,149,151,153,-1,-1,155,-1,-1,157,159,161,163,165,167,-1,-1,169,171,173,-1,175,-1,-1,-1,-1,-1,-1,177,-1,-1,179,-1,181,183,185,187,189,191,193,195,-1,-1,-1,-1,-1,-1,-1,-1,-1,-1,-1,-1,-1,-1,-1,-1,-1,-1,-1,-1,-1,-1,-1,-1,-1,-1,-1,-1,-1,-1,-1,-1,-1,-1,-1,-1,-1,-1,-1,-1,-1,-1,-1,-1,-1,-1,-1,-1,-1,-1,-1,-1,-1,-1],"loss_changes":[7.584241E0,5.6355863E0,1.2882041E1,3.0702524E0,4.128952E0,6.7290545E0,3.390061E0,5.410856E0,0E0,4.488396E0,4.3314667E0,5.0710506E0,5.622281E0,3.5452578E0,7.7253294E0,6.179905E-2,7.7034E-2,2.1390991E0,4.029716E0,0E0,2.9765663E0,8.967897E0,8.194142E0,3.653559E0,3.8682995E0,2.3908312E0,2.3772945E0,2.9727612E0,3.4427927E0,0E0,0E0,0E0,0E0,5.083709E-1,2.2455177E0,1.1974714E0,3.5403047E0,1.2171164E0,2.3231356E0,3.1405468E0,9.623492E-1,4.807687E0,3.5605888E0,3.1297016E-1,2.3185596E0,2.9771547E0,8.034389E-1,2.4268374E0,0E0,3.246703E-1,0E0,4.20236E0,1.2148724E0,3.3731024E0,3.188542E0,0E0,0E0,4.736607E0,2.0829883E0,7.976246E-1,0E0,2.6534128E0,6.397143E0,0E0,0E0,0E0,0E0,4.1820526E0,4.656391E-1,3.2462335E-1,0E0,4.9810843E0,0E0,4.0237894E0,1.838623E0,0E0,0E0,2.8557494E0,3.3777907E0,5.2318287E-1,2.4753187E0,2.5009394E-2,0E0,3.901639E-1,9.21257E-1,1.6879427E0,0E0,2.0341704E0,0E0,0E0,1.9272227E0,0E0,2.4282691E0,1.063431E1,4.4046426E0,8.5694754E-1,1.3812034E0,1.9513221E0,0E0,0E0,0E0,0E0,0E0,2.3621173E0,2.6590393E0,2.7545078E0,0E0,0E0,5.714302E-1,0E0,0E0,4.208701E0,3.4248438E0,4.350524E0,3.4632947E0,1.853591E0,2.4660869E-1,0E0,0E0,2.4882224E0,1.8496511E0,5.292735E0,0E0,2.957444E0,0E0,0E0,0E0,0E0,0E0,0E0,4.7687888E-1,0E0,0E0,3.6806383E0,0E0,4.9138117E0,5.1472473E-1,9.019799E-1,2.944378E0,3.275349E0,2.1764526E0,3.1225872E0,3.7052565E0,0E0,0E0,0E0,0E0,0E0,0E0,0E0,0E0,0E0,0E0,0E0,0E0,0E0,0E0,0E0,0E0,0E0,0E0,0E0,0E0,0E0,0E0,0E0,0E0,0E0,0E0,0E0,0E0,0E0,0E0,0E0,0E0,0E0,0E0,0E0,0E0,0E0,0E0,0E0,0E0,0E0,0E0,0E0,0E0,0E0,0E0,0E0,0E0,0E0,0E0,0E0,0E0,0E0,0E0],"parents":[2147483647,0,0,1,1,2,2,3,3,4,4,5,5,6,6,7,7,9,9,10,10,11,11,12,12,13,13,14,14,15,15,16,16,17,17,18,18,20,20,21,21,22,22,23,23,24,24,25,25,26,26,27,27,28,28,33,33,34,34,35,35,36,36,37,37,38,38,39,39,40,40,41,41,42,42,43,43,44,44,45,45,46,46,47,47,49,49,51,51,52,52,53,53,54,54,57,57,58,58,59,59,61,61,62,62,67,67,68,68,69,69,71,71,73,73,74,74,77,77,78,78,79,79,80,80,81,81,83,83,84,84,85,85,87,87,90,90,92,92,93,93,94,94,95,95,96,96,97,97,103,103,104,104,105,105,108,108,111,111,112,112,113,113,114,114,115,115,116,116,119,119,120,120,121,121,123,123,130,130,133,133,135,135,136,136,137,137,138,138,139,139,140,140,141,141,142,142],"right_children":[2,4,6,8,10,12,14,16,-1,18,20,22,24,26,28,30,32,34,36,-1,38,40,42,44,46,48,50,52,54,-1,-1,-1,-1,56,58,60,62,64,66,68,70,72,74,76,78,80,82,84,-1,86,-1,88,90,92,94,-1,-1,96,98,100,-1,102,104,-1,-1,-1,-1,106,108,110,-1,112,-1,114,116,-1,-1,118,120,122,124,126,-1,128,130,132,-1,134,-1,-1,136,-1,138,140,142,144,146,148,-1,-1,-1,-1,-1,150,152,154,-1,-1,156,-1,-1,158,160,162,164,166,168,-1,-1,170,172,174,-1,176,-1,-1,-1,-1,-1,-1,178,-1,-1,180,-1,182,184,186,188,190,192,194,196,-1,-1,-1,-1,-1,-1,-1,-1,-1,-1,-1,-1,-1,-1,-1,-1,-1,-1,-1,-1,-1,-1,-1,-1,-1,-1,-1,-1,-1,-1,-1,-1,-1,-1,-1,-1,-1,-1,-1,-1,-1,-1,-1,-1,-1,-1,-1,-1,-1,-1,-1,-1,-1,-1],"split_conditions":[8.3108E6,1.412E1,2.5640394E7,1.45735E1,1.02866E7,5.3596E2,1.9183064E7,5.4385E6,1.18732505E-1,1.76475E1,1.92325E1,9.3535E6,1.58041E7,1.97243E2,2.2481006E7,4.5832E6,5.4886E6,2.8931E6,1.764E1,6.1913937E-2,3.3E1,1.53346E7,1.52877E7,5.34873E2,6.39124E2,1.852486E7,5.346155E2,1.16929E2,2.45601E7,-8.943926E-2,-2.4790911E-2,3.3581365E-2,1.0932269E-1,1.4424E1,3.6568E6,1.8009E1,1.8397E1,1.54465E7,1.394898E7,2.094E1,1.852486E7,3.29662E7,2.47328E7,5.282069E2,1.04984E7,2.10123E7,6.621E2,8.43E1,6.7188196E-2,2.93975E2,-2.4790911E-2,1.0877E2,2.03855E7,2.69371E7,1.698058E2,-2.4790911E-2,-1.24711886E-1,3.6778E6,1.7105E1,1.718E1,-6.1585554E-3,6.0239E6,1.873E1,-1.5839641E-1,-2.4790911E-2,5.0498903E-2,-8.3399445E-2,1.986E1,4.076E6,1.62738E7,-4.5047975E-3,1.86707E7,-1.2138077E-1,2.14039E7,3.27156E7,-2.2462325E-2,-1.11419834E-1,1.2365E7,1.32947E7,5.773E2,2.17492E7,1.91453E7,-2.7818365E-2,1.45238E7,2.69371E7,2.08953E2,1.3496523E-1,2.15154E7,1.0161572E-1,-1.5300737E-1,2.14039E7,-7.927971E-2,2.9017718E7,1.6232E2,1.9166E2,3.3089E6,5.1482E6,1.446E1,-1.217201E-1,1.267231E-1,2.6547743E-2,-1.2355752E-1,1.3616726E-2,1.88245E1,5.8971E2,1.6025E1,-7.850443E-2,2.6656954E-2,8.4714E6,-2.4790911E-2,-1.1692434E-1,1.48905E7,1.34932E7,1.16554E7,3.7805965E1,1.7446296E7,4.086212E7,1.1906786E-1,-2.134389E-2,1.2365E7,1.8413E7,5.7049E2,-1.534297E-1,2.18538E7,-1.1265109E-1,6.23284E-2,1.72319E-2,-4.083023E-3,5.9324216E-2,-4.083023E-3,3.22714E7,1.0301359E-1,-2.6290527E-2,6.827975E1,-1.1095964E-1,2.07968E2,2.6404076E7,2.7733688E7,2.9748556E7,1.2595E2,1.6885E2,4.2291424E7,3.43955E7,-1.7280767E-2,-1.0875916E-1,1.069968E-1,-4.083023E-3,-1.2155169E-1,-2.5141004E-2,1.3510709E-1,2.8357336E-2,-1.5960302E-2,8.3779536E-2,-1.899004E-2,1.1235142E-1,2.6656954E-2,1.0095676E-1,-6.2426394E-3,-8.494222E-2,-5.843747E-3,7.232831E-2,-4.2760354E-2,3.7953004E-2,-1.17214404E-1,8.797365E-3,-7.115695E-3,9.205918E-2,-3.0451557E-2,1.700283E-2,-1.4099767E-3,-1.04923405E-1,7.933176E-2,-1.899004E-2,-1.2645851E-1,7.0353106E-2,1.0485579E-1,-3.473801E-2,-1.24507524E-1,-2.3617057E-2,8.115195E-2,-7.625746E-2,-9.672229E-2,8.8574745E-2,-2.7022704E-2,-1.3335955E-1,1.721248E-2,1.3214207E-1,-7.927971E-2,4.0360615E-2,-2.9901068E-3,-3.192506E-2,1.3264345E-1,4.178947E-2,-7.10844E-2,-6.0079577E-3,-3.385341E-2,2.8261501E-2],"split_indices":[4,2,10,8,10,9,4,10,0,8,8,10,4,7,4,4,4,10,3,0,0,4,10,7,6,4,8,8,4,0,0,0,0,6,10,7,7,10,10,9,4,4,10,7,10,4,2,0,0,0,0,0,4,10,7,0,0,4,8,9,0,4,2,0,0,0,0,0,10,4,0,4,0,10,4,0,0,4,4,0,10,10,0,4,10,7,0,4,0,0,4,0,10,9,0,4,4,3,0,0,0,0,0,8,2,7,0,0,4,0,0,10,10,4,8,4,4,0,0,4,10,6,0,4,0,0,0,0,0,0,10,0,0,8,0,6,10,10,10,7,3,10,10,0,0,0,0,0,0,0,0,0,0,0,0,0,0,0,0,0,0,0,0,0,0,0,0,0,0,0,0,0,0,0,0,0,0,0,0,0,0,0,0,0,0,0,0,0,0,0,0,0,0,0,0,0,0],"split_type":[0,0,0,0,0,0,0,0,0,0,0,0,0,0,0,0,0,0,0,0,0,0,0,0,0,0,0,0,0,0,0,0,0,0,0,0,0,0,0,0,0,0,0,0,0,0,0,0,0,0,0,0,0,0,0,0,0,0,0,0,0,0,0,0,0,0,0,0,0,0,0,0,0,0,0,0,0,0,0,0,0,0,0,0,0,0,0,0,0,0,0,0,0,0,0,0,0,0,0,0,0,0,0,0,0,0,0,0,0,0,0,0,0,0,0,0,0,0,0,0,0,0,0,0,0,0,0,0,0,0,0,0,0,0,0,0,0,0,0,0,0,0,0,0,0,0,0,0,0,0,0,0,0,0,0,0,0,0,0,0,0,0,0,0,0,0,0,0,0,0,0,0,0,0,0,0,0,0,0,0,0,0,0,0,0,0,0,0,0,0,0,0,0,0,0,0,0],"sum_hessian":[9.996744E2,2.2660399E2,7.730704E2,9.446695E0,2.1715729E2,4.1811108E2,3.5495932E2,5.981536E0,3.4651594E0,2.0668185E2,1.0475443E1,3.7398077E2,4.4130318E1,1.618053E1,3.3877878E2,2.9991E0,2.9824362E0,3.7449535E1,1.6923232E2,1.2448415E0,9.230602E0,3.6790787E1,3.3718997E2,2.5911938E1,1.821838E1,9.476949E0,6.7035813E0,1.8462048E1,3.2031674E2,1.7497642E0,1.2493358E0,1.4956295E0,1.4868065E0,4.496143E0,3.2953392E1,5.4855595E0,1.6374675E2,5.98719E0,3.2434123E0,3.2044746E1,4.74604E0,1.0608418E2,2.3110579E2,2.4951358E0,2.3416801E1,1.4476371E1,3.74201E0,7.23863E0,2.2383192E0,5.4542456E0,1.2493358E0,7.7275567E0,1.073449E1,1.867618E1,3.0164056E2,1.2493358E0,3.246807E0,8.221763E0,2.473163E1,3.9894977E0,1.4960616E0,5.487525E0,1.5825923E2,4.737854E0,1.2493358E0,1.7462394E0,1.4971728E0,7.4706793E0,2.4574068E1,2.7483196E0,1.9977205E0,1.0359065E2,2.4935272E0,2.1241725E2,1.868854E1,1.2475417E0,1.2475942E0,5.215743E0,1.820106E1,8.241669E0,6.234702E0,2.4954076E0,1.2466024E0,2.7425823E0,4.4960475E0,2.489316E0,2.9649298E0,6.4875765E0,1.2399802E0,3.4958067E0,7.2386837E0,1.4999459E0,1.7176233E1,2.2919835E2,7.244221E1,3.9974437E0,4.224319E0,2.1983133E1,2.7484965E0,1.9947488E0,1.9947488E0,3.7408094E0,1.7467158E0,9.471579E0,1.4878764E2,5.224853E0,2.245826E0,1.9949174E0,2.2579151E1,1.2493358E0,1.4989839E0,8.188012E1,2.1710537E1,1.3513484E2,7.728242E1,1.6204563E1,2.483978E0,3.4668174E0,1.7489256E0,1.0487044E1,7.7140155E0,4.495567E0,3.7461016E0,4.987366E0,1.2473357E0,1.2479875E0,1.2474201E0,1.4982659E0,1.2443163E0,1.4982659E0,2.9977818E0,1.2418513E0,1.2474647E0,3.988968E0,2.4986086E0,3.7445762E0,3.4941075E0,3.9662304E0,1.3210003E1,2.1678424E2,1.2414117E1,3.5988396E1,3.645381E1,2.748017E0,1.2494266E0,2.726053E0,1.4982659E0,1.4986165E0,2.0484516E1,2.4913514E0,6.9802275E0,1.4704457E2,1.7430795E0,2.2484818E0,2.9763713E0,1.9949174E0,2.0584234E1,7.538669E1,6.4934287E0,9.482882E0,1.2227655E1,6.23536E0,1.2889948E2,1.2464533E0,7.6035965E1,1.9943253E0,1.42102375E1,1.2425678E0,1.2414101E0,8.237964E0,2.2490807E0,5.4655337E0,2.2484818E0,3.2469118E0,1.2486552E0,1.2453735E0,3.7419927E0,1.7485353E0,1.2492466E0,1.7390203E0,2.2499478E0,1.9967875E0,1.7477888E0,1.2476935E0,2.246414E0,1.2474389E0,2.7187915E0,1.4999459E0,1.1710057E1,1.6655138E2,5.023286E1,4.467581E0,7.9465356E0,2.549974E1,1.0488656E1,1.8729025E1,1.7724785E1],"tree_param":{"num_deleted":"0","num_feature":"11","num_nodes":"197","size_leaf_vector":"1"}},{"base_weights":[-8.6266565E-4,-1.455357E-1,4.1705605E-2,5.2170837E-1,-1.7659749E-1,1.4847313E-1,-8.399101E-2,7.409628E-2,1.108916E-1,-1.4587846E-1,-7.2018373E-1,1.8839027E-1,-1.8718268E-1,-3.1383198E-1,-4.215208E-2,-7.084335E-1,8.447338E-1,-4.351349E-1,-7.980612E-2,5.8605533E-2,-9.3718797E-1,5.067543E-1,1.5248479E-1,8.7591685E-2,-5.621216E-1,2.2968261E-1,-5.591488E-1,1.9713211E-1,-1.3622099E-1,-8.391659E-2,-2.3408217E-2,3.1610463E-2,1.03639044E-1,-9.904662E-1,-3.32685E-1,2.0039564E-1,-1.5406579E-1,-1.2804987E0,-1.5540545E-1,6.8379545E-1,-5.9258914E-1,-5.0418836E-1,1.823521E-1,-8.140611E-1,2.1346669E-1,-7.698451E-1,2.3194411E-1,-7.381613E-2,7.3520786E-1,1.2589633E-1,-7.3861474E-1,9.353484E-2,9.1117674E-1,5.3679615E-1,-1.7424886E-1,-3.817588E-2,-1.2933753E-1,-1.9035522E-2,-5.140889E-1,1.2901439E-1,8.192039E-2,-7.20686E-1,-1.0308934E-1,-1.4696713E-1,-2.3408217E-2,4.7359254E-2,-7.837012E-2,1.4103502E-1,8.3745146E-1,-8.755267E-1,-4.2041633E-3,4.09824E-1,-1.0013075E0,-1.9790693E-1,2.2759211E-1,-2.121654E-2,-1.05410926E-1,7.0714325E-1,4.338997E-2,-1.1081314E0,-2.3315786E-1,4.840182E-1,-2.6256341E-2,-5.283219E-1,8.0191696E-1,1.0091088E0,-2.5906727E-2,-4.1963488E-1,1.0671546E-1,-1.0572267E0,-3.0732992E-1,4.578701E-1,-1.0482985E-1,1.3989068E-2,1.0456601E0,7.437952E-1,-6.78781E-2,-1.2555818E-1,-1.4826263E-1,2.507599E-1,-6.1343384E-1,-1.1505245E0,-1.9296822E-1,-5.6668397E-2,8.042795E-1,-1.045606E0,4.234651E-2,4.7802177E-1,-1.5762089E-1,5.251782E-1,-8.458036E-2,1.04144886E-1,6.134321E-1,-2.3408217E-2,-1.1035519E-1,-2.9351512E-2,6.5676314E-1,2.375885E-3,-1.2608352E0,3.1201828E-1,-5.423658E-1,9.892473E-1,1.9977261E-1,1.11182764E-1,-1.9980362E-2,-2.8686023E-1,4.7542897E-1,-6.331336E-1,-1.4252535E-1,1.18283965E-1,-1.0650333E-1,1.5218097E-2,6.0021617E-2,5.032333E-1,-1.041934E0,1.2432681E-2,1.1881101E-1,3.6427822E-2,1.3399078E-1,2.148382E-1,-1.07139505E-1,-1.2565012E0,-1.6474457E-1,6.1374855E-1,-7.601807E-1,1.4131254E-1,1.1907046E-1,-2.7078635E-1,6.0799617E-1,1.2204152E-1,2.8951803E-2,-1.3624765E-3,9.1994923E-1,1.0750742E-1,-1.6117811E-1,-4.1996706E-3,8.071859E-2,-9.4943434E-2,3.4968108E-3,-3.272135E-2,-1.4146744E-1,8.636334E-2,-3.902952E-2,2.5584787E-2,-6.807519E-2,2.5369534E-2,1.0460116E-1,3.582699E-3,-1.3108495E-1,1.0583321E-1,-7.340263E-2,-8.519702E-2,7.777573E-2,-4.412339E-2,-2.3202929E-3,-1.767041E-2,9.208815E-2,-2.802859E-2,9.4539985E-2,9.266304E-2,1.229377E-2,-1.454514E-1,-5.291897E-2,3.5047587E-3,8.0642655E-2,-1.4703707E-1,-2.2379577E-2,1.6614666E-2,1.3181925E-1,2.1652674E-2,-6.412165E-2,-1.284186E-3,-9.80042E-2,7.313285E-2,-1.767041E-2,-1.17396854E-1,6.640407E-2,9.954864E-2,-3.198653E-2,1.0471415E-1,-2.6351485E-2,-2.0952955E-2,-1.2165809E-1,-4.175104E-2,7.608746E-2,-4.3790568E-2,-1.4201228E-1,-6.985877E-2,6.206208E-2,-2.5906727E-2,9.512489E-2,-5.2936684E-2,-1.24043465E-1,-8.786022E-2,3.3733375E-2,7.478214E-2,-4.0026095E-2,1.0402445E-1,-7.112094E-2,1.02164745E-1,1.746258E-2,-4.6998832E-2,-1.0132453E-2],"categories":[],"categories_nodes":[],"categories_segments":[],"categories_sizes":[],"default_left":[0,0,0,0,0,0,0,0,0,0,0,0,0,0,0,0,0,0,0,0,0,0,0,0,0,0,0,0,0,0,0,0,0,0,0,0,0,0,0,0,0,0,0,0,0,0,0,0,0,0,0,0,0,0,0,0,0,0,0,0,0,0,0,0,0,0,0,0,0,0,0,0,0,0,0,0,0,0,0,0,0,0,0,0,0,0,0,0,0,0,0,0,0,0,0,0,0,0,0,0,0,0,0,0,0,0,0,0,0,0,0,0,0,0,0,0,0,0,0,0,0,0,0,0,0,0,0,0,0,0,0,0,0,0,0,0,0,0,0,0,0,0,0,0,0,0,0,0,0,0,0,0,0,0,0,0,0,0,0,0,0,0,0,0,0,0,0,0,0,0,0,0,0,0,0,0,0,0,0,0,0,0,0,0,0,0,0,0,0,0,0,0,0,0,0,0,0,0,0,0,0,0,0,0,0,0,0,0,0,0,0,0,0,0,0,0,0,0,0,0,0,0,0],"id":2,"left_children":[1,3,5,7,9,11,13,15,-1,17,19,21,23,25,27,29,31,33,35,-1,37,39,41,43,45,47,49,51,53,-1,-1,-1,-1,55,57,59,61,63,65,67,69,71,73,75,77,79,81,83,85,87,89,91,93,95,97,-1,-1,99,101,-1,103,105,107,-1,-1,-1,-1,109,111,113,-1,115,117,119,121,-1,-1,123,125,127,129,131,-1,133,135,137,-1,139,-1,141,143,145,147,-1,149,151,-1,-1,153,155,157,159,161,163,165,167,169,171,173,175,-1,-1,177,-1,-1,-1,179,-1,181,183,185,187,189,-1,-1,191,193,195,-1,197,-1,-1,-1,199,201,-1,-1,-1,-1,203,-1,205,207,209,211,213,-1,215,217,-1,-1,-1,219,-1,221,-1,-1,-1,-1,-1,-1,-1,-1,-1,-1,-1,-1,-1,-1,-1,-1,-1,-1,-1,-1,-1,-1,-1,-1,-1,-1,-1,-1,-1,-1,-1,-1,-1,-1,-1,-1,-1,-1,-1,-1,-1,-1,-1,-1,-1,-1,-1,-1,-1,-1,-1,-1,-1,-1,-1,-1,-1,-1,-1,-1,-1,-1,-1,-1,-1,-1,-1,-1],"loss_changes":[6.1591563E0,4.8045187E0,1.0383102E1,2.6426044E0,3.5352263E0,5.6385E0,3.4058926E0,4.7921004E0,0E0,3.9327946E0,3.782576E0,4.2008047E0,4.6800895E0,7.4084997E0,6.8236017E0,5.1265955E-2,7.358122E-2,1.8538971E0,3.5727122E0,0E0,2.5296068E0,7.7038555E0,6.7162814E0,3.2159965E0,3.3363996E0,2.768218E0,4.753932E0,6.2481327E0,5.655933E0,0E0,0E0,0E0,0E0,5.150914E-1,1.9193466E0,4.554505E0,3.8286214E0,1.0270214E0,2.046908E0,2.6142788E0,8.568809E-1,7.2074084E0,5.615217E0,2.8080654E-1,2.010737E0,2.538741E0,7.177098E-1,5.1847887E0,2.0934374E0,4.927745E0,3.8231678E0,5.5322E0,9.670563E-1,3.4912932E0,5.6155577E0,0E0,0E0,2.312762E0,4.160346E0,0E0,3.4116714E0,2.7679992E0,4.0407796E0,0E0,0E0,0E0,0E0,3.6403959E0,5.187874E-1,2.8859425E-1,0E0,1.2312942E0,2.6848917E0,6.310105E0,5.943574E0,0E0,0E0,2.484709E0,2.8685508E0,4.8095512E-1,2.2376642E0,4.3231428E-2,0E0,5.015954E0,1.0257123E0,6.805072E-1,0E0,2.8110235E0,0E0,2.8078117E0,6.4043665E0,6.080703E0,6.073223E0,0E0,8.339968E-1,1.429316E0,0E0,0E0,3.3768363E0,1.6579013E0,1.0120795E0,1.0571547E0,3.559068E0,5.85857E0,4.6375918E-1,2.2682743E0,4.122945E0,5.0411034E0,4.3797035E0,2.0196238E0,0E0,0E0,4.5688777E0,0E0,0E0,0E0,5.681455E-1,0E0,3.613701E-1,1.9888111E0,5.947622E0,2.4777126E0,4.096325E0,0E0,0E0,2.167324E0,1.576457E0,4.621195E0,0E0,2.615976E0,0E0,0E0,0E0,1.7323588E0,6.1522436E-1,0E0,0E0,0E0,0E0,1.6972476E0,0E0,1.2139721E0,2.2133267E0,1.7915945E0,4.5076036E-1,4.284065E0,0E0,5.7337427E0,6.2940807E0,0E0,0E0,0E0,4.7570992E-1,0E0,3.6769395E0,0E0,0E0,0E0,0E0,0E0,0E0,0E0,0E0,0E0,0E0,0E0,0E0,0E0,0E0,0E0,0E0,0E0,0E0,0E0,0E0,0E0,0E0,0E0,0E0,0E0,0E0,0E0,0E0,0E0,0E0,0E0,0E0,0E0,0E0,0E0,0E0,0E0,0E0,0E0,0E0,0E0,0E0,0E0,0E0,0E0,0E0,0E0,0E0,0E0,0E0,0E0,0E0,0E0,0E0,0E0,0E0,0E0,0E0,0E0,0E0,0E0,0E0,0E0,0E0,0E0,0E0,0E0,0E0],"parents":[2147483647,0,0,1,1,2,2,3,3,4,4,5,5,6,6,7,7,9,9,10,10,11,11,12,12,13,13,14,14,15,15,16,16,17,17,18,18,20,20,21,21,22,22,23,23,24,24,25,25,26,26,27,27,28,28,33,33,34,34,35,35,36,36,37,37,38,38,39,39,40,40,41,41,42,42,43,43,44,44,45,45,46,46,47,47,48,48,49,49,50,50,51,51,52,52,53,53,54,54,57,57,58,58,60,60,61,61,62,62,67,67,68,68,69,69,71,71,72,72,73,73,74,74,77,77,78,78,79,79,80,80,81,81,83,83,84,84,85,85,87,87,89,89,90,90,91,91,92,92,94,94,95,95,98,98,99,99,100,100,101,101,102,102,103,103,104,104,105,105,106,106,107,107,108,108,109,109,112,112,116,116,118,118,119,119,120,120,121,121,122,122,125,125,126,126,127,127,129,129,133,133,134,134,139,139,141,141,142,142,143,143,144,144,145,145,147,147,148,148,152,152,154,154],"right_children":[2,4,6,8,10,12,14,16,-1,18,20,22,24,26,28,30,32,34,36,-1,38,40,42,44,46,48,50,52,54,-1,-1,-1,-1,56,58,60,62,64,66,68,70,72,74,76,78,80,82,84,86,88,90,92,94,96,98,-1,-1,100,102,-1,104,106,108,-1,-1,-1,-1,110,112,114,-1,116,118,120,122,-1,-1,124,126,128,130,132,-1,134,136,138,-1,140,-1,142,144,146,148,-1,150,152,-1,-1,154,156,158,160,162,164,166,168,170,172,174,176,-1,-1,178,-1,-1,-1,180,-1,182,184,186,188,190,-1,-1,192,194,196,-1,198,-1,-1,-1,200,202,-1,-1,-1,-1,204,-1,206,208,210,212,214,-1,216,218,-1,-1,-1,220,-1,222,-1,-1,-1,-1,-1,-1,-1,-1,-1,-1,-1,-1,-1,-1,-1,-1,-1,-1,-1,-1,-1,-1,-1,-1,-1,-1,-1,-1,-1,-1,-1,-1,-1,-1,-1,-1,-1,-1,-1,-1,-1,-1,-1,-1,-1,-1,-1,-1,-1,-1,-1,-1,-1,-1,-1,-1,-1,-1,-1,-1,-1,-1,-1,-1,-1,-1,-1,-1],"split_conditions":[8.3108E6,1.412E1,2.5640394E7,1.45735E1,1.02866E7,5.3596E2,9.0191E1,5.4385E6,1.108916E-1,1.76475E1,1.92325E1,9.3535E6,1.58041E7,6.1996E1,1.11752E2,4.5832E6,5.4886E6,2.8931E6,2.108E1,5.8605533E-2,3.3E1,1.53346E7,3.7246E1,5.34873E2,6.39124E2,5.5757E1,2.85486E7,1.105E2,1.9183064E7,-8.391659E-2,-2.3408217E-2,3.1610463E-2,1.03639044E-1,2.9674E6,1.481E1,2.4772E6,2.1080244E1,1.54465E7,1.394898E7,2.094E1,1.852486E7,2E1,1.16554E7,5.282069E2,1.04984E7,2.10123E7,6.621E2,3.7051184E7,4.94362E7,2.7733688E7,3.27156E7,3.55308E7,2.99366E7,3.64804E7,2.03855E7,-3.817588E-2,-1.2933753E-1,1.50455E1,1.545E1,1.2901439E-1,2.0404E1,5.25E6,2.215E1,-1.4696713E-1,-2.3408217E-2,4.7359254E-2,-7.837012E-2,1.987E1,5.398E1,1.62738E7,-4.2041633E-3,1.10046E7,1.09403E7,1.01339E7,4.2122E1,-2.121654E-2,-1.05410926E-1,1.2365E7,1.32947E7,5.773E2,2.17492E7,2.2009E7,-2.6256341E-2,2.79528E7,4.249E1,3.05149E7,-2.5906727E-2,2.66166E7,1.0671546E-1,4.437068E7,3.57418E7,3.60564E7,6.6723744E7,1.3989068E-2,1.15136E2,1.698058E2,-6.78781E-2,-1.2555818E-1,9.1777E1,1.4663E1,1.458E1,1.452E1,1.50455E1,1.873E1,2.0912E1,3.0091E6,5.9068E6,2.077E1,2.607E1,1.6025E1,-8.458036E-2,1.04144886E-1,3.7457E2,-2.3408217E-2,-1.1035519E-1,-2.9351512E-2,1.857E1,2.375885E-3,1.58954E7,1.28471E7,1.05224E7,3.7805965E1,4.73992E7,1.11182764E-1,-1.9980362E-2,1.2365E7,1.8413E7,5.7049E2,-1.4252535E-1,2.18538E7,-1.0650333E-1,1.5218097E-2,6.0021617E-2,3.719E1,2.9017718E7,1.2432681E-2,1.1881101E-1,3.6427822E-2,1.3399078E-1,2.5965534E7,-1.07139505E-1,2.14039E7,7.8915E1,3.09841E7,5.6843E7,9.0889E1,1.1907046E-1,9.398E1,1.0489E2,1.2204152E-1,2.8951803E-2,-1.3624765E-3,5.3776E2,1.0750742E-1,1.2025E2,-4.1996706E-3,8.071859E-2,-9.4943434E-2,3.4968108E-3,-3.272135E-2,-1.4146744E-1,8.636334E-2,-3.902952E-2,2.5584787E-2,-6.807519E-2,2.5369534E-2,1.0460116E-1,3.582699E-3,-1.3108495E-1,1.0583321E-1,-7.340263E-2,-8.519702E-2,7.777573E-2,-4.412339E-2,-2.3202929E-3,-1.767041E-2,9.208815E-2,-2.802859E-2,9.4539985E-2,9.266304E-2,1.229377E-2,-1.454514E-1,-5.291897E-2,3.5047587E-3,8.0642655E-2,-1.4703707E-1,-2.2379577E-2,1.6614666E-2,1.3181925E-1,2.1652674E-2,-6.412165E-2,-1.284186E-3,-9.80042E-2,7.313285E-2,-1.767041E-2,-1.17396854E-1,6.640407E-2,9.954864E-2,-3.198653E-2,1.0471415E-1,-2.6351485E-2,-2.0952955E-2,-1.2165809E-1,-4.175104E-2,7.608746E-2,-4.3790568E-2,-1.4201228E-1,-6.985877E-2,6.206208E-2,-2.5906727E-2,9.512489E-2,-5.2936684E-2,-1.24043465E-1,-8.786022E-2,3.3733375E-2,7.478214E-2,-4.0026095E-2,1.0402445E-1,-7.112094E-2,1.02164745E-1,1.746258E-2,-4.6998832E-2,-1.0132453E-2],"split_indices":[4,2,10,8,10,9,7,10,0,8,8,10,4,7,8,4,4,10,1,0,0,4,8,7,6,8,10,7,4,0,0,0,0,4,3,4,8,10,10,9,4,3,4,7,10,4,2,10,10,10,4,4,10,10,4,0,0,8,1,0,6,10,7,0,0,0,0,2,0,4,0,10,4,4,6,0,0,4,4,0,10,4,0,10,0,10,0,10,0,10,10,10,10,0,6,7,0,0,7,8,3,2,8,2,8,10,10,0,9,7,0,0,0,0,0,0,9,0,10,10,4,8,4,0,0,4,10,6,0,4,0,0,0,1,10,0,0,0,0,10,0,4,0,10,4,0,0,6,0,0,0,0,0,0,1,0,0,0,0,0,0,0,0,0,0,0,0,0,0,0,0,0,0,0,0,0,0,0,0,0,0,0,0,0,0,0,0,0,0,0,0,0,0,0,0,0,0,0,0,0,0,0,0,0,0,0,0,0,0,0,0,0,0,0,0,0,0,0,0,0,0,0,0],"split_type":[0,0,0,0,0,0,0,0,0,0,0,0,0,0,0,0,0,0,0,0,0,0,0,0,0,0,0,0,0,0,0,0,0,0,0,0,0,0,0,0,0,0,0,0,0,0,0,0,0,0,0,0,0,0,0,0,0,0,0,0,0,0,0,0,0,0,0,0,0,0,0,0,0,0,0,0,0,0,0,0,0,0,0,0,0,0,0,0,0,0,0,0,0,0,0,0,0,0,0,0,0,0,0,0,0,0,0,0,0,0,0,0,0,0,0,0,0,0,0,0,0,0,0,0,0,0,0,0,0,0,0,0,0,0,0,0,0,0,0,0,0,0,0,0,0,0,0,0,0,0,0,0,0,0,0,0,0,0,0,0,0,0,0,0,0,0,0,0,0,0,0,0,0,0,0,0,0,0,0,0,0,0,0,0,0,0,0,0,0,0,0,0,0,0,0,0,0,0,0,0,0,0,0,0,0,0,0,0,0,0,0,0,0,0,0,0,0,0,0,0,0,0,0],"sum_hessian":[9.9812415E2,2.2636807E2,7.717561E2,9.366603E0,2.1700146E2,4.1720135E2,3.5455475E2,5.954124E0,3.412479E0,2.0659479E2,1.0406678E1,3.7325192E2,4.3949432E1,5.360058E1,3.009542E2,2.994317E0,2.959807E0,3.7377045E1,1.6921774E2,1.2402761E0,9.166402E0,3.650029E1,3.3675162E2,2.5804768E1,1.8144665E1,1.6688936E1,3.691164E1,8.461709E1,2.163371E2,1.7444592E0,1.2498579E0,1.4925016E0,1.4673053E0,4.4714847E0,3.290556E1,3.5095264E1,1.3412248E2,5.9261017E0,3.2403004E0,3.1763075E1,4.737214E0,1.3959183E1,3.2279245E2,2.491406E0,2.331336E1,1.44065E1,3.7381647E0,1.0961835E1,5.7271004E0,7.7245436E0,2.9187098E1,7.488358E1,9.733502E0,1.08686075E1,2.0546849E2,2.2368195E0,2.2346654E0,1.2462568E1,2.0442991E1,2.4716055E0,3.262366E1,9.986093E0,1.2413638E2,4.676244E0,1.2498579E0,1.74229E0,1.4980105E0,7.431299E0,2.4331776E1,2.7391996E0,1.9980142E0,4.9794593E0,8.979723E0,3.396122E1,2.8883124E2,1.2474357E0,1.2439703E0,5.16456E0,1.8148802E1,8.183495E0,6.2230053E0,2.4900692E0,1.2480955E0,7.477644E0,3.484191E0,4.478463E0,1.2486372E0,5.2411013E0,2.4834423E0,1.5951545E1,1.3235554E1,2.593701E1,4.8946575E1,1.7480919E0,7.98541E0,9.618755E0,1.2498522E0,3.7114446E0,2.0175703E2,8.96948E0,3.493089E0,5.9894795E0,1.4453511E1,2.8145359E1,4.4782996E0,6.7439895E0,3.2421033E0,9.9833765E0,1.1415301E2,5.6858187E0,1.7454808E0,1.0825185E1,1.3506592E1,1.2498579E0,1.4893417E0,1.2449484E0,3.734511E0,1.997717E0,6.982006E0,1.3729989E1,2.0231232E1,8.960025E0,2.798712E2,3.4149082E0,1.7496516E0,1.0476561E1,7.6722407E0,4.4758654E0,3.7076292E0,4.977834E0,1.2451713E0,1.2448127E0,1.2452564E0,2.4922783E0,4.985366E0,1.7448018E0,1.7393893E0,2.2309165E0,2.247547E0,2.9954622E0,2.245639E0,1.2706539E1,3.245005E0,4.245366E0,8.990188E0,1.8945904E1,6.991104E0,4.0206116E1,8.74046E0,5.987591E0,1.9978194E0,1.9890354E0,7.62972E0,1.2486372E0,2.005084E2,6.4830356E0,2.486444E0,1.9950105E0,1.4980785E0,1.9986777E0,3.9908018E0,1.7431309E0,1.2710381E1,1.9147228E1,8.998132E0,1.9915991E0,2.4867008E0,1.4986644E0,5.245325E0,1.2470282E0,1.995075E0,1.4972676E0,8.486109E0,3.5971977E1,7.818103E1,2.2493887E0,3.43643E0,3.7003243E0,9.806268E0,1.9917713E0,1.7427397E0,4.739403E0,2.2426028E0,9.486486E0,4.2435026E0,4.2462454E0,1.5984985E1,2.9881184E0,5.9719067E0,2.7513257E2,4.738637E0,8.238403E0,2.2381577E0,5.422852E0,2.2493887E0,3.2258725E0,1.249993E0,1.2344207E0,3.7434134E0,1.2440764E0,1.248202E0,1.2460688E0,3.739297E0,1.4970976E0,1.4983646E0,2.7291245E0,9.977415E0,1.9976315E0,1.2473735E0,1.2486372E0,2.9967291E0,7.4918227E0,1.4983646E0,2.4929094E0,1.6452995E1,3.9956388E0,3.6210476E1,6.7426405E0,1.9978194E0,6.387423E0,1.2422972E0,3.1440601E1,1.6906781E2],"tree_param":{"num_deleted":"0","num_feature":"11","num_nodes":"223","size_leaf_vector":"1"}},{"base_weights":[-1.1091693E-3,-1.32365E-1,3.7502583E-2,4.8856223E-1,-1.6102375E-1,1.3325068E-1,-7.5004674E-2,7.12528E-2,1.0403239E-1,-1.3262555E-1,-6.685188E-1,1.7009668E-1,-1.7398544E-1,-6.588379E-2,-1.0467537E-1,-6.6642123E-1,8.0077213E-1,-1.7476308E-1,2.959447E-1,5.7717036E-2,-8.786261E-1,1.4671801E-1,5.905661E-1,6.2804356E-2,-4.8206776E-1,3.5982174E-1,-8.647359E-2,-7.892197E-2,-2.2106338E-2,2.976411E-2,9.856854E-2,-4.2365268E-1,-1.1249328E-1,4.7849602E-1,-6.4901173E-1,-1.2032851E0,-1.4751276E-1,4.4555706E-1,1.1115594E-1,7.461196E-1,-5.0050717E-2,-9.725408E-2,1.9857362E-1,-8.8834685E-1,5.63623E-2,-6.316572E-2,9.334264E-1,-6.457267E-1,-5.3829364E-2,-2.9537782E-1,-9.9389976E-1,1.6799012E-1,-1.8888828E-1,-8.094823E-2,7.277248E-1,1.4272931E-2,-1.1496431E-1,-1.3839936E-1,-2.2106338E-2,4.785896E-2,-7.758987E-2,6.079231E-1,-5.592772E-1,-4.9342883E-1,1.3680619E-1,-7.957008E-3,8.728732E-1,6.7318805E-2,-5.9070356E-2,6.1806744E-1,6.116427E-2,-1.0093529E0,-5.6530475E-3,7.1082614E-2,-1.5591975E-1,-3.1846166E-1,6.0802173E-2,1.0795881E-1,1.3065572E-2,-1.665247E-1,-9.6735233E-1,5.5308896E-1,-7.10163E-2,-8.494657E-1,-1.873595E-1,-1.7960737E-2,-1.15185715E-1,1.2140399E-1,4.616696E-2,-9.8017275E-1,-1.5344293E-1,3.6021614E-1,-8.4132716E-2,1.8193608E-2,8.06942E-1,1.2680359E-1,7.432398E-1,-8.279995E-1,-3.9236285E-3,3.5093662E-1,-1.1368761E0,6.354521E-1,1.1449528E-1,9.785983E-1,9.502508E-3,1.0067274E-1,-1.8706672E-2,-5.364454E-1,2.6493403E-1,-1.576488E-2,-1.11360155E-1,-5.037147E-1,5.8800817E-2,4.8231695E-2,-6.088849E-1,-4.8604396E-1,9.73663E-2,-3.162199E-1,-1.2010609E0,1.267965E-1,1.2656945E-1,-3.098845E-1,-3.1817008E-2,-1.9275352E-2,-1.0189537E-1,-5.013104E-3,-5.4296143E-2,-1.5726905E-2,4.73305E-2,1.9046849E-2,-1.4205663E-1,1.5324515E-2,-2.1819038E-2,-2.5060141E-2,6.7124836E-2,1.2742114E-1,5.2192826E-2,5.424449E-2,-7.028326E-2,6.200823E-2,1.2592725E-1,-2.2106338E-2,-1.0455556E-1,-4.286E-2,6.719144E-2,-2.9830664E-2,-1.3779765E-1,-5.57371E-3,1.24140106E-1,-2.4155362E-2,1.4374472E-2,5.5316497E-2,1.1588371E-1,6.261925E-2,-1.056354E-1,6.9225274E-2,-1.3178438E-2,2.8609931E-2,-8.27095E-2,-1.0704105E-1,2.8695855E-2,-3.9788745E-3,-9.8461874E-2,-7.012688E-2,1.4675512E-2,-1.4085978E-1,-6.0368866E-2,6.457122E-2,-2.72886E-2,6.338888E-3,-5.7660706E-2,1.9185012E-2,-1.2913418E-2],"categories":[],"categories_nodes":[],"categories_segments":[],"categories_sizes":[],"default_left":[0,0,0,0,0,0,0,0,0,0,0,0,0,0,0,0,0,0,0,0,0,0,0,0,0,0,0,0,0,0,0,0,0,0,0,0,0,0,0,0,0,0,0,0,0,0,0,0,0,0,0,0,0,0,0,0,0,0,0,0,0,0,0,0,0,0,0,0,0,0,0,0,0,0,0,0,0,0,0,0,0,0,0,0,0,0,0,0,0,0,0,0,0,0,0,0,0,0,0,0,0,0,0,0,0,0,0,0,0,0,0,0,0,0,0,0,0,0,0,0,0,0,0,0,0,0,0,0,0,0,0,0,0,0,0,0,0,0,0,0,0,0,0,0,0,0,0,0,0,0,0,0,0,0,0,0,0,0,0,0,0,0,0,0,0,0,0,0,0,0,0,0,0],"id":3,"left_children":[1,3,5,7,9,11,13,15,-1,17,19,21,23,25,-1,27,29,31,33,-1,35,37,39,41,43,45,47,-1,-1,-1,-1,49,51,53,55,57,59,61,63,65,67,-1,69,71,73,75,77,79,81,83,85,87,89,91,93,-1,-1,-1,-1,-1,-1,95,97,99,101,-1,103,-1,-1,105,107,109,-1,-1,111,113,-1,-1,-1,115,117,119,121,123,125,-1,-1,-1,127,129,131,133,-1,-1,135,137,139,141,-1,143,145,147,149,151,-1,-1,-1,153,155,-1,-1,157,-1,-1,159,161,-1,163,165,167,-1,169,171,-1,-1,-1,-1,-1,-1,-1,-1,-1,-1,-1,-1,-1,-1,-1,-1,-1,-1,-1,-1,-1,-1,-1,-1,-1,-1,-1,-1,-1,-1,-1,-1,-1,-1,-1,-1,-1,-1,-1,-1,-1,-1,-1,-1,-1,-1,-1,-1,-1,-1],"loss_changes":[5.058056E0,4.1155777E0,8.31762E0,2.2874753E0,3.0473742E0,4.7500997E0,3.0793214E0,4.2540026E0,0E0,3.7956223E0,3.460362E0,3.5784006E0,3.323834E0,3.1249876E0,0E0,4.337108E-2,7.225418E-2,2.887506E0,3.576054E0,0E0,2.2083683E0,3.7182288E0,1.9613957E0,3.9058332E0,4.367264E0,4.057007E0,6.12667E0,0E0,0E0,0E0,0E0,2.452324E0,3.306873E0,2.3512459E0,1.547144E0,9.0473366E-1,2.035825E0,6.4370723E0,5.001507E0,1.7019873E0,2.239164E0,0E0,1.3560256E0,1.0811214E0,1.420635E0,1.9792619E0,6.870041E-1,2.6936674E0,3.3769262E0,1.760174E0,6.2539816E-1,4.180908E0,3.232079E0,2.30466E0,3.4927368E-1,0E0,0E0,0E0,0E0,0E0,0E0,2.0314732E0,7.6677644E-1,7.5522146E0,3.331543E0,0E0,1.0259581E0,0E0,0E0,2.020948E0,2.4953198E0,6.95673E-1,0E0,0E0,2.3502321E0,2.2020144E0,0E0,0E0,0E0,3.6234052E0,1.2751989E0,2.5508397E0,2.9119773E0,3.544104E-1,1.3449702E0,0E0,0E0,0E0,2.7525299E0,2.840541E0,2.349071E0,1.0186322E0,0E0,0E0,6.305876E-1,3.268572E0,8.2566166E-1,2.602117E-1,0E0,1.9039178E0,1.1473322E0,5.4658065E0,3.0976772E0,2.692032E-1,0E0,0E0,0E0,3.8314354E0,2.6476586E0,0E0,0E0,1.755893E0,0E0,0E0,2.9796126E0,1.6119708E0,0E0,8.569699E-1,9.753704E-2,1.5649443E0,0E0,4.4047565E0,5.88374E0,0E0,0E0,0E0,0E0,0E0,0E0,0E0,0E0,0E0,0E0,0E0,0E0,0E0,0E0,0E0,0E0,0E0,0E0,0E0,0E0,0E0,0E0,0E0,0E0,0E0,0E0,0E0,0E0,0E0,0E0,0E0,0E0,0E0,0E0,0E0,0E0,0E0,0E0,0E0,0E0,0E0,0E0,0E0,0E0,0E0,0E0,0E0,0E0,0E0,0E0],"parents":[2147483647,0,0,1,1,2,2,3,3,4,4,5,5,6,6,7,7,9,9,10,10,11,11,12,12,13,13,15,15,16,16,17,17,18,18,20,20,21,21,22,22,23,23,24,24,25,25,26,26,31,31,32,32,33,33,34,34,35,35,36,36,37,37,38,38,39,39,40,40,42,42,43,43,44,44,45,45,46,46,47,47,48,48,49,49,50,50,51,51,52,52,53,53,54,54,61,61,62,62,63,63,64,64,66,66,69,69,70,70,71,71,74,74,75,75,79,79,80,80,81,81,82,82,83,83,84,84,88,88,89,89,90,90,91,91,94,94,95,95,96,96,97,97,99,99,100,100,101,101,102,102,103,103,107,107,108,108,111,111,114,114,115,115,117,117,118,118,119,119,121,121,122,122],"right_children":[2,4,6,8,10,12,14,16,-1,18,20,22,24,26,-1,28,30,32,34,-1,36,38,40,42,44,46,48,-1,-1,-1,-1,50,52,54,56,58,60,62,64,66,68,-1,70,72,74,76,78,80,82,84,86,88,90,92,94,-1,-1,-1,-1,-1,-1,96,98,100,102,-1,104,-1,-1,106,108,110,-1,-1,112,114,-1,-1,-1,116,118,120,122,124,126,-1,-1,-1,128,130,132,134,-1,-1,136,138,140,142,-1,144,146,148,150,152,-1,-1,-1,154,156,-1,-1,158,-1,-1,160,162,-1,164,166,168,-1,170,172,-1,-1,-1,-1,-1,-1,-1,-1,-1,-1,-1,-1,-1,-1,-1,-1,-1,-1,-1,-1,-1,-1,-1,-1,-1,-1,-1,-1,-1,-1,-1,-1,-1,-1,-1,-1,-1,-1,-1,-1,-1,-1,-1,-1,-1,-1,-1,-1,-1,-1],"split_conditions":[8.3108E6,1.412E1,2.5640394E7,1.45735E1,1.02866E7,5.4299E2,6.005E2,5.4385E6,1.0403239E-1,7.9547E6,1.8018E1,2.47328E7,1.58041E7,1.9183064E7,-1.0467537E-1,4.5832E6,5.4886E6,1.76475E1,5.316695E2,5.7717036E-2,3.3E1,9.3535E6,2.5473924E7,5.34873E2,2.1257668E7,1.97243E2,2.2481006E7,-7.892197E-2,-2.2106338E-2,2.976411E-2,9.856854E-2,6.0239E6,2.108E1,5.879E6,9.1908E6,1.54465E7,4.5838E2,1.53346E7,3.221E1,1.7446296E7,2.74449E7,-9.725408E-2,1.04984E7,6.462E2,5.7133E2,1.852486E7,3.43955E7,1.16929E2,2.32531E7,2.8931E6,3.3978E6,2.4772E6,2.077E1,5.3833E6,2.0404E1,1.4272931E-2,-1.1496431E-1,-1.3839936E-1,-2.2106338E-2,4.785896E-2,-7.758987E-2,2.094E1,1.852486E7,2.032E1,4.253E1,-7.957008E-3,3.27156E7,6.7318805E-2,-5.9070356E-2,1.2365E7,1.09403E7,1.26884E7,-5.6530475E-3,7.1082614E-2,6.434285E2,2.68052E7,6.0802173E-2,1.0795881E-1,1.3065572E-2,1.0877E2,2.6404076E7,3.1646368E7,9.0191E1,1.4424E1,5.5229E6,-1.7960737E-2,-1.15185715E-1,1.2140399E-1,1.9659E1,2.0632E1,2.2678E1,2.18335E1,-8.4132716E-2,1.8193608E-2,2.4018E1,1.986E1,1.27256E7,1.62738E7,-3.9236285E-3,1.10046E7,1.09403E7,3.7805965E1,1.08013E7,1.0752E2,9.502508E-3,1.0067274E-1,-1.8706672E-2,9.2913E6,5.78803E2,-1.576488E-2,-1.11360155E-1,2.18538E7,5.8800817E-2,4.8231695E-2,3.2752734E7,2.15154E7,9.73663E-2,2.10123E7,2.141E2,2.9017718E7,1.2656945E-1,6.508E1,1.11752E2,-1.9275352E-2,-1.0189537E-1,-5.013104E-3,-5.4296143E-2,-1.5726905E-2,4.73305E-2,1.9046849E-2,-1.4205663E-1,1.5324515E-2,-2.1819038E-2,-2.5060141E-2,6.7124836E-2,1.2742114E-1,5.2192826E-2,5.424449E-2,-7.028326E-2,6.200823E-2,1.2592725E-1,-2.2106338E-2,-1.0455556E-1,-4.286E-2,6.719144E-2,-2.9830664E-2,-1.3779765E-1,-5.57371E-3,1.24140106E-1,-2.4155362E-2,1.4374472E-2,5.5316497E-2,1.1588371E-1,6.261925E-2,-1.056354E-1,6.9225274E-2,-1.3178438E-2,2.8609931E-2,-8.27095E-2,-1.0704105E-1,2.8695855E-2,-3.9788745E-3,-9.8461874E-2,-7.012688E-2,1.4675512E-2,-1.4085978E-1,-6.0368866E-2,6.457122E-2,-2.72886E-2,6.338888E-3,-5.7660706E-2,1.9185012E-2,-1.2913418E-2],"split_indices":[4,2,10,8,10,1,2,10,0,10,6,10,4,4,0,4,4,8,8,0,0,10,10,7,4,7,4,0,0,0,0,4,1,4,10,10,0,4,2,4,4,0,10,0,0,4,10,8,4,10,10,4,0,4,6,0,0,0,0,0,0,9,4,3,3,0,4,0,0,4,4,10,0,0,8,10,0,0,0,0,10,10,7,6,10,0,0,0,7,6,6,8,0,0,8,0,4,4,0,10,4,8,4,0,0,0,0,4,8,0,0,4,0,0,10,4,0,4,0,10,0,2,8,0,0,0,0,0,0,0,0,0,0,0,0,0,0,0,0,0,0,0,0,0,0,0,0,0,0,0,0,0,0,0,0,0,0,0,0,0,0,0,0,0,0,0,0,0,0,0,0,0,0],"split_type":[0,0,0,0,0,0,0,0,0,0,0,0,0,0,0,0,0,0,0,0,0,0,0,0,0,0,0,0,0,0,0,0,0,0,0,0,0,0,0,0,0,0,0,0,0,0,0,0,0,0,0,0,0,0,0,0,0,0,0,0,0,0,0,0,0,0,0,0,0,0,0,0,0,0,0,0,0,0,0,0,0,0,0,0,0,0,0,0,0,0,0,0,0,0,0,0,0,0,0,0,0,0,0,0,0,0,0,0,0,0,0,0,0,0,0,0,0,0,0,0,0,0,0,0,0,0,0,0,0,0,0,0,0,0,0,0,0,0,0,0,0,0,0,0,0,0,0,0,0,0,0,0,0,0,0,0,0,0,0,0,0,0,0,0,0,0,0,0,0,0,0,0,0],"sum_hessian":[9.9605493E2,2.2585635E2,7.7019855E2,9.256444E0,2.165999E2,4.1599017E2,3.542084E2,5.913256E0,3.343188E0,2.0631628E2,1.0283625E1,3.7184247E2,4.4147694E1,3.5197256E2,2.2358317E0,2.9832013E0,2.9300551E0,1.8838615E2,1.7930126E1,1.2320412E0,9.051583E0,3.5353442E2,1.8308058E1,2.5412205E1,1.8735489E1,1.5478121E1,3.3649445E2,1.7332026E0,1.2499987E0,1.4887999E0,1.4412552E0,3.653878E1,1.5184738E2,1.54408245E1,2.4893029E0,5.8209157E0,3.2306676E0,3.6370754E1,3.1716367E2,1.4598569E1,3.7094889E0,2.231571E0,2.3180634E1,1.0307758E1,8.427731E0,9.420866E0,6.057255E0,1.7522495E1,3.1897195E2,3.1068113E1,5.470668E0,3.2248478E1,1.1959889E2,4.966875E0,1.0473949E1,1.2412252E0,1.2480776E0,4.570917E0,1.2499987E0,1.7376825E0,1.4929851E0,3.1651371E1,4.719383E0,1.2166175E1,3.049975E2,1.992354E0,1.2606215E1,1.4819392E0,2.2275498E0,4.856459E0,1.8324175E1,8.812372E0,1.4953861E0,1.4889158E0,6.9388146E0,7.205626E0,2.21524E0,4.8325562E0,1.2246984E0,7.6468816E0,9.875613E0,7.9253397E0,3.110466E2,3.9487298E0,2.7119383E1,1.2359965E0,4.2346716E0,2.4286842E0,2.9819796E1,3.9849744E0,1.1561392E2,3.4762542E0,1.490621E0,1.7453758E0,8.728574E0,7.3731556E0,2.4278215E1,2.7211127E0,1.99827E0,5.4582157E0,6.7079597E0,1.18851185E1,2.9311237E2,1.0870599E1,1.7356154E0,3.1064892E0,1.7499703E0,4.244228E0,1.40799465E1,1.2349731E0,7.5773993E0,4.9483175E0,1.9904972E0,1.7419212E0,5.463705E0,6.4211683E0,1.2257133E0,3.229895E0,6.6457186E0,5.6958942E0,2.2294452E0,4.2874916E1,2.681717E2,1.248491E0,2.7002387E0,2.0391272E1,6.7281117E0,2.0627296E1,9.192499E0,1.2444685E0,2.740506E0,1.9915188E1,9.569873E1,1.2384424E0,2.2378118E0,1.9920233E0,6.73655E0,5.142812E0,2.2303436E0,2.1377779E1,2.9004369E0,1.2499987E0,1.4711139E0,1.4941589E0,3.9640567E0,1.9975541E0,4.7104053E0,5.9762235E0,5.9088955E0,2.170025E1,2.714121E2,4.4458175E0,6.4247813E0,1.2483023E0,2.9959257E0,6.419905E0,7.660042E0,1.4709647E0,3.4773526E0,3.4773574E0,1.9863477E0,3.9581683E0,2.463E0,1.4823482E0,1.7475468E0,3.9243457E0,2.7213728E0,2.210455E0,3.4854395E0,1.8186117E1,2.4688799E1,8.101074E1,1.8716095E2],"tree_param":{"num_deleted":"0","num_feature":"11","num_nodes":"173","size_leaf_vector":"1"}},{"base_weights":[-1.1879867E-3,-1.3830076E-1,3.0408882E-2,-4.676317E-2,-5.2304876E-1,1.09388694E-1,-7.1721435E-2,6.733155E-1,-8.76476E-2,7.8711376E-2,-6.3453305E-1,-4.4276658E-1,1.2752458E-1,-2.8720254E-1,-3.345286E-2,-1.8660236E-3,8.934672E-1,1.18806474E-1,-1.134713E-1,-9.4676983E-1,-2.0472091E-1,3.140214E-1,-7.2930986E-1,1.6524127E-1,-1.751024E-1,1.5549178E-1,-4.7128555E-1,1.6376229E-1,-1.1087659E-1,2.1719484E-2,1.13973856E-1,-5.666638E-1,-2.4977852E-2,2.5299534E-1,-1.1383277E0,7.4796695E-1,-5.985726E-1,1.0753733E-1,-8.013446E-2,-2.6272023E-1,-1.0418826E0,1.5212937E-1,8.082645E-1,-6.0600656E-1,7.694796E-2,-1.5286386E-1,5.971929E-1,1.4762962E-1,-6.341489E-1,1.40830735E-2,5.853349E-1,4.550309E-1,-1.4231403E-1,-3.309188E-1,-1.0007695E0,5.1406384E-2,-5.8093035E-1,6.6157244E-2,-2.6606102E-2,-4.3902636E-1,-1.3419868E0,2.0815326E-2,8.7425834E-1,1.242886E-1,-1.0394394E0,-9.1051705E-2,2.4832028E-1,-1.4301728E-1,-4.01643E-1,1.5946005E-1,-1.18221484E-1,1.192857E-1,1.5322468E-1,-1.18061304E-1,-2.9181203E-1,1.0050118E0,-1.17546104E-1,-6.521554E-1,5.940737E-1,8.4501016E-1,-2.9955184E-2,-3.6038858E-1,1.0160071E-1,-9.252215E-1,-2.4404015E-1,2.4503492E-1,-4.5594373E-1,9.089635E-1,3.251237E-1,6.509313E-1,-6.535542E-2,-6.785373E-1,-1.0064885E-1,-6.053604E-1,6.8873733E-1,-1.2226018E0,-1.5011775E-2,-1.944638E-4,1.0700476E-1,1.4571609E-1,-1.2446238E-1,4.2383425E-2,-8.97356E-1,-3.9349236E-2,-1.4337779E0,1.1098675E-1,2.9892704E-2,8.959188E-2,-5.2215165E-1,-1.5166394E-1,-2.7580366E-1,5.4402955E-2,-2.234668E-2,2.2097796E-2,-8.013446E-2,1.3895951E-1,5.450104E-1,-2.5090326E-2,5.806883E-2,1.2544642E-1,-1.0289931E0,3.1116948E-2,1.1766582E-1,8.561959E-2,-2.1618043E-1,1.7332701E-2,-8.713664E-1,-1.188099E-2,9.573539E-2,2.4324287E-2,1.1017209E-1,2.2540721E-1,-9.7223915E-2,-1.1062143E0,-1.2378385E-1,5.978536E-1,-6.6096586E-1,4.0532626E-2,7.6731116E-1,-6.9682217E-1,4.818985E-1,3.2207358E-1,1.3162754E-1,-3.9070415E-1,6.255554E-1,7.427259E-2,8.4411836E-1,-7.8287643E-1,2.62584E-2,8.4176284E-1,-1.23555735E-1,-1.0291543E-1,-1.42385885E-2,1.2037536E-1,-2.4298783E-2,-1.4378946E-1,-4.411341E-2,-8.487102E-3,4.4302125E-2,-5.493274E-2,5.152266E-2,-1.1658467E-1,-2.0028912E-2,-1.5433107E-1,-5.347205E-2,3.0973656E-2,-1.1123563E-1,-7.017231E-2,1.7229367E-2,3.612332E-2,1.07681835E-2,6.8876E-2,-4.316555E-3,5.0925225E-2,-6.74261E-2,-2.0241007E-2,-1.2501648E-1,-4.2743675E-2,2.6996274E-2,-3.662537E-2,-1.2424882E-1,-3.777972E-2,7.379177E-2,-5.995602E-2,-1.3923933E-1,-6.2350165E-2,5.9960812E-2,-2.2675073E-2,9.130495E-2,-8.230906E-2,-2.1187937E-2,1.7385315E-2,-8.862102E-2,1.4869879E-1,2.3955746E-2,-8.708073E-2,5.150297E-3,9.626282E-2,-2.6081432E-2,9.612593E-2,-1.1771578E-2,-6.0308076E-2,-6.523152E-3,-2.6663397E-2,8.406529E-2,-3.5818156E-2,5.2414186E-2,9.509307E-2,1.5539141E-2,1.161503E-2,-9.2382155E-2,1.1854801E-2,1.2214048E-1,-4.6169527E-2,-7.3461584E-3],"categories":[],"categories_nodes":[],"categories_segments":[],"categories_sizes":[],"default_left":[0,0,0,0,0,0,0,0,0,0,0,0,0,0,0,0,0,0,0,0,0,0,0,0,0,0,0,0,0,0,0,0,0,0,0,0,0,0,0,0,0,0,0,0,0,0,0,0,0,0,0,0,0,0,0,0,0,0,0,0,0,0,0,0,0,0,0,0,0,0,0,0,0,0,0,0,0,0,0,0,0,0,0,0,0,0,0,0,0,0,0,0,0,0,0,0,0,0,0,0,0,0,0,0,0,0,0,0,0,0,0,0,0,0,0,0,0,0,0,0,0,0,0,0,0,0,0,0,0,0,0,0,0,0,0,0,0,0,0,0,0,0,0,0,0,0,0,0,0,0,0,0,0,0,0,0,0,0,0,0,0,0,0,0,0,0,0,0,0,0,0,0,0,0,0,0,0,0,0,0,0,0,0,0,0,0,0,0,0,0,0,0,0,0,0,0,0,0,0,0,0,0,0,0,0,0,0,0,0,0,0,0,0,0,0],"id":4,"left_children":[1,3,5,7,9,11,13,15,17,-1,19,21,23,25,27,-1,29,-1,31,33,35,37,39,41,43,45,47,49,51,-1,-1,53,55,57,59,61,63,-1,-1,65,67,69,71,73,75,77,79,81,83,85,87,89,91,93,95,97,99,-1,-1,101,103,-1,105,107,109,-1,111,-1,113,115,-1,-1,117,-1,119,121,123,125,127,129,-1,131,-1,133,135,137,139,141,143,145,-1,147,149,151,153,155,-1,157,-1,159,-1,-1,161,-1,163,-1,-1,-1,165,-1,167,-1,-1,-1,-1,169,171,-1,-1,173,175,-1,-1,-1,177,-1,179,-1,-1,-1,-1,181,-1,183,185,187,189,191,193,195,197,199,-1,201,203,205,207,209,-1,211,213,-1,-1,-1,-1,-1,-1,-1,-1,-1,-1,-1,-1,-1,-1,-1,-1,-1,-1,-1,-1,-1,-1,-1,-1,-1,-1,-1,-1,-1,-1,-1,-1,-1,-1,-1,-1,-1,-1,-1,-1,-1,-1,-1,-1,-1,-1,-1,-1,-1,-1,-1,-1,-1,-1,-1,-1,-1,-1,-1,-1,-1,-1,-1,-1],"loss_changes":[4.3141336E0,6.543763E0,6.536097E0,4.5266027E0,5.7204247E0,4.630661E0,2.9057608E0,1.2762783E0,4.8946314E0,0E0,4.301364E0,3.4275901E0,5.0858088E0,4.407604E0,4.619603E0,0E0,8.0056477E-1,0E0,5.70195E0,4.6834793E0,6.2147927E0,4.8953743E0,1.3305497E0,3.202795E0,5.4317894E0,2.3212743E0,3.90522E0,5.377985E0,3.9252787E0,0E0,0E0,2.0470185E0,5.138161E0,9.0796375E-1,1.7855377E0,1.5480661E-1,3.771717E0,0E0,0E0,2.1296377E0,9.79321E-1,3.981885E0,1.7446303E0,2.9794812E0,5.9251156E0,4.2801523E0,1.7942367E0,4.1992064E0,3.194934E0,7.0611196E0,1.5858641E0,2.957318E0,4.5416822E0,5.0493584E0,1.2665415E0,5.607568E0,7.228353E0,0E0,0E0,2.4553757E0,5.1776695E-1,0E0,1.6855645E-1,3.0732453E0,2.207827E0,0E0,6.796193E-1,0E0,1.1103134E0,2.9796877E0,0E0,0E0,8.328337E-1,0E0,4.1989846E0,3.1016397E-1,2.8255882E0,1.3693576E0,1.3322746E0,6.117811E-1,0E0,2.4485006E0,0E0,2.3136644E0,5.390331E0,4.6231594E0,5.1795964E0,1.8231902E0,3.2424827E0,1.0968642E0,0E0,1.6493053E0,4.2625675E0,2.5170803E0,2.2015643E0,3.675995E-1,0E0,3.8857625E0,0E0,2.3043606E0,0E0,0E0,4.6787238E-1,0E0,2.532997E-1,0E0,0E0,0E0,2.0502112E0,0E0,8.831267E-1,0E0,0E0,0E0,0E0,2.5222387E0,1.6509452E0,0E0,0E0,3.2102325E0,6.411066E-1,0E0,0E0,0E0,2.7611885E0,0E0,5.733161E-1,0E0,0E0,0E0,0E0,1.5121077E0,0E0,1.145195E0,1.9060152E0,1.5685618E0,5.531416E-1,4.1535854E0,4.2797155E0,2.3192377E0,2.0266104E0,1.5679286E0,0E0,2.8808087E-1,2.1823757E0,9.092107E-1,4.1869688E-1,1.8162155E0,0E0,1.1454337E0,3.166441E0,0E0,0E0,0E0,0E0,0E0,0E0,0E0,0E0,0E0,0E0,0E0,0E0,0E0,0E0,0E0,0E0,0E0,0E0,0E0,0E0,0E0,0E0,0E0,0E0,0E0,0E0,0E0,0E0,0E0,0E0,0E0,0E0,0E0,0E0,0E0,0E0,0E0,0E0,0E0,0E0,0E0,0E0,0E0,0E0,0E0,0E0,0E0,0E0,0E0,0E0,0E0,0E0,0E0,0E0,0E0,0E0,0E0,0E0,0E0,0E0,0E0,0E0,0E0,0E0],"parents":[2147483647,0,0,1,1,2,2,3,3,4,4,5,5,6,6,7,7,8,8,10,10,11,11,12,12,13,13,14,14,16,16,18,18,19,19,20,20,21,21,22,22,23,23,24,24,25,25,26,26,27,27,28,28,31,31,32,32,33,33,34,34,35,35,36,36,39,39,40,40,41,41,42,42,43,43,44,44,45,45,46,46,47,47,48,48,49,49,50,50,51,51,52,52,53,53,54,54,55,55,56,56,59,59,60,60,62,62,63,63,64,64,66,66,68,68,69,69,72,72,74,74,75,75,76,76,77,77,78,78,79,79,81,81,83,83,84,84,85,85,86,86,87,87,88,88,89,89,91,91,92,92,93,93,94,94,95,95,97,97,99,99,102,102,104,104,108,108,110,110,115,115,116,116,119,119,120,120,124,124,126,126,131,131,133,133,134,134,135,135,136,136,137,137,138,138,139,139,140,140,141,141,143,143,144,144,145,145,146,146,147,147,149,149,150,150],"right_children":[2,4,6,8,10,12,14,16,18,-1,20,22,24,26,28,-1,30,-1,32,34,36,38,40,42,44,46,48,50,52,-1,-1,54,56,58,60,62,64,-1,-1,66,68,70,72,74,76,78,80,82,84,86,88,90,92,94,96,98,100,-1,-1,102,104,-1,106,108,110,-1,112,-1,114,116,-1,-1,118,-1,120,122,124,126,128,130,-1,132,-1,134,136,138,140,142,144,146,-1,148,150,152,154,156,-1,158,-1,160,-1,-1,162,-1,164,-1,-1,-1,166,-1,168,-1,-1,-1,-1,170,172,-1,-1,174,176,-1,-1,-1,178,-1,180,-1,-1,-1,-1,182,-1,184,186,188,190,192,194,196,198,200,-1,202,204,206,208,210,-1,212,214,-1,-1,-1,-1,-1,-1,-1,-1,-1,-1,-1,-1,-1,-1,-1,-1,-1,-1,-1,-1,-1,-1,-1,-1,-1,-1,-1,-1,-1,-1,-1,-1,-1,-1,-1,-1,-1,-1,-1,-1,-1,-1,-1,-1,-1,-1,-1,-1,-1,-1,-1,-1,-1,-1,-1,-1,-1,-1,-1,-1,-1,-1,-1,-1],"split_conditions":[3.05E1,2.37395E1,2.5640394E7,1.417E1,3.4657E6,3.3644E6,9.0191E1,1.43435E1,1.43435E1,7.8711376E-2,2.539E1,9.186E1,5.3688E2,6.1996E1,1.11752E2,-1.8660236E-3,4.7684E6,1.18806474E-1,1.5006E1,2.225E1,2.732E1,3.3978E6,2.4772E6,5.3198E2,5.7049E2,3.60564E7,2.85486E7,1.08062E2,1.9183064E7,2.1719484E-2,1.13973856E-1,1.481E1,1.01023E7,1.41361E7,4.4281E6,4.5054E6,2.6964E1,1.0753733E-1,-8.013446E-2,2.2532E6,1.15E2,5.2816E2,5.3117E2,1.10722E7,1.00502E7,5.5757E1,5.7256E1,2.7733688E7,3.27156E7,1.00458E2,3.3513576E7,3.64804E7,2.27474E7,1.469E1,1.518E1,8.5317E6,2.075E1,6.6157244E-2,-2.6606102E-2,2.381E1,2.207E1,2.0815326E-2,5.7139E6,2.75E1,2.8242E1,-9.1051705E-2,1.2608E2,-1.4301728E-1,1.1733E2,2.47328E7,-1.18221484E-1,1.192857E-1,5.31065E2,-1.18061304E-1,1.68785E7,7.2956E6,5.7133E2,2.72792E7,5.844E1,4.1952E1,-2.9955184E-2,2.66166E7,1.0160071E-1,4.437068E7,3.57418E7,9.962E1,6.48827E7,2.65745E7,1.08901E2,1.85754E2,-6.535542E-2,5.56871E2,2.32531E7,3.6334E6,1.4716E1,1.4732E1,-1.5011775E-2,2.284E1,1.0700476E-1,1.76E1,-1.2446238E-1,4.2383425E-2,2.388E1,-3.9349236E-2,2.575E1,1.1098675E-1,2.9892704E-2,8.959188E-2,2.75E1,-1.5166394E-1,5.35E6,5.4402955E-2,-2.234668E-2,2.2097796E-2,-8.013446E-2,5.2698E1,2.5473924E7,-2.5090326E-2,5.806883E-2,5.6356E2,5.5252795E2,3.1116948E-2,1.1766582E-1,8.561959E-2,6.409482E2,1.7332701E-2,4.944E1,-1.188099E-2,9.573539E-2,2.4324287E-2,1.1017209E-1,2.5965534E7,-9.7223915E-2,2.50943E7,7.8915E1,3.09841E7,5.007471E7,9.814E1,3.47102E7,1.0745E2,9.962E1,1.063535E2,1.3162754E-1,1.1125E2,3.73564E7,1.7618874E7,5.34873E2,1.3599E2,2.62584E-2,2.9219122E7,2.74449E7,-1.0291543E-1,-1.42385885E-2,1.2037536E-1,-2.4298783E-2,-1.4378946E-1,-4.411341E-2,-8.487102E-3,4.4302125E-2,-5.493274E-2,5.152266E-2,-1.1658467E-1,-2.0028912E-2,-1.5433107E-1,-5.347205E-2,3.0973656E-2,-1.1123563E-1,-7.017231E-2,1.7229367E-2,3.612332E-2,1.07681835E-2,6.8876E-2,-4.316555E-3,5.0925225E-2,-6.74261E-2,-2.0241007E-2,-1.2501648E-1,-4.2743675E-2,2.6996274E-2,-3.662537E-2,-1.2424882E-1,-3.777972E-2,7.379177E-2,-5.995602E-2,-1.3923933E-1,-6.2350165E-2,5.9960812E-2,-2.2675073E-2,9.130495E-2,-8.230906E-2,-2.1187937E-2,1.7385315E-2,-8.862102E-2,1.4869879E-1,2.3955746E-2,-8.708073E-2,5.150297E-3,9.626282E-2,-2.6081432E-2,9.612593E-2,-1.1771578E-2,-6.0308076E-2,-6.523152E-3,-2.6663397E-2,8.406529E-2,-3.5818156E-2,5.2414186E-2,9.509307E-2,1.5539141E-2,1.161503E-2,-9.2382155E-2,1.1854801E-2,1.2214048E-1,-4.6169527E-2,-7.3461584E-3],"split_indices":[0,8,10,3,4,4,7,8,8,0,2,3,3,7,8,0,4,0,7,0,1,10,4,1,6,10,10,6,4,0,0,3,10,4,4,4,8,0,0,10,1,3,9,4,4,8,6,10,4,8,4,10,4,3,3,10,3,0,0,3,3,0,4,3,6,0,1,0,0,10,0,0,7,0,4,4,0,10,9,7,0,10,0,10,10,3,10,4,8,7,0,7,4,4,6,7,0,0,0,0,0,0,2,0,1,0,0,0,9,0,10,0,0,0,0,7,10,0,0,6,7,0,0,0,7,0,0,0,0,0,0,10,0,4,0,10,10,3,4,1,3,8,0,3,10,4,7,0,0,10,4,0,0,0,0,0,0,0,0,0,0,0,0,0,0,0,0,0,0,0,0,0,0,0,0,0,0,0,0,0,0,0,0,0,0,0,0,0,0,0,0,0,0,0,0,0,0,0,0,0,0,0,0,0,0,0,0,0,0,0,0,0,0,0,0],"split_type":[0,0,0,0,0,0,0,0,0,0,0,0,0,0,0,0,0,0,0,0,0,0,0,0,0,0,0,0,0,0,0,0,0,0,0,0,0,0,0,0,0,0,0,0,0,0,0,0,0,0,0,0,0,0,0,0,0,0,0,0,0,0,0,0,0,0,0,0,0,0,0,0,0,0,0,0,0,0,0,0,0,0,0,0,0,0,0,0,0,0,0,0,0,0,0,0,0,0,0,0,0,0,0,0,0,0,0,0,0,0,0,0,0,0,0,0,0,0,0,0,0,0,0,0,0,0,0,0,0,0,0,0,0,0,0,0,0,0,0,0,0,0,0,0,0,0,0,0,0,0,0,0,0,0,0,0,0,0,0,0,0,0,0,0,0,0,0,0,0,0,0,0,0,0,0,0,0,0,0,0,0,0,0,0,0,0,0,0,0,0,0,0,0,0,0,0,0,0,0,0,0,0,0,0,0,0,0,0,0,0,0,0,0,0,0],"sum_hessian":[9.9382794E2,1.8549707E2,8.083309E2,1.5075229E2,3.4744797E1,4.5578802E2,3.5254282E2,7.268407E0,1.4348387E2,2.2494123E0,3.2495384E1,1.3749983E1,4.4203806E2,5.218677E1,3.0035605E2,1.9752098E0,5.293197E0,1.9538788E0,1.4153E2,1.8125425E1,1.4369958E1,3.7499952E0,9.999988E0,3.9345532E2,4.8582733E1,1.5372747E1,3.6814026E1,8.4359314E1,2.1599673E2,1.9153883E0,3.3778088E0,2.2238543E1,1.1929145E2,2.4513576E0,1.56740675E1,3.940112E0,1.0429846E1,2.2499971E0,1.4999981E0,4.7499943E0,5.2499933E0,3.8680453E2,6.6507587E0,1.7411612E1,3.117112E1,9.437948E0,5.934799E0,7.6887364E0,2.9125288E1,6.301815E1,2.1341167E1,1.0658485E1,2.0533826E2,1.5554067E1,6.684477E0,1.0567934E2,1.3612115E1,1.2180204E0,1.233337E0,4.2469754E0,1.1427093E1,1.2491227E0,2.6909895E0,4.2232814E0,6.206564E0,1.7499979E0,2.9999962E0,2.499997E0,2.7499967E0,3.855668E2,1.2377486E0,3.6731198E0,2.977639E0,5.1802535E0,1.2231359E1,4.678672E0,2.6492449E1,5.7327666E0,3.7051816E0,4.695014E0,1.2397854E0,5.2199483E0,2.4687881E0,1.5894324E1,1.3230965E1,4.2576492E1,2.0441658E1,8.40035E0,1.2940818E1,9.408685E0,1.2498012E0,1.3702617E1,1.9163564E2,1.2575631E1,2.9784358E0,4.95505E0,1.7294267E0,1.015357E2,4.1436386E0,6.870441E0,6.7416735E0,1.4994133E0,2.7475622E0,1.4747777E0,9.952314E0,1.2499985E0,1.440991E0,1.7492929E0,2.4739885E0,3.2127945E0,2.9937692E0,1.7499979E0,1.2499985E0,1.2499985E0,1.4999981E0,3.6739218E2,1.817462E1,1.7429142E0,1.2347248E0,8.340377E0,3.8909814E0,1.4857422E0,3.1929297E0,1.7302724E0,2.4762177E1,1.2468437E0,4.485923E0,1.4779248E0,2.2272568E0,1.9863228E0,2.7086911E0,2.989423E0,2.230525E0,1.2655892E1,3.2384317E0,4.2384167E0,8.992548E0,3.1370628E1,1.1205864E1,1.6468761E1,3.9728959E0,4.1751566E0,4.225193E0,3.7368002E0,9.204017E0,2.7084596E0,6.700225E0,1.2486431E1,1.2161856E0,3.6992128E0,1.8793642E2,5.9271574E0,6.6484733E0,1.7301329E0,1.2483028E0,3.2262359E0,1.728814E0,8.592769E1,1.5608011E1,2.2158418E0,4.654599E0,1.4980512E0,1.249511E0,8.232729E0,1.7195861E0,1.2239901E0,1.2499985E0,1.2446834E0,1.7490859E0,4.401955E1,3.2337262E2,1.4467716E1,3.7069046E0,5.8810635E0,2.4593136E0,1.2256268E0,2.6653545E0,1.7345394E1,7.416782E0,2.7415028E0,1.7444199E0,1.4939516E0,1.4954715E0,5.6854205E0,6.9704714E0,1.9969964E0,1.2414354E0,1.2496724E0,2.9887443E0,5.9953547E0,2.9971933E0,2.8135483E1,3.2351449E0,3.971926E0,7.2339377E0,1.3229286E1,3.239475E0,2.2320666E0,1.7408292E0,1.218489E0,2.9566674E0,1.7451324E0,1.9916679E0,1.7413958E0,7.462621E0,1.4848754E0,1.2235842E0,5.471033E0,1.2291917E0,1.7161012E0,1.0770329E1,1.7251254E0,1.9740872E0,2.318942E1,1.6474701E2],"tree_param":{"num_deleted":"0","num_feature":"11","num_nodes":"215","size_leaf_vector":"1"}},{"base_weights":[-1.1895283E-3,-1.3750538E-1,2.6512744E-2,-7.544408E-2,-7.1017253E-1,9.451487E-2,-6.406866E-2,-4.1016717E-2,-9.4815624E-1,-1.0158479E0,-1.0495588E-1,3.542947E-3,1.9147848E-1,-5.5485252E-2,-9.818943E-2,3.9488262E-1,-7.575794E-2,-1.3571128E-1,-2.968506E-1,-1.270319E0,1.83001E-2,5.894524E-2,-5.2857256E-1,1.500174E-1,-1.3246202E-1,1.1347036E0,1.5467045E-1,-7.54732E-2,3.4609452E-1,-6.939014E-2,6.346618E-1,4.5991758E-1,-1.0361159E-1,2.2881506E-2,-6.912271E-2,-3.796671E-2,-1.5093958E-1,4.8312623E-2,-1.02663375E-1,-7.5895506E-1,1.7994383E-1,-6.971875E-1,-7.932114E-2,5.3769182E-3,1.405407E-1,2.0112495E-1,-1.529556E-1,-5.3074226E-2,-1.2096927E0,1.3715519E-1,1.3568413E-2,1.12494946E-1,-1.0349535E-1,3.0999715E-4,1.0485846E-1,-1.7750956E-1,7.226815E-2,-1.793666E-2,-9.525757E-2,2.3049587E-1,-4.698879E-1,5.360119E-1,-1.4634563E-1,6.8713033E-1,-1.6562524E-1,1.2288302E-1,5.017643E-1,2.2109836E-1,-6.969646E-1,-1.1659368E-1,-4.3690834E-2,-1.3941328E-1,-3.5343096E-2,-6.640687E-1,3.768699E-1,-9.121909E-2,6.721708E-2,3.7197056E-1,-6.172542E-2,-9.006222E-2,-7.793161E-1,9.4361895E-1,-2.4563698E-2,5.4722395E-2,3.7951598E-1,-1.2021507E-1,2.4050197E-1,8.689123E-2,-2.5695816E-2,-2.6478617E-2,8.1925684E-1,5.358941E-1,-1.9805074E-1,1.4514841E-1,-5.091765E-1,1.101738E0,2.6987574E-1,-5.430735E-1,5.274485E-1,-9.0140086E-1,6.184363E-2,8.914324E-2,-5.2029736E-2,5.892198E-2,-1.2026813E-1,7.487133E-1,-6.916126E-2,6.7339162E-3,5.4416027E-2,-2.294062E-2,2.0570152E-2,-1.9355541E-2,-1.225729E-1,2.0303508E-2,1.20678246E-1,5.645692E-2,-1.579205E-2,3.2144252E-2,-1.7515546E-2,5.3071838E-2,1.0806491E-2,-8.119777E-2,8.7802246E-2,1.2924182E-1,5.263583E-2,-2.4870891E-2,1.0354296E-1,-7.0733584E-2,-1.262261E-2,1.0774988E-2,5.507688E-2,-1.22329675E-1,-1.0436251E-3,4.2650614E-2,1.18506685E-1,-5.850586E-2,4.0504716E-2,2.445778E-2,-1.0282717E-1,1.0665691E-1,9.322412E-3,-1.0895945E-1,-1.543559E-3,-2.5667856E-2,-6.468249E-4,-2.656787E-2,9.833409E-2],"categories":[],"categories_nodes":[],"categories_segments":[],"categories_sizes":[],"default_left":[0,0,0,0,0,0,0,0,0,0,0,0,0,0,0,0,0,0,0,0,0,0,0,0,0,0,0,0,0,0,0,0,0,0,0,0,0,0,0,0,0,0,0,0,0,0,0,0,0,0,0,0,0,0,0,0,0,0,0,0,0,0,0,0,0,0,0,0,0,0,0,0,0,0,0,0,0,0,0,0,0,0,0,0,0,0,0,0,0,0,0,0,0,0,0,0,0,0,0,0,0,0,0,0,0,0,0,0,0,0,0,0,0,0,0,0,0,0,0,0,0,0,0,0,0,0,0,0,0,0,0,0,0,0,0,0,0,0,0,0,0,0,0,0,0,0,0],"id":5,"left_children":[1,3,5,7,9,11,13,15,17,19,21,23,25,27,-1,29,31,-1,33,35,-1,-1,37,39,41,43,45,47,49,-1,51,53,55,-1,-1,-1,-1,-1,-1,57,59,61,63,-1,-1,65,67,69,71,-1,73,-1,75,77,-1,79,81,-1,-1,83,85,87,-1,89,91,93,95,97,99,-1,101,-1,-1,103,105,-1,-1,107,-1,109,111,113,115,117,119,-1,121,-1,-1,-1,123,125,127,129,131,133,135,137,139,141,-1,-1,143,-1,-1,145,-1,-1,-1,-1,-1,-1,-1,-1,-1,-1,-1,-1,-1,-1,-1,-1,-1,-1,-1,-1,-1,-1,-1,-1,-1,-1,-1,-1,-1,-1,-1,-1,-1,-1,-1,-1,-1,-1,-1,-1,-1],"loss_changes":[3.7521503E0,5.910748E0,5.0929575E0,4.5438457E0,2.9069786E0,4.1638007E0,2.7400346E0,2.2679195E0,1.1269455E0,3.499195E0,2.2476604E0,4.8926196E0,7.758003E0,2.8555045E0,0E0,3.3304062E0,2.1024275E0,0E0,8.8277566E-1,1.3346119E0,0E0,0E0,2.8215053E0,3.352871E0,3.7668967E0,2.3895712E0,3.1902256E0,8.487291E0,5.7414026E0,0E0,3.588715E0,1.8910521E0,1.724866E0,0E0,0E0,0E0,0E0,0E0,0E0,2.7356768E-1,3.8951635E0,1.1014437E1,7.8887157E0,0E0,0E0,4.466736E0,6.1720805E0,3.4068532E0,5.295019E-1,0E0,3.6391878E0,0E0,3.5895684E0,1.3602333E0,0E0,4.826285E0,3.3713179E0,0E0,0E0,2.7983809E0,4.788497E0,1.5117013E0,0E0,1.737504E0,2.5275292E0,2.2423024E0,5.1885843E0,4.566712E0,3.8625455E0,0E0,2.6150067E0,0E0,0E0,4.196187E0,4.331665E0,0E0,0E0,1.5739733E-1,0E0,3.441826E0,2.8153548E0,5.334122E-1,2.9715264E0,3.1556258E0,2.3263817E0,0E0,4.2178435E0,0E0,0E0,0E0,8.248682E-1,2.20651E0,3.6591988E0,2.2102797E0,1.9336215E0,9.477043E-2,3.6765492E0,2.4393616E0,3.0746539E0,1.8246021E0,0E0,0E0,3.0513597E0,0E0,0E0,2.0703702E0,0E0,0E0,0E0,0E0,0E0,0E0,0E0,0E0,0E0,0E0,0E0,0E0,0E0,0E0,0E0,0E0,0E0,0E0,0E0,0E0,0E0,0E0,0E0,0E0,0E0,0E0,0E0,0E0,0E0,0E0,0E0,0E0,0E0,0E0,0E0,0E0,0E0,0E0,0E0,0E0,0E0],"parents":[2147483647,0,0,1,1,2,2,3,3,4,4,5,5,6,6,7,7,8,8,9,9,10,10,11,11,12,12,13,13,15,15,16,16,18,18,19,19,22,22,23,23,24,24,25,25,26,26,27,27,28,28,30,30,31,31,32,32,39,39,40,40,41,41,42,42,45,45,46,46,47,47,48,48,50,50,52,52,53,53,55,55,56,56,59,59,60,60,61,61,63,63,64,64,65,65,66,66,67,67,68,68,70,70,73,73,74,74,77,77,79,79,80,80,81,81,82,82,83,83,84,84,86,86,90,90,91,91,92,92,93,93,94,94,95,95,96,96,97,97,98,98,99,99,102,102,105,105],"right_children":[2,4,6,8,10,12,14,16,18,20,22,24,26,28,-1,30,32,-1,34,36,-1,-1,38,40,42,44,46,48,50,-1,52,54,56,-1,-1,-1,-1,-1,-1,58,60,62,64,-1,-1,66,68,70,72,-1,74,-1,76,78,-1,80,82,-1,-1,84,86,88,-1,90,92,94,96,98,100,-1,102,-1,-1,104,106,-1,-1,108,-1,110,112,114,116,118,120,-1,122,-1,-1,-1,124,126,128,130,132,134,136,138,140,142,-1,-1,144,-1,-1,146,-1,-1,-1,-1,-1,-1,-1,-1,-1,-1,-1,-1,-1,-1,-1,-1,-1,-1,-1,-1,-1,-1,-1,-1,-1,-1,-1,-1,-1,-1,-1,-1,-1,-1,-1,-1,-1,-1,-1,-1,-1],"split_conditions":[6.263E6,5.798E6,2.5640394E7,1.2425E2,7.0449E6,1.6106E7,6.005E2,2.4772E6,1.3297E2,4.74E1,7.9547E6,1.09235E7,1.63165E7,3.172E2,-9.818943E-2,1.4712E1,1.412E1,-1.3571128E-1,1.3999E2,1.8254E1,1.83001E-2,5.894524E-2,2.031E1,3.0091E6,3.7246E1,1.3991E7,4.3966E2,2.558238E2,3.76017E2,-6.939014E-2,4.9994E1,1.45735E1,2.597E1,2.2881506E-2,-6.912271E-2,-3.796671E-2,-1.5093958E-1,4.8312623E-2,-1.02663375E-1,1.95E1,1.604572E7,2.046E1,6.499E1,5.3769182E-3,1.405407E-1,2.1327E2,2.05244E7,1.25861E7,2.7187E2,1.3715519E-1,4.1977E2,1.12494946E-1,9.97309E1,1.4443E1,1.0485846E-1,2.37395E1,2.732E1,-1.793666E-2,-9.525757E-2,8.3108E6,1.852486E7,1.394898E7,-1.4634563E-1,3.719E1,9.1776E6,2.0888E2,2.499519E2,5.009525E2,6.7064E2,-1.1659368E-1,3.499E1,-1.3941328E-1,-3.5343096E-2,3.7999E2,3.64804E7,-9.121909E-2,6.721708E-2,4.4281E6,-6.172542E-2,2.1080244E1,4.4281E6,4.3184E6,3.2209E6,7.1832E6,9.5506E6,-1.2021507E-1,8.3803E6,8.689123E-2,-2.5695816E-2,-2.6478617E-2,1.25206E7,1.20829E7,1.08013E7,1.93991E2,1.8227E7,1.931404E7,1.71675E7,4.5385E2,1.80766E7,2.47801E7,6.184363E-2,8.914324E-2,9.352E1,5.892198E-2,-1.2026813E-1,4.6544E2,-6.916126E-2,6.7339162E-3,5.4416027E-2,-2.294062E-2,2.0570152E-2,-1.9355541E-2,-1.225729E-1,2.0303508E-2,1.20678246E-1,5.645692E-2,-1.579205E-2,3.2144252E-2,-1.7515546E-2,5.3071838E-2,1.0806491E-2,-8.119777E-2,8.7802246E-2,1.2924182E-1,5.263583E-2,-2.4870891E-2,1.0354296E-1,-7.0733584E-2,-1.262261E-2,1.0774988E-2,5.507688E-2,-1.22329675E-1,-1.0436251E-3,4.2650614E-2,1.18506685E-1,-5.850586E-2,4.0504716E-2,2.445778E-2,-1.0282717E-1,1.0665691E-1,9.322412E-3,-1.0895945E-1,-1.543559E-3,-2.5667856E-2,-6.468249E-4,-2.656787E-2,9.833409E-2],"split_indices":[4,4,10,3,10,10,2,4,1,0,10,10,10,0,0,8,2,0,1,6,0,0,0,10,8,4,3,6,7,0,6,8,0,0,0,0,0,0,0,0,4,9,3,0,0,6,10,4,9,0,0,0,7,7,0,8,1,0,0,4,4,10,0,1,4,3,7,7,0,0,2,0,0,1,10,0,0,4,0,8,4,4,10,4,10,0,10,0,0,0,10,10,4,8,10,10,10,2,10,4,0,0,8,0,0,0,0,0,0,0,0,0,0,0,0,0,0,0,0,0,0,0,0,0,0,0,0,0,0,0,0,0,0,0,0,0,0,0,0,0,0,0,0,0,0,0,0],"split_type":[0,0,0,0,0,0,0,0,0,0,0,0,0,0,0,0,0,0,0,0,0,0,0,0,0,0,0,0,0,0,0,0,0,0,0,0,0,0,0,0,0,0,0,0,0,0,0,0,0,0,0,0,0,0,0,0,0,0,0,0,0,0,0,0,0,0,0,0,0,0,0,0,0,0,0,0,0,0,0,0,0,0,0,0,0,0,0,0,0,0,0,0,0,0,0,0,0,0,0,0,0,0,0,0,0,0,0,0,0,0,0,0,0,0,0,0,0,0,0,0,0,0,0,0,0,0,0,0,0,0,0,0,0,0,0,0,0,0,0,0,0,0,0,0,0,0,0],"sum_hessian":[9.916502E2,1.668179E2,8.248323E2,1.5152817E2,1.528973E1,4.7111157E2,3.5372073E2,1.4678471E2,4.7434673E0,9.708031E0,5.5816994E0,2.4360048E2,2.275111E2,3.5149405E2,2.2266822E0,1.0069976E1,1.3671474E2,2.2481606E0,2.4953065E0,7.959012E0,1.7490187E0,1.9665618E0,3.6151373E0,1.1723638E2,1.263641E2,7.424585E0,2.200865E2,3.3560208E2,1.5891961E1,1.4756154E0,8.59436E0,5.9907093E0,1.3072403E2,1.2495642E0,1.2457423E0,2.2320037E0,5.7270083E0,1.2025054E0,2.412632E0,2.9603167E0,1.1427606E2,9.825837E0,1.1653826E2,1.7270398E0,5.697545E0,1.9151247E2,2.8574036E1,3.3012936E2,5.47272E0,3.1263018E0,1.2765659E1,4.849381E0,3.7449796E0,3.9259846E0,2.0647247E0,9.2042145E1,3.8681877E1,1.2236867E0,1.73663E0,1.0662661E2,7.649454E0,3.8807766E0,5.9450607E0,1.1089817E1,1.0544845E2,1.5308148E2,3.8430992E1,1.7283611E1,1.1290424E1,1.7297271E0,3.2839963E2,3.9859731E0,1.4867469E0,4.166447E0,8.599212E0,1.7472836E0,1.997696E0,2.699226E0,1.2267587E0,8.1368324E1,1.06738205E1,2.994115E0,3.5687763E1,4.9549168E1,5.7077442E1,3.4258657E0,4.2235885E0,2.665846E0,1.2149304E0,1.2292857E0,9.860532E0,3.97271E0,1.0147574E2,1.4861656E2,4.4649177E0,9.6672945E0,2.8763699E1,4.7249036E0,1.2558707E1,1.0044126E1,1.2462991E0,1.9665855E0,3.2643304E2,1.2241156E0,2.9423316E0,6.601198E0,1.998014E0,1.4770902E0,1.2221358E0,5.546249E1,2.5905836E1,5.2364244E0,5.4373956E0,1.2494581E0,1.7446572E0,5.9903874E0,2.9697374E1,2.275219E1,2.6796978E1,3.6044815E1,2.1032627E1,1.4900395E0,2.733549E0,2.465362E0,7.3951693E0,1.7407284E0,2.2319815E0,1.1448694E1,9.002704E1,1.3722952E2,1.1387035E1,1.2386235E0,3.2262943E0,1.7340729E0,7.933222E0,3.4725006E0,2.5291199E1,1.9901291E0,2.7347744E0,4.9529734E0,7.605734E0,8.094814E0,1.9493111E0,5.8597336E1,2.6783572E2,1.2151705E0,5.386028E0],"tree_param":{"num_deleted":"0","num_feature":"11","num_nodes":"147","size_leaf_vector":"1"}},{"base_weights":[-1.3543051E-3,-1.1951041E-1,2.5763744E-2,3.3477645E-2,-2.9893422E-1,9.078369E-2,-5.8227777E-2,6.0926396E-1,-1.6861835E-2,-1.8313399E-1,-1.0640342E0,-4.0750214E-1,1.0716757E-1,-5.0172146E-2,-9.204288E-2,1.8947457E-1,9.893363E-2,-3.3151522E-1,1.769897E-1,-2.2939065E-1,6.708788E-1,-1.2559026E0,-3.5113332E-1,2.8132942E-1,-6.6765237E-1,1.4105827E-1,-1.4400008E-1,-6.850973E-2,3.1908077E-1,-2.4294687E-2,6.767103E-2,9.251837E-2,-4.009886E-1,1.0225158E-1,1.18156314E-1,5.34207E-1,-2.8419414E-1,1.339448E-2,9.892068E-2,-1.3433507E-1,-3.850065E-2,2.8010732E-2,-7.784372E-2,9.802202E-2,-7.376528E-2,-2.2262652E-1,-9.698369E-1,1.2921469E-1,1.0112067E0,-4.6215802E-1,7.906863E-2,-4.7698338E-2,-1.120223E0,1.2890498E-1,8.053808E-3,-2.6676026E-1,-6.748738E-1,4.612975E-2,6.074801E-1,-2.6277661E-2,8.535397E-1,-9.0300584E-1,-1.8762815E-1,-8.330452E-2,2.5214642E-1,-1.34172E-1,-3.638169E-1,1.4146732E-1,-5.1593363E-1,1.23471715E-1,2.6525572E-2,-1.0087181E0,-1.6005415E-1,9.3894684E-1,-1.0050767E-1,-2.3893411E-1,-1.1078194E-2,-1.2887143E-1,-3.326505E-2,-6.134734E-1,3.4122515E-1,-5.698894E-1,6.857934E-2,-1.2068961E0,2.04223E-1,1.2940475E-1,-6.2337905E-1,2.3484617E-1,1.1215869E-1,3.250901E-2,1.0398777E-1,-9.638465E-3,-1.085161E0,3.858386E-1,-3.9299157E-1,5.1065303E-2,-1.7629575E-2,2.015033E-2,-7.280231E-2,1.2584125E-1,1.2510577E-1,7.3347576E-2,-1.0164461E0,-4.8131874E-1,-1.2795445E-1,4.33187E-1,-7.2471344E-1,2.941241E-2,1.0983803E-1,7.754522E-2,-1.8934578E-1,3.878645E-2,-4.9378893E-1,1.5521078E-1,-8.433053E-2,5.584001E-2,-1.12041175E-1,6.875257E-1,-6.454759E-2,-8.6244315E-2,-1.773474E-2,3.881186E-2,-3.3465713E-2,-3.8056318E-2,-1.3163255E-1,9.711763E-2,-6.3297585E-2,-1.8652792E-3,6.455827E-2,-7.819433E-2,-1.0060837E-2,-9.055394E-3,6.683322E-2,-1.1933192E-1,-4.0242266E-2,1.3077984E-2,1.3002877E-1,-9.1062665E-2,-2.1975463E-2,1.3457425E-2,-7.810535E-2,-1.2541221E-1,-3.7517563E-2,1.1501746E-3,-7.592023E-2,9.0205535E-2,-6.779232E-2,1.8650124E-2,-9.938748E-2,-3.7908074E-2,2.4485836E-2,4.1129738E-2,-1.2944378E-2,-7.900627E-2,-1.739142E-2,5.7533663E-2,1.975904E-3,-2.153351E-2,2.9268982E-3,-2.5100926E-2,9.0707734E-2],"categories":[],"categories_nodes":[],"categories_segments":[],"categories_sizes":[],"default_left":[0,0,0,0,0,0,0,0,0,0,0,0,0,0,0,0,0,0,0,0,0,0,0,0,0,0,0,0,0,0,0,0,0,0,0,0,0,0,0,0,0,0,0,0,0,0,0,0,0,0,0,0,0,0,0,0,0,0,0,0,0,0,0,0,0,0,0,0,0,0,0,0,0,0,0,0,0,0,0,0,0,0,0,0,0,0,0,0,0,0,0,0,0,0,0,0,0,0,0,0,0,0,0,0,0,0,0,0,0,0,0,0,0,0,0,0,0,0,0,0,0,0,0,0,0,0,0,0,0,0,0,0,0,0,0,0,0,0,0,0,0,0,0,0,0,0,0,0,0,0,0,0,0,0,0,0,0,0,0,0,0],"id":6,"left_children":[1,3,5,7,9,11,13,15,17,19,21,23,25,27,-1,29,-1,31,33,35,37,39,41,43,45,47,49,51,53,-1,-1,-1,55,-1,57,59,61,-1,-1,-1,-1,-1,-1,-1,-1,63,65,67,69,71,73,75,77,-1,79,81,83,85,87,-1,89,91,93,-1,95,-1,97,99,101,-1,-1,103,105,107,109,111,113,-1,-1,115,117,119,121,123,125,127,129,131,-1,-1,-1,-1,133,135,137,-1,-1,-1,-1,139,-1,-1,141,143,-1,145,147,-1,-1,-1,149,151,153,155,157,-1,-1,159,-1,-1,-1,-1,-1,-1,-1,-1,-1,-1,-1,-1,-1,-1,-1,-1,-1,-1,-1,-1,-1,-1,-1,-1,-1,-1,-1,-1,-1,-1,-1,-1,-1,-1,-1,-1,-1,-1,-1,-1,-1,-1,-1],"loss_changes":[3.177251E0,5.0908985E0,4.409911E0,2.9321873E0,7.361695E0,3.758262E0,2.4023936E0,1.109973E0,5.7725883E0,3.1279607E0,1.0641737E0,2.8207643E0,3.776867E0,2.394027E0,0E0,1.239115E0,0E0,3.5192304E0,2.795115E0,3.1716676E0,5.722165E-1,1.1357117E-1,1.221889E0,4.0925317E0,1.258174E0,3.8818436E0,3.7953525E0,7.2697263E0,5.043336E0,0E0,0E0,0E0,1.1018276E0,0E0,1.9433562E0,1.5425036E0,3.8929768E0,0E0,0E0,0E0,0E0,0E0,0E0,0E0,0E0,1.8709263E0,9.1601133E-1,3.1184387E0,5.1975584E-1,3.4669876E0,5.0337186E0,2.3022928E0,4.2691994E-1,0E0,3.0443037E0,2.5858092E0,5.304374E0,2.8594096E0,1.0957711E0,0E0,4.9258232E-2,1.205214E0,7.2258515E0,0E0,5.3208035E-1,0E0,9.170276E-1,6.4116516E0,5.370469E0,0E0,0E0,4.745102E-1,5.452822E0,2.5500917E-1,2.2763226E0,3.7596695E0,3.3907008E0,0E0,0E0,3.6762664E0,3.7088137E0,1.3705297E0,1.7775425E0,1.2135029E-1,3.7818828E0,3.4629369E0,3.9260197E-1,8.1914777E-1,0E0,0E0,0E0,0E0,4.9591064E-2,3.641898E0,3.810532E0,0E0,0E0,0E0,0E0,3.072878E0,0E0,0E0,3.9818668E-1,5.8295786E-1,0E0,4.8349833E0,2.2048388E0,0E0,0E0,0E0,2.2058682E0,1.6961842E0,2.481244E0,4.834027E0,2.8805895E0,0E0,0E0,1.784903E0,0E0,0E0,0E0,0E0,0E0,0E0,0E0,0E0,0E0,0E0,0E0,0E0,0E0,0E0,0E0,0E0,0E0,0E0,0E0,0E0,0E0,0E0,0E0,0E0,0E0,0E0,0E0,0E0,0E0,0E0,0E0,0E0,0E0,0E0,0E0,0E0,0E0,0E0,0E0,0E0,0E0,0E0,0E0],"parents":[2147483647,0,0,1,1,2,2,3,3,4,4,5,5,6,6,7,7,8,8,9,9,10,10,11,11,12,12,13,13,15,15,17,17,18,18,19,19,20,20,21,21,22,22,23,23,24,24,25,25,26,26,27,27,28,28,32,32,34,34,35,35,36,36,45,45,46,46,47,47,48,48,49,49,50,50,51,51,52,52,54,54,55,55,56,56,57,57,58,58,60,60,61,61,62,62,64,64,66,66,67,67,68,68,71,71,72,72,73,73,74,74,75,75,76,76,79,79,80,80,81,81,82,82,83,83,84,84,85,85,86,86,87,87,92,92,93,93,94,94,99,99,102,102,103,103,105,105,106,106,110,110,111,111,112,112,113,113,114,114,117,117],"right_children":[2,4,6,8,10,12,14,16,18,20,22,24,26,28,-1,30,-1,32,34,36,38,40,42,44,46,48,50,52,54,-1,-1,-1,56,-1,58,60,62,-1,-1,-1,-1,-1,-1,-1,-1,64,66,68,70,72,74,76,78,-1,80,82,84,86,88,-1,90,92,94,-1,96,-1,98,100,102,-1,-1,104,106,108,110,112,114,-1,-1,116,118,120,122,124,126,128,130,132,-1,-1,-1,-1,134,136,138,-1,-1,-1,-1,140,-1,-1,142,144,-1,146,148,-1,-1,-1,150,152,154,156,158,-1,-1,160,-1,-1,-1,-1,-1,-1,-1,-1,-1,-1,-1,-1,-1,-1,-1,-1,-1,-1,-1,-1,-1,-1,-1,-1,-1,-1,-1,-1,-1,-1,-1,-1,-1,-1,-1,-1,-1,-1,-1,-1,-1,-1,-1],"split_conditions":[3.05E1,2.075E1,2.5640394E7,1.417E1,1.02866E7,3.3644E6,6.005E2,1.419E1,1.625E1,8.5317E6,1.57074E7,9.186E1,5.3117E2,3.172E2,-9.204288E-2,5.4385E6,9.893363E-2,1.43435E1,1.50455E1,2.9674E6,2.38E1,1.7446296E7,1.25861E7,3.3978E6,2.4772E6,5.3198E2,5.7049E2,2.558238E2,3.76017E2,-2.4294687E-2,6.767103E-2,9.251837E-2,5.2835E6,1.0225158E-1,2.1204E1,3.138E6,2.106E1,1.339448E-2,9.892068E-2,-1.3433507E-1,-3.850065E-2,2.8010732E-2,-7.784372E-2,9.802202E-2,-7.376528E-2,2.2532E6,1.15E2,5.22024E2,5.3624E2,1.08013E7,1.00502E7,9.0191E1,2.7187E2,1.2890498E-1,4.1977E2,3.6778E6,1.4916E1,2.032E1,2.021E1,-2.6277661E-2,4.2594E6,2.0404E1,2.2678E1,-8.330452E-2,1.2608E2,-1.34172E-1,1.1733E2,5.0571E2,5.198675E2,1.23471715E-1,2.6525572E-2,5.346155E2,1.41361E7,7.2956E6,5.7133E2,6.963E1,1.11752E2,-1.2887143E-1,-3.326505E-2,3.7999E2,3.64804E7,1.469E1,1.481E1,1.446E1,1.519E1,1.9604E1,2.08179E1,8.0895E6,1.1215869E-1,3.250901E-2,1.0398777E-1,-9.638465E-3,5.25E6,2.2791E1,2.278E1,5.1065303E-2,-1.7629575E-2,2.015033E-2,-7.280231E-2,5.075E2,1.2510577E-1,7.3347576E-2,5.2617645E2,7.5875E6,-1.2795445E-1,5.6356E2,1.25206E7,2.941241E-2,1.0983803E-1,7.754522E-2,6.39124E2,2.9219122E7,8.4865E1,3.11217E7,1.4754E2,5.584001E-2,-1.12041175E-1,4.6544E2,-6.454759E-2,-8.6244315E-2,-1.773474E-2,3.881186E-2,-3.3465713E-2,-3.8056318E-2,-1.3163255E-1,9.711763E-2,-6.3297585E-2,-1.8652792E-3,6.455827E-2,-7.819433E-2,-1.0060837E-2,-9.055394E-3,6.683322E-2,-1.1933192E-1,-4.0242266E-2,1.3077984E-2,1.3002877E-1,-9.1062665E-2,-2.1975463E-2,1.3457425E-2,-7.810535E-2,-1.2541221E-1,-3.7517563E-2,1.1501746E-3,-7.592023E-2,9.0205535E-2,-6.779232E-2,1.8650124E-2,-9.938748E-2,-3.7908074E-2,2.4485836E-2,4.1129738E-2,-1.2944378E-2,-7.900627E-2,-1.739142E-2,5.7533663E-2,1.975904E-3,-2.153351E-2,2.9268982E-3,-2.5100926E-2,9.0707734E-2],"split_indices":[0,3,10,3,10,4,2,9,1,10,10,3,9,0,0,10,0,8,8,4,0,4,4,10,4,1,6,6,7,0,0,0,4,0,7,10,6,0,0,0,0,0,0,0,0,10,1,6,1,4,4,7,9,0,0,4,6,3,2,0,10,6,6,0,1,0,0,2,3,0,0,8,4,4,0,1,8,0,0,1,10,3,3,3,9,6,7,10,0,0,0,0,10,7,2,0,0,0,0,1,0,0,8,4,0,6,10,0,0,0,6,10,8,4,0,0,0,0,0,0,0,0,0,0,0,0,0,0,0,0,0,0,0,0,0,0,0,0,0,0,0,0,0,0,0,0,0,0,0,0,0,0,0,0,0,0,0,0,0,0,0],"split_type":[0,0,0,0,0,0,0,0,0,0,0,0,0,0,0,0,0,0,0,0,0,0,0,0,0,0,0,0,0,0,0,0,0,0,0,0,0,0,0,0,0,0,0,0,0,0,0,0,0,0,0,0,0,0,0,0,0,0,0,0,0,0,0,0,0,0,0,0,0,0,0,0,0,0,0,0,0,0,0,0,0,0,0,0,0,0,0,0,0,0,0,0,0,0,0,0,0,0,0,0,0,0,0,0,0,0,0,0,0,0,0,0,0,0,0,0,0,0,0,0,0,0,0,0,0,0,0,0,0,0,0,0,0,0,0,0,0,0,0,0,0,0,0,0,0,0,0,0,0,0,0,0,0,0,0,0,0,0,0,0,0],"sum_hessian":[9.8963995E2,1.8409822E2,8.0554175E2,9.9808556E1,8.428966E1,4.5400455E2,3.515372E2,7.1317716E0,9.267679E1,7.428566E1,1.0004003E1,1.3692737E1,4.403118E2,3.4933157E2,2.2056503E0,4.1008787E0,3.0308928E0,3.505939E1,5.7617393E1,7.116261E1,3.1230469E0,7.282365E0,2.7216375E0,3.7313561E0,9.96138E0,3.8834924E2,5.1962566E1,3.3358002E2,1.57515545E1,2.438282E0,1.6625968E0,1.191387E0,3.3868004E1,2.6827211E0,5.4934673E1,4.17956E0,6.698305E1,1.691208E0,1.4318389E0,6.1248655E0,1.1574992E0,1.2377021E0,1.4839355E0,2.2358742E0,1.4954822E0,4.7309113E0,5.2304688E0,3.842675E2,4.0817633E0,2.0974823E1,3.0987741E1,3.2813226E2,5.4477553E0,3.061005E0,1.2690549E1,2.4053577E1,9.814428E0,4.88399E1,6.0947714E0,1.2462654E0,2.933295E0,7.914484E0,5.9068565E1,1.7396343E0,2.9912772E0,2.4890695E0,2.7413993E0,3.7787167E2,6.3958063E0,2.6365457E0,1.4452175E0,6.6339107E0,1.4340912E1,4.622899E0,2.6364843E1,5.1848274E1,2.7628397E2,3.9635015E0,1.4842538E0,4.1351533E0,8.555396E0,1.22661705E1,1.1787406E1,5.8818803E0,3.9325476E0,4.415457E1,4.6853275E0,4.3781867E0,1.7165849E0,1.4801772E0,1.4531178E0,1.7397295E0,6.1747546E0,1.5343586E1,4.372498E1,1.7459503E0,1.2453268E0,1.2491713E0,1.4922282E0,3.7372205E2,4.1496224E0,1.6961999E0,4.6996064E0,3.1930609E0,3.4408498E0,7.1070027E0,7.233909E0,1.480377E0,3.142522E0,1.7159951E0,2.4648848E1,2.5216808E1,2.6631466E1,8.414619E1,1.9213779E2,1.2180079E0,2.9171455E0,6.557226E0,1.9981695E0,6.3423057E0,5.9238653E0,6.597109E0,5.1902976E0,1.2114661E0,4.6704144E0,1.9688574E0,1.9636903E0,3.5061573E1,9.0929985E0,3.2145417E0,1.4707857E0,2.9527683E0,1.4254183E0,4.6847606E0,1.4899942E0,1.28910265E1,2.452559E0,9.896757E0,3.382822E1,3.710011E2,2.7209718E0,2.7315283E0,1.9680783E0,1.4969181E0,1.6961427E0,5.130271E0,1.9767318E0,1.719578E0,5.514331E0,1.7241674E1,7.4071736E0,7.3957047E0,1.7821102E1,1.3062672E1,1.3568795E1,1.9723372E1,6.442281E1,8.88171E1,1.03320694E2,1.2159643E0,5.341262E0],"tree_param":{"num_deleted":"0","num_feature":"11","num_nodes":"161","size_leaf_vector":"1"}},{"base_weights":[-1.4773073E-3,1.6758711E-3,-8.9437656E-2,-1.1649199E-1,2.57017E-2,-6.1008103E-2,-6.326876E-1,8.285356E-2,-4.8599746E-2,-2.9023217E-2,-8.7294143E-1,-9.158742E-1,-7.115369E-2,6.5509826E-2,5.662059E-1,-1.04464285E-1,-4.1566133E-2,5.946803E-1,-4.7727216E-2,-1.2482379E-1,-2.7685007E-1,-1.1509292E0,1.7577402E-2,-7.91998E-2,2.9617423E-1,-6.955772E-1,7.209941E-2,-1.4576661E-2,6.7737776E-1,7.203929E-1,-5.0797313E-2,1.9013552E-2,6.833485E-2,-5.962011E-1,-2.3912763E-2,2.2175608E-2,-6.530961E-2,-3.0917494E-2,-1.3835536E-1,8.2316583E-1,-8.223751E-2,-1.6061489E-2,-8.731334E-2,9.6120484E-2,-1.3586007E-1,7.695308E-1,-1.7580898E-2,2.8037427E-3,1.0729714E-1,-4.3263264E-2,-8.6526796E-2,-1.4112261E-1,-1.1671171E-1,-4.9236875E-2,1.2483739E-1,2.340949E-2,1.06908165E-1,7.16271E-2,4.2177275E-1,-5.1350176E-1,8.199772E-2,8.815908E-1,3.039114E-3,-2.0350659E-1,-9.479896E-3,-6.405676E-2,6.3450485E-2,-2.878687E-3,-1.1455213E-1,8.689706E-3,-4.950763E-2,9.836581E-2,1.9816535E-2,-1.05777144E-1,-2.6132328E-2,9.481288E-2,-7.823969E-3,4.4091634E-2,1.1013607E-1,2.897555E-2,-3.280427E-2,6.300544E-2,-3.6137092E-3],"categories":[],"categories_nodes":[],"categories_segments":[],"categories_sizes":[],"default_left":[0,0,0,0,0,0,0,0,0,0,0,0,0,0,0,0,0,0,0,0,0,0,0,0,0,0,0,0,0,0,0,0,0,0,0,0,0,0,0,0,0,0,0,0,0,0,0,0,0,0,0,0,0,0,0,0,0,0,0,0,0,0,0,0,0,0,0,0,0,0,0,0,0,0,0,0,0,0,0,0,0,0,0],"id":7,"left_children":[1,3,-1,5,7,9,11,13,15,17,19,21,23,25,27,-1,29,31,33,-1,35,37,-1,-1,39,41,43,-1,45,47,49,-1,-1,51,53,-1,-1,-1,-1,55,-1,-1,-1,57,59,61,-1,-1,-1,63,-1,65,-1,67,-1,-1,-1,69,71,73,75,77,-1,79,81,-1,-1,-1,-1,-1,-1,-1,-1,-1,-1,-1,-1,-1,-1,-1,-1,-1,-1],"loss_changes":[2.7837715E0,2.8015594E0,0E0,4.7367816E0,3.486105E0,3.9131975E0,2.4911575E0,3.8514721E0,2.4586136E0,1.7426158E0,9.3261385E-1,2.9227848E0,1.948655E0,2.3015907E0,1.3601551E0,0E0,2.5383391E0,2.6203156E-2,1.8613003E0,0E0,8.000059E-1,1.3064003E0,0E0,0E0,3.633762E0,2.3470438E-1,2.24087E0,0E0,1.2329946E0,1.0252812E0,2.124693E0,0E0,0E0,1.3768885E0,4.529014E0,0E0,0E0,0E0,0E0,3.160591E-1,0E0,0E0,0E0,3.1633348E0,3.875473E0,1.0322838E0,0E0,0E0,0E0,1.8937677E0,0E0,2.1261373E0,0E0,3.0365384E0,0E0,0E0,0E0,3.2757673E0,3.2982478E0,2.0820765E0,4.294704E0,5.862398E-1,0E0,3.837469E0,4.971056E0,0E0,0E0,0E0,0E0,0E0,0E0,0E0,0E0,0E0,0E0,0E0,0E0,0E0,0E0,0E0,0E0,0E0,0E0],"parents":[2147483647,0,0,1,1,3,3,4,4,5,5,6,6,7,7,8,8,9,9,10,10,11,11,12,12,13,13,14,14,16,16,17,17,18,18,20,20,21,21,24,24,25,25,26,26,28,28,29,29,30,30,33,33,34,34,39,39,43,43,44,44,45,45,49,49,51,51,53,53,57,57,58,58,59,59,60,60,61,61,63,63,64,64],"right_children":[2,4,-1,6,8,10,12,14,16,18,20,22,24,26,28,-1,30,32,34,-1,36,38,-1,-1,40,42,44,-1,46,48,50,-1,-1,52,54,-1,-1,-1,-1,56,-1,-1,-1,58,60,62,-1,-1,-1,64,-1,66,-1,68,-1,-1,-1,70,72,74,76,78,-1,80,82,-1,-1,-1,-1,-1,-1,-1,-1,-1,-1,-1,-1,-1,-1,-1,-1,-1,-1],"split_conditions":[7.3E-1,6.263E6,-8.9437656E-2,5.798E6,2.5473924E7,1.2425E2,7.0449E6,2.47328E7,1.14974E7,2.0196E6,1.3297E2,4.74E1,5.879E6,3.0091E6,1.7446296E7,-1.04464285E-1,1.46979E7,1.986E1,2.2532E6,-1.2482379E-1,1.3999E2,1.8254E1,1.7577402E-2,-7.91998E-2,1.02866E7,1.95E1,5.4299E2,-1.4576661E-2,4.0176E2,1.0926E2,6.005E2,1.9013552E-2,6.833485E-2,1.1023E2,1.2025E2,2.2175608E-2,-6.530961E-2,-3.0917494E-2,-1.3835536E-1,2.106E1,-8.223751E-2,-1.6061489E-2,-8.731334E-2,4.8327E2,5.7049E2,3.27156E7,-1.7580898E-2,2.8037427E-3,1.0729714E-1,9.352E1,-8.6526796E-2,9.1777E1,-1.1671171E-1,1.11752E2,1.2483739E-1,2.340949E-2,1.06908165E-1,4.4592395E2,5.075E2,1.10722E7,1.00502E7,1.0752E2,3.039114E-3,5.723499E1,9.521689E1,-6.405676E-2,6.3450485E-2,-2.878687E-3,-1.1455213E-1,8.689706E-3,-4.950763E-2,9.836581E-2,1.9816535E-2,-1.05777144E-1,-2.6132328E-2,9.481288E-2,-7.823969E-3,4.4091634E-2,1.1013607E-1,2.897555E-2,-3.280427E-2,6.300544E-2,-3.6137092E-3],"split_indices":[5,4,0,4,10,3,10,10,4,4,1,0,4,10,4,0,4,0,10,0,1,6,0,0,10,0,1,0,0,0,2,0,0,0,1,0,0,0,0,6,0,0,0,6,6,4,0,0,0,8,0,7,0,8,0,0,0,8,1,4,4,0,0,7,7,0,0,0,0,0,0,0,0,0,0,0,0,0,0,0,0,0,0],"split_type":[0,0,0,0,0,0,0,0,0,0,0,0,0,0,0,0,0,0,0,0,0,0,0,0,0,0,0,0,0,0,0,0,0,0,0,0,0,0,0,0,0,0,0,0,0,0,0,0,0,0,0,0,0,0,0,0,0,0,0,0,0,0,0,0,0,0,0,0,0,0,0,0,0,0,0,0,0,0,0,0,0,0,0],"sum_hessian":[9.872088E2,9.8472943E2,2.479344E0,1.6573503E2,8.189944E2,1.5065941E2,1.5075613E1,4.6285574E2,3.5613867E2,1.4594585E2,4.71357E0,9.602144E0,5.4734693E0,4.4791898E2,1.4936773E1,1.4628314E0,3.5467584E2,3.352692E0,1.4259315E2,2.2211232E0,2.492447E0,7.856228E0,1.7459162E0,1.4573871E0,4.0160823E0,2.947351E0,4.4497162E2,1.9752965E0,1.2961477E1,3.3233228E0,3.513525E2,1.1680161E0,2.184676E0,4.9335113E0,1.3765964E2,1.2485116E0,1.2439352E0,2.2053204E0,5.6509075E0,2.90942E0,1.1066622E0,1.2090791E0,1.7382717E0,3.993779E2,4.559372E1,1.1786467E1,1.1750098E0,1.4855943E0,1.8377285E0,3.491757E2,2.1768408E0,3.4392571E0,1.4942541E0,1.3591562E2,1.7440195E0,1.431739E0,1.477681E0,3.7257523E2,2.6802668E1,1.6183563E1,2.9410158E1,1.0067431E1,1.719036E0,5.9922718E1,2.8925296E2,2.1980257E0,1.2412314E0,1.3443416E2,1.4814659E0,3.6362396E2,8.951271E0,6.662345E0,2.0140324E1,4.112702E0,1.2070862E1,3.8238864E0,2.5586271E1,4.350411E0,5.71702E0,1.1811821E1,4.8110897E1,1.066852E1,2.7858444E2],"tree_param":{"num_deleted":"0","num_feature":"11","num_nodes":"83","size_leaf_vector":"1"}},{"base_weights":[-1.7673783E-3,5.7346326E-1,-6.478449E-3,2.2336303E-1,1.0319265E-1,-1.3415787E-1,2.1616627E-2,-1.7189758E-2,6.231415E-2,1.0682869E-1,-1.5310057E-1,2.7392295E-1,3.1805316E-3,2.576374E-2,-3.5778098E-2,-1.20085165E-1,-7.7681E-1,1.06820226E-1,8.260719E-1,-4.062155E-1,1.1826847E-2,-4.698233E-1,-6.4383246E-2,-1.870028E-1,-1.1419772E-1,2.613587E-1,-3.130077E-1,1.0939318E0,3.6368974E-2,-1.6559571E-1,-1.0751815E-1,9.4654703E-1,6.7194793E-3,-1.8326707E-1,-1.119224E0,8.5944307E-1,-9.4799615E-2,-6.2901326E-2,4.1718964E-2,2.880049E-2,6.9616014E-1,1.6997392E-1,-1.1061035E0,9.900744E-3,1.3073067E-1,1.0412146E-1,-7.332614E-2,-4.7633544E-1,5.641707E-1,3.6381837E-2,1.1501595E-1,-4.5230862E-1,1.5851693E-2,-6.1752236E-1,4.3852684E-1,-3.5526678E-2,-1.2226559E-1,1.1082343E-1,8.17947E-3,7.0718214E-2,-2.4259138E-1,6.7614716E-1,-1.7271349E-1,1.1937312E-1,1.3871276E-1,4.078887E-1,-6.626072E-2,-2.8013779E-2,-1.491675E-1,-7.8533426E-2,-1.0675863E-1,9.580285E-2,-2.1787148E-2,6.9757245E-2,-6.38798E-1,1.2702402E-1,-2.1160208E-2,-9.0185985E-2,1.5442911E-2,-1.778836E-2,7.145118E-2,-1.759357E-2,2.2176413E-2,-9.360411E-2,-1.1753275E-2,1.2207418E-1,-6.650764E-2,4.0138975E-2,-3.4409005E-2,-3.3698395E-2,8.1024565E-2,-1.731969E-2,9.9856146E-2,-7.823179E-2,4.502006E-2,-8.89177E-2,1.4569106E-2,9.410674E-3,1.2750098E-1,1.1243145E-3,-3.1905912E-2],"categories":[],"categories_nodes":[],"categories_segments":[],"categories_sizes":[],"default_left":[0,0,0,0,0,0,0,0,0,0,0,0,0,0,0,0,0,0,0,0,0,0,0,0,0,0,0,0,0,0,0,0,0,0,0,0,0,0,0,0,0,0,0,0,0,0,0,0,0,0,0,0,0,0,0,0,0,0,0,0,0,0,0,0,0,0,0,0,0,0,0,0,0,0,0,0,0,0,0,0,0,0,0,0,0,0,0,0,0,0,0,0,0,0,0,0,0,0,0,0,0],"id":8,"left_children":[1,3,5,7,-1,9,11,13,-1,-1,15,17,19,-1,-1,21,23,25,27,29,31,33,35,37,-1,39,41,43,45,47,-1,49,51,53,55,57,59,-1,-1,61,63,65,67,-1,-1,-1,-1,69,71,-1,-1,73,75,77,79,-1,-1,-1,-1,81,83,85,87,-1,89,91,-1,-1,-1,93,-1,-1,-1,-1,95,97,99,-1,-1,-1,-1,-1,-1,-1,-1,-1,-1,-1,-1,-1,-1,-1,-1,-1,-1,-1,-1,-1,-1,-1,-1],"loss_changes":[2.678456E0,1.0582209E0,3.5182397E0,5.7124984E-1,0E0,4.1925583E0,3.7394009E0,5.23899E-1,0E0,0E0,3.5106525E0,4.962619E0,2.6608686E0,0E0,0E0,3.2308962E0,1.6420832E0,2.8828442E0,2.619091E0,2.3246095E0,3.5063305E0,4.0451274E0,4.1716533E0,1.4616022E0,0E0,3.2259731E0,4.8118477E0,1.8558569E0,4.0255613E0,3.1298113E0,0E0,5.5142164E-2,3.079071E0,4.8726645E0,1.02705E-1,8.2623124E-1,3.4864233E0,0E0,0E0,2.9812217E0,2.9252872E0,1.9280514E0,1.0795574E0,0E0,0E0,0E0,0E0,2.1249487E0,1.5103015E0,0E0,0E0,3.518221E0,2.9631414E0,2.4329836E0,1.418803E0,0E0,0E0,0E0,0E0,2.5602546E0,6.4070024E0,4.768012E0,1.8640379E0,0E0,2.3133466E0,2.6195254E0,0E0,0E0,0E0,2.842893E0,0E0,0E0,0E0,0E0,2.6537266E0,6.676197E0,5.222294E0,0E0,0E0,0E0,0E0,0E0,0E0,0E0,0E0,0E0,0E0,0E0,0E0,0E0,0E0,0E0,0E0,0E0,0E0,0E0,0E0,0E0,0E0,0E0,0E0],"parents":[2147483647,0,0,1,1,2,2,3,3,5,5,6,6,7,7,10,10,11,11,12,12,15,15,16,16,17,17,18,18,19,19,20,20,21,21,22,22,23,23,25,25,26,26,27,27,28,28,29,29,31,31,32,32,33,33,34,34,35,35,36,36,39,39,40,40,41,41,42,42,47,47,48,48,51,51,52,52,53,53,54,54,59,59,60,60,61,61,62,62,64,64,65,65,69,69,74,74,75,75,76,76],"right_children":[2,4,6,8,-1,10,12,14,-1,-1,16,18,20,-1,-1,22,24,26,28,30,32,34,36,38,-1,40,42,44,46,48,-1,50,52,54,56,58,60,-1,-1,62,64,66,68,-1,-1,-1,-1,70,72,-1,-1,74,76,78,80,-1,-1,-1,-1,82,84,86,88,-1,90,92,-1,-1,-1,94,-1,-1,-1,-1,96,98,100,-1,-1,-1,-1,-1,-1,-1,-1,-1,-1,-1,-1,-1,-1,-1,-1,-1,-1,-1,-1,-1,-1,-1,-1],"split_conditions":[1.417E1,1.45735E1,3.05E1,8.1817E6,1.0319265E-1,1.43435E1,5.2698E1,1.4426E1,6.231415E-2,1.0682869E-1,2.7496E1,4.755E1,3.6334E6,2.576374E-2,-3.5778098E-2,1.4916E1,5.3833E6,4.2122E1,5.245E1,1.2425E2,3.8833E6,5.2835E6,2.4772E6,4.233E6,-1.1419772E-1,3.7805965E1,1.62076E7,4.2594E6,1.22182E7,1.1618E2,-1.0751815E-1,9.87705E1,5.963E1,4.076E6,1.446E1,2.094E1,2.075E1,-6.2901326E-2,4.1718964E-2,3.1538E1,2.3004072E7,4.8E1,4.267E1,9.900744E-3,1.3073067E-1,1.0412146E-1,-7.332614E-2,1.0065E2,1.225538E2,3.6381837E-2,1.1501595E-1,5.1781E1,1.6423749E7,1.5E1,1.437E1,-3.5526678E-2,-1.2226559E-1,1.1082343E-1,8.17947E-3,4.7684E6,2.106E1,3.1645E1,5.4886E6,1.1937312E-1,3.777E1,4.2494E1,-6.626072E-2,-2.8013779E-2,-1.491675E-1,9.338E1,-1.0675863E-1,9.580285E-2,-2.1787148E-2,6.9757245E-2,2.70858E7,1.62738E7,3.827265E2,-9.0185985E-2,1.5442911E-2,-1.778836E-2,7.145118E-2,-1.759357E-2,2.2176413E-2,-9.360411E-2,-1.1753275E-2,1.2207418E-1,-6.650764E-2,4.0138975E-2,-3.4409005E-2,-3.3698395E-2,8.1024565E-2,-1.731969E-2,9.9856146E-2,-7.823179E-2,4.502006E-2,-8.89177E-2,1.4569106E-2,9.410674E-3,1.2750098E-1,1.1243145E-3,-3.1905912E-2],"split_indices":[3,8,0,4,0,8,7,8,0,0,6,9,4,0,0,6,4,6,9,3,4,4,4,4,0,8,10,10,10,1,0,8,1,10,3,0,3,0,0,6,10,1,2,0,0,0,0,6,6,0,0,8,4,1,9,0,0,0,0,4,6,8,4,0,2,8,0,0,0,1,0,0,0,0,4,4,8,0,0,0,0,0,0,0,0,0,0,0,0,0,0,0,0,0,0,0,0,0,0,0,0],"split_type":[0,0,0,0,0,0,0,0,0,0,0,0,0,0,0,0,0,0,0,0,0,0,0,0,0,0,0,0,0,0,0,0,0,0,0,0,0,0,0,0,0,0,0,0,0,0,0,0,0,0,0,0,0,0,0,0,0,0,0,0,0,0,0,0,0,0,0,0,0,0,0,0,0,0,0,0,0,0,0,0,0,0,0,0,0,0,0,0,0,0,0,0,0,0,0,0,0,0,0,0,0],"sum_hessian":[9.860066E2,7.0289726E0,9.789776E2,4.8287506E0,2.2002215E0,1.7588493E2,8.0309265E2,3.612223E0,1.2165278E0,1.868686E0,1.7401625E2,5.3742615E1,7.4935004E2,2.1339064E0,1.4783167E0,1.6640054E2,7.615702E0,4.2172855E1,1.1569759E1,1.4547684E1,7.3480237E2,2.1839748E1,1.445608E2,3.490329E0,4.125373E0,3.110177E1,1.1071087E1,8.351698E0,3.218062E0,1.161679E1,2.9308934E0,2.99147E0,7.318109E2,1.6042849E1,5.7969E0,3.7390788E0,1.4082172E2,1.9919746E0,1.4983546E0,2.0958258E1,1.0143513E1,7.3691096E0,3.7019773E0,1.7333663E0,6.6183314E0,1.2426959E0,1.9753661E0,8.391084E0,3.2257063E0,1.49621E0,1.4952602E0,1.3328505E1,7.184824E2,9.449955E0,6.592894E0,1.2200786E0,4.576821E0,2.5107205E0,1.2283583E0,6.667323E1,7.414848E1,4.416212E0,1.6542046E1,4.7564955E0,5.387017E0,6.12807E0,1.2410395E0,1.727628E0,1.9743491E0,5.6933455E0,2.6977384E0,1.9956223E0,1.2300841E0,1.4775403E0,1.1850964E1,1.7884755E2,5.396348E2,6.78318E0,2.6667747E0,2.148869E0,4.444025E0,2.525983E1,4.1413406E1,1.0338228E1,6.3810257E1,3.204768E0,1.2114441E0,3.4942672E0,1.3047779E1,3.4449146E0,1.9421023E0,3.445386E0,2.682684E0,2.236625E0,3.4567206E0,8.882546E0,2.9684174E0,1.7491405E2,3.9335024E0,4.875634E2,5.2071465E1],"tree_param":{"num_deleted":"0","num_feature":"11","num_nodes":"101","size_leaf_vector":"1"}},{"base_weights":[-1.2862842E-3,1.6552524E-3,-8.3249144E-2,5.4247534E-1,-2.7414737E-3,-5.5374154E-3,7.470642E-1,-1.22649744E-1,2.3649257E-2,1.4240618E-2,9.773132E-2,1.0172471E-1,-1.4036693E-1,8.746695E-2,1.8393664E-2,-7.149617E-2,-4.1175744E-1,-7.588463E-1,2.3231683E-2,-4.0785328E-1,6.0574436E-3,7.156347E-2,-5.104654E-1,1.2487E-2,-1.2775974E-1,2.8562358E-1,6.8551563E-3,-1.5768972E-1,-8.771547E-1,7.391412E-2,-4.91636E-1,-7.6976013E-1,-1.6570391E-1,1.074814E-1,7.6583666E-1,4.4003803E-2,-8.124841E-2,-4.5593925E-2,7.4799955E-2,-1.0528991E-1,-8.353052E-3,3.265778E-3,1.0525741E-1,2.8413823E-2,-9.335944E-2,2.2848936E-2,-9.337022E-2,3.762608E-2,-7.382587E-2,3.0458579E-2,-2.951077E-2,1.01390995E-1,4.02814E-3,-2.263389E-2,6.4049917E-3,-1.1041635E-1,-6.5772175E-3],"categories":[],"categories_nodes":[],"categories_segments":[],"categories_sizes":[],"default_left":[0,0,0,0,0,0,0,0,0,0,0,0,0,0,0,0,0,0,0,0,0,0,0,0,0,0,0,0,0,0,0,0,0,0,0,0,0,0,0,0,0,0,0,0,0,0,0,0,0,0,0,0,0,0,0,0,0],"id":9,"left_children":[1,3,-1,5,7,-1,9,11,13,-1,-1,-1,15,-1,17,19,21,23,25,27,29,-1,31,-1,-1,33,35,37,39,41,43,45,47,49,51,53,55,-1,-1,-1,-1,-1,-1,-1,-1,-1,-1,-1,-1,-1,-1,-1,-1,-1,-1,-1,-1],"loss_changes":[2.4112694E0,2.3392696E0,0E0,1.011724E0,3.0921206E0,0E0,6.933284E-1,3.702517E0,3.5662992E0,0E0,0E0,0E0,3.2310398E0,0E0,3.0148368E0,3.6634524E0,4.271099E0,2.4335423E0,3.4060678E0,2.9506106E0,3.921236E0,0E0,2.8096085E0,0E0,0E0,3.9013295E0,2.4502134E0,5.3062572E0,1.1574578E0,4.088041E0,5.04228E0,3.2373724E0,5.049632E0,2.8775203E0,2.1977386E0,2.867627E0,3.4428458E0,0E0,0E0,0E0,0E0,0E0,0E0,0E0,0E0,0E0,0E0,0E0,0E0,0E0,0E0,0E0,0E0,0E0,0E0,0E0,0E0],"parents":[2147483647,0,0,1,1,3,3,4,4,6,6,7,7,8,8,12,12,14,14,15,15,16,16,17,17,18,18,19,19,20,20,22,22,25,25,26,26,27,27,28,28,29,29,30,30,31,31,32,32,33,33,34,34,35,35,36,36],"right_children":[2,4,-1,6,8,-1,10,12,14,-1,-1,-1,16,-1,18,20,22,24,26,28,30,-1,32,-1,-1,34,36,38,40,42,44,46,48,50,52,54,56,-1,-1,-1,-1,-1,-1,-1,-1,-1,-1,-1,-1,-1,-1,-1,-1,-1,-1,-1,-1],"split_conditions":[7.3E-1,1.417E1,-8.3249144E-2,1.43435E1,3.069E1,-5.5374154E-3,4.7684E6,1.43435E1,3.1538E1,1.4240618E-2,9.773132E-2,1.0172471E-1,2.37395E1,8.746695E-2,3.3E1,1.512E1,3.4657E6,5.3833E6,5.2698E1,1.481E1,1.01023E7,7.156347E-2,2.539E1,1.2487E-2,-1.2775974E-1,4.755E1,3.29662E7,1.469E1,1.545E1,8.7217E6,1.923E1,2.225E1,2.7496E1,4.2122E1,5.245E1,6.8569E6,1.4697544E7,-4.5593925E-2,7.4799955E-2,-1.0528991E-1,-8.353052E-3,3.265778E-3,1.0525741E-1,2.8413823E-2,-9.335944E-2,2.2848936E-2,-9.337022E-2,3.762608E-2,-7.382587E-2,3.0458579E-2,-2.951077E-2,1.01390995E-1,4.02814E-3,-2.263389E-2,6.4049917E-3,-1.1041635E-1,-6.5772175E-3],"split_indices":[5,3,0,8,9,0,4,8,6,0,0,0,8,0,0,6,4,4,7,3,10,0,2,0,0,9,4,3,1,10,6,0,6,6,9,4,10,0,0,0,0,0,0,0,0,0,0,0,0,0,0,0,0,0,0,0,0],"split_type":[0,0,0,0,0,0,0,0,0,0,0,0,0,0,0,0,0,0,0,0,0,0,0,0,0,0,0,0,0,0,0,0,0,0,0,0,0,0,0,0,0,0,0,0,0,0,0,0,0,0,0,0,0,0,0,0,0],"sum_hessian":[9.846324E2,9.8215466E2,2.4777203E0,6.9333634E0,9.752213E2,1.9536746E0,4.979689E0,1.7526123E2,7.999601E2,1.8196324E0,3.1600566E0,1.8189178E0,1.7344232E2,3.8945997E0,7.960655E2,1.3934436E2,3.4097965E1,3.96044E0,7.9210504E2,2.531067E1,1.1403368E2,2.2419167E0,3.1856049E1,1.7457547E0,2.2146852E0,4.556715E1,7.465379E2,1.7381422E1,7.9292483E0,1.01100845E2,1.2932836E1,1.7478075E1,1.4377974E1,3.4129955E1,1.1437195E1,5.2547375E2,2.2106415E2,1.34491205E1,3.9323018E0,6.2242246E0,1.7050234E0,9.8002815E1,3.0980315E0,4.8233867E0,8.109449E0,2.409968E0,1.5068107E1,7.5624266E0,6.815547E0,2.3075708E1,1.1054248E1,8.226918E0,3.2102768E0,3.5564087E1,4.8990964E2,2.2463138E0,2.1881783E2],"tree_param":{"num_deleted":"0","num_feature":"11","num_nodes":"57","size_leaf_vector":"1"}},{"base_weights":[-1.1729752E-3,1.5631597E-3,-7.75133E-2,5.079513E-1,-2.5121847E-3,1.7988966E-1,9.600412E-2,9.713634E-2,-5.275971E-3,-4.8911992E-2,5.7328966E-2,-3.7351748E-1,4.868058E-3,2.1714553E-2,-3.6225054E-2,-1.4093947E-1,-8.151777E-1,8.707552E-2,1.961167E-3,-4.15259E-1,6.906851E-1,6.7108753E-3,-9.580287E-1,-9.924944E-2,2.2209914E-2,-5.321095E-1,4.8309736E-2,1.0832267E-1,1.5225092E-2,-1.19756415E-1,-7.829923E-3,-2.6856355E-2,-5.742532E-1,3.056621E-1,5.9936685E-3,-2.7125118E-2,-1.20707475E-1,-9.281044E-3,4.4594016E-2,-2.2436064E-3,-8.68954E-2,1.3890793E-2,7.0666865E-2,-3.58689E-2,1.3663064E-3],"categories":[],"categories_nodes":[],"categories_segments":[],"categories_sizes":[],"default_left":[0,0,0,0,0,0,0,0,0,0,0,0,0,0,0,0,0,0,0,0,0,0,0,0,0,0,0,0,0,0,0,0,0,0,0,0,0,0,0,0,0,0,0,0,0],"id":10,"left_children":[1,3,-1,5,7,9,-1,-1,11,13,-1,15,17,-1,-1,19,21,-1,23,25,27,-1,29,31,33,35,-1,-1,-1,-1,-1,37,39,41,43,-1,-1,-1,-1,-1,-1,-1,-1,-1,-1],"loss_changes":[2.0855293E0,2.027394E0,0E0,9.905386E-1,2.629266E0,5.4790527E-1,0E0,0E0,3.6370811E0,4.5990497E-1,0E0,2.566373E0,2.384637E0,0E0,0E0,4.463322E0,1.1727767E0,0E0,1.940733E0,1.7677348E0,8.7421703E-1,0E0,1.5151076E0,5.4134884E0,3.6249647E0,1.9985518E0,0E0,0E0,0E0,0E0,0E0,4.3460813E0,3.367916E0,2.755662E0,2.095166E0,0E0,0E0,0E0,0E0,0E0,0E0,0E0,0E0,0E0,0E0],"parents":[2147483647,0,0,1,1,3,3,4,4,5,5,8,8,9,9,11,11,12,12,15,15,16,16,18,18,19,19,20,20,22,22,23,23,24,24,25,25,31,31,32,32,33,33,34,34],"right_children":[2,4,-1,6,8,10,-1,-1,12,14,-1,16,18,-1,-1,20,22,-1,24,26,28,-1,30,32,34,36,-1,-1,-1,-1,-1,38,40,42,44,-1,-1,-1,-1,-1,-1,-1,-1,-1,-1],"split_conditions":[7.3E-1,1.417E1,-7.75133E-2,1.45735E1,1.43435E1,8.1817E6,9.600412E-2,9.713634E-2,1.512E1,1.4426E1,5.7328966E-2,1.481E1,1.50455E1,2.1714553E-2,-3.6225054E-2,1.469E1,1.445E1,8.707552E-2,3.615E1,7.3036E6,1.4716E1,6.7108753E-3,1.545E1,9.7473E6,5.2698E1,1.50455E1,4.8309736E-2,1.0832267E-1,1.5225092E-2,-1.19756415E-1,-7.829923E-3,8.3108E6,2.075E1,4.755E1,3.6334E6,-2.7125118E-2,-1.20707475E-1,-9.281044E-3,4.4594016E-2,-2.2436064E-3,-8.68954E-2,1.3890793E-2,7.0666865E-2,-3.58689E-2,1.3663064E-3],"split_indices":[5,3,0,8,8,4,0,0,6,8,0,3,8,0,0,3,2,0,1,10,6,0,1,10,7,8,0,0,0,0,0,4,3,9,4,0,0,0,0,0,0,0,0,0,0],"split_type":[0,0,0,0,0,0,0,0,0,0,0,0,0,0,0,0,0,0,0,0,0,0,0,0,0,0,0,0,0,0,0,0,0,0,0,0,0,0,0,0,0,0,0,0,0],"sum_hessian":[9.832555E2,9.807862E2,2.4693346E0,6.843125E0,9.7394305E2,4.7755947E0,2.0675306E0,1.7643881E0,9.7217865E2,3.5731292E0,1.2024653E0,2.5102531E1,9.470761E2,2.0983784E0,1.4747508E0,1.7307516E1,7.7950153E0,2.1699033E0,9.4490625E2,1.3391021E1,3.9164944E0,1.160106E0,6.634909E0,1.568769E2,7.880293E2,1.2210473E1,1.1805483E0,1.6799386E0,2.2365558E0,4.9309964E0,1.7039131E0,1.3704678E2,1.9830114E1,4.16775E1,7.463518E2,9.817942E0,2.392531E0,1.2097477E2,1.6072018E1,7.2781534E0,1.2551962E1,3.0387566E1,1.1289937E1,1.4430017E1,7.319218E2],"tree_param":{"num_deleted":"0","num_feature":"11","num_nodes":"45","size_leaf_vector":"1"}},{"base_weights":[-9.170932E-4,4.8157662E-1,-4.7423393E-3,-7.4887075E-3,6.8202555E-1,9.297746E-2,-7.332742E-3,1.1947022E-2,9.0180695E-2,-3.7242928E-1,1.1688267E-3,-1.1651179E-1,-9.6894896E-1,3.798908E-3,-7.2329216E-2,-5.135879E-1,4.3630642E-1,-2.8181328E-2,-1.074857E0,