tree
version=v4
num_class=1
num_tree_per_iteration=1
label_index=0
max_feature_idx=10
objective=binary sigmoid:1
feature_names=Column_0 Column_1 Column_2 Column_3 Column_4 Column_5 Column_6 Column_7 Column_8 Column_9 Column_10
feature_infos=[12.99:702.40999999999997] [13.19:705.07000000000005] [12.720000000000001:699.57000000000005] [13.119999999999999:702.10000000000002] [702500:189560600] none [13.280000000000001:700.5172] [13.354999999999999:691.09659999999997] [13.820499999999999:680.78600000000006] [13.119999999999999:702.10000000000002] [702500:189560600]
tree_sizes=1672 1705 1697 1709 1705 1702 1703 1706 1705 1709 1708 1711 1717 1720

Tree=0
num_leaves=15
num_cat=0
split_feature=2 2 10 3 9 4 4 4 7 7 3 4 6 10
split_gain=9.14927 9.76497 6.65974 7.34124 5.89592 5.41987 4.61928 5.84938 4.41811 5.61084 3.37483 6.21103 5.08166 5.67295
threshold=24.640000000000004 14.125000000000002 27875050.000000004 521.24900000000014 23.555000000000003 3509800.0000000005 15972593.500000002 10797600.000000002 476.82100000000008 443.30840000000006 127.15500000000002 69248746.500000015 130.22600000000003 29245800.000000004
decision_type=2 2 2 2 2 2 2 2 2 2 2 2 2 2
left_child=1 -1 3 5 -3 -2 7 -5 9 -7 11 -4 -12 -14
right_child=2 4 10 6 -6 8 -8 -9 -10 -11 12 -13 13 -15
leaf_value=0.10393500606062261 0.052833832323602836 0.062211758421670892 0.07099730941763524 0.051441674363033763 0.030987429656039497 0.08189021600013327 0.043658159199086034 0.089755331765152407 0.10646584034404691 0.049949666063703546 0.03468217703237552 0.10369430171301432 0.038084610111652893 0.070620660838280544
leaf_weight=12.982732236385344 16.727751150727272 138.06636397540569 159.53780575096607 18.225758716464043 16.977419078350067 406.20971824228764 21.471441775560379 21.970777630805969 17.476754933595657 14.231071874499319 13.731736019253729 15.978747367858885 15.2297435849905 111.35189571976662
leaf_count=52 67 553 639 73 68 1627 86 88 70 57 55 64 61 446
internal_value=0.072923 0.0622806 0.0750719 0.0785703 0.0587927 0.0807661 0.0623818 0.0723833 0.081833 0.0808091 0.0693527 0.073974 0.0635721 0.0667061
internal_weight=0 168.027 832.143 516.313 155.044 454.645 61.668 40.1965 437.918 420.441 315.83 175.517 140.313 126.582
internal_count=4006 673 3333 2068 621 1821 247 161 1754 1684 1265 703 562 507
is_linear=0
shrinkage=1


Tree=1
num_leaves=15
num_cat=0
split_feature=8 0 10 3 4 4 4 7 9 9 1 3 8 8
split_gain=7.8451 9.78057 6.08911 6.60728 4.84312 4.16376 5.27854 4.0011 5.08539 3.63833 5.10155 4.09207 6.2173 4.19663
threshold=24.569500000000001 14.575000000000001 27875050.000000004 521.24900000000014 3509800.0000000005 15972593.500000002 10797600.000000002 476.82100000000008 345.59500000000008 23.555000000000003 16.565000000000005 19.890000000000004 21.094500000000004 22.383497500000004
decision_type=2 2 2 2 2 2 2 2 2 2 2 2 2 2
left_child=1 -1 3 4 -2 6 -5 8 -6 10 -3 -12 -13 -14
right_child=2 9 -4 5 7 -7 -8 -9 -10 -11 11 12 13 -15
leaf_value=0.022545278526509897 -0.018564164289151822 -0.030839818955968035 -0.0034671059091406272 -0.020393217991728666 0.0098590850101200646 -0.027777192202783796 0.016001973037611316 0.031914853614056403 -0.0052705763009766021 -0.033896798650232568 0.005667824179838795 -0.036478192749876653 0.014237514288880935 -0.019344507939485577
leaf_weight=20.459431916475296 17.238195970654488 26.222888365387917 316.60699681937695 18.237932115793228 353.16060911118984 21.489758253097534 21.955751419067383 17.450502663850784 65.904452383518219 20.48790630698204 42.708662196993828 20.979693710803986 18.731869384646416 18.482111126184464
leaf_count=82 69 105 1268 73 1415 86 88 70 264 82 171 84 75 74
internal_value=0 -0.00985282 0.00199049 0.00534281 0.00743003 -0.0100111 -0.000512389 0.00845655 0.00747971 -0.0143432 -0.0111919 -0.00608577 -0.0147118 -0.00244081
internal_weight=0 168.073 832.044 515.437 453.754 61.6834 40.1937 436.516 419.065 147.613 127.125 100.902 58.1937 37.214
internal_count=4006 673 3333 2065 1818 247 161 1749 1679 591 509 404 233 149
is_linear=0
shrinkage=0.05


Tree=2
num_leaves=15
num_cat=0
split_feature=2 2 10 3 3 10 6 4 4 8 7 7 4 10
split_gain=7.55962 8.22647 5.44907 5.99866 4.45179 6.54739 5.88651 4.43152 3.75528 5.05786 3.61027 4.85423 3.5148 3.1435
threshold=24.640000000000004 14.125000000000002 27875050.000000004 521.24900000000014 20.865000000000006 4197650.0000000009 19.582000000000004 3509800.0000000005 15972593.500000002 560.32155 476.82100000000008 443.30840000000006 7148700.0000000009 19946150.000000004
decision_type=2 2 2 2 2 2 2 2 2 2 2 2 2 2
left_child=1 -1 3 7 6 -6 12 -2 9 -5 11 13 -3 -9
right_child=2 4 -4 8 5 -7 -8 10 -10 -11 -12 -13 -14 -15
leaf_value=0.028612878850952456 -0.018136548646919558 -0.018429463248750486 -0.0032175315211519177 -0.017045867851098552 0.00068411175313793867 -0.034351551634172348 0.016476559830644007 0.0045799865115351279 -0.02637708796905926 0.01851587449730915 0.030379816139410862 -0.021542579300736744 0.0097242784727002134 0.013570306239201172
leaf_weight=12.950801253318785 16.74508298933506 57.450097680091858 315.89437046647072 21.472506865859032 19.489233911037445 42.227654695510864 22.231706917285919 244.51984861493111 21.498644173145294 18.711694806814194 17.416488826274872 14.242890805006025 13.736512228846548 161.41585756838322
leaf_count=52 67 230 1265 86 78 169 89 980 86 75 70 57 55 647
internal_value=0 -0.00967117 0.00195442 0.00512054 -0.0128671 -0.0232878 -0.00598271 0.00710689 -0.00951035 -0.000486612 0.00807285 0.00714823 -0.0129968 0.00815489
internal_weight=0 168.086 831.917 516.023 155.135 61.7169 93.4183 454.34 61.6828 40.1842 437.595 420.179 71.1866 405.936
internal_count=4006 673 3333 2068 621 247 374 1821 247 161 1754 1684 285 1627
is_linear=0
shrinkage=0.05


Tree=3
num_leaves=15
num_cat=0
split_feature=4 10 4 0 0 9 10 10 10 10 3 1 10 10
split_gain=6.52386 5.84687 5.60869 7.66046 4.80582 4.61607 7.8884 4.27138 3.63775 4.81151 3.30397 12.7412 3.69783 3.83417
threshold=7912250.0000000009 27875050.000000004 5738900.0000000009 36.650000000000013 109.50500000000001 345.59500000000008 9556350.0000000019 6300300.0000000009 14206200.000000002 22008150.000000004 19.890000000000004 26.030000000000005 10926450.000000002 15028600.000000002
decision_type=2 2 2 2 2 2 2 2 2 2 2 2 2 2
left_child=2 5 4 7 -1 10 -7 -4 -8 -10 -2 -12 -13 -14
right_child=1 -3 3 -5 -6 6 8 -9 9 -11 11 12 13 -15
leaf_value=0.00054558098369539493 0.032436988488590029 -0.0031244502907845509 -0.045691120018281968 0.0055937321726309865 -0.031579523635211437 0.029542223126819363 -0.016156230013712351 -0.015606955512468254 0.0085133227726978036 -0.025118165184033193 -0.033371483104058616 0.030240349978010402 -0.0053914089171539416 0.011142544067644679
leaf_weight=135.09253449738026 14.217575550079344 316.67714993655682 23.726488202810287 20.959940105676651 12.739602744579313 17.209217250347137 54.635872721672058 23.46951025724411 50.40158374607563 13.478852644562719 17.740782052278519 21.451826453208923 41.155674397945404 236.88164781033993
leaf_count=541 57 1268 95 84 51 69 219 94 202 54 71 86 165 950
internal_value=0 0.00212055 -0.00769366 -0.01956 -0.00222284 0.00567592 -0.00209091 -0.0307309 -0.00668422 0.00141704 0.00885639 0.00779955 0.0102384 0.00869515
internal_weight=0 783.85 215.988 68.1559 147.832 467.173 135.726 47.196 118.516 63.8804 331.448 317.23 299.489 278.037
internal_count=4006 3141 865 273 592 1873 544 189 475 256 1329 1272 1201 1115
is_linear=0
shrinkage=0.05


Tree=4
num_leaves=15
num_cat=0
split_feature=2 0 10 3 10 1 3 8 7 7 1 3 8 8
split_gain=6.32339 8.22557 4.50419 5.16514 5.98406 7.83731 10.2667 4.74184 4.06761 3.63273 4.7124 3.8944 6.64992 3.47196
threshold=24.640000000000004 14.575000000000001 26156527.500000004 521.24900000000014 23080073.000000004 92.080000000000013 141.07500000000002 477.89715000000007 386.83550000000008 23.088500000000007 16.565000000000005 19.890000000000004 21.094500000000004 566.08278000000007
decision_type=2 2 2 2 2 2 2 2 2 2 2 2 2 2
left_child=1 -1 3 4 7 -6 -7 -2 -4 10 -3 -12 -13 -5
right_child=2 9 8 13 5 6 -8 -9 -10 -11 11 12 -14 -15
leaf_value=0.020904033928000339 0.0032034408147313164 -0.028309421201008201 -0.0014829951482991993 -0.0205047174800599 0.055911085001528416 -0.023136187753676356 0.02730974090326653 0.030933870301180597 -0.030537852832753998 -0.030764302000332661 0.0067622177074750699 -0.03496751770955462 0.00082912279815975797 0.0033676933729323896
leaf_weight=20.413526013493538 342.66599258780479 26.243088528513908 338.60615202784538 30.723615661263466 12.956018149852751 14.450943320989607 33.391543969511986 16.142274305224419 12.490321636199949 23.989745542407036 43.198023304343224 21.494361236691475 32.72924268245697 30.203899025917053
leaf_count=82 1374 105 1356 123 52 58 134 65 50 96 173 86 131 121
internal_value=0 -0.00884513 0.00178826 0.00493357 0.00690888 0.0214143 0.0120724 0.00445099 -0.00251663 -0.012958 -0.00950376 -0.00443796 -0.0133607 -0.00867033
internal_weight=0 168.068 831.631 480.534 419.607 60.7985 47.8425 358.808 351.096 147.654 123.665 97.4216 54.2236 60.9275
internal_count=4006 673 3333 1927 1683 244 192 1439 1406 591 495 390 217 244
is_linear=0
shrinkage=0.05


Tree=5
num_leaves=15
num_cat=0
split_feature=2 2 9 3 9 7 4 7 4 4 8 8 8 2
split_gain=5.70871 6.69563 4.37973 2.92339 4.32004 3.18516 6.16528 4.26729 2.85088 4.66296 2.81471 3.4553 5.49005 4.41158
threshold=24.640000000000004 14.125000000000002 23.555000000000003 521.24900000000014 492.25600000000003 386.83550000000008 16772300.000000002 351.95850000000002 15972593.500000002 10797600.000000002 334.68725000000006 204.93450000000004 171.09125000000003 144.88000000000002
decision_type=2 2 2 2 2 2 2 2 2 2 2 2 2 2
left_child=1 -1 -3 4 5 7 -7 10 9 -5 11 12 13 -2
right_child=3 2 -4 8 -6 6 -8 -9 -10 -11 -12 -13 -14 -15
leaf_value=0.026206009837082385 0.0020129009458889871 -0.008338252446188946 -0.035247126811354244 -0.018580576331901116 0.029042652968573487 0.0025050858943251016 -0.033575900020601679 0.029342271437081475 -0.020970097337082005 0.01562806470776076 -0.016768504358750155 0.013255153460073605 -0.0088025005040188384 0.016088270496258342
leaf_weight=12.900180310010908 423.42182996869087 138.13416461646557 16.980412751436234 18.244591876864433 15.113920092582701 34.673380121588707 17.978522822260857 14.9739982932806 26.744753405451775 21.942061707377434 18.70580005645752 71.814354881644249 103.7634175568819 64.096096396446228
leaf_count=52 1697 553 68 73 61 139 72 60 107 88 75 288 416 257
internal_value=0 -0.00840549 -0.011284 0.00169937 0.00257658 0.00204283 -0.00981513 0.00293888 -0.0083208 9.74684e-05 0.00235899 0.00289858 0.00164071 0.00386345
internal_weight=0 168.015 155.115 831.473 764.541 749.427 52.6519 696.775 66.9314 40.1867 681.801 663.096 591.281 487.518
internal_count=4006 673 621 3333 3065 3004 211 2793 268 161 2733 2658 2370 1954
is_linear=0
shrinkage=0.05


Tree=6
num_leaves=15
num_cat=0
split_feature=2 0 10 3 9 1 3 4 6 4 0 4 4 3
split_gain=5.15348 6.91084 4.11453 4.39915 3.63462 4.0771 4.18174 4.70922 6.59359 3.60691 3.15937 3.14157 4.20985 2.99422
threshold=24.640000000000004 14.575000000000001 27875050.000000004 521.24900000000014 23.555000000000003 16.565000000000005 19.890000000000004 4907700.0000000009 21.177000000000003 3509800.0000000005 18.725000000000005 15972593.500000002 10797600.000000002 127.15500000000002
decision_type=2 2 2 2 2 2 2 2 2 2 2 2 2 2
left_child=1 -1 3 9 5 -3 10 -8 -9 -2 -7 12 -5 -4
right_child=2 4 13 11 -6 6 7 8 -10 -11 -12 -13 -14 -15
leaf_value=0.019321856452485686 -0.016698737129918279 -0.02654647807976214 0.001474854524562695 -0.017650518361802609 -0.033532035298890789 -0.0047976757902245494 0.0031751138400712003 -0.051915088452028114 -0.0074647343588795344 0.0069448645584009499 0.022313698940672901 -0.023592696972373504 0.014859172132217217 -0.0083209838558381578
leaf_weight=20.358532577753067 16.748788699507713 26.239342004060745 175.56311991810799 18.245615884661674 16.957046225667 23.976179108023643 25.98844201862812 13.739553764462469 21.239865928888321 436.95630110800266 19.473489373922348 21.48907445371151 21.924050226807594 140.38596831262112
leaf_count=82 67 105 703 73 68 96 104 55 85 1754 78 86 88 562
internal_value=0 -0.0079872 0.00161485 0.00436907 -0.0117536 -0.00892713 -0.00449951 -0.0129466 -0.0249244 0.00607205 0.00735324 -0.00816197 9.28227e-05 -0.00287774
internal_weight=0 167.972 831.313 515.364 147.614 130.657 104.418 60.9679 34.9794 453.705 43.4497 61.6587 40.1697 315.949
internal_count=4006 673 3333 2068 591 523 418 244 140 1821 174 247 161 1265
is_linear=0
shrinkage=0.05


Tree=7
num_leaves=15
num_cat=0
split_feature=2 0 10 10 1 1 8 10 7 9 1 0 0 10
split_gain=4.65386 6.24305 3.74718 4.5106 8.43215 6.55277 4.85666 4.58873 3.35362 3.29111 3.68173 3.11651 5.726 2.63949
threshold=24.640000000000004 14.575000000000001 26156527.500000004 23080073.000000004 92.080000000000013 143.53000000000003 174.02470250000002 22367000.000000004 386.83550000000008 23.555000000000003 16.565000000000005 21.270000000000003 22.805000000000003 16156729.500000002
decision_type=2 2 2 2 2 2 2 2 2 2 2 2 2 2
left_child=1 -1 3 7 -5 -6 -7 13 -4 10 -3 -12 -13 -2
right_child=2 9 8 4 5 6 -8 -9 -10 -11 11 12 -14 -15
leaf_value=0.018385270344422496 0.00044644866584905098 -0.025231118423724466 -0.0014523759377740374 0.052929392878152674 -0.020461073845890802 0.042268756445766137 0.0044022520382386012 -0.023787900141873677 -0.027827893972734163 -0.031917038655966332 0.0023591887060810677 -0.030190275157444546 0.0096797896483007701 0.0088424353679667916
leaf_weight=20.326679676771164 251.99965870380402 26.227176785469055 338.59502871334553 12.893720149993895 14.710689380764959 13.909979254007338 21.642941862344742 15.942348659038542 12.496598765254019 16.925114899873734 65.658657521009445 24.482478335499763 14.244938820600508 148.93097238242626
leaf_count=82 1011 105 1356 52 59 56 87 64 50 68 263 98 57 598
internal_value=0 -0.00759284 0.0015345 0.00440572 0.0168578 0.00760468 0.0192174 0.00251919 -0.00239117 -0.0111719 -0.00848371 -0.00427589 -0.015525 0.00356525
internal_weight=0 167.865 831.122 480.03 63.1573 50.2636 35.5529 416.873 351.092 147.538 130.613 104.386 38.7274 400.931
internal_count=4006 673 3333 1927 254 202 143 1673 1406 591 523 418 155 1609
is_linear=0
shrinkage=0.05


Tree=8
num_leaves=15
num_cat=0
split_feature=4 10 10 10 7 8 10 10 10 9 10 6 1 1
split_gain=4.53173 5.36459 4.55242 6.1011 5.31026 6.2313 4.83562 4.65726 7.8482 6.25756 5.466 3.59674 4.37153 3.15351
threshold=7912250.0000000009 9207650.0000000019 9556350.0000000019 8008600.0000000009 386.83550000000008 409.96800000000002 28057315.500000004 14657100.000000002 13938050.000000002 273.96200000000005 12182300.000000002 245.56800000000001 215.21000000000001 14.705000000000002
decision_type=2 2 2 2 2 2 2 2 2 2 2 2 2 2
left_child=1 13 3 -2 6 -6 7 8 10 11 -4 12 -9 -1
right_child=2 -3 4 -5 5 -7 -8 9 -10 -11 -12 -13 -14 -15
leaf_value=0.019342096904952893 0.0026708576499387664 -0.036683972695737914 -0.013519330238722094 0.0382987164964637 -0.042671040908073138 -0.0051232923905276742 -0.0019909257221636801 0.0068559563284774742 -0.041044357076041399 0.032917155955787085 0.020367501245741895 -0.018499914924857048 0.036545282499507434 -0.0060079161615807161
leaf_weight=13.120135515928267 31.613385871052742 13.708281815052031 23.666450008749962 19.384153768420219 12.483499780297278 96.205486431717873 302.73137579858303 208.22399505972862 12.467159420251845 26.142823085188866 23.935134679079056 12.93635807931423 13.183627814054487 188.91393142938614
leaf_count=53 127 55 95 78 50 386 1212 837 50 105 96 52 53 757
internal_value=0 -0.00641544 0.00176886 0.016213 0.000762524 -0.00943585 0.00254092 0.00682078 -0.00572947 0.00971489 0.00351972 0.0071265 0.0086238 -0.00436168
internal_weight=0 215.742 782.973 50.9975 731.976 108.689 623.287 320.556 60.0687 260.487 47.6016 234.344 221.408 202.034
internal_count=4006 865 3141 205 2936 436 2500 1288 241 1047 191 942 890 810
is_linear=0
shrinkage=0.05


Tree=9
num_leaves=15
num_cat=0
split_feature=4 4 0 3 9 4 0 10 4 7 8 10 10 10
split_gain=4.09044 4.88638 6.50052 4.7229 6.78952 6.29503 4.54119 3.98976 7.06404 3.91044 4.26205 4.16431 3.94829 6.28573
threshold=7912250.0000000009 5738900.0000000009 36.650000000000013 19.890000000000004 25.800000000000004 9820750.0000000019 109.50500000000001 7101650.0000000009 6415650.0000000009 386.83550000000008 418.12720000000007 28057315.500000004 10790800.000000002 13605000.000000002
decision_type=2 2 2 2 2 2 2 2 2 2 2 2 2 2
left_child=1 6 7 -2 -5 -6 -1 8 -3 11 -11 -7 -12 -14
right_child=3 2 -4 4 5 9 -8 -9 -10 10 12 -13 13 -15
leaf_value=0.0017104366294160992 0.030292943059716304 -0.06728395210125486 0.0060007006351357238 -0.027829697085679894 0.024028965206842751 0.006590582487087937 -0.029516832896919629 -0.0085038120615397016 -0.017869068964894045 -0.033578267151785565 0.019371925318361488 -0.001667996979356403 -0.031031867004974446 0.00040854118395984167
leaf_weight=134.89932449162006 14.162080183625219 12.471183806657793 20.94735324382782 19.688156992197037 30.857737019658089 309.15891537070274 12.74206158518791 17.454890355467796 17.216650053858757 13.98192775249481 15.164267763495443 301.50228872895241 22.185813918709755 56.08366984128952
leaf_count=541 57 50 84 79 124 1243 51 70 69 56 61 1207 89 225
internal_value=0 -0.00609489 -0.0171756 0.00168108 0.0011539 0.00191583 -0.000984606 -0.0274738 -0.0386271 0.000965565 -0.00783203 0.00251307 -0.00397922 -0.00850337
internal_weight=0 215.731 68.0901 782.785 768.623 748.935 147.641 47.1427 29.6878 718.077 107.416 610.661 93.4338 78.2695
internal_count=4006 865 273 3141 3084 3005 592 189 119 2881 431 2450 375 314
is_linear=0
shrinkage=0.05


Tree=10
num_leaves=15
num_cat=0
split_feature=4 10 10 10 7 8 7 10 10 9 1 0 10 6
split_gain=3.69258 4.9004 3.93314 5.45593 4.42609 5.24377 4.22718 4.15036 4.8245 6.45006 3.68093 7.48023 3.58521 3.24646
threshold=7912250.0000000009 9207650.0000000019 9556350.0000000019 8008600.0000000009 386.83550000000008 409.96800000000002 351.95850000000002 28057315.500000004 14657100.000000002 273.96200000000005 44.400000000000006 291.93500000000006 13056750.000000002 245.56800000000001
decision_type=2 2 2 2 2 2 2 2 2 2 2 2 2 2
left_child=1 -1 3 -2 6 -6 7 8 10 13 -4 12 -12 -10
right_child=2 -3 4 -5 5 -7 -8 -9 9 -11 11 -13 -14 -15
leaf_value=-0.0038276256150806759 0.0022349460131963193 -0.034716058296652377 -0.028814340018693499 0.035976251886050206 -0.039127188346294306 -0.0046901750599741051 0.02880800600811716 -0.0025388702678613168 0.0078701901687006463 0.037403244300565006 0.033150850877722661 -0.02956038133269788 -0.0031970136596191144 -0.017890203724248842
leaf_weight=201.98268258571625 31.569218575954437 13.712152943015097 14.926976233720778 19.308499217033386 12.489166036248205 96.219662740826607 14.671424984931944 300.01305103302002 221.15787106752396 18.128412514925003 13.943952843546869 13.968223810195921 13.212428435683249 12.94648817181587
leaf_count=810 127 55 60 78 50 386 59 1201 890 73 56 56 53 52
internal_value=0 -0.00579127 0.0015976 0.01504 0.000662866 -0.00864652 0.00228737 0.00164772 0.00572198 0.00867056 -0.00754668 0.00017283 0.0154665 0.00644558
internal_weight=0 215.695 782.555 50.8777 731.678 108.709 622.969 608.297 308.284 252.233 56.0516 41.1246 27.1564 234.104
internal_count=4006 865 3141 205 2936 436 2500 2441 1240 1015 225 165 109 942
is_linear=0
shrinkage=0.05


Tree=11
num_leaves=15
num_cat=0
split_feature=7 7 1 10 10 4 4 8 9 10 1 3 4 10
split_gain=3.36395 5.93455 3.58031 2.90267 3.86577 3.86001 3.64893 2.91395 5.56944 3.05605 2.77111 4.8906 6.24216 3.34621
threshold=24.186500000000006 23.088500000000007 14.705000000000002 26156527.500000004 24671301.000000004 22492766.500000004 24549189.500000004 171.52225000000004 173.14500000000001 35719250.000000007 150.28000000000003 127.15500000000002 69248746.500000015 54763382.000000007
decision_type=2 2 2 2 2 2 2 2 2 2 2 2 2 2
left_child=1 2 -1 4 -2 -5 -7 10 -9 -10 11 12 13 -8
right_child=3 -3 -4 5 -6 6 7 8 9 -11 -12 -13 -14 -15
leaf_value=0.018825992641237965 0.0025973194113302878 -0.035612344506274818 -0.0062382991832369093 -0.019060363360487276 0.020720095114625966 0.020128447479217333 0.0028159588720591579 -0.035429203933190628 -0.01388102778289162 0.0092287990718405728 0.015697507701514683 -0.019603402152117089 0.032161329907068832 -0.015600243378179578
leaf_weight=16.037010967731476 455.2750077098608 15.923698797821997 127.71165952086449 30.936182335019112 31.458980843424797 19.97335159778595 121.10322423279285 17.238372042775154 30.44817852973938 26.983319848775864 27.714636504650116 30.4883853495121 15.719380974769591 30.974417924880981
leaf_count=65 1830 64 512 124 127 80 485 69 122 108 111 122 63 124
internal_value=0 -0.00665031 -0.00344206 0.00126812 0.00376865 -0.00219367 -0.000566341 -0.00194109 -0.0105045 -0.00302323 0.000888248 -0.00118166 0.00216553 -0.000934962
internal_weight=0 159.672 143.749 838.313 486.734 351.579 320.643 300.67 74.6699 57.4315 226 198.285 167.797 152.078
internal_count=4006 641 577 3365 1957 1408 1284 1204 299 230 905 794 672 609
is_linear=0
shrinkage=0.05


Tree=12
num_leaves=15
num_cat=0
split_feature=4 10 3 9 4 7 10 10 10 4 4 10 4 0
split_gain=3.17551 4.43233 4.37329 5.78007 5.5739 3.26301 4.01749 3.06953 3.02547 7.42627 3.1384 2.79862 6.58776 4.63493
threshold=7912250.0000000009 9207650.0000000019 19.890000000000004 25.800000000000004 9820750.0000000019 386.83550000000008 22367000.000000004 28057315.500000004 16156729.500000002 17000700.000000004 11859700.000000002 7426050.0000000009 5738900.0000000009 30.685000000000006
decision_type=2 2 2 2 2 2 2 2 2 2 2 2 2 2
left_child=1 11 -2 -4 -5 7 8 -6 9 10 -7 12 -1 -14
right_child=2 -3 3 4 5 6 -8 -9 -10 -11 -12 -13 13 -15
leaf_value=-0.00013553414067107522 0.02905017686475448 -0.032886550623168295 -0.025799957144187355 0.022510821130845723 0.0057033025081252211 -0.014152975057566106 -0.026467702832443103 -0.0013897194268246438 0.011407422046664853 -0.043009045980329008 0.012125474630302238 0.013695007809369032 -0.034529760684347259 -0.00045622842311319193
leaf_weight=137.14925077557564 14.126247122883795 13.705371990799902 19.640648022294044 30.78634113073349 308.69261582195759 20.397994190454483 21.705404296517372 301.50316052138805 27.156263157725334 12.472953006625174 25.647951602935791 21.174076095223427 28.142622455954552 15.464805349707602
leaf_count=550 57 55 79 124 1243 82 87 1207 109 50 103 85 113 62
internal_value=0 -0.00537083 0.00148233 0.00097526 0.00167797 0.000784174 -0.00725325 0.00219858 -0.00238535 -0.00878603 0.000484327 -0.00350329 -0.00551793 -0.022446
internal_weight=0 215.636 782.13 768.003 748.363 717.576 107.381 610.196 85.6752 58.5189 46.0459 201.931 180.757 43.6074
internal_count=4006 865 3141 3084 3005 2881 431 2450 344 235 185 810 725 175
is_linear=0
shrinkage=0.05


Tree=13
num_leaves=15
num_cat=0
split_feature=4 10 3 6 10 10 7 7 10 8 4 6 8 6
split_gain=2.86697 4.00441 3.95819 5.28254 5.37513 7.52923 3.24987 4.54249 5.60197 5.26562 4.33457 3.56287 5.72741 3.49263
threshold=7912250.0000000009 9207650.0000000019 19.890000000000004 24.291000000000004 10926450.000000002 12182300.000000002 386.83550000000008 212.93600000000006 14021609.500000002 171.09125000000003 47244637.500000007 253.39200000000002 270.03370000000001 131.28650000000002
decision_type=2 2 2 2 2 2 2 2 2 2 2 2 2 2
left_child=1 -1 -2 -4 -5 -6 7 8 -7 13 -11 -9 -13 -10
right_child=2 -3 3 4 5 6 -8 11 9 10 -12 12 -14 -15
leaf_value=-0.0033291017327072405 0.027669450584299357 -0.031269251294853771 -0.026949521791274991 0.016404112419420795 -0.027368681405368907 0.030780073877700181 -0.0081915760431550515 0.027791822177524718 -3.354786761809115e-05 -0.0061769037746188561 -0.037469819912923558 -0.023373733593766585 0.015234918808158499 0.011013939676082888
leaf_weight=201.88179360330105 14.090512081980703 13.693797558546065 16.626560002565384 56.291954144835472 23.680989131331444 15.169688925147055 79.241111069917679 28.604119569063187 291.83360658586025 96.892512515187263 12.492906421422957 12.698219284415243 39.442120268940926 94.777184501290321
leaf_count=810 57 55 67 227 95 61 318 115 1171 389 50 51 159 381
internal_value=0 -0.00510392 0.00140878 0.000926823 0.00154388 0.000339978 0.00131765 0.00259069 0.000849824 -6.55708e-05 -0.00975087 0.0136115 0.0058322 0.00267473
internal_weight=0 215.576 781.841 767.751 751.124 694.832 671.151 591.91 511.166 495.996 109.385 80.7445 52.1403 386.611
internal_count=4006 865 3141 3084 3017 2790 2695 2377 2052 1991 439 325 210 1552
is_linear=0
shrinkage=0.05


end of trees

feature_importances:
Column_10=50
Column_4=35
Column_7=19
Column_3=18
Column_8=17
Column_0=13
Column_1=13
Column_9=13
Column_2=10
Column_6=8

parameters:
[boosting: gbdt]
[objective: binary]
[metric: binary_logloss]
[tree_learner: serial]
[device_type: cpu]
[data_sample_strategy: bagging]
[data: ]
[valid: ]
[num_iterations: 10000]
[learning_rate: 0.05]
[num_leaves: 15]
[num_threads: 0]
[seed: 1235]
[deterministic: 0]
[force_col_wise: 0]
[force_row_wise: 0]
[histogram_pool_size: -1]
[max_depth: -1]
[min_data_in_leaf: 50]
[min_sum_hessian_in_leaf: 0.001]
[bagging_fraction: 0.5]
[pos_bagging_fraction: 1]
[neg_bagging_fraction: 1]
[bagging_freq: 0]
[bagging_seed: 10961]
[feature_fraction: 0.8]
[feature_fraction_bynode: 1]
[feature_fraction_seed: 53]
[extra_trees: 0]
[extra_seed: 11644]
[early_stopping_round: 0]
[early_stopping_min_delta: 0]
[first_metric_only: 0]
[max_delta_step: 0]
[lambda_l1: 0]
[lambda_l2: 0]
[linear_lambda: 0]
[min_gain_to_split: 0]
[drop_rate: 0.1]
[max_drop: 50]
[skip_drop: 0.5]
[xgboost_dart_mode: 0]
[uniform_drop: 0]
[drop_seed: 30626]
[top_rate: 0.2]
[other_rate: 0.1]
[min_data_per_group: 100]
[max_cat_threshold: 32]
[cat_l2: 10]
[cat_smooth: 10]
[max_cat_to_onehot: 4]
[top_k: 20]
[monotone_constraints: ]
[monotone_constraints_method: basic]
[monotone_penalty: 0]
[feature_contri: ]
[forcedsplits_filename: ]
[refit_decay_rate: 0.9]
[cegb_tradeoff: 1]
[cegb_penalty_split: 0]
[cegb_penalty_feature_lazy: ]
[cegb_penalty_feature_coupled: ]
[path_smooth: 0]
[interaction_constraints: ]
[verbosity: -1]
[saved_feature_importance_type: 0]
[use_quantized_grad: 0]
[num_grad_quant_bins: 4]
[quant_train_renew_leaf: 0]
[stochastic_rounding: 1]
[linear_tree: 0]
[max_bin: 255]
[max_bin_by_feature: ]
[min_data_in_bin: 3]
[bin_construct_sample_cnt: 200000]
[data_random_seed: 4071]
[is_enable_sparse: 1]
[enable_bundle: 1]
[use_missing: 1]
[zero_as_missing: 0]
[feature_pre_filter: 1]
[pre_partition: 0]
[two_round: 0]
[header: 0]
[label_column: ]
[weight_column: ]
[group_column: ]
[ignore_column: ]
[categorical_feature: ]
[forcedbins_filename: ]
[precise_float_parser: 0]
[parser_config_file: ]
[objective_seed: 602]
[num_class: 1]
[is_unbalance: 0]
[scale_pos_weight: 1]
[sigmoid: 1]
[boost_from_average: 1]
[reg_sqrt: 0]
[alpha: 0.9]
[fair_c: 1]
[poisson_max_delta_step: 0.7]
[tweedie_variance_power: 1.5]
[lambdarank_truncation_level: 30]
[lambdarank_norm: 1]
[label_gain: ]
[lambdarank_position_bias_regularization: 0]
[eval_at: ]
[multi_error_top_k: 1]
[auc_mu_weights: ]
[num_machines: 1]
[local_listen_port: 12400]
[time_out: 120]
[machine_list_filename: ]
[machines: ]
[gpu_platform_id: -1]
[gpu_device_id: -1]
[gpu_use_dp: 0]
[num_gpu: 1]

end of parameters

pandas_categorical:null
