tree
version=v4
num_class=1
num_tree_per_iteration=1
label_index=0
max_feature_idx=20
objective=binary sigmoid:1
feature_names=Column_0 Column_1 Column_2 Column_3 Column_4 Column_5 Column_6 Column_7 Column_8 Column_9 Column_10 Column_11 Column_12 Column_13 Column_14 Column_15 Column_16 Column_17 Column_18 Column_19 Column_20
feature_infos=[13.130000000000001:702.40999999999997] [13.19:705.07000000000005] [12.93:699.36170000000004] [13.140000000000001:700.09500000000003] [904100:189560600] [0:3.0499999999999998] [13.280000000000001:700.5172] [13.456999999999999:691.09659999999997] [13.820499999999999:680.67899999999997] [13.119999999999999:698.70000000000005] [702500:189560600] [0:3.8231570502776488e-07] [0:54.580000000000013] [0:282.54246575342466] [-47:0] [-499.22249999999997:48.754554999999982] [0:1637.1699999999998] [0:3.2200508873615642e-07] [0.17553522319387929:1.1419994779430958] [10087900:29875787340.000004] [0.88144871440420225:3.9263527325034344]
tree_sizes=9883

Tree=0
num_leaves=95
num_cat=0
split_feature=2 14 9 0 18 18 12 15 14 14 10 12 12 8 20 7 7 8 14 10 4 6 18 14 19 4 18 7 12 14 0 2 3 8 18 10 12 4 15 14 15 19 12 18 18 14 18 0 2 18 0 18 20 10 0 18 19 10 14 4 18 0 19 10 14 18 18 18 20 18 19 8 14 14 4 4 12 15 10 4 18 2 18 4 18 10 4 14 19 19 18 4 12 19
split_gain=9.08123 10.2209 9.71401 7.77362 6.83609 9.92064 10.5265 9.89679 9.71431 9.86108 9.18701 8.5919 12.3872 7.72249 8.772 6.93867 9.1881 7.05959 8.56368 6.78536 6.89138 6.14528 6.0045 8.38032 8.05684 7.13297 7.54454 5.72015 5.63335 5.41176 8.76299 5.39775 8.26848 7.52472 9.49299 9.13835 7.76139 6.41862 8.06695 9.81736 8.30927 7.85197 8.54246 5.64217 7.32719 6.00933 5.56341 5.35768 5.2673 6.88275 8.7009 9.43282 8.48234 6.73105 6.08939 5.71216 5.35516 6.60294 5.68219 7.12941 5.30527 5.15897 5.09546 5.04731 5.00656 4.96489 7.20411 6.77439 4.93932 4.92953 4.97528 4.7152 4.69755 4.67496 7.30532 7.88212 6.75448 6.18767 5.13112 4.89222 5.7933 4.66169 4.61843 4.59981 4.69245 5.93552 4.57429 4.53383 4.52766 6.50209 4.49306 4.41822 4.40606 4.359
threshold=25.160000000000004 -0.89999999999999492 24.990000000000006 19.725000000000005 1.011755538964352 1.0146933945962802 2.1650000000000067 0.046500000000005322 -1.0299999999999991 -1.0649999999999975 26193760.000000004 0.17000000000000084 1.4376499999999981 125.16350000000001 1.0441274645855072 114.20000000000003 120.944 110.6315 -0.29999999999999977 29025150.000000004 31118240.000000004 174.239 0.99130995711155279 -0.17999999999999614 4543891573.1400013 15364450.000000002 0.9782687666628761 14.3725 0.57999999999999929 -0.42999999999999611 225.73000000000002 15.930000000000001 14.225000000000003 18.121000000000002 0.96242666408781019 10476950.000000002 1.0545000000000047 2464450.0000000005 -0.53025000000000044 -0.11000000000000031 -0.67912249999999996 62087483.500000007 0.71000000000000452 0.96440508863746954 0.97408814478050532 -0.43500000000000222 1.0121527529375609 98.590000000000018 132.16500000000005 1.0253245584267321 111.79500000000002 1.0285700560269289 1.0107107351739824 53219283.000000007 99.25500000000001 1.0157557144287004 842484258.50000012 30181463.500000004 -2.4500000000000095 16936108.500000004 1.0428518810394705 66.27000000000001 243528390.50000003 30181463.500000004 -0.38999999999999874 1.0228147602367001 1.0340078671408979 1.017712087772211 1.0259698089704459 0.98015913456365789 6524945731.3500013 533.39850000000013 -0.20000000000000015 -0.39749999999997948 21801933.500000004 20280700.000000004 0.1399999999999926 -3.5095000000000023 6678250.0000000009 29295281.000000004 1.0009170843873909 117.93000000000002 0.99459058558754243 44360908.000000007 0.9977031413465961 33085388.500000004 31600800.000000004 -1.1850000000000021 8707472775.5000019 4018542101.7000003 1.0367857248061352 83470442.000000015 1.3000000000000009 5039174830.9100008
decision_type=2 2 2 2 2 2 2 2 2 2 2 2 2 2 2 2 2 2 2 2 2 2 2 2 2 2 2 2 2 2 2 2 2 2 2 2 2 2 2 2 2 2 2 2 2 2 2 2 2 2 2 2 2 2 2 2 2 2 2 2 2 2 2 2 2 2 2 2 2 2 2 2 2 2 2 2 2 2 2 2 2 2 2 2 2 2 2 2 2 2 2 2 2 2
left_child=1 3 27 -1 8 7 48 63 9 62 22 86 15 68 19 17 -17 18 -13 -15 -21 28 23 -10 73 26 -25 -3 -18 -26 -31 32 -29 -33 -35 36 37 -36 40 41 46 -40 72 -34 -45 -46 -39 61 49 52 51 -51 55 71 56 -7 58 -58 -53 -60 90 -20 -2 -6 -19 67 -67 -8 81 -22 -71 -50 82 74 75 77 -75 -24 -78 80 -76 -14 -43 84 -30 -86 -12 -9 89 -68 -59 -64 -27 -57
right_child=4 2 -4 -5 5 6 65 87 10 -11 11 12 13 14 -16 16 21 64 47 20 69 -23 24 25 29 92 -28 31 83 30 -32 33 43 34 35 -37 -38 38 39 -41 -42 42 -44 44 45 -47 -48 -49 53 50 -52 54 -54 -55 -56 93 57 60 59 -61 -62 -63 91 -65 -66 66 88 -69 -70 70 -72 -73 -74 76 79 -77 78 -79 -80 -81 -82 -83 -84 -85 85 -87 -88 -89 -90 -91 -92 -93 -94 -95
leaf_value=0.072011583688199696 0.0087028773699399098 0.11077201612795058 -0.0077893066289344975 0.010640898991927453 0.035404508606212741 0.055720967155550763 0.063218707810663619 0.13553562574223588 0.10961714290814423 0.011130298391419255 0.15639627514557403 0.033524112040278033 0.077653925119302664 0.015770956226600463 -0.015944782232773486 -0.023339080113587443 0.12886021793316749 0.16891266478757688 0.059678718821006241 0.14387988550357106 0.099591122154945519 -0.0077893066289344975 0.13810309028418516 0.096090034143196418 0.011563766430969145 0.041473061159911104 -0.0090982101209086397 0.11328426637867517 -0.0077893066289345114 0.008702877369939882 0.13553562574223585 0.10883399450596304 -0.031349569484469195 0.10926008436611631 0.13136349586156826 -0.0027406788741770188 0.0020274695608717003 0.064694563278654887 0.15070700712648188 0.14279150379557071 -0.031349569484469597 0.0050617458377209823 0.14888644136037227 0.1288602179331676 0.079907227333334122 0.025134650438415493 -0.0027406788741770188 0.028729100797144545 0.091888728529097574 0.012185698835540715 0.019999721354516872 -0.01466104996179883 0.047701312465022599 0.16891266478757691 0.12719136598090061 0.10215858669689482 0.11429569180429155 0.068781547651553782 0.10567195922798336 0.011563766430969159 0.098820882792360717 0.1466613054240162 0.068137913289797902 0.10633071657756245 0.068781547651553782 0.092448902610977421 0.0020274695608716725 -5.8595379462109132e-05 0.13438469336136205 0.075456955460621991 -0.013143911823374196 0.030269579522314113 0.0087028773699399931 0.035404508606212741 0.083085992956699939 0.0020274695608717003 0.057655867969773449 0.065747271374704597 0.11578186793989118 0.062106139842485579 0.16891266478757688 0.14030377417728457 0.076198667439407342 0.10883399450596304 0.011563766430969159 0.10215858669689482 0.076483941277401712 0.097851871981366939 -0.014661049961798803 0.098231876220972347 -0.014661049961798803 0.011563766430969138 0.11550940231503123 0.15713253335980948
leaf_weight=7.7398517280817059 3.7450895458459845 7.7398517280817023 4.2444348186254492 15.479703456163405 6.741161182522772 5.7424706369638434 8.9882149100303668 16.478394001722336 44.691401913762093 8.2391970008611661 3.9947621822357169 17.726757183670998 19.724138274788864 4.2444348186254564 3.2457442730665198 6.2418159097433117 2.4967263638973298 2.4967263638973236 2.7463990002870577 3.9947621822357204 6.4914885461330396 4.2444348186254492 3.2457442730665198 2.7463990002870586 6.9908338189125061 2.7463990002870542 4.4941074550151825 4.4941074550151816 4.2444348186254484 2.4967263638973218 2.9960716366767883 12.483631819486616 2.4967263638973263 11.734613910317419 3.9947621822357169 5.2431253641843787 4.4941074550151816 24.467918366193778 2.7463990002870515 5.7424706369638576 2.9960716366767803 2.7463990002870586 2.4967263638973227 2.4967263638973263 6.74116118252278 19.474465638399121 3.4954169094562522 2.4967263638973236 71.406374007463455 5.7424706369638434 9.7372328191995603 2.9960716366767874 9.4875601828098279 2.7463990002870551 5.9921432733535758 23.96857309341431 10.985596001148226 3.4954169094562513 4.7437800914049131 3.4954169094562531 4.9934527277946472 4.4941074550151825 271.89350102841854 3.9947621822357178 2.4967263638973227 13.731995001435282 2.9960716366767866 7.9895243644714347 7.2405064553022376 3.7450895458459854 2.746399000287056 3.2457442730665198 4.9934527277946534 3.7450895458459845 3.4954169094562513 4.4941074550151816 4.4941074550151852 32.956788003444672 24.467918366193771 3.7450895458459854 4.4941074550151825 3.4954169094562522 13.482322365045546 2.4967263638973227 3.4954169094562531 3.7450895458459854 3.2457442730665207 15.479703456163408 2.9960716366767883 4.2444348186254501 2.9960716366767883 3.4954169094562522 7.4901790916919708 4.2444348186254492
leaf_count=31 15 31 17 62 27 23 36 66 179 33 16 71 79 17 13 25 10 10 11 16 26 17 13 11 28 11 18 18 17 10 12 50 10 47 16 21 18 98 11 23 12 11 10 10 27 78 14 10 286 23 39 12 38 11 24 96 44 14 19 14 20 18 1089 16 10 55 12 32 29 15 11 13 20 15 14 18 18 132 98 15 18 14 54 10 14 15 13 62 12 17 12 14 30 17
internal_value=0.072405 0.0619511 0.0667655 0.0310978 0.0745758 0.0812979 0.0769626 0.10333 0.0715068 0.0650408 0.0781105 0.0677535 0.064409 0.0815255 0.0606076 0.048587 0.0298417 0.0641601 0.054217 0.0723156 0.0864517 0.04586 0.0859916 0.0981373 0.0782569 0.0687815 0.0308008 0.0689545 0.0596787 0.0407448 0.0778844 0.0665889 0.0498757 0.0724901 0.0673713 0.0609791 0.0656415 0.0698983 0.0660111 0.0835295 0.0477863 0.0706708 0.0614035 0.0407448 0.0470139 0.039219 0.0562652 0.0918887 0.0822744 0.074612 0.0628915 0.0720826 0.0894983 0.0920378 0.0807469 0.101177 0.0724901 0.0865826 0.0443051 0.0657473 0.0600745 0.113668 0.066632 0.0617957 0.118847 0.0541282 0.0687815 0.0334412 0.0983284 0.0687815 0.037972 0.0892096 0.0511114 0.0837572 0.0745033 0.0644814 0.0985916 0.0722343 0.106762 0.10926 0.131363 0.0870851 0.0641601 0.0473249 0.0339533 0.0584232 0.120574 0.117283 0.0370327 0.0584232 0.0302696 0.0674198 0.095646 0.110429
internal_weight=0 172.024 148.805 23.2196 828.414 259.66 216.966 42.694 568.754 287.373 281.381 121.591 114.35 54.928 24.4679 59.4221 26.9646 32.4574 27.464 21.2222 16.9777 20.7228 159.79 62.1685 97.622 17.4771 7.24051 144.56 16.4784 12.4836 5.4928 136.821 35.7032 101.117 88.6338 76.8992 71.656 67.1619 63.1672 32.2078 30.9594 26.4653 23.7189 31.2091 28.7124 26.2156 27.9633 9.73723 176.019 98.6207 55.1777 45.4404 43.443 77.3985 39.6979 33.9555 33.7058 22.4705 11.2353 8.2392 11.4849 7.24051 279.134 10.7359 4.99345 40.9463 23.9686 16.9777 30.4601 12.983 6.49149 74.6521 21.2222 85.1384 52.4313 40.6966 32.7071 36.2025 28.962 11.7346 7.98952 23.2196 16.2287 13.9817 11.4849 7.24051 7.24051 31.9581 10.2366 7.24051 6.49149 275.389 10.2366 28.213
internal_count=4007 689 596 93 3318 1040 869 171 2278 1151 1127 487 458 220 98 238 108 130 110 85 68 83 640 249 391 70 29 579 66 50 22 548 143 405 355 308 287 269 253 129 124 106 95 125 115 105 112 39 705 395 221 182 174 310 159 136 135 90 45 33 46 29 1118 43 20 164 96 68 122 52 26 299 85 341 210 163 131 145 116 47 32 93 65 56 46 29 29 128 41 29 26 1103 41 113
is_linear=0
shrinkage=1


end of trees

feature_importances:
Column_18=20
Column_14=13
Column_4=10
Column_10=8
Column_12=8
Column_19=8
Column_0=6
Column_2=4
Column_8=4
Column_15=4
Column_7=3
Column_20=3
Column_3=1
Column_6=1
Column_9=1

parameters:
[boosting: gbdt]
[objective: binary]
[metric: binary_logloss]
[tree_learner: serial]
[device_type: cpu]
[data_sample_strategy: bagging]
[data: ]
[valid: ]
[num_iterations: 10000]
[learning_rate: 0.05]
[num_leaves: 95]
[num_threads: 0]
[seed: 1238]
[deterministic: 0]
[force_col_wise: 0]
[force_row_wise: 0]
[histogram_pool_size: -1]
[max_depth: -1]
[min_data_in_leaf: 10]
[min_sum_hessian_in_leaf: 0.001]
[bagging_fraction: 1]
[pos_bagging_fraction: 1]
[neg_bagging_fraction: 1]
[bagging_freq: 0]
[bagging_seed: 10438]
[feature_fraction: 1]
[feature_fraction_bynode: 1]
[feature_fraction_seed: 6707]
[extra_trees: 0]
[extra_seed: 23424]
[early_stopping_round: 0]
[early_stopping_min_delta: 0]
[first_metric_only: 0]
[max_delta_step: 0]
[lambda_l1: 0]
[lambda_l2: 0]
[linear_lambda: 0]
[min_gain_to_split: 0]
[drop_rate: 0.1]
[max_drop: 50]
[skip_drop: 0.5]
[xgboost_dart_mode: 0]
[uniform_drop: 0]
[drop_seed: 18682]
[top_rate: 0.2]
[other_rate: 0.1]
[min_data_per_group: 100]
[max_cat_threshold: 32]
[cat_l2: 10]
[cat_smooth: 10]
[max_cat_to_onehot: 4]
[top_k: 20]
[monotone_constraints: ]
[monotone_constraints_method: basic]
[monotone_penalty: 0]
[feature_contri: ]
[forcedsplits_filename: ]
[refit_decay_rate: 0.9]
[cegb_tradeoff: 1]
[cegb_penalty_split: 0]
[cegb_penalty_feature_lazy: ]
[cegb_penalty_feature_coupled: ]
[path_smooth: 0]
[interaction_constraints: ]
[verbosity: -1]
[saved_feature_importance_type: 0]
[use_quantized_grad: 0]
[num_grad_quant_bins: 4]
[quant_train_renew_leaf: 0]
[stochastic_rounding: 1]
[linear_tree: 0]
[max_bin: 255]
[max_bin_by_feature: ]
[min_data_in_bin: 3]
[bin_construct_sample_cnt: 200000]
[data_random_seed: 4081]
[is_enable_sparse: 1]
[enable_bundle: 1]
[use_missing: 1]
[zero_as_missing: 0]
[feature_pre_filter: 1]
[pre_partition: 0]
[two_round: 0]
[header: 0]
[label_column: ]
[weight_column: ]
[group_column: ]
[ignore_column: ]
[categorical_feature: ]
[forcedbins_filename: ]
[precise_float_parser: 0]
[parser_config_file: ]
[objective_seed: 31546]
[num_class: 1]
[is_unbalance: 0]
[scale_pos_weight: 1]
[sigmoid: 1]
[boost_from_average: 1]
[reg_sqrt: 0]
[alpha: 0.9]
[fair_c: 1]
[poisson_max_delta_step: 0.7]
[tweedie_variance_power: 1.5]
[lambdarank_truncation_level: 30]
[lambdarank_norm: 1]
[label_gain: ]
[lambdarank_position_bias_regularization: 0]
[eval_at: ]
[multi_error_top_k: 1]
[auc_mu_weights: ]
[num_machines: 1]
[local_listen_port: 12400]
[time_out: 120]
[machine_list_filename: ]
[machines: ]
[gpu_platform_id: -1]
[gpu_device_id: -1]
[gpu_use_dp: 0]
[num_gpu: 1]

end of parameters

pandas_categorical:null
