tree
version=v4
num_class=1
num_tree_per_iteration=1
label_index=0
max_feature_idx=10
objective=binary sigmoid:1
feature_names=Column_0 Column_1 Column_2 Column_3 Column_4 Column_5 Column_6 Column_7 Column_8 Column_9 Column_10
feature_infos=[15.199999999999999:141.5] [15.619999999999999:142.37] [14.869999999999999:140.30000000000001] [15.15:141.56999999999999] [5850800:319317900] [0:3.0800000000000001] [15.540000000000001:140.72599999999997] [15.949999999999999:139.25799999999998] [16.448:138.50749999999999] [15.15:141.56999999999999] [5850800:591052200]
tree_sizes=6653 6689 6679

Tree=0
num_leaves=63
num_cat=0
split_feature=4 2 8 4 10 10 10 10 4 10 8 4 4 10 10 4 7 10 10 9 3 0 3 8 7 8 3 4 1 4 2 0 4 4 10 2 10 8 8 4 8 8 2 8 10 8 9 3 4 1 10 4 10 3 9 10 4 4 1 3 2 10
split_gain=9.99928 9.76103 8.11797 9.01922 5.91462 5.46535 5.40208 5.34426 5.28496 4.0323 4.00718 3.95299 8.05193 4.75974 4.41834 7.30602 7.07011 5.24165 4.9725 3.7361 6.30574 4.13772 7.18787 11.7457 9.19108 8.31424 5.7537 5.3285 5.75821 4.35547 7.23447 6.34188 5.15869 7.33362 5.03738 4.90406 4.35127 6.37207 8.13472 4.56577 8.86462 5.54917 3.90376 5.7495 4.55896 3.74132 7.87824 5.9629 4.26765 3.91918 3.73123 7.80391 4.07883 3.79623 3.70588 3.70304 3.6699 3.59748 3.52975 4.48252 3.34021 3.31137
threshold=92948800.000000015 138.34500000000003 25.485625000000002 38204100.000000007 35453250.000000007 40938400.000000007 35897217.500000007 154640550.00000003 39669764.000000007 45536850.000000007 54.91125000000001 43404300.000000007 45181700.000000007 51794900.000000007 54179050.000000007 54005450.000000007 19.856500000000004 72922100.000000015 66349600.000000007 29.845000000000002 30.167500000000004 63.535000000000004 68.990000000000023 72.484250000000017 70.374000000000009 68.736500000000021 62.305000000000007 23215856.500000004 67.375000000000014 33239850.000000004 55.425000000000004 37.680000000000007 28376863.000000004 31695621.000000004 28241321.500000004 53.090000000000011 27662510.000000004 51.631375000000013 53.76550000000001 30623852.500000004 58.696750000000002 60.303000000000004 45.995000000000012 45.305875000000007 44175850.000000007 46.209750000000007 48.455000000000005 51.355000000000011 16626165.000000002 47.167500000000004 29371250.500000004 31369370.000000004 41319150.000000007 106.84000000000002 64.960000000000022 43761050.000000007 67291450.000000015 40320500.000000007 61.940000000000005 58.070000000000007 65.045000000000016 81731450.000000015
decision_type=2 2 2 2 2 2 2 2 2 2 2 2 2 2 2 2 2 2 2 2 2 2 2 2 2 2 2 2 2 2 2 2 2 2 2 2 2 2 2 2 2 2 2 2 2 2 2 2 2 2 2 2 2 2 2 2 2 2 2 2 2 2
left_child=1 2 5 19 -5 -1 -6 9 10 -2 -8 13 -13 -7 16 -16 -14 18 -17 -4 -21 26 27 24 25 -24 29 28 -23 31 35 32 34 -34 -22 42 45 -38 -39 40 -40 -41 43 44 -31 -33 49 -48 -49 -47 -25 -52 53 -53 -29 -18 -19 -10 59 -50 -56 -11
right_child=7 -3 3 4 6 11 8 -9 57 61 -12 12 14 -15 15 17 55 56 -20 20 21 22 23 50 -26 -27 -28 54 -30 30 -32 36 33 -35 -36 -37 37 38 39 41 -42 -43 -44 -45 -46 46 47 48 58 -51 51 52 -54 -55 60 -57 -58 -59 -60 -61 -62 -63
leaf_value=0.064797632302267649 -0.057379068740248972 -0.072764282945602915 0.034932216491874696 0.023529976522424566 -0.068148718683996717 0.020188052878410502 -0.0098855814106781001 -0.063148524067256712 0.045189025962110663 0.013982137573945922 -0.072764282945602915 -0.057379068740248972 0.11185828751864432 0.084584498700062405 -0.015732885460239158 0.023543161820378918 -0.02148023559442306 0.070477366552519988 -0.021480235594423101 -0.048147940217036604 0.018521321339497153 -0.00096661665395117446 -0.04108884193458006 0.029259202404354808 -0.052250664005130988 0.047570071017701152 -0.027036007390800913 0.10074674392588873 0.06741211314762191 0.010214987112781477 0.078523656740377534 0.033476858391368242 -0.024510656574265551 0.075493235760535071 0.093675761639589766 -0.034814087905729853 -0.0185171573030216 0.071856730584724138 -0.046971423836627162 0.081087859107936533 0.035664845739748693 -0.015419393634738203 0.049633643399212911 -0.045290686150328011 0.064237386406834601 0.004161788081166809 0.074356827893094182 0.071856730584724082 0.0080567790192310994 -0.067096046133104076 -0.012784244956614347 0.04518902596211067 0.093675761639589766 -0.028147161750076463 0.004161788081166809 0.037698097697331588 0.028738169214394541 0.0061459277566987131 0.057310709881480439 -0.046042595115251335 0.061856341351244105 -0.011223426124187134
leaf_weight=8.4996691644191724 3.2498735040426245 3.2498735040426245 29.248861536383629 49.248083099722862 2.4999026954174033 5.9997664690017682 11.499552398920057 3.9998443126678458 5.9997664690017691 23.499085336923599 3.2498735040426245 3.2498735040426245 2.9998832345008877 5.4997859299182892 14.499435633420942 19.249250754714016 2.9998832345008877 7.2497178167104748 8.9996497035026533 3.7498540431261054 3.749854043126108 9.7496205121278745 4.2498345822095889 84.746701374650002 9.7496205121278745 6.9997275471687317 8.9996497035026533 4.4998248517513302 4.4998248517513266 15.249406442046171 5.9997664690017691 18.499279946088791 5.4997859299182874 2.7498929649591446 5.4997859299182892 3.7498540431261054 33.748686388134956 4.999805390834811 8.499669164419176 3.2498735040426245 5.2497956603765479 2.7498929649591446 11.249562129378317 3.499863773584365 5.2497956603765479 3.2498735040426245 3.9998443126678458 2.4999026954174068 19.7492312937975 4.7498151212930679 17.249328598380092 5.9997664690017682 2.7498929649591437 2.4999026954174042 3.2498735040426245 22.249133989214897 19.249250754714012 354.73619247972965 2.7498929649591437 4.749815121293067 10.999571859836577 29.248861536383629
leaf_count=34 13 13 117 197 10 24 46 16 24 94 13 13 12 22 58 77 12 29 36 15 15 39 17 339 39 28 36 18 18 61 24 74 22 11 22 15 135 20 34 13 21 11 45 14 21 13 16 10 79 19 69 24 11 10 13 89 77 1419 11 19 44 117
internal_value=0.0124783 0.0137393 0.0140388 0.0122518 0.00723163 0.0261407 0.0051081 -0.00731302 0.00559583 -0.00332477 -0.0237402 0.0232134 0.0200433 0.0509864 0.022624 0.0158257 0.0392891 0.0241836 0.00919942 0.0177445 0.0163528 0.0170294 0.0227666 0.0176274 -0.0167181 0.0140767 0.0119858 0.0436738 0.0206267 0.0139234 0.0274106 0.00946898 0.0375697 0.00882397 0.0632077 0.019547 0.00532783 -0.00438555 0.0148848 0.000461547 -0.0154194 0.0368554 0.0253301 0.0139378 0.02405 0.0147591 0.00646496 0.0170398 0.00933329 -0.0381476 0.0239961 0.00834549 0.0407444 0.0236196 0.0611896 0.030667 0.0401574 0.00679529 0.00359719 -0.00243188 0.0486979 5.59277e-06
internal_weight=0 941.713 938.463 817.718 427.233 120.745 377.985 59.9977 375.485 55.9978 14.7494 112.246 100.746 11.4996 97.4962 69.2473 28.2489 54.7479 28.2489 390.485 361.236 357.486 167.243 134.245 20.9992 11.2496 190.243 32.9987 14.2494 181.243 44.9982 136.245 17.4993 8.24968 9.24964 38.9985 118.745 58.4977 24.749 19.7492 13.7495 5.99977 35.2486 23.9991 20.4992 60.2477 41.7484 33.7487 29.7488 7.99969 113.246 28.4989 11.2496 8.49967 18.7493 25.249 26.499 360.736 27.2489 24.499 14.2494 52.7479
internal_count=4007 3767 3754 3271 1709 483 1512 240 1502 224 59 449 403 46 390 277 113 219 113 1562 1445 1430 669 537 84 45 761 132 57 725 180 545 70 33 37 156 475 234 99 79 55 24 141 96 82 241 167 135 119 32 453 114 45 34 75 101 106 1443 109 98 57 211
is_linear=0
shrinkage=1


Tree=1
num_leaves=63
num_cat=0
split_feature=4 2 6 10 4 6 4 0 3 4 9 10 10 10 4 10 9 3 1 6 9 1 10 10 7 10 9 7 0 4 10 4 2 9 0 0 4 10 3 3 0 0 4 4 6 9 1 7 10 4 2 10 0 1 10 2 2 6 0 3 4 2
split_gain=9.0256 8.82069 7.60527 8.42086 7.6228 8.95609 7.58023 6.77318 7.55122 5.24955 4.99246 4.85261 6.04489 8.84763 4.87155 4.83058 4.40231 5.95953 8.82496 6.37 6.07186 5.26272 4.05568 9.53868 7.02726 5.35488 5.22396 5.72663 6.64549 4.61813 5.8094 4.90169 8.2851 7.91513 4.1885 3.96055 3.85695 4.7633 10.2871 6.5385 10.4241 10.9023 4.44978 4.20045 3.73505 7.50138 5.91168 5.32446 6.91819 5.43035 4.23655 3.6435 3.64171 7.30904 3.55559 3.54587 3.51053 11.2988 8.66737 5.47324 6.84104 7.36827
threshold=92948800.000000015 138.34500000000003 24.507000000000001 51028753.500000007 38204100.000000007 25.820750000000007 47681100.000000007 23.675000000000004 19.290000000000003 44708200.000000007 19.665000000000003 33772004.500000007 31682595.000000004 31162338.500000004 63021700.000000007 154640550.00000003 24.815000000000001 25.555000000000003 25.705000000000002 24.949000000000002 25.765000000000004 24.705000000000002 62496250.000000007 58421450.000000007 28.513750000000002 60462700.000000007 26.400000000000002 26.664375000000003 27.235000000000003 39669764.000000007 37016046.000000007 49058100.000000007 26.505000000000006 27.005000000000006 30.625000000000004 32.75500000000001 48130450.000000007 46866900.000000007 27.275000000000002 54.990000000000002 46.845000000000006 30.380000000000006 42790150.000000007 40320500.000000007 62.96200000000001 36.520000000000003 29.775000000000002 29.153500000000005 75241150.000000015 56905650.000000007 48.185000000000009 45536850.000000007 25.305000000000003 25.285000000000004 67259000.000000015 27.845000000000002 74.75500000000001 70.196000000000012 63.535000000000004 62.305000000000007 33388600.000000004 55.425000000000004
decision_type=2 2 2 2 2 2 2 2 2 2 2 2 2 2 2 2 2 2 2 2 2 2 2 2 2 2 2 2 2 2 2 2 2 2 2 2 2 2 2 2 2 2 2 2 2 2 2 2 2 2 2 2 2 2 2 2 2 2 2 2 2 2
left_child=1 2 3 -1 5 -4 9 8 -8 -5 -10 12 13 -6 16 51 21 18 19 -18 -19 -13 23 29 -25 34 -24 -28 -29 30 -22 32 -31 -34 -26 -14 37 38 -35 40 41 42 -39 -40 45 46 47 48 54 -50 -47 -2 53 -21 -30 -45 57 58 59 60 -7 -62
right_child=15 -3 4 6 11 56 7 -9 10 -11 -12 14 35 -15 -16 -17 17 20 -20 52 22 -23 26 24 25 -27 27 28 44 31 -32 -33 33 36 -36 -37 -38 39 43 -41 -42 -43 -44 55 -46 50 -48 -49 49 -51 -52 -53 -54 -55 -56 -57 -58 -59 -60 -61 61 -63
leaf_value=0.046423200400103809 -0.066417244675265386 -0.081086010994155577 0.075540591915409627 0.0071013863804755871 0.011974701866764515 -0.0035417346960614719 0.035244411882038376 0.043607201835931114 -0.071996402176243091 -0.085251891455822348 -0.0057751631127005293 0.019707325160302738 0.09883723259294519 -0.072615063064737445 0.0022903178234628973 -0.071915272699783858 0.065424364011512984 -0.045228136372180289 0.071702788439481011 0.019096039642974332 0.02714692336768651 -0.064816101610737475 -0.065492452724343828 0.063277441575693635 -0.020307488953069136 -0.041716239089000927 0.040358137128624127 -0.068243896384989025 -0.016974124227660557 0.054782256327750412 -0.054705697110263941 -0.015592391648301755 -0.062246351802595815 0.081511651750319339 0.062193288000792504 0.02682726841671846 0.038054879311691575 0.04969317028051027 0.03630323747464561 0.063067817117781741 -0.07377390718490287 0.087816600891084826 -0.019355099031523826 -0.08048396110082974 -0.060307865657971742 0.08309372010484728 -0.046132153690831616 0.063402620072873866 0.081511651750319339 -0.020307488953069122 0.0054872790413764911 -0.011849082961541135 0.017416925492502119 -0.07231620123385793 -0.083641418735831585 -0.018916490987747305 0.012516142664315914 -0.032494321701239358 0.025307530131949276 -0.037544029467985858 0.01067948506497036 0.070096817429689762
leaf_weight=18.484265953302383 3.2473263442516318 3.2457018494606009 4.4971107691526404 2.746231108903884 26.495649456977848 149.93190178275108 10.245754018425943 13.497069194912909 3.4994014054536846 3.4994597136974335 15.246875882148741 2.4992530941963178 2.749619394540785 3.4995155930519095 137.24342226982117 3.9960148334503165 2.9981105029583039 11.746684834361075 5.4981609880924216 3.7483516931533796 2.7494373321533194 6.9985962510108948 5.749526545405387 8.2498577237129229 2.4999764561653119 4.2497095167636871 4.2490327358245841 6.2499336302280417 5.9999434947967583 6.7483852356672278 10.245855301618574 78.496334046125412 5.2499274462461463 2.7499741017818442 3.999962329864502 6.2491349875926971 6.4998420476913443 2.9999717473983862 3.2484343945980063 5.49957251548767 3.7498394548892966 4.2498347461223593 10.499901115894316 2.4999119639396659 3.7499646842479697 2.9999679923057547 11.999750494956968 2.7499703466892234 2.7499741017818442 2.4999764561653137 4.2496982514858246 52.747930884361267 5.4987597316503516 5.2486942261457443 2.9999717473983765 36.248024195432663 102.47424474358559 22.239993840456009 42.467897489666939 8.9983558058738691 57.227770045399666 5.7411456555128089
leaf_count=74 13 13 18 11 106 600 41 54 14 14 61 10 11 14 549 16 12 47 22 15 11 28 23 33 10 17 17 25 24 27 41 314 21 11 16 25 26 12 13 22 15 17 42 10 15 12 48 11 11 10 17 211 22 21 12 145 410 89 170 36 229 23
internal_value=0 0.00119832 0.00148297 0.0176876 0.000232433 0.00538425 0.00678866 0.014349 0.000728064 -0.0446441 -0.0181368 -0.00401433 0.0128885 0.00210567 -0.00551755 -0.0188039 -0.00907503 -0.00798435 0.0164477 -0.000918376 -0.0100747 -0.0425747 -0.00846786 -0.00514286 0.0285666 0.00192757 -0.020334 -0.0151924 -0.020296 -0.00866701 -0.037388 -0.0064551 0.00149276 -0.00281429 0.0304622 0.0488303 0.00117335 -0.00216796 -0.0121754 0.0144176 0.00197294 0.0179754 -0.00401104 -0.0183101 -0.0128041 -0.00788982 -0.0192623 -0.000295513 -0.0125881 0.0330263 0.0376014 -0.0150136 -0.0146398 -0.034232 -0.0391966 -0.0228887 0.00457337 0.00173349 0.00461292 0.000652303 0.00226669 0.0160968
internal_weight=0 941.5 938.254 67.2191 871.035 393.578 48.7348 42.4891 28.992 6.24569 18.7463 477.456 38.9939 29.9952 438.462 59.9913 301.219 291.721 22.9921 17.4939 268.729 9.49785 256.982 200.735 18.9995 10.7496 56.2477 50.4982 46.2492 181.735 12.9953 168.74 90.2436 83.4952 6.49994 8.99875 78.2453 71.7455 44.7463 26.9991 21.4995 17.7497 13.4999 41.9964 39.9992 36.2493 28.9996 16.9998 14.2499 5.24995 7.24967 55.9953 14.4958 8.99705 8.99992 38.7479 389.081 286.607 264.367 221.899 212.901 62.9689
internal_count=4007 3767 3754 269 3485 1575 195 170 116 25 75 1910 156 120 1754 240 1205 1167 92 70 1075 38 1028 803 76 43 225 202 185 727 52 675 361 334 26 36 313 287 179 108 86 71 54 168 160 145 116 68 57 21 29 224 58 36 36 155 1557 1147 1058 888 852 252
is_linear=0
shrinkage=0.05


Tree=2
num_leaves=63
num_cat=0
split_feature=4 2 6 10 4 7 4 0 3 4 9 7 6 9 10 10 10 10 4 1 2 4 7 0 9 3 9 6 9 3 10 10 7 10 2 10 7 0 4 4 3 10 4 10 4 2 9 7 0 2 6 0 4 3 3 10 4 10 0 4 9 2
split_gain=8.14975 7.9979 6.87047 7.61712 6.88171 8.19465 6.84873 6.11918 6.8191 4.75262 4.51137 4.47607 4.67089 6.76798 4.38473 4.38158 5.46611 7.98834 4.39937 4.33358 5.38679 4.9231 4.62774 6.58302 3.97558 5.38228 8.13116 6.47333 5.48079 4.92058 3.66401 8.61475 6.35233 4.83504 4.78286 4.8742 8.09631 5.71076 5.4099 6.23211 4.72482 4.52737 4.17539 5.25206 4.42333 7.48628 7.14912 3.84977 3.5997 3.5469 9.82561 8.42785 5.08024 4.88521 4.65345 3.99048 7.27899 5.1498 4.16349 3.88567 5.90436 7.6738
threshold=92948800.000000015 138.34500000000003 24.507000000000001 51028753.500000007 38204100.000000007 25.746500000000005 47681100.000000007 23.675000000000004 19.290000000000003 44708200.000000007 19.665000000000003 25.869500000000002 29.718010000000003 30.025000000000002 154640550.00000003 33772004.500000007 31682595.000000004 31162338.500000004 63021700.000000007 29.345000000000002 27.845000000000002 33874533.000000007 27.608400000000007 27.055000000000003 24.815000000000001 25.555000000000003 25.497500000000006 24.949000000000002 25.765000000000004 24.435000000000006 62496250.000000007 58421450.000000007 28.513750000000002 60462700.000000007 25.990000000000006 77442700.000000015 26.896000000000004 33.900000000000013 50188250.000000007 54818550.000000007 30.774950000000004 65019500.000000007 39669764.000000007 37016046.000000007 49058100.000000007 26.505000000000006 27.005000000000006 30.263000000000002 32.75500000000001 74.75500000000001 70.196000000000012 63.535000000000004 17082738.500000004 78.820000000000007 62.305000000000007 29371250.500000004 31369370.000000004 17155378.000000004 81.305000000000021 33239850.000000004 55.675000000000004 53.090000000000011
decision_type=2 2 2 2 2 2 2 2 2 2 2 2 2 2 2 2 2 2 2 2 2 2 2 2 2 2 2 2 2 2 2 2 2 2 2 2 2 2 2 2 2 2 2 2 2 2 2 2 2 2 2 2 2 2 2 2 2 2 2 2 2 2
left_child=1 2 3 -1 5 -4 9 8 -8 -5 -10 -7 19 -14 -2 16 17 -6 24 20 22 -22 23 -13 29 26 27 -26 -27 -17 31 42 -33 47 -32 37 -37 40 -38 -40 -36 -39 43 -30 45 -44 -47 -34 -18 50 51 54 -52 -51 59 57 -57 -55 -59 -15 61 -61
right_child=14 -3 4 6 15 11 7 -9 10 -11 -12 12 13 49 -16 18 48 -19 -20 -21 21 -23 -24 -25 25 28 -28 -29 30 -31 34 32 33 -35 35 36 38 41 39 -41 -42 -43 44 -45 -46 46 -48 -49 -50 53 52 -53 -54 55 -56 56 -58 58 -60 60 -62 -63
leaf_value=0.044173788946281038 -0.014266180393802728 -0.077394183914321901 0.072322670091739871 0.0067473849338438559 0.011378105021581894 -0.062368985855111851 0.033509178870075505 0.041462576717372183 -0.068458675943542782 -0.081172806467843389 -0.0054861717096583579 0.050029612915091962 -0.061380083595496765 -0.0030415033290565013 -0.068568819649917803 0.019749989732525255 0.094241167345754939 -0.069016362428138994 0.0021758295559309408 0.063667144814455137 -0.068313673601882563 0.013516313632138306 0.083723300220766211 -0.040540684112744391 0.062274331234062986 -0.042978417284718233 0.060640472615384203 -0.019296834879758504 0.025795353936541011 -0.061989311085952882 -0.072053342074328855 0.060188886909255772 -0.01970749080607569 -0.039638861137704935 -0.029075756025557162 0.081397458322942873 -0.043665613677276532 -0.039277758658279031 0.07929852325611976 -0.015334568357451181 -0.098040131392529942 0.044669599746163857 0.05210588357075932 -0.052051227942592961 -0.014812963331458873 -0.059179458474959312 0.0011156688215405079 0.059407260403499612 0.02549882838388547 0.069957389779954512 0.018291886876830237 0.024057116575120652 -0.042496412387408006 -0.016381322908804473 -0.035698206975759997 -0.027259320020675656 0.026012741734313474 -0.041698985850169616 0.024193275921626085 0.011899656729935407 0.054524566781623665 -0.078804802902548973
leaf_weight=18.454927802085876 55.98366005718708 3.2308439016342154 4.4840993583202353 2.7458071112632743 26.49078290164471 2.4983066171407691 10.237686648964884 13.485680177807806 3.4962699562311199 3.4916966110467911 15.247502639889715 5.2464183717966133 3.998093530535697 136.18889240920544 3.9818131923675528 2.49913442134857 2.7397311925888044 3.4978927671909323 137.24184700846672 5.7478265762329093 2.9991927295923224 4.7475303262472153 3.4985222965478888 3.2485838681459427 2.9923982620239284 11.743520274758337 6.9858001917600623 12.991285577416418 2.7488328367471686 6.9933277368545532 3.9959203451871863 8.2397283166646975 2.4995955526828748 4.2488124966621399 25.729944333434108 2.9975178390741375 6.2455410063266736 2.4984000027179709 2.7461165338754654 4.74738909304142 2.74890112876892 4.4969974160194397 6.7404246926307669 10.230289831757544 78.49529704451561 5.2459573596715918 78.205003306269646 3.9956125617027283 6.2460392713546753 3.4987018406391135 4.2490935325622585 42.442103728652 17.98428563773632 10.495420038700102 8.9906224608421308 16.500000000000004 10.48823645710945 2.4989199340343466 58.974264979362488 34.730247542262077 7.4676046520471564 2.4996359646320334
leaf_count=74 224 13 18 11 106 10 41 54 14 14 61 21 16 545 16 10 11 14 549 23 12 19 14 13 12 47 28 52 11 28 16 33 10 17 103 12 25 10 11 19 11 18 27 41 314 21 313 16 25 14 17 170 72 42 36 66 42 10 236 139 30 10
internal_value=0 0.001139 0.00140952 0.0168186 0.00022105 0.00511655 0.00645325 0.0136389 0.00069203 -0.0424695 -0.0172324 0.00434183 0.00477305 0.00331252 -0.017872 -0.00381488 0.0122507 0.00200086 -0.00524346 0.0254596 0.0143345 -0.0181647 0.0353261 0.0153945 -0.00862561 -0.00758889 0.0156417 -0.00402542 -0.00957546 -0.0404693 -0.00804827 -0.00488761 0.0271616 0.00183261 -0.0193314 -0.0152963 0.0069452 -0.0257898 -0.00929843 0.0193453 -0.0357325 0.0146879 -0.0082367 -0.0355642 -0.00613406 0.00141936 -0.00267465 0.028961 0.0464581 0.00403701 0.000875205 0.00391414 -0.030879 0.0118926 -0.000588304 0.00983963 -0.0065566 0.0159882 0.0215147 0.00115677 0.0139485 0.00580971
internal_weight=0 941.145 937.914 67.1596 870.755 393.477 48.7046 42.4671 28.9815 6.2375 18.7438 388.993 386.494 361.006 59.9655 477.278 38.9744 29.9887 438.304 25.4881 19.7402 7.74672 11.9935 8.495 301.062 291.569 22.9695 15.9837 268.6 9.49246 256.856 200.65 18.9837 10.744 56.2067 52.2108 16.7366 35.4742 13.739 7.49351 28.4788 6.9954 181.666 12.9791 168.687 90.1914 83.451 6.49521 8.98577 357.008 254.552 232.319 22.2334 102.456 189.877 98.9568 26.9882 71.9686 61.4732 180.886 44.6975 37.2299
internal_count=4007 3767 3754 269 3485 1575 195 170 116 25 75 1557 1547 1445 240 1910 156 120 1754 102 79 31 48 34 1205 1167 92 64 1075 38 1028 803 76 43 225 209 67 142 55 30 114 28 727 52 675 361 334 26 36 1429 1019 930 89 410 760 396 108 288 246 724 179 149
is_linear=0
shrinkage=0.05


end of trees

feature_importances:
Column_10=42
Column_4=40
Column_2=17
Column_3=17
Column_0=16
Column_9=16
Column_7=11
Column_8=10
Column_6=9
Column_1=8

parameters:
[boosting: gbdt]
[objective: binary]
[metric: binary_logloss]
[tree_learner: serial]
[device_type: cpu]
[data_sample_strategy: bagging]
[data: ]
[valid: ]
[num_iterations: 10000]
[learning_rate: 0.05]
[num_leaves: 63]
[num_threads: 0]
[seed: 2]
[deterministic: 0]
[force_col_wise: 0]
[force_row_wise: 0]
[histogram_pool_size: -1]
[max_depth: -1]
[min_data_in_leaf: 10]
[min_sum_hessian_in_leaf: 0.001]
[bagging_fraction: 0.9]
[pos_bagging_fraction: 1]
[neg_bagging_fraction: 1]
[bagging_freq: 0]
[bagging_seed: 29216]
[feature_fraction: 0.9]
[feature_fraction_bynode: 1]
[feature_fraction_seed: 17795]
[extra_trees: 0]
[extra_seed: 19650]
[early_stopping_round: 0]
[early_stopping_min_delta: 0]
[first_metric_only: 0]
[max_delta_step: 0]
[lambda_l1: 0]
[lambda_l2: 0]
[linear_lambda: 0]
[min_gain_to_split: 0]
[drop_rate: 0.1]
[max_drop: 50]
[skip_drop: 0.5]
[xgboost_dart_mode: 0]
[uniform_drop: 0]
[drop_seed: 24198]
[top_rate: 0.2]
[other_rate: 0.1]
[min_data_per_group: 100]
[max_cat_threshold: 32]
[cat_l2: 10]
[cat_smooth: 10]
[max_cat_to_onehot: 4]
[top_k: 20]
[monotone_constraints: ]
[monotone_constraints_method: basic]
[monotone_penalty: 0]
[feature_contri: ]
[forcedsplits_filename: ]
[refit_decay_rate: 0.9]
[cegb_tradeoff: 1]
[cegb_penalty_split: 0]
[cegb_penalty_feature_lazy: ]
[cegb_penalty_feature_coupled: ]
[path_smooth: 0]
[interaction_constraints: ]
[verbosity: -1]
[saved_feature_importance_type: 0]
[use_quantized_grad: 0]
[num_grad_quant_bins: 4]
[quant_train_renew_leaf: 0]
[stochastic_rounding: 1]
[linear_tree: 0]
[max_bin: 255]
[max_bin_by_feature: ]
[min_data_in_bin: 3]
[bin_construct_sample_cnt: 200000]
[data_random_seed: 45]
[is_enable_sparse: 1]
[enable_bundle: 1]
[use_missing: 1]
[zero_as_missing: 0]
[feature_pre_filter: 1]
[pre_partition: 0]
[two_round: 0]
[header: 0]
[label_column: ]
[weight_column: ]
[group_column: ]
[ignore_column: ]
[categorical_feature: ]
[forcedbins_filename: ]
[precise_float_parser: 0]
[parser_config_file: ]
[objective_seed: 29484]
[num_class: 1]
[is_unbalance: 0]
[scale_pos_weight: 1]
[sigmoid: 1]
[boost_from_average: 1]
[reg_sqrt: 0]
[alpha: 0.9]
[fair_c: 1]
[poisson_max_delta_step: 0.7]
[tweedie_variance_power: 1.5]
[lambdarank_truncation_level: 30]
[lambdarank_norm: 1]
[label_gain: ]
[lambdarank_position_bias_regularization: 0]
[eval_at: ]
[multi_error_top_k: 1]
[auc_mu_weights: ]
[num_machines: 1]
[local_listen_port: 12400]
[time_out: 120]
[machine_list_filename: ]
[machines: ]
[gpu_platform_id: -1]
[gpu_device_id: -1]
[gpu_use_dp: 0]
[num_gpu: 1]

end of parameters

pandas_categorical:null
